{"learner":{"attributes":{"best_iteration":"0","best_score":"1.6107055512634483","scikit_learn":"{\"_estimator_type\": \"classifier\"}"},"feature_names":["warm_up_body_to_lower_wick_ratio","warm_up_body_to_range_ratio","warm_up_body_to_upper_wick_ratio","warm_up_body_to_wick_ratio"],"feature_types":["float","float","float","float"],"gradient_booster":{"model":{"gbtree_model_param":{"num_parallel_tree":"1","num_trees":"255"},"iteration_indptr":[0,5,10,15,20,25,30,35,40,45,50,55,60,65,70,75,80,85,90,95,100,105,110,115,120,125,130,135,140,145,150,155,160,165,170,175,180,185,190,195,200,205,210,215,220,225,230,235,240,245,250,255],"tree_info":[0,1,2,3,4,0,1,2,3,4,0,1,2,3,4,0,1,2,3,4,0,1,2,3,4,0,1,2,3,4,0,1,2,3,4,0,1,2,3,4,0,1,2,3,4,0,1,2,3,4,0,1,2,3,4,0,1,2,3,4,0,1,2,3,4,0,1,2,3,4,0,1,2,3,4,0,1,2,3,4,0,1,2,3,4,0,1,2,3,4,0,1,2,3,4,0,1,2,3,4,0,1,2,3,4,0,1,2,3,4,0,1,2,3,4,0,1,2,3,4,0,1,2,3,4,0,1,2,3,4,0,1,2,3,4,0,1,2,3,4,0,1,2,3,4,0,1,2,3,4,0,1,2,3,4,0,1,2,3,4,0,1,2,3,4,0,1,2,3,4,0,1,2,3,4,0,1,2,3,4,0,1,2,3,4,0,1,2,3,4,0,1,2,3,4,0,1,2,3,4,0,1,2,3,4,0,1,2,3,4,0,1,2,3,4,0,1,2,3,4,0,1,2,3,4,0,1,2,3,4,0,1,2,3,4,0,1,2,3,4,0,1,2,3,4,0,1,2,3,4,0,1,2,3,4],"trees":[{"base_weights":[9.006462E-4,-1.3165106E-1,1.347175E-1,-6.8064705E-2,-4.65137E-1,6.4553326E-1,6.93815E-2,-1.04806215E-1,5.6193322E-2,-7.7037825E-3,-5.581082E-2,3.4048032E-2,9.659438E-2,-1.0394715E-1,1.715528E-1,4.3082833E-2,-1.4130779E-2,7.932796E-3,-3.4688164E-2,6.385084E-2,2.211089E-3],"categories":[],"categories_nodes":[],"categories_segments":[],"categories_sizes":[],"default_left":[0,0,0,0,0,0,0,0,0,0,0,0,0,0,0,0,0,0,0,0,0],"id":0,"left_children":[1,3,5,7,9,11,13,15,-1,-1,-1,-1,-1,17,19,-1,-1,-1,-1,-1,-1],"loss_changes":[3.169477E0,1.8104826E0,2.863488E0,1.7838377E0,3.9470482E-1,5.0134563E-1,1.4493283E0,1.4645298E0,0E0,0E0,0E0,0E0,0E0,1.3942552E0,3.5035694E0,0E0,0E0,0E0,0E0,0E0,0E0],"parents":[2147483647,0,0,1,1,2,2,3,3,4,4,5,5,6,6,7,7,13,13,14,14],"right_children":[2,4,6,8,10,12,14,16,-1,-1,-1,-1,-1,18,20,-1,-1,-1,-1,-1,-1],"split_conditions":[1.6527259E0,4.2782527E-1,1.9453682E0,4.030612E-1,1.0876737E0,5.1902175E-1,6.145092E-1,3.2258064E-2,5.6193322E-2,-7.7037825E-3,-5.581082E-2,3.4048032E-2,9.659438E-2,3.2007723E0,6.6774064E-1,4.3082833E-2,-1.4130779E-2,7.932796E-3,-3.4688164E-2,6.385084E-2,2.211089E-3],"split_indices":[0,1,0,1,0,1,1,2,0,0,0,0,0,0,1,0,0,0,0,0,0],"split_type":[0,0,0,0,0,0,0,0,0,0,0,0,0,0,0,0,0,0,0,0,0],"sum_hessian":[1.766692E2,8.838686E1,8.828233E1,7.5495895E1,1.2890972E1,8.830689E0,7.9451645E1,7.2273285E1,3.2226105E0,3.0525649E0,9.8384075E0,5.7402816E0,3.0904078E0,2.9095839E1,5.0355804E1,3.7469428E0,6.8526344E1,1.6733526E1,1.2362313E1,1.1252805E1,3.9103E1],"tree_param":{"num_deleted":"0","num_feature":"4","num_nodes":"21","size_leaf_vector":"1"}},{"base_weights":[-2.957455E-2,1.4124621E-2,-1.5050288E-1,-3.1453982E-2,3.7470114E-1,-2.2875026E-1,1.4036942E-1,1.00421414E-1,-9.984283E-2,1.5675716E-1,8.4499426E-2,1.4713289E-1,-3.149504E-1,4.6249766E-2,-1.5260606E-2,2.6191073E-3,6.290204E-2,-2.501519E-2,-7.331225E-5,6.184187E-2,-1.2647897E-2,-2.2760946E-2,5.518041E-2,-3.8068112E-2,-1.2355587E-2],"categories":[],"categories_nodes":[],"categories_segments":[],"categories_sizes":[],"default_left":[0,0,0,0,0,0,0,0,0,0,0,0,0,0,0,0,0,0,0,0,0,0,0,0,0],"id":1,"left_children":[1,3,5,7,9,11,13,15,17,19,-1,21,23,-1,-1,-1,-1,-1,-1,-1,-1,-1,-1,-1,-1],"loss_changes":[9.3927944E-1,2.160884E0,1.1125363E0,1.0463595E0,1.2806289E0,1.2863525E0,1.0764177E0,1.4577731E0,1.1169283E0,1.626131E0,0E0,1.2965564E0,2.9561663E-1,0E0,0E0,0E0,0E0,0E0,0E0,0E0,0E0,0E0,0E0,0E0,0E0],"parents":[2147483647,0,0,1,1,2,2,3,3,4,4,5,5,6,6,7,7,8,8,9,9,11,11,12,12],"right_children":[2,4,6,8,10,12,14,16,18,20,-1,22,24,-1,-1,-1,-1,-1,-1,-1,-1,-1,-1,-1,-1],"split_conditions":[6.4545155E-1,3.9481792E0,8.4489995E-1,5.995763E-1,6.072226E-1,3.2297297E0,8.6564523E-1,2.5962964E-1,3.5599926E-1,6.9626865E0,8.4499426E-2,2.5685072E0,9.315385E0,4.6249766E-2,-1.5260606E-2,2.6191073E-3,6.290204E-2,-2.501519E-2,-7.331225E-5,6.184187E-2,-1.2647897E-2,-2.2760946E-2,5.518041E-2,-3.8068112E-2,-1.2355587E-2],"split_indices":[1,2,1,2,1,2,1,1,1,2,0,2,2,0,0,0,0,0,0,0,0,0,0,0,0],"split_type":[0,0,0,0,0,0,0,0,0,0,0,0,0,0,0,0,0,0,0,0,0,0,0,0,0],"sum_hessian":[1.7376044E2,1.2767832E2,4.6082115E1,1.1391442E2,1.3763896E1,3.6752666E1,9.329448E0,3.824169E1,7.567273E1,1.0461679E1,3.302217E0,6.5078154E0,3.0244852E1,4.3306146E0,4.998833E0,3.461894E1,3.6227565E0,2.9063011E1,4.660972E1,3.6621714E0,6.7995076E0,3.4777267E0,3.0300884E0,2.1388071E1,8.856781E0],"tree_param":{"num_deleted":"0","num_feature":"4","num_nodes":"25","size_leaf_vector":"1"}},{"base_weights":[-4.943155E-2,-1.1321716E-1,1.4512768E-1,-2.794644E-2,-3.600099E-1,3.5528985E-1,-2.5568935E-1,-7.315043E-2,8.840581E-2,-2.7126467E-1,-5.4745603E-2,9.1191995E-1,5.600914E-2,-5.541078E-2,2.8921897E-2,-2.48507E-4,-3.9198313E-2,-3.7030194E-2,3.116027E-2,2.2923687E-2,1.6392957E-1,-1.8217472E-2,9.210774E-2],"categories":[],"categories_nodes":[],"categories_segments":[],"categories_sizes":[],"default_left":[0,0,0,0,0,0,0,0,0,0,0,0,0,0,0,0,0,0,0,0,0,0,0],"id":2,"left_children":[1,3,5,7,9,11,13,15,-1,17,-1,19,21,-1,-1,-1,-1,-1,-1,-1,-1,-1,-1],"loss_changes":[2.158025E0,2.7101216E0,3.6995678E0,4.0576816E0,3.2324934E-1,4.6180468E0,2.644318E0,2.1041198E0,0E0,1.560437E0,0E0,4.314249E0,4.3188453E0,0E0,0E0,0E0,0E0,0E0,0E0,0E0,0E0,0E0,0E0],"parents":[2147483647,0,0,1,1,2,2,3,3,4,4,5,5,6,6,7,7,9,9,11,11,12,12],"right_children":[2,4,6,8,10,12,14,16,-1,18,-1,20,22,-1,-1,-1,-1,-1,-1,-1,-1,-1,-1],"split_conditions":[5.070281E0,3.2705882E0,1.3139896E1,2.8020833E0,3.24E0,2.685864E0,6.9626865E0,4.4038716E-1,8.840581E-2,3.0512822E0,-5.4745603E-2,7.217143E0,1.2266666E1,-5.541078E-2,2.8921897E-2,-2.48507E-4,-3.9198313E-2,-3.7030194E-2,3.116027E-2,2.2923687E-2,1.6392957E-1,-1.8217472E-2,9.210774E-2],"split_indices":[0,2,0,2,0,2,2,1,0,0,0,0,0,0,0,0,0,0,0,0,0,0,0],"split_type":[0,0,0,0,0,0,0,0,0,0,0,0,0,0,0,0,0,0,0,0,0,0,0],"sum_hessian":[1.7182608E2,1.3010399E2,4.17221E1,9.7823044E1,3.228094E1,2.7608887E1,1.41132145E1,9.41842E1,3.6388502E0,2.3931404E1,8.349535E0,8.821209E0,1.8787678E1,9.226801E0,4.8864136E0,7.817836E1,1.6005838E1,2.091407E1,3.0173354E0,5.299741E0,3.5214686E0,1.52599E1,3.5277772E0],"tree_param":{"num_deleted":"0","num_feature":"4","num_nodes":"23","size_leaf_vector":"1"}},{"base_weights":[-1.05230315E-2,-5.962071E-2,8.798872E-2,-2.8995125E-2,-4.504275E-2,1.6759485E-1,-1.8303862E-1,-5.7959378E-2,3.885966E-1,6.423613E-2,5.585771E-1,-5.0750177E-2,6.004102E-2,1.593729E-2,-1.0497029E-2,7.885243E-3,5.6334127E-2,3.2174315E-2,-3.4637668E-3,9.284591E-2,6.044121E-3,3.0145934E-2,-1.6365312E-2],"categories":[],"categories_nodes":[],"categories_segments":[],"categories_sizes":[],"default_left":[0,0,0,0,0,0,0,0,0,0,0,0,0,0,0,0,0,0,0,0,0,0,0],"id":3,"left_children":[1,3,5,7,-1,9,11,13,15,17,19,-1,21,-1,-1,-1,-1,-1,-1,-1,-1,-1,-1],"loss_changes":[8.745824E-1,1.3946105E0,1.3173072E0,1.369362E0,0E0,1.7994606E0,1.159532E0,1.1124847E0,2.867874E-1,1.0193722E0,1.5927732E0,0E0,5.2634704E-1,0E0,0E0,0E0,0E0,0E0,0E0,0E0,0E0,0E0,0E0],"parents":[2147483647,0,0,1,1,2,2,3,3,5,5,6,6,7,7,8,8,9,9,10,10,12,12],"right_children":[2,4,6,8,-1,10,12,14,16,18,20,-1,22,-1,-1,-1,-1,-1,-1,-1,-1,-1,-1],"split_conditions":[3.0174603E0,2.685864E0,4.659122E0,2.2764976E0,-4.504275E-2,3.1009035E0,5.7879233E0,2.9331228E-1,1.8811953E0,1.3434992E0,7.9369864E0,-5.0750177E-2,1.28375E1,1.593729E-2,-1.0497029E-2,7.885243E-3,5.6334127E-2,3.2174315E-2,-3.4637668E-3,9.284591E-2,6.044121E-3,3.0145934E-2,-1.6365312E-2],"split_indices":[2,2,3,2,0,3,3,2,0,0,0,0,2,0,0,0,0,0,0,0,0,0,0],"split_type":[0,0,0,0,0,0,0,0,0,0,0,0,0,0,0,0,0,0,0,0,0,0,0],"sum_hessian":[1.7932411E2,1.2061846E2,5.870564E1,1.1308651E2,7.531954E0,4.595758E1,1.274806E1,1.06780846E2,6.3056684E0,3.747174E1,8.48584E0,5.1703086E0,7.577751E0,1.8186596E1,8.8594246E1,3.004154E0,3.3015141E0,1.0051338E1,2.7420403E1,4.2588735E0,4.2269664E0,3.6922972E0,3.8854542E0],"tree_param":{"num_deleted":"0","num_feature":"4","num_nodes":"23","size_leaf_vector":"1"}},{"base_weights":[2.6704773E-2,2.0101053E-1,-4.7336675E-2,1.6151987E-2,9.6060175E-1,-3.3755925E-1,7.309391E-2,6.959356E-2,-4.5892313E-2,1.399952E-1,4.216455E-2,-1.358352E-1,-5.800832E-2,1.7600618E-1,-2.3689832E-1,-2.8553472E-3,3.611281E-2,-3.9014228E-2,1.2944675E-2,6.7451596E-3,7.5103596E-2,-5.665762E-2,1.5755722E-2],"categories":[],"categories_nodes":[],"categories_segments":[],"categories_sizes":[],"default_left":[0,0,0,0,0,0,0,0,0,0,0,0,0,0,0,0,0,0,0,0,0,0,0],"id":4,"left_children":[1,3,5,7,9,11,13,15,-1,-1,-1,17,-1,19,21,-1,-1,-1,-1,-1,-1,-1,-1],"loss_changes":[2.2930722E0,7.3275733E0,4.376685E0,1.1035497E0,1.6544065E0,1.6458497E0,2.8443482E0,1.1988616E0,0E0,0E0,0E0,1.5320661E0,0E0,4.044466E0,3.0077486E0,0E0,0E0,0E0,0E0,0E0,0E0,0E0,0E0],"parents":[2147483647,0,0,1,1,2,2,3,3,4,4,5,5,6,6,7,7,11,11,13,13,14,14],"right_children":[2,4,6,8,10,12,14,16,-1,-1,-1,18,-1,20,22,-1,-1,-1,-1,-1,-1,-1,-1],"split_conditions":[2.6476377E-1,2.3620823E-1,4.4038716E-1,2.1282052E-1,2.5E-1,3.756665E-1,7.39881E-1,1.745283E-1,-4.5892313E-2,1.399952E-1,4.216455E-2,3.255167E-1,-5.800832E-2,6.923569E-1,1.1601851E1,-2.8553472E-3,3.611281E-2,-3.9014228E-2,1.2944675E-2,6.7451596E-3,7.5103596E-2,-5.665762E-2,1.5755722E-2],"split_indices":[1,1,1,1,1,1,1,1,0,0,0,1,0,1,2,0,0,0,0,0,0,0,0],"split_type":[0,0,0,0,0,0,0,0,0,0,0,0,0,0,0,0,0,0,0,0,0,0,0],"sum_hessian":[1.7474896E2,5.199051E1,1.2275846E2,4.2741585E1,9.248926E0,3.571565E1,8.704281E1,3.9376133E1,3.365449E0,4.112996E0,5.13593E0,2.0574677E1,1.5140971E1,6.5914955E1,2.1127857E1,2.9876919E1,9.499216E0,1.0456785E1,1.0117892E1,5.653368E1,9.38127E0,1.1409333E1,9.718523E0],"tree_param":{"num_deleted":"0","num_feature":"4","num_nodes":"23","size_leaf_vector":"1"}},{"base_weights":[-1.8814959E-2,-1.570916E-1,1.04139835E-1,1.141567E-1,-1.8727237E-1,5.6273776E-1,3.7867274E-2,-9.39957E-3,2.6534025E-2,-5.2798457E-2,-1.466608E-1,9.310361E-2,1.240886E-2,-1.858839E-1,1.762994E-1,5.556024E-2,-2.046493E-2,1.5598057E-3,-3.925663E-2,3.197367E-2,-2.4661211E-2],"categories":[],"categories_nodes":[],"categories_segments":[],"categories_sizes":[],"default_left":[0,0,0,0,0,0,0,0,0,0,0,0,0,0,0,0,0,0,0,0,0],"id":5,"left_children":[1,3,5,7,9,11,13,-1,-1,-1,15,-1,-1,17,19,-1,-1,-1,-1,-1,-1],"loss_changes":[3.0608943E0,7.238791E-1,2.8010802E0,3.187561E-1,9.2229676E-1,1.6711364E0,2.6376407E0,0E0,0E0,0E0,2.9520264E0,0E0,0E0,1.3916271E0,3.2868147E0,0E0,0E0,0E0,0E0,0E0,0E0],"parents":[2147483647,0,0,1,1,2,2,3,3,4,4,5,5,6,6,10,10,13,13,14,14],"right_children":[2,4,6,8,10,12,14,-1,-1,-1,16,-1,-1,18,20,-1,-1,-1,-1,-1,-1],"split_conditions":[1.6424419E0,8.684864E-2,1.9453682E0,1.8905472E-2,8.442669E-2,4.9054223E-1,6.145092E-1,-9.39957E-3,2.6534025E-2,-5.2798457E-2,1.0595358E-1,9.310361E-2,1.240886E-2,3.2007723E0,7.964264E-1,5.556024E-2,-2.046493E-2,1.5598057E-3,-3.925663E-2,3.197367E-2,-2.4661211E-2],"split_indices":[0,0,0,0,1,1,1,0,0,0,1,0,0,0,1,0,0,0,0,0,0],"split_type":[0,0,0,0,0,0,0,0,0,0,0,0,0,0,0,0,0,0,0,0,0],"sum_hessian":[1.7776012E2,8.391915E1,9.3840965E1,7.7921095E0,7.6127045E1,1.0712387E1,8.312858E1,3.1592348E0,4.632875E0,6.5672956E0,6.9559746E1,5.089046E0,5.623341E0,3.1365923E1,5.1762653E1,4.5196238E0,6.504012E1,1.6105934E1,1.5259989E1,3.901164E1,1.2751013E1],"tree_param":{"num_deleted":"0","num_feature":"4","num_nodes":"21","size_leaf_vector":"1"}},{"base_weights":[1.1926891E-2,2.1282235E-1,-3.7993398E-2,5.4989446E-2,5.4400325E-1,-1.6424222E-1,2.3761442E-2,1.7984244E-1,-4.79632E-2,9.232571E-2,1.0444755E-2,-2.8930375E-1,1.2692213E-1,6.74965E-2,-1.2847508E-2,-3.467169E-2,3.0665109E-2,-1.936917E-2,-4.352821E-2,3.0978251E-2,-2.1140482E-2,4.9677897E-2,-6.19775E-3],"categories":[],"categories_nodes":[],"categories_segments":[],"categories_sizes":[],"default_left":[0,0,0,0,0,0,0,0,0,0,0,0,0,0,0,0,0,0,0,0,0,0,0],"id":6,"left_children":[1,3,5,7,9,11,13,15,-1,-1,-1,17,19,-1,21,-1,-1,-1,-1,-1,-1,-1,-1],"loss_changes":[1.8024727E0,1.7822695E0,1.1279044E0,1.7632027E0,1.674967E0,1.7797645E0,2.3621726E0,1.5452487E0,0E0,0E0,0E0,3.2341337E-1,9.849861E-1,0E0,2.2826157E0,0E0,0E0,0E0,0E0,0E0,0E0,0E0,0E0],"parents":[2147483647,0,0,1,1,2,2,3,3,4,4,5,5,6,6,7,7,11,11,12,12,14,14],"right_children":[2,4,6,8,10,12,14,16,-1,-1,-1,18,20,-1,22,-1,-1,-1,-1,-1,-1,-1,-1],"split_conditions":[5.995763E-1,4.2725173E-1,1.5283018E0,3.639679E-1,5.132987E-1,2.039906E0,1.679941E0,3.0364372E-2,-4.79632E-2,9.232571E-2,1.0444755E-2,1.1721001E0,1.2093596E0,6.74965E-2,9.1756755E-1,-3.467169E-2,3.0665109E-2,-1.936917E-2,-4.352821E-2,3.0978251E-2,-2.1140482E-2,4.9677897E-2,-6.19775E-3],"split_indices":[2,2,2,2,2,0,2,0,0,0,0,0,2,0,0,0,0,0,0,0,0,0,0],"split_type":[0,0,0,0,0,0,0,0,0,0,0,0,0,0,0,0,0,0,0,0,0,0,0],"sum_hessian":[1.7618085E2,3.4814785E1,1.4136606E2,2.4572235E1,1.024255E1,4.6422234E1,9.4943825E1,2.060978E1,3.9624557E0,4.785569E0,5.45698E0,3.271868E1,1.3703555E1,4.270695E0,9.067313E1,3.510411E0,1.709937E1,2.1589802E1,1.1128878E1,9.142253E0,4.5613017E0,6.99253E0,8.3680595E1],"tree_param":{"num_deleted":"0","num_feature":"4","num_nodes":"23","size_leaf_vector":"1"}},{"base_weights":[2.4223827E-2,8.188751E-2,-4.236109E-1,3.6065564E-2,7.6203126E-1,-5.7692476E-2,1.6378168E-2,1.2503843E-1,-3.2181337E-1,2.9526297E-2,1.1456676E-1,-8.266154E-3,3.8502265E-2,-4.4124797E-2,-2.0879762E-2],"categories":[],"categories_nodes":[],"categories_segments":[],"categories_sizes":[],"default_left":[0,0,0,0,0,0,0,0,0,0,0,0,0,0,0],"id":7,"left_children":[1,3,5,7,9,-1,-1,11,13,-1,-1,-1,-1,-1,-1],"loss_changes":[4.532637E0,4.7706566E0,1.9354868E0,4.7275586E0,1.2531276E0,0E0,0E0,6.5060587E0,2.4091578E-1,0E0,0E0,0E0,0E0,0E0,0E0],"parents":[2147483647,0,0,1,1,2,2,3,3,4,4,7,7,8,8],"right_children":[2,4,6,8,10,-1,-1,12,14,-1,-1,-1,-1,-1,-1],"split_conditions":[1.1423424E1,3.449452E0,3.9878048E1,3.2705882E0,7.936E0,-5.7692476E-2,1.6378168E-2,5.7419354E-1,4.794737E0,2.9526297E-2,1.1456676E-1,-8.266154E-3,3.8502265E-2,-4.4124797E-2,-2.0879762E-2],"split_indices":[2,3,2,2,2,0,0,3,2,0,0,0,0,0,0],"split_type":[0,0,0,0,0,0,0,0,0,0,0,0,0,0,0],"sum_hessian":[1.7450172E2,1.5551755E2,1.8984165E1,1.468258E2,8.691745E0,1.5203898E1,3.7802665E0,1.1833611E2,2.8489697E1,4.8369546E0,3.85479E0,6.594802E1,5.2388096E1,1.2009239E1,1.6480457E1],"tree_param":{"num_deleted":"0","num_feature":"4","num_nodes":"15","size_leaf_vector":"1"}},{"base_weights":[1.1063202E-2,-2.7972277E-2,2.3404528E-1,1.21331535E-1,-1.13118865E-1,5.103786E-1,-8.9780234E-2,3.2343052E-2,4.1181174E-1,-3.7899262E-1,-8.273843E-2,1.5292974E-1,1.131532E-1,-4.758435E-2,1.2917836E-1,1.7223416E-2,-8.077273E-3,6.268132E-2,-1.0483469E-2,-4.9818415E-2,-1.1738924E-2,-1.1021329E-2,1.0630224E-2,5.5468805E-2,-9.629904E-3,2.3201177E-2,1.2658272E-3],"categories":[],"categories_nodes":[],"categories_segments":[],"categories_sizes":[],"default_left":[0,0,0,0,0,0,0,0,0,0,0,0,0,0,0,0,0,0,0,0,0,0,0,0,0,0,0],"id":8,"left_children":[1,3,5,7,9,11,13,15,17,19,21,23,-1,-1,25,-1,-1,-1,-1,-1,-1,-1,-1,-1,-1,-1,-1],"loss_changes":[1.5403273E0,1.9001825E0,2.4491558E0,1.3373966E0,6.9373274E-1,2.9299738E0,1.180982E0,6.9816107E-1,1.485079E0,1.6604507E-1,4.6558124E-1,1.1502657E0,0E0,0E0,7.816242E-2,0E0,0E0,0E0,0E0,0E0,0E0,0E0,0E0,0E0,0E0,0E0,0E0],"parents":[2147483647,0,0,1,1,2,2,3,3,4,4,5,5,6,6,7,7,8,8,9,9,10,10,11,11,14,14],"right_children":[2,4,6,8,10,12,14,16,18,20,22,24,-1,-1,26,-1,-1,-1,-1,-1,-1,-1,-1,-1,-1,-1,-1],"split_conditions":[7.4971266E0,8.913934E-1,8.2329416E-1,6.4324325E-1,1.0267459E0,7.30916E-1,8.5267955E-1,2.9331228E-1,3.647541E-1,3.820059E-1,6.966708E-1,5.8379257E-1,1.131532E-1,-4.758435E-2,1.28375E1,1.7223416E-2,-8.077273E-3,6.268132E-2,-1.0483469E-2,-4.9818415E-2,-1.1738924E-2,-1.1021329E-2,1.0630224E-2,5.5468805E-2,-9.629904E-3,2.3201177E-2,1.2658272E-3],"split_indices":[2,2,1,2,2,1,1,2,1,1,1,1,0,0,2,0,0,0,0,0,0,0,0,0,0,0,0],"split_type":[0,0,0,0,0,0,0,0,0,0,0,0,0,0,0,0,0,0,0,0,0,0,0,0,0,0,0],"sum_hessian":[1.728438E2,1.4745607E2,2.538773E1,5.297153E1,9.448454E1,1.3554147E1,1.1833583E1,4.166353E1,1.13080015E1,8.174971E0,8.630957E1,9.4964905E0,4.057657E0,4.023292E0,7.8102903E0,1.8788754E1,2.2874773E1,7.971146E0,3.336856E0,4.732257E0,3.4427137E0,7.6183205E1,1.0126368E1,3.3200958E0,6.1763945E0,3.1664145E0,4.643876E0],"tree_param":{"num_deleted":"0","num_feature":"4","num_nodes":"27","size_leaf_vector":"1"}},{"base_weights":[3.8839333E-2,3.1867394E-1,-1.1194878E-1,1.503608E-1,9.6574E-1,-3.6461112E-1,6.4800985E-2,2.5206006E-1,-5.199306E-2,1.11982E-1,3.952549E-2,-5.383495E-1,-2.3870861E-2,4.2911807E-1,-2.7745157E-1,-6.8957456E-3,5.5004157E-2,-3.1532582E-2,-5.927668E-2,6.396956E-2,-2.7953198E-2,6.464746E-3,9.1877975E-2,-3.9614733E-2,1.7042937E-2],"categories":[],"categories_nodes":[],"categories_segments":[],"categories_sizes":[],"default_left":[0,0,0,0,0,0,0,0,0,0,0,0,0,0,0,0,0,0,0,0,0,0,0,0,0],"id":9,"left_children":[1,3,5,7,9,11,13,15,-1,-1,-1,17,19,21,23,-1,-1,-1,-1,-1,-1,-1,-1,-1,-1],"loss_changes":[7.5789323E0,6.595634E0,5.2500005E0,3.5970545E0,5.20525E-1,2.7889948E0,8.747859E0,4.4184494E0,0E0,0E0,0E0,1.0741234E-1,3.1191566E0,5.9094706E0,2.0084238E0,0E0,0E0,0E0,0E0,0E0,0E0,0E0,0E0,0E0,0E0],"parents":[2147483647,0,0,1,1,2,2,3,3,4,4,5,5,6,6,7,7,11,11,12,12,13,13,14,14],"right_children":[2,4,6,8,10,12,14,16,-1,-1,-1,18,20,22,24,-1,-1,-1,-1,-1,-1,-1,-1,-1,-1],"split_conditions":[1.0609137E0,8.3668005E-1,2.1995306E0,3.9605543E-1,1.3975409E0,3.2864583E0,3.7413793E0,1.7667536E-1,-5.199306E-2,1.11982E-1,3.952549E-2,4.893617E-1,4.4962215E0,2.7325256E0,1.6194174E1,-6.8957456E-3,5.5004157E-2,-3.1532582E-2,-5.927668E-2,6.396956E-2,-2.7953198E-2,6.464746E-3,9.1877975E-2,-3.9614733E-2,1.7042937E-2],"split_indices":[0,0,2,3,2,0,0,3,0,0,0,3,0,0,0,0,0,0,0,0,0,0,0,0,0],"split_type":[0,0,0,0,0,0,0,0,0,0,0,0,0,0,0,0,0,0,0,0,0,0,0,0,0],"sum_hessian":[1.7727834E2,6.191865E1,1.1535968E2,5.0237835E1,1.1680818E1,4.727844E1,6.808124E1,4.4290974E1,5.9468584E0,8.300701E0,3.3801172E0,3.073414E1,1.65443E1,3.29962E1,3.5085037E1,2.1529783E1,2.276119E1,7.7213244E0,2.3012815E1,4.074834E0,1.2469465E1,1.9682295E1,1.3313905E1,2.8002659E1,7.082379E0],"tree_param":{"num_deleted":"0","num_feature":"4","num_nodes":"25","size_leaf_vector":"1"}},{"base_weights":[1.927309E-3,3.4385137E-2,-3.6973846E-1,2.8749718E-3,1.2224261E-1,-5.509013E-2,6.243991E-4,-5.8522664E-2,2.2051288E-1,6.0584433E-2,-7.989682E-3,5.4443706E-2,-3.985629E-3],"categories":[],"categories_nodes":[],"categories_segments":[],"categories_sizes":[],"default_left":[0,0,0,0,0,0,0,0,0,0,0,0,0],"id":10,"left_children":[1,3,5,7,-1,-1,-1,9,11,-1,-1,-1,-1],"loss_changes":[2.2055259E0,6.2713842E0,1.0564778E0,2.2681372E0,0E0,0E0,0E0,1.8578086E0,3.2296343E0,0E0,0E0,0E0,0E0],"parents":[2147483647,0,0,1,1,2,2,3,3,7,7,8,8],"right_children":[2,4,6,8,-1,-1,-1,10,12,-1,-1,-1,-1],"split_conditions":[8.080808E-1,7.848549E-1,2.0290909E1,6.2404287E-1,1.2224261E-1,-5.509013E-2,6.243991E-4,2.4978466E-2,6.7803466E-1,6.0584433E-2,-7.989682E-3,5.4443706E-2,-3.985629E-3],"split_indices":[1,1,2,1,0,0,0,2,1,0,0,0,0],"split_type":[0,0,0,0,0,0,0,0,0,0,0,0,0],"sum_hessian":[1.8355292E2,1.6989262E2,1.3660298E1,1.6656154E2,3.3310857E0,9.08401E0,4.5762877E0,1.30124E2,3.6437542E1,3.057744E0,1.2706625E2,1.5922044E1,2.0515497E1],"tree_param":{"num_deleted":"0","num_feature":"4","num_nodes":"13","size_leaf_vector":"1"}},{"base_weights":[-3.0617125E-3,1.3998415E-1,-4.4062495E-2,-1.8182093E-1,2.3335148E-1,-3.541417E-1,-1.656767E-2,-3.2285478E-2,-2.5908668E-3,8.547988E-2,9.0978146E-2,2.2228498E-3,-5.2652884E-2,-3.3343866E-2,1.5089571E-2,-1.265505E-2,3.7821095E-2,-4.475262E-4,3.146562E-2],"categories":[],"categories_nodes":[],"categories_segments":[],"categories_sizes":[],"default_left":[0,0,0,0,0,0,0,0,0,0,0,0,0,0,0,0,0,0,0],"id":11,"left_children":[1,3,5,7,9,11,13,-1,-1,-1,15,-1,-1,-1,17,-1,-1,-1,-1],"loss_changes":[9.9759394E-1,1.1808716E0,1.0991341E0,1.503407E-1,2.47444E0,7.4762964E-1,1.2846854E0,0E0,0E0,0E0,1.6718526E0,0E0,0E0,0E0,6.99194E-1,0E0,0E0,0E0,0E0],"parents":[2147483647,0,0,1,1,2,2,3,3,4,4,5,5,6,6,10,10,14,14],"right_children":[2,4,6,8,10,12,14,-1,-1,-1,16,-1,-1,-1,18,-1,-1,-1,-1],"split_conditions":[5.995763E-1,3.7752416E-2,2.0509554E-1,1.076716E-2,7.761297E-2,9.386189E-1,8.519022E-1,-3.2285478E-2,-2.5908668E-3,8.547988E-2,1.8358038E-1,2.2228498E-3,-5.2652884E-2,-3.3343866E-2,2.7702703E1,-1.265505E-2,3.7821095E-2,-4.475262E-4,3.146562E-2],"split_indices":[2,1,1,1,1,2,2,0,0,0,1,0,0,0,2,0,0,0,0],"split_type":[0,0,0,0,0,0,0,0,0,0,0,0,0,0,0,0,0,0,0],"sum_hessian":[1.696768E2,3.6718403E1,1.329584E2,7.803615E0,2.8914785E1,9.5653715E0,1.23393036E2,3.1983473E0,4.6052675E0,4.3259754E0,2.458881E1,3.0962777E0,6.4690933E0,1.0628985E1,1.1276405E2,1.4112399E1,1.0476411E1,1.06462204E2,6.3018494E0],"tree_param":{"num_deleted":"0","num_feature":"4","num_nodes":"19","size_leaf_vector":"1"}},{"base_weights":[2.3211323E-2,1.4017266E-1,-1.3286299E-1,5.428414E-2,1.0128214E0,-5.5081446E-2,-6.946981E-2,-9.328218E-2,2.349215E-1,1.2314755E-1,5.177489E-2,5.343452E-1,-1.4168324E-1,6.352791E-3,-2.7420772E-2,4.116729E-2,-2.8439675E-2,6.6327274E-2,2.5770495E-2,-3.233637E-2,2.1777789E-3],"categories":[],"categories_nodes":[],"categories_segments":[],"categories_sizes":[],"default_left":[0,0,0,0,0,0,0,0,0,0,0,0,0,0,0,0,0,0,0,0,0],"id":12,"left_children":[1,3,5,7,9,-1,11,13,15,-1,-1,17,19,-1,-1,-1,-1,-1,-1,-1,-1],"loss_changes":[3.317277E0,7.642452E0,1.9540964E0,2.593854E0,1.8001652E-1,0E0,3.0310597E0,1.5484748E0,4.1439776E0,0E0,0E0,8.304119E-4,1.8867844E0,0E0,0E0,0E0,0E0,0E0,0E0,0E0,0E0],"parents":[2147483647,0,0,1,1,2,2,3,3,4,4,6,6,7,7,8,8,11,11,12,12],"right_children":[2,4,6,8,10,-1,12,14,16,-1,-1,18,20,-1,-1,-1,-1,-1,-1,-1,-1],"split_conditions":[2.225564E0,1.9342252E0,2.6632016E0,8.913934E-1,2.046841E0,-5.5081446E-2,2.89441E0,4.4186047E-1,4.804992E-1,1.2314755E-1,5.177489E-2,5.7962286E-1,6.8511397E-1,6.352791E-3,-2.7420772E-2,4.116729E-2,-2.8439675E-2,6.6327274E-2,2.5770495E-2,-3.233637E-2,2.1777789E-3],"split_indices":[2,2,2,2,2,0,2,2,1,0,0,1,1,0,0,0,0,0,0,0,0],"split_type":[0,0,0,0,0,0,0,0,0,0,0,0,0,0,0,0,0,0,0,0,0],"sum_hessian":[1.7966194E2,1.03123955E2,7.6537994E1,9.495502E1,8.168938E0,8.85969E0,6.767831E1,5.2222996E1,4.273202E1,4.4944572E0,3.6744802E0,6.3978815E0,6.1280422E1,2.8027456E1,2.4195538E1,3.217949E1,1.0552535E1,3.164155E0,3.2337267E0,2.8849207E1,3.2431217E1],"tree_param":{"num_deleted":"0","num_feature":"4","num_nodes":"21","size_leaf_vector":"1"}},{"base_weights":[1.656646E-2,3.4057254E-1,-2.046654E-2,-1.7133372E-2,5.957681E-1,-1.8605718E-1,2.6900325E-2,3.198915E-1,8.6125396E-2,1.346805E-1,-3.1983012E-1,8.327065E-2,-7.6323943E-3,8.076729E-2,-1.5056521E-2,-9.986876E-3,3.538904E-2,-5.456835E-2,-1.6433278E-2,6.2383976E-2,-3.4816586E-3],"categories":[],"categories_nodes":[],"categories_segments":[],"categories_sizes":[],"default_left":[0,0,0,0,0,0,0,0,0,0,0,0,0,0,0,0,0,0,0,0,0],"id":13,"left_children":[1,3,5,-1,7,9,11,13,-1,15,17,-1,19,-1,-1,-1,-1,-1,-1,-1,-1],"loss_changes":[2.0920057E0,2.4808235E0,1.2305214E0,0E0,5.0638103E-1,1.5588988E0,3.4369507E0,1.9776725E0,0E0,6.137071E-1,7.223239E-1,0E0,1.9583187E0,0E0,0E0,0E0,0E0,0E0,0E0,0E0,0E0],"parents":[2147483647,0,0,1,1,2,2,4,4,5,5,6,6,7,7,9,9,10,10,12,12],"right_children":[2,4,6,-1,8,10,12,14,-1,16,18,-1,20,-1,-1,-1,-1,-1,-1,-1,-1],"split_conditions":[2.9331228E-1,2.6485326E-2,2.8198937E-1,-1.7133372E-2,8.6122446E-2,1.705847E-1,3.1698686E-1,5.5199604E-2,8.6125396E-2,1.3524355E-1,2.0509554E-1,8.327065E-2,7.8417265E-1,8.076729E-2,-1.5056521E-2,-9.986876E-3,3.538904E-2,-5.456835E-2,-1.6433278E-2,6.2383976E-2,-3.4816586E-3],"split_indices":[2,1,1,0,1,1,1,1,0,1,1,0,2,0,0,0,0,0,0,0,0],"split_type":[0,0,0,0,0,0,0,0,0,0,0,0,0,0,0,0,0,0,0,0,0],"sum_hessian":[1.7010083E2,1.6884056E1,1.5321677E2,5.595865E0,1.1288192E1,3.3897408E1,1.1931937E2,6.801788E0,4.4864035E0,9.754775E0,2.4142635E1,4.0724626E0,1.152469E2,3.0918522E0,3.7099354E0,4.7551312E0,4.9996433E0,8.558866E0,1.5583769E1,3.6988006E0,1.115481E2],"tree_param":{"num_deleted":"0","num_feature":"4","num_nodes":"21","size_leaf_vector":"1"}},{"base_weights":[3.5369135E-2,1.2516412E-1,-2.199264E-1,1.7322155E-3,7.3820555E-1,-3.7794778E-1,2.765535E-1,1.58983E-1,-4.0587345E-1,-1.3305107E-2,9.770289E-1,2.654746E-1,-5.2812016E-1,9.094597E-2,-4.9758423E-2,-2.0946031E-2,3.731608E-2,-2.4149662E-2,-5.70574E-2,1.0631367E-1,4.2660587E-2,-0E0,4.738465E-2,-5.879652E-2,-2.4877418E-2],"categories":[],"categories_nodes":[],"categories_segments":[],"categories_sizes":[],"default_left":[0,0,0,0,0,0,0,0,0,0,0,0,0,0,0,0,0,0,0,0,0,0,0,0,0],"id":14,"left_children":[1,3,5,7,9,11,13,15,17,-1,19,21,23,-1,-1,-1,-1,-1,-1,-1,-1,-1,-1,-1,-1],"loss_changes":[4.0502877E0,9.841294E0,3.7111504E0,7.104925E0,4.7558727E0,3.5820518E0,6.124596E0,6.4419107E0,6.1458683E-1,0E0,2.1934128E-1,4.0158004E-1,2.5687695E-1,0E0,0E0,0E0,0E0,0E0,0E0,0E0,0E0,0E0,0E0,0E0,0E0],"parents":[2147483647,0,0,1,1,2,2,3,3,4,4,5,5,6,6,7,7,8,8,10,10,11,11,12,12],"right_children":[2,4,6,8,10,12,14,16,18,-1,20,22,24,-1,-1,-1,-1,-1,-1,-1,-1,-1,-1,-1,-1],"split_conditions":[3.7413793E0,2.7325256E0,1.1601851E1,1.4157304E0,1.1506329E0,1.1180556E0,2.0290909E1,2.2214533E-1,1.9777777E0,-1.3305107E-2,8.525E0,8.913934E-1,1.5753246E1,9.094597E-2,-4.9758423E-2,-2.0946031E-2,3.731608E-2,-2.4149662E-2,-5.70574E-2,1.0631367E-1,4.2660587E-2,-0E0,4.738465E-2,-5.879652E-2,-2.4877418E-2],"split_indices":[0,0,2,0,3,2,2,3,0,0,2,2,0,0,0,0,0,0,0,0,0,0,0,0,0],"split_type":[0,0,0,0,0,0,0,0,0,0,0,0,0,0,0,0,0,0,0,0,0,0,0,0,0],"sum_hessian":[1.7489389E2,1.3005214E2,4.4841747E1,1.0922612E2,2.0826021E1,3.4349144E1,1.0492603E1,7.943577E1,2.9790348E1,4.485725E0,1.6340298E1,6.2286077E0,2.8120537E1,5.7477937E0,4.7448096E0,2.9037905E1,5.0397865E1,1.6448057E1,1.3342292E1,1.3167252E1,3.1730454E0,3.171124E0,3.0574837E0,2.195441E1,6.1661263E0],"tree_param":{"num_deleted":"0","num_feature":"4","num_nodes":"25","size_leaf_vector":"1"}},{"base_weights":[1.8999612E-2,-1.5364434E-1,1.7720002E-1,-3.3572572E-1,-8.1883386E-2,9.644036E-2,1.2128627E-1,1.752132E-2,-4.350402E-1,6.529867E-2,-2.7118507E-1,-1.3742803E-1,2.8864402E-1,-5.584082E-2,-2.1663604E-2,-9.253128E-3,5.0507523E-2,-4.018871E-2,4.0531643E-2,-2.0157915E-2,1.8257832E-2,5.3597894E-2,3.3401835E-3],"categories":[],"categories_nodes":[],"categories_segments":[],"categories_sizes":[],"default_left":[0,0,0,0,0,0,0,0,0,0,0,0,0,0,0,0,0,0,0,0,0,0,0],"id":15,"left_children":[1,3,5,7,9,-1,11,-1,13,15,17,19,21,-1,-1,-1,-1,-1,-1,-1,-1,-1,-1],"loss_changes":[4.8726935E0,1.0417039E0,3.8810604E0,1.2855368E0,1.7853581E0,0E0,3.8811922E0,0E0,3.3974862E-1,2.5718615E0,2.6311471E0,7.6039994E-1,3.3479977E0,0E0,0E0,0E0,0E0,0E0,0E0,0E0,0E0,0E0,0E0],"parents":[2147483647,0,0,1,1,2,2,3,3,4,4,6,6,8,8,9,9,10,10,11,11,12,12],"right_children":[2,4,6,8,10,-1,12,-1,14,16,18,20,22,-1,-1,-1,-1,-1,-1,-1,-1,-1,-1],"split_conditions":[1.6424419E0,2.853598E-1,1.8269006E0,1.443769E-2,4.78294E-1,9.644036E-2,2.5685072E0,1.752132E-2,3.4812835E-1,3.6705202E-1,7.6923075E0,1.3885593E1,6.215625E0,-5.584082E-2,-2.1663604E-2,-9.253128E-3,5.0507523E-2,-4.018871E-2,4.0531643E-2,-2.0157915E-2,1.8257832E-2,5.3597894E-2,3.3401835E-3],"split_indices":[0,0,0,3,3,0,2,0,2,3,2,0,2,0,0,0,0,0,0,0,0,0,0],"split_type":[0,0,0,0,0,0,0,0,0,0,0,0,0,0,0,0,0,0,0,0,0,0,0],"sum_hessian":[1.7632317E2,8.402427E1,9.2298904E1,2.231975E1,6.1704517E1,4.9249234E0,8.7373985E1,3.3441455E0,1.8975603E1,3.478555E1,2.6918966E1,3.4155354E1,5.3218628E1,1.0838644E1,8.13696E0,2.6012291E1,8.773259E0,2.3024347E1,3.8946176E0,2.902028E1,5.135074E0,2.6270401E1,2.6948229E1],"tree_param":{"num_deleted":"0","num_feature":"4","num_nodes":"23","size_leaf_vector":"1"}},{"base_weights":[-1.2097561E-2,-3.399106E-2,4.956859E-2,-1.6375149E-2,-2.376545E-1,-3.1269785E-2,5.0457675E-2,5.483548E-4,-3.2879565E-2,-1.5177606E-3,-3.5857387E-2],"categories":[],"categories_nodes":[],"categories_segments":[],"categories_sizes":[],"default_left":[0,0,0,0,0,0,0,0,0,0,0],"id":16,"left_children":[1,3,-1,5,7,9,-1,-1,-1,-1,-1],"loss_changes":[1.8958257E0,5.703417E-1,0E0,1.1739166E0,3.1733006E-1,7.5864697E-1,0E0,0E0,0E0,0E0,0E0],"parents":[2147483647,0,0,1,1,3,3,4,4,5,5],"right_children":[2,4,-1,6,8,10,-1,-1,-1,-1,-1],"split_conditions":[2.7702703E1,1.1423424E1,4.956859E-2,8.251845E-1,6.649714E-1,7.561513E-1,5.0457675E-2,5.483548E-4,-3.2879565E-2,-1.5177606E-3,-3.5857387E-2],"split_indices":[2,2,0,1,1,1,0,0,0,0,0],"split_type":[0,0,0,0,0,0,0,0,0,0,0],"sum_hessian":[1.7216895E2,1.6613586E2,6.033089E0,1.543562E2,1.1779662E1,1.511661E2,3.1900876E0,3.1688168E0,8.610846E0,1.4537073E2,5.795376E0],"tree_param":{"num_deleted":"0","num_feature":"4","num_nodes":"11","size_leaf_vector":"1"}},{"base_weights":[-1.6092425E-2,-1.317095E-1,6.118855E-2,-2.8412594E-2,-4.1075984E-1,4.181071E-1,-9.999522E-2,-8.478867E-2,5.7973843E-2,-4.67466E-1,-1.1032701E-2,9.1794574E-1,1.6293252E-1,-2.9545522E-1,1.0450674E-1,3.2190334E-2,-1.3690789E-2,-2.4670994E-2,-5.493564E-2,4.744732E-2,1.2484833E-1,-4.859825E-2,3.373118E-2,-7.139038E-3,-4.3897506E-2,6.6916615E-2,-1.1607096E-2],"categories":[],"categories_nodes":[],"categories_segments":[],"categories_sizes":[],"default_left":[0,0,0,0,0,0,0,0,0,0,0,0,0,0,0,0,0,0,0,0,0,0,0,0,0,0,0],"id":17,"left_children":[1,3,5,7,9,11,13,15,-1,17,-1,19,21,23,25,-1,-1,-1,-1,-1,-1,-1,-1,-1,-1,-1,-1],"loss_changes":[1.5687367E0,1.9765108E0,6.0787272E0,1.8094895E0,2.0940042E-1,3.9335194E0,2.9488618E0,1.0712382E0,0E0,5.8748722E-2,0E0,8.122244E-1,2.7632732E0,1.1265185E0,4.6081653E0,0E0,0E0,0E0,0E0,0E0,0E0,0E0,0E0,0E0,0E0,0E0,0E0],"parents":[2147483647,0,0,1,1,2,2,3,3,4,4,5,5,6,6,7,7,9,9,11,11,12,12,13,13,14,14],"right_children":[2,4,6,8,10,12,14,16,-1,18,-1,20,22,24,26,-1,-1,-1,-1,-1,-1,-1,-1,-1,-1,-1,-1],"split_conditions":[1.1477901E0,7.9288167E-1,5.1118386E-1,7.364086E-1,1.0951087E0,1.6424419E0,5.757576E0,3.0364372E-2,5.7973843E-2,9.38326E-1,-1.1032701E-2,4.2140174E-1,1.8269006E0,2.7325256E0,7.384824E0,3.2190334E-2,-1.3690789E-2,-2.4670994E-2,-5.493564E-2,4.744732E-2,1.2484833E-1,-4.859825E-2,3.373118E-2,-7.139038E-3,-4.3897506E-2,6.6916615E-2,-1.1607096E-2],"split_indices":[0,0,1,0,0,0,0,0,0,0,0,1,0,0,0,0,0,0,0,0,0,0,0,0,0,0,0],"split_type":[0,0,0,0,0,0,0,0,0,0,0,0,0,0,0,0,0,0,0,0,0,0,0,0,0,0,0],"sum_hessian":[1.7288083E2,6.9497696E1,1.0338313E2,5.178753E1,1.7710169E1,3.1860039E1,7.1523094E1,4.8332115E1,3.4554126E0,1.4150466E1,3.5597029E0,9.757578E0,2.210246E1,3.659263E1,3.4930466E1,4.6843843E0,4.364773E1,5.2450223E0,8.905444E0,5.3361797E0,4.4213986E0,4.1815042E0,1.7920958E1,1.5143933E1,2.1448696E1,9.368245E0,2.5562222E1],"tree_param":{"num_deleted":"0","num_feature":"4","num_nodes":"27","size_leaf_vector":"1"}},{"base_weights":[3.0365892E-2,1.5918083E-2,4.7854852E-2,-3.7039563E-2,2.9611629E-2,3.5734662E-1,1.8108598E-4,4.489469E-3,8.9885265E-2,-2.189097E-2,4.53144E-3],"categories":[],"categories_nodes":[],"categories_segments":[],"categories_sizes":[],"default_left":[0,0,0,0,0,0,0,0,0,0,0],"id":18,"left_children":[1,3,-1,-1,5,7,9,-1,-1,-1,-1],"loss_changes":[1.0952878E0,8.9552635E-1,0E0,0E0,1.5931628E0,2.1723752E0,1.5376118E0,0E0,0E0,0E0,0E0],"parents":[2147483647,0,0,1,1,4,4,5,5,6,6],"right_children":[2,4,-1,-1,6,8,10,-1,-1,-1,-1],"split_conditions":[3.65E1,5.031056E-2,4.7854852E-2,-3.7039563E-2,2.9331228E-1,1.08833574E-1,3.1811145E-1,4.489469E-3,8.9885265E-2,-2.189097E-2,4.53144E-3],"split_indices":[2,0,0,0,2,3,3,0,0,0,0],"split_type":[0,0,0,0,0,0,0,0,0,0,0],"sum_hessian":[1.7696237E2,1.7265521E2,4.3071475E0,4.7688127E0,1.678864E2,1.26357975E1,1.5525061E2,8.816314E0,3.8194842E0,2.5482906E1,1.297677E2],"tree_param":{"num_deleted":"0","num_feature":"4","num_nodes":"11","size_leaf_vector":"1"}},{"base_weights":[-2.1438005E-3,-2.7360892E-1,4.1086826E-2,-1.2007481E-1,-5.3662557E-2,3.6742455E-1,-7.0817806E-2,-5.025075E-2,7.580079E-2,2.4305917E-1,9.457133E-2,-4.6018296E-1,6.2802464E-2,4.562239E-2,-9.816029E-3,3.8906302E-2,-2.8111557E-2,-5.1557492E-2,-0E0,2.8509352E-2,-1.3520509E-2],"categories":[],"categories_nodes":[],"categories_segments":[],"categories_sizes":[],"default_left":[0,0,0,0,0,0,0,0,0,0,0,0,0,0,0,0,0,0,0,0,0],"id":19,"left_children":[1,3,5,7,-1,9,11,-1,13,15,-1,17,19,-1,-1,-1,-1,-1,-1,-1,-1],"loss_changes":[2.115111E0,8.715017E-1,5.660852E0,1.3684139E0,0E0,2.4980083E0,6.0468106E0,0E0,8.7892777E-1,2.7272139E0,0E0,7.7118444E-1,3.8492413E0,0E0,0E0,0E0,0E0,0E0,0E0,0E0,0E0],"parents":[2147483647,0,0,1,1,2,2,3,3,5,5,6,6,8,8,9,9,11,11,12,12],"right_children":[2,4,6,8,-1,10,12,-1,14,16,-1,18,20,-1,-1,-1,-1,-1,-1,-1,-1],"split_conditions":[1.5014793E-1,9.154929E-2,9.9370277E-1,3.814433E-2,-5.3662557E-2,8.681319E-1,4.4038716E-1,-5.025075E-2,4.6444952E-2,2.8369606E-1,9.457133E-2,3.8835227E0,3.636E0,4.562239E-2,-9.816029E-3,3.8906302E-2,-2.8111557E-2,-5.1557492E-2,-0E0,2.8509352E-2,-1.3520509E-2],"split_indices":[1,1,0,0,0,0,1,0,1,1,0,0,0,0,0,0,0,0,0,0,0],"split_type":[0,0,0,0,0,0,0,0,0,0,0,0,0,0,0,0,0,0,0,0,0],"sum_hessian":[1.7629097E2,2.380328E1,1.5248769E2,1.6189505E1,7.6137753E0,3.858267E1,1.1390502E2,5.126153E0,1.1063352E1,3.3065018E1,5.5176506E0,2.8668978E1,8.5236046E1,3.1428201E0,7.9205313E0,2.6212355E1,6.852662E0,2.553751E1,3.131467E0,4.0186417E1,4.504963E1],"tree_param":{"num_deleted":"0","num_feature":"4","num_nodes":"21","size_leaf_vector":"1"}},{"base_weights":[2.7680738E-2,-4.529043E-2,1.8482599E-1,4.119272E-2,-2.8721142E-1,2.7750945E-1,-1.2672618E-1,-0E0,5.456416E-2,-4.5752373E-1,7.3276795E-2,1.6660598E-1,1.3221557E-1,-3.8761005E-1,3.880341E-2,3.2517095E-3,-4.830871E-2,-5.635793E-2,-2.7911115E-2,6.812199E-2,-3.3297684E-2,5.3605855E-2,7.296485E-3,-5.069188E-2,-8.034281E-3],"categories":[],"categories_nodes":[],"categories_segments":[],"categories_sizes":[],"default_left":[0,0,0,0,0,0,0,0,0,0,0,0,0,0,0,0,0,0,0,0,0,0,0,0,0],"id":20,"left_children":[1,3,5,7,9,11,13,15,-1,17,19,21,-1,23,-1,-1,-1,-1,-1,-1,-1,-1,-1,-1,-1],"loss_changes":[2.078263E0,2.6057746E0,1.7101796E0,1.8708293E0,2.083878E0,4.828789E0,1.9793521E0,1.337377E0,0E0,1.857152E-1,3.0248787E0,1.3457736E0,0E0,2.5496483E-1,0E0,0E0,0E0,0E0,0E0,0E0,0E0,0E0,0E0,0E0,0E0],"parents":[2147483647,0,0,1,1,2,2,3,3,4,4,5,5,6,6,7,7,9,9,10,10,11,11,13,13],"right_children":[2,4,6,8,10,12,14,16,-1,18,20,22,-1,24,-1,-1,-1,-1,-1,-1,-1,-1,-1,-1,-1],"split_conditions":[3.52451E0,1.9342252E0,8.080808E-1,1.679941E0,6.295014E-1,7.850301E-1,1.9031916E1,1.5283018E0,5.456416E-2,2.5833333E0,6.551724E-1,4.6103897E0,1.3221557E-1,1.1974843E1,3.880341E-2,3.2517095E-3,-4.830871E-2,-5.635793E-2,-2.7911115E-2,6.812199E-2,-3.3297684E-2,5.3605855E-2,7.296485E-3,-5.069188E-2,-8.034281E-3],"split_indices":[2,2,1,2,1,1,2,2,0,2,1,2,0,2,0,0,0,0,0,0,0,0,0,0,0],"split_type":[0,0,0,0,0,0,0,0,0,0,0,0,0,0,0,0,0,0,0,0,0,0,0,0,0],"sum_hessian":[1.7829062E2,1.21805214E2,5.6485413E1,9.00353E1,3.176991E1,4.3865986E1,1.2619425E1,8.4232704E1,5.802597E0,2.1581823E1,1.0188087E1,4.0790707E1,3.075279E0,8.667801E0,3.951624E0,7.986846E1,4.3642406E0,1.1830153E1,9.75167E0,3.9084933E0,6.2795944E0,7.0769067E0,3.3713802E1,5.541052E0,3.1267486E0],"tree_param":{"num_deleted":"0","num_feature":"4","num_nodes":"25","size_leaf_vector":"1"}},{"base_weights":[1.8406421E-2,-1.8057683E-2,6.026133E-1,1.3902235E-1,-5.8040854E-2,8.094236E-2,3.0870277E-3,4.960607E-2,6.356246E-2,-2.104677E-1,2.2871897E-2,1.5757423E-2,-2.6715452E-2,-2.5256693E-2,6.233591E-3,8.1856124E-2,-2.3535937E-3],"categories":[],"categories_nodes":[],"categories_segments":[],"categories_sizes":[],"default_left":[0,0,0,0,0,0,0,0,0,0,0,0,0,0,0,0,0],"id":21,"left_children":[1,3,5,7,9,-1,-1,11,-1,13,15,-1,-1,-1,-1,-1,-1],"loss_changes":[3.891381E0,1.0656939E0,1.159826E0,1.4192648E0,1.7067018E0,0E0,0E0,1.0656954E0,0E0,5.8430505E-1,3.40815E0,0E0,0E0,0E0,0E0,0E0,0E0],"parents":[2147483647,0,0,1,1,2,2,3,3,4,4,7,7,9,9,10,10],"right_children":[2,4,6,8,10,-1,-1,12,-1,14,16,-1,-1,-1,-1,-1,-1],"split_conditions":[1.7262712E1,5.2365416E-1,6.8005953E0,4.4186047E-1,1.5283018E0,8.094236E-2,3.0870277E-3,3.6231884E-1,6.356246E-2,4.4190872E-1,1.679941E0,1.5757423E-2,-2.6715452E-2,-2.5256693E-2,6.233591E-3,8.1856124E-2,-2.3535937E-3],"split_indices":[0,2,2,2,2,0,0,2,0,1,2,0,0,0,0,0,0],"split_type":[0,0,0,0,0,0,0,0,0,0,0,0,0,0,0,0,0],"sum_hessian":[1.7841693E2,1.6868607E2,9.730865E0,3.321556E1,1.354705E2,6.712286E0,3.0185788E0,2.925015E1,3.9654098E0,4.6849045E1,8.862147E1,2.2424856E1,6.825294E0,4.0967636E1,5.8814087E0,4.0857244E0,8.453574E1],"tree_param":{"num_deleted":"0","num_feature":"4","num_nodes":"17","size_leaf_vector":"1"}},{"base_weights":[1.1962079E-2,8.241935E-2,-1.7071117E-1,-1.3609289E-1,2.600434E-1,-4.298126E-1,3.962265E-2,9.7481675E-2,-3.756143E-1,8.002894E-2,2.053517E-1,-7.031904E-3,-4.8390275E-1,8.851639E-2,-1.6941813E-1,-7.1961037E-3,7.8707494E-2,-5.7507437E-2,-8.338925E-3,-4.819889E-2,2.6039932E-2,-5.544562E-2,-2.612926E-2,-5.370601E-2,5.7115764E-3],"categories":[],"categories_nodes":[],"categories_segments":[],"categories_sizes":[],"default_left":[0,0,0,0,0,0,0,0,0,0,0,0,0,0,0,0,0,0,0,0,0,0,0,0,0],"id":22,"left_children":[1,3,5,7,9,11,13,15,17,-1,19,-1,21,-1,23,-1,-1,-1,-1,-1,-1,-1,-1,-1,-1],"loss_changes":[2.2673576E0,5.0122075E0,2.7183523E0,3.2956507E0,1.8373652E0,3.419528E-1,5.111548E0,3.6129303E0,1.5725889E0,0E0,2.6051972E0,0E0,6.995773E-2,0E0,1.9880574E0,0E0,0E0,0E0,0E0,0E0,0E0,0E0,0E0,0E0,0E0],"parents":[2147483647,0,0,1,1,2,2,3,3,4,4,5,5,6,6,7,7,8,8,10,10,12,12,14,14],"right_children":[2,4,6,8,10,12,14,16,18,-1,20,-1,22,-1,24,-1,-1,-1,-1,-1,-1,-1,-1,-1,-1],"split_conditions":[3.2705882E0,9.6031743E-1,6.8064785E-1,4.4186047E-1,2.0285544E-1,4.5289046E-1,7.116873E-1,1.8013632E-1,2.9214272E-1,8.002894E-2,2.6476377E-1,-7.031904E-3,6.4545155E-1,8.851639E-2,7.785736E-1,-7.1961037E-3,7.8707494E-2,-5.7507437E-2,-8.338925E-3,-4.819889E-2,2.6039932E-2,-5.544562E-2,-2.612926E-2,-5.370601E-2,5.7115764E-3],"split_indices":[2,2,1,2,1,1,1,1,1,0,1,0,1,0,1,0,0,0,0,0,0,0,0,0,0],"split_type":[0,0,0,0,0,0,0,0,0,0,0,0,0,0,0,0,0,0,0,0,0,0,0,0,0],"sum_hessian":[1.7475764E2,1.26906075E2,4.785157E1,5.6755978E1,7.01501E1,2.1185722E1,2.6665848E1,2.882356E1,2.7932417E1,5.027468E0,6.5122635E1,3.3133519E0,1.7872372E1,4.739438E0,2.1926409E1,2.3740757E1,5.0828023E0,1.5822528E1,1.2109888E1,4.11901E0,6.100362E1,1.2098111E1,5.7742605E0,8.005288E0,1.3921121E1],"tree_param":{"num_deleted":"0","num_feature":"4","num_nodes":"25","size_leaf_vector":"1"}},{"base_weights":[-3.9617985E-2,-7.53741E-2,1.8187667E-1,1.9832142E-2,-1.264086E-1,4.0702882E-1,-1.0383193E-1,-3.756627E-2,6.878493E-2,-3.1557524E-1,-8.58392E-2,4.1208524E-2,6.968794E-1,-4.3901104E-2,5.4684967E-2,5.079321E-2,8.454867E-4,-7.801447E-3,-3.5577994E-2,3.5805874E-2,-1.2774463E-2,-9.228273E-3,1.7895414E-2,9.559365E-2,2.2062689E-2,1.5990999E-2,-3.060987E-3],"categories":[],"categories_nodes":[],"categories_segments":[],"categories_sizes":[],"default_left":[0,0,0,0,0,0,0,0,0,0,0,0,0,0,0,0,0,0,0,0,0,0,0,0,0,0,0],"id":23,"left_children":[1,3,5,7,9,11,13,-1,15,17,19,21,23,-1,25,-1,-1,-1,-1,-1,-1,-1,-1,-1,-1,-1,-1],"loss_changes":[1.4370697E0,7.7597505E-1,1.685369E0,1.0593691E0,7.2343993E-1,1.4265387E0,6.8146056E-1,0E0,1.2683346E0,9.490764E-2,1.6344081E0,1.6474974E-1,6.375234E-1,0E0,9.498025E-2,0E0,0E0,0E0,0E0,0E0,0E0,0E0,0E0,0E0,0E0,0E0,0E0],"parents":[2147483647,0,0,1,1,2,2,3,3,4,4,5,5,6,6,8,8,9,9,10,10,11,11,12,12,14,14],"right_children":[2,4,6,8,10,12,14,-1,16,18,20,22,24,-1,26,-1,-1,-1,-1,-1,-1,-1,-1,-1,-1,-1,-1],"split_conditions":[8.744445E0,8.913934E-1,8.2329416E-1,2.1104904E-2,1.1833333E0,6.616757E-1,8.5267955E-1,-3.756627E-2,6.1363637E-2,2.2351624E-1,1.3057692E0,5.4163486E-1,2.0666666E1,-4.3901104E-2,1.3445455E1,5.079321E-2,8.454867E-4,-7.801447E-3,-3.5577994E-2,3.5805874E-2,-1.2774463E-2,-9.228273E-3,1.7895414E-2,9.559365E-2,2.2062689E-2,1.5990999E-2,-3.060987E-3],"split_indices":[2,2,1,1,2,1,1,0,1,1,2,1,2,0,2,0,0,0,0,0,0,0,0,0,0,0,0],"split_type":[0,0,0,0,0,0,0,0,0,0,0,0,0,0,0,0,0,0,0,0,0,0,0,0,0,0,0],"sum_hessian":[1.8006685E2,1.5599551E2,2.4071335E1,5.3968246E1,1.0202726E2,1.3420619E1,1.0650717E1,4.9841337E0,4.898411E1,1.6384804E1,8.5642456E1,6.5902476E0,6.8303714E0,3.0541556E0,7.596561E0,4.8202653E0,4.416385E1,3.1572134E0,1.3227591E1,6.5308943E0,7.9111565E1,3.1457398E0,3.4445078E0,3.635608E0,3.1947637E0,3.5341845E0,4.062376E0],"tree_param":{"num_deleted":"0","num_feature":"4","num_nodes":"27","size_leaf_vector":"1"}},{"base_weights":[-1.593003E-2,5.545101E-2,-2.3908201E-1,-6.1285753E-2,6.016853E-1,-3.629576E-1,1.8123326E-1,6.865756E-2,-4.5083037E-1,-2.3097612E-3,7.137958E-1,-4.6092287E-1,3.466404E-2,9.823536E-2,-4.9908515E-2,-2.4790777E-2,1.5239452E-2,-2.7096262E-2,-5.6862123E-2,8.604721E-2,-4.954656E-4,-0E0,-5.146736E-2],"categories":[],"categories_nodes":[],"categories_segments":[],"categories_sizes":[],"default_left":[0,0,0,0,0,0,0,0,0,0,0,0,0,0,0,0,0,0,0,0,0,0,0],"id":24,"left_children":[1,3,5,7,9,11,13,15,17,-1,19,21,-1,-1,-1,-1,-1,-1,-1,-1,-1,-1,-1],"loss_changes":[2.8659518E0,8.717501E0,2.356745E0,5.7496667E0,1.7711515E0,2.550857E0,6.2175217E0,2.2768111E0,3.6357307E-1,0E0,2.2584286E0,7.946348E-1,0E0,0E0,0E0,0E0,0E0,0E0,0E0,0E0,0E0,0E0,0E0],"parents":[2147483647,0,0,1,1,2,2,3,3,4,4,5,5,6,6,7,7,8,8,10,10,11,11],"right_children":[2,4,6,8,10,12,14,16,18,-1,20,22,-1,-1,-1,-1,-1,-1,-1,-1,-1,-1,-1],"split_conditions":[4.4962215E0,2.7325256E0,1.28375E1,1.5013477E0,1.279661E0,2.8839285E1,2.0290909E1,3.101204E-1,1.926282E0,-2.3097612E-3,3.7413793E0,9.321663E-1,3.466404E-2,9.823536E-2,-4.9908515E-2,-2.4790777E-2,1.5239452E-2,-2.7096262E-2,-5.6862123E-2,8.604721E-2,-4.954656E-4,-0E0,-5.146736E-2],"split_indices":[0,0,2,0,2,0,2,2,0,0,0,3,0,0,0,0,0,0,0,0,0,0,0],"split_type":[0,0,0,0,0,0,0,0,0,0,0,0,0,0,0,0,0,0,0,0,0,0,0],"sum_hessian":[1.7693732E2,1.3428584E2,4.2651478E1,1.1122126E2,2.3064573E1,3.323177E1,9.419707E0,8.3825874E1,2.7395386E1,3.494119E0,1.9570456E1,2.9632195E1,3.5995753E0,4.189417E0,5.2302904E0,1.687513E1,6.6950745E1,1.2483023E1,1.4912363E1,1.6205359E1,3.3650956E0,3.0642555E0,2.656794E1],"tree_param":{"num_deleted":"0","num_feature":"4","num_nodes":"23","size_leaf_vector":"1"}},{"base_weights":[5.1511936E-2,-5.0391607E-2,1.9797172E-1,-8.842529E-3,-5.325222E-2,2.4289005E-1,-4.7691505E-2,-3.5638016E-2,5.886249E-2,5.501001E-1,1.5986942E-1,1.5658308E-3,-4.1918065E-2,-1.1616082E-2,7.735105E-2,-3.4386136E-2,3.0453479E-2],"categories":[],"categories_nodes":[],"categories_segments":[],"categories_sizes":[],"default_left":[0,0,0,0,0,0,0,0,0,0,0,0,0,0,0,0,0],"id":25,"left_children":[1,3,5,7,-1,9,-1,11,-1,13,15,-1,-1,-1,-1,-1,-1],"loss_changes":[2.7010324E0,2.067339E0,2.3411944E0,1.5494225E0,0E0,1.635387E0,0E0,1.9313732E0,0E0,2.2843466E0,4.2582445E0,0E0,0E0,0E0,0E0,0E0,0E0],"parents":[2147483647,0,0,1,1,2,2,3,3,5,5,7,7,9,9,10,10],"right_children":[2,4,6,8,-1,10,-1,12,-1,14,16,-1,-1,-1,-1,-1,-1],"split_conditions":[5.1902175E-1,4.9054223E-1,3.65E1,5.0906734E0,-5.325222E-2,2.7607844E0,-4.7691505E-2,1.9342252E0,5.886249E-2,1.6717172E0,3.636E0,1.5658308E-3,-4.1918065E-2,-1.1616082E-2,7.735105E-2,-3.4386136E-2,3.0453479E-2],"split_indices":[1,1,2,2,0,0,0,2,0,0,0,0,0,0,0,0,0],"split_type":[0,0,0,0,0,0,0,0,0,0,0,0,0,0,0,0,0],"sum_hessian":[1.7831924E2,1.0513898E2,7.318027E1,9.792568E1,7.2132916E0,6.9352646E1,3.8276174E0,9.4782555E1,3.143126E0,1.3301416E1,5.605123E1,8.421747E1,1.0565089E1,3.3483415E0,9.953074E0,1.2044298E1,4.4006935E1],"tree_param":{"num_deleted":"0","num_feature":"4","num_nodes":"17","size_leaf_vector":"1"}},{"base_weights":[-4.6103504E-2,-8.0748595E-2,5.9272224E-1,-5.4717958E-2,-3.7169427E-1,6.966406E-2,2.720194E-2,-7.328194E-2,4.644684E-2,-4.399031E-2,-1.2208167E-2,-3.695979E-3,-2.6005624E-2],"categories":[],"categories_nodes":[],"categories_segments":[],"categories_sizes":[],"default_left":[0,0,0,0,0,0,0,0,0,0,0,0,0],"id":26,"left_children":[1,3,5,7,9,-1,-1,11,-1,-1,-1,-1,-1],"loss_changes":[3.8924756E0,1.2093549E0,1.4462471E-2,1.4954842E0,1.1667979E-1,0E0,0E0,9.875535E-1,0E0,0E0,0E0,0E0,0E0],"parents":[2147483647,0,0,1,1,2,2,3,3,4,4,7,7],"right_children":[2,4,6,8,10,-1,-1,12,-1,-1,-1,-1,-1],"split_conditions":[1.7262712E1,9.252174E0,3.1009035E0,7.9369864E0,8.744445E0,6.966406E-2,2.720194E-2,1.9413754E0,4.644684E-2,-4.399031E-2,-1.2208167E-2,-3.695979E-3,-2.6005624E-2],"split_indices":[0,0,3,0,2,0,0,3,0,0,0,0,0],"split_type":[0,0,0,0,0,0,0,0,0,0,0,0,0],"sum_hessian":[1.750248E2,1.6699821E2,8.0265875E0,1.5469002E2,1.2308193E1,4.9413724E0,3.0852146E0,1.5036504E2,4.3249755E0,8.753311E0,3.5548823E0,1.2733533E2,2.3029713E1],"tree_param":{"num_deleted":"0","num_feature":"4","num_nodes":"13","size_leaf_vector":"1"}},{"base_weights":[1.1884948E-2,-4.0133428E-2,1.8708067E-1,4.9763517E-3,-3.7089333E-1,3.9096943E-1,-2.3357984E-1,-1.6838992E-1,1.1497042E-1,-2.4326106E-3,-4.3638486E-2,2.2755903E-1,1.12815835E-1,-3.745728E-1,2.6040417E-3,2.515323E-3,-4.2606708E-2,2.2448428E-2,-1.24513535E-2,5.8290105E-2,-1.7297838E-2,-8.702934E-3,-5.0209787E-2],"categories":[],"categories_nodes":[],"categories_segments":[],"categories_sizes":[],"default_left":[0,0,0,0,0,0,0,0,0,0,0,0,0,0,0,0,0,0,0,0,0,0,0],"id":27,"left_children":[1,3,5,7,9,11,13,15,17,-1,-1,19,-1,21,-1,-1,-1,-1,-1,-1,-1,-1,-1],"loss_changes":[1.6676551E0,2.1213481E0,3.7052464E0,2.3703525E0,3.299234E-1,3.0759878E0,5.6298786E-1,2.4455857E0,2.045568E0,0E0,0E0,3.690145E0,0E0,2.4545765E-1,0E0,0E0,0E0,0E0,0E0,0E0,0E0,0E0,0E0],"parents":[2147483647,0,0,1,1,2,2,3,3,4,4,5,5,6,6,7,7,8,8,11,11,13,13],"right_children":[2,4,6,8,10,12,14,16,18,-1,-1,20,-1,22,-1,-1,-1,-1,-1,-1,-1,-1,-1],"split_conditions":[5.314815E0,6.9626865E0,1.3139896E1,8.913934E-1,9.9370277E-1,1.25E1,6.215625E0,4.4186047E-1,2.1375E0,-2.4326106E-3,-4.3638486E-2,7.116873E-1,1.12815835E-1,6.518538E-1,2.6040417E-3,2.515323E-3,-4.2606708E-2,2.2448428E-2,-1.24513535E-2,5.8290105E-2,-1.7297838E-2,-8.702934E-3,-5.0209787E-2],"split_indices":[0,2,0,2,0,0,2,2,0,0,0,1,0,1,0,0,0,0,0,0,0,0,0],"split_type":[0,0,0,0,0,0,0,0,0,0,0,0,0,0,0,0,0,0,0,0,0,0,0],"sum_hessian":[1.795531E2,1.3860054E2,4.0952557E1,1.2256718E2,1.6033367E1,2.7790947E1,1.3161612E1,4.7018814E1,7.554836E1,3.0089576E0,1.3024409E1,2.3930649E1,3.860298E0,8.492152E0,4.66946E0,2.7144608E1,1.9874205E1,5.2171158E1,2.3377205E1,1.2571788E1,1.1358861E1,3.3669536E0,5.125199E0],"tree_param":{"num_deleted":"0","num_feature":"4","num_nodes":"23","size_leaf_vector":"1"}},{"base_weights":[-1.9858692E-2,-1.0686547E-1,3.957304E-2,5.7378367E-2,-1.673952E-1,4.6454746E-1,-5.581792E-3,-1.0105435E-1,5.8855772E-2,-2.2409545E-1,1.40464E-1,7.3024236E-2,1.7140394E-2,7.9527475E-2,-1.4001364E-1,-3.5887867E-2,2.9981204E-3,-1.561462E-2,-4.6239633E-2,4.4803437E-2,-8.9916345E-3,-5.3291785E-4,3.3685338E-2,-2.3544043E-2,1.6463734E-2],"categories":[],"categories_nodes":[],"categories_segments":[],"categories_sizes":[],"default_left":[0,0,0,0,0,0,0,0,0,0,0,0,0,0,0,0,0,0,0,0,0,0,0,0,0],"id":28,"left_children":[1,3,5,7,9,11,13,15,-1,17,19,-1,-1,21,23,-1,-1,-1,-1,-1,-1,-1,-1,-1,-1],"loss_changes":[9.1748065E-1,7.3742175E-1,2.0482008E0,1.7674854E0,9.717283E-1,5.8172274E-1,1.1038221E0,5.806548E-1,0E0,6.0662127E-1,6.885637E-1,0E0,0E0,1.3088049E0,1.1400009E0,0E0,0E0,0E0,0E0,0E0,0E0,0E0,0E0,0E0,0E0],"parents":[2147483647,0,0,1,1,2,2,3,3,4,4,5,5,6,6,7,7,9,9,10,10,13,13,14,14],"right_children":[2,4,6,8,10,12,14,16,-1,18,20,-1,-1,22,24,-1,-1,-1,-1,-1,-1,-1,-1,-1,-1],"split_conditions":[1.2257054E0,2.5336322E-1,3.5980842E-1,1.9495091E-1,3.8804713E-1,1.9314721E0,5.5034966E0,2.1104904E-2,5.8855772E-2,3.1698686E-1,4.328018E-1,7.3024236E-2,1.7140394E-2,3.592511E0,8.5267955E-1,-3.5887867E-2,2.9981204E-3,-1.561462E-2,-4.6239633E-2,4.4803437E-2,-8.9916345E-3,-5.3291785E-4,3.3685338E-2,-2.3544043E-2,1.6463734E-2],"split_indices":[0,0,1,0,1,0,0,1,0,1,1,0,0,0,1,0,0,0,0,0,0,0,0,0,0],"split_type":[0,0,0,0,0,0,0,0,0,0,0,0,0,0,0,0,0,0,0,0,0,0,0,0,0],"sum_hessian":[1.7431013E2,7.1102325E1,1.032078E2,1.871642E1,5.238591E1,9.2335E0,9.39743E1,1.4895187E1,3.8212326E0,4.4742355E1,7.643554E0,3.8824131E0,5.351087E0,5.7337975E1,3.6636326E1,4.690522E0,1.0204664E1,3.6429665E1,8.31269E0,3.054686E0,4.5888677E0,4.356313E1,1.3774845E1,2.832075E1,8.315575E0],"tree_param":{"num_deleted":"0","num_feature":"4","num_nodes":"25","size_leaf_vector":"1"}},{"base_weights":[1.7608088E-2,2.1153344E-1,-1.0762256E-1,3.406196E-1,-7.5293586E-2,-4.2306197E-1,-1.1731072E-2,-9.639476E-2,5.503498E-1,-4.1439754E-1,2.998387E-1,-4.8529956E-1,-0E0,1.6615133E-1,-1.8764237E-1,1.6410416E-2,-5.117446E-2,4.0325474E-2,1.1769786E-1,-5.5452973E-2,-0E0,8.499103E-2,-3.3813238E-3,-2.567744E-2,-5.596835E-2,-1.5264692E-2,6.746786E-2,-3.4232907E-2,2.2545906E-2],"categories":[],"categories_nodes":[],"categories_segments":[],"categories_sizes":[],"default_left":[0,0,0,0,0,0,0,0,0,0,0,0,0,0,0,0,0,0,0,0,0,0,0,0,0,0,0,0,0],"id":29,"left_children":[1,3,5,7,9,11,13,15,17,19,21,23,-1,25,27,-1,-1,-1,-1,-1,-1,-1,-1,-1,-1,-1,-1,-1,-1],"loss_changes":[4.3285327E0,2.645852E0,3.212878E0,4.564893E0,2.9750323E0,6.727648E-1,2.6604295E0,1.9039179E0,2.4304686E0,7.44632E-1,2.1360555E0,1.4439392E-1,0E0,6.962787E0,2.8343244E0,0E0,0E0,0E0,0E0,0E0,0E0,0E0,0E0,0E0,0E0,0E0,0E0,0E0,0E0],"parents":[2147483647,0,0,1,1,2,2,3,3,4,4,5,5,6,6,7,7,8,8,9,9,10,10,11,11,13,13,14,14],"right_children":[2,4,6,8,10,12,14,16,18,20,22,24,-1,26,28,-1,-1,-1,-1,-1,-1,-1,-1,-1,-1,-1,-1,-1,-1],"split_conditions":[1.0609137E0,1.2059369E0,4.437086E-1,3.104027E-1,2.1995306E0,4.0853176E0,3.636E0,1.9495091E-1,1.034568E0,3.2857144E-1,3.484295E-1,3.2857144E-1,-0E0,2.78E0,1.1601851E1,1.6410416E-2,-5.117446E-2,4.0325474E-2,1.1769786E-1,-5.5452973E-2,-0E0,8.499103E-2,-3.3813238E-3,-2.567744E-2,-5.596835E-2,-1.5264692E-2,6.746786E-2,-3.4232907E-2,2.2545906E-2],"split_indices":[0,2,1,2,2,0,0,0,2,1,1,1,0,0,2,0,0,0,0,0,0,0,0,0,0,0,0,0,0],"split_type":[0,0,0,0,0,0,0,0,0,0,0,0,0,0,0,0,0,0,0,0,0,0,0,0,0,0,0,0,0],"sum_hessian":[1.7587071E2,6.9051186E1,1.06819534E2,4.7731007E1,2.1320179E1,2.3863787E1,8.295575E1,1.5499115E1,3.2231888E1,1.1282853E1,1.0037327E1,2.0751932E1,3.1118548E0,4.0991722E1,4.1964027E1,9.748928E0,5.7501874E0,2.7564505E1,4.6673856E0,8.280906E0,3.0019467E0,3.318589E0,6.7187376E0,6.519344E0,1.4232589E1,2.5505423E1,1.5486298E1,3.0832226E1,1.11318E1],"tree_param":{"num_deleted":"0","num_feature":"4","num_nodes":"29","size_leaf_vector":"1"}},{"base_weights":[-9.622853E-3,-8.350484E-2,1.52197E-1,-7.1443813E-3,-2.7045867E-1,2.0404774E-1,-4.6524767E-2,-8.372962E-2,2.4187462E-1,-4.125206E-1,5.29602E-2,1.3000157E-1,8.02673E-2,-0E0,-5.5124976E-2,8.878917E-2,6.8392134E-3,-5.524499E-2,-2.5614465E-2,3.127841E-2,-4.623862E-2,4.7777724E-2,-1.9393492E-3],"categories":[],"categories_nodes":[],"categories_segments":[],"categories_sizes":[],"default_left":[0,0,0,0,0,0,0,0,0,0,0,0,0,0,0,0,0,0,0,0,0,0,0],"id":30,"left_children":[1,3,5,7,9,11,-1,13,15,17,19,21,-1,-1,-1,-1,-1,-1,-1,-1,-1,-1,-1],"loss_changes":[2.1870766E0,1.7737333E0,1.8974564E0,1.7418072E0,1.7222953E0,2.175503E0,0E0,2.7774844E0,2.2394736E0,3.3560705E-1,1.7000128E0,2.6002474E0,0E0,0E0,0E0,0E0,0E0,0E0,0E0,0E0,0E0,0E0,0E0],"parents":[2147483647,0,0,1,1,2,2,3,3,4,4,5,5,7,7,8,8,9,9,10,10,11,11],"right_children":[2,4,6,8,10,12,-1,14,16,18,20,22,-1,-1,-1,-1,-1,-1,-1,-1,-1,-1,-1],"split_conditions":[1.6598778E0,1.7857143E0,3.65E1,1.2474645E0,4.3239436E0,2.4826923E1,-4.6524767E-2,1.0267459E0,4.1321045E-1,2.5833333E0,1.2695265E0,2.009697E0,8.02673E-2,-0E0,-5.5124976E-2,8.878917E-2,6.8392134E-3,-5.524499E-2,-2.5614465E-2,3.127841E-2,-4.623862E-2,4.7777724E-2,-1.9393492E-3],"split_indices":[3,2,2,2,2,2,0,2,0,2,3,3,0,0,0,0,0,0,0,0,0,0,0],"split_type":[0,0,0,0,0,0,0,0,0,0,0,0,0,0,0,0,0,0,0,0,0,0,0],"sum_hessian":[1.8144518E2,1.2532676E2,5.611842E1,9.0099236E1,3.5227524E1,5.2537964E1,3.5804582E0,6.9721794E1,2.0377441E1,2.449971E1,1.0727814E1,4.7986546E1,4.5514164E0,5.995001E1,9.771784E0,3.3199773E0,1.7057465E1,1.1255594E1,1.3244116E1,7.5223503E0,3.2054634E0,1.3960135E1,3.402641E1],"tree_param":{"num_deleted":"0","num_feature":"4","num_nodes":"23","size_leaf_vector":"1"}},{"base_weights":[-3.2967434E-3,-3.8916033E-2,6.8592924E-1,1.0951095E-1,-7.5937234E-2,3.7578624E-2,9.284772E-2,-1.5167932E-3,3.4119374E-1,-1.2224257E-1,1.3492836E-1,1.4645203E-2,-3.7996236E-2,1.2480429E-2,6.0626823E-2,-8.767339E-3,-3.8920738E-2,4.6564896E-2,-3.246362E-3],"categories":[],"categories_nodes":[],"categories_segments":[],"categories_sizes":[],"default_left":[0,0,0,0,0,0,0,0,0,0,0,0,0,0,0,0,0,0,0],"id":31,"left_children":[1,3,5,7,9,-1,-1,11,13,15,17,-1,-1,-1,-1,-1,-1,-1,-1],"loss_changes":[4.363541E0,9.476981E-1,1.7708778E-1,9.1215897E-1,1.3670303E0,0E0,0E0,1.4100666E0,5.022576E-1,9.742404E-1,1.4432333E0,0E0,0E0,0E0,0E0,0E0,0E0,0E0,0E0],"parents":[2147483647,0,0,1,1,2,2,3,3,4,4,7,7,8,8,9,9,10,10],"right_children":[2,4,6,8,10,-1,-1,12,14,16,18,-1,-1,-1,-1,-1,-1,-1,-1],"split_conditions":[1.7262712E1,5.132987E-1,2.2444444E0,4.958791E-1,7.6923075E0,3.7578624E-2,9.284772E-2,3.3541667E-1,4.2725173E-1,5.244076E0,1.9413754E0,1.4645203E-2,-3.7996236E-2,1.2480429E-2,6.0626823E-2,-8.767339E-3,-3.8920738E-2,4.6564896E-2,-3.246362E-3],"split_indices":[0,2,2,0,2,0,0,0,2,2,3,0,0,0,0,0,0,0,0],"split_type":[0,0,0,0,0,0,0,0,0,0,0,0,0,0,0,0,0,0,0],"sum_hessian":[1.7829106E2,1.7056488E2,7.726188E0,3.3119907E1,1.3744496E2,4.6903343E0,3.0358536E0,2.2769882E1,1.0350025E1,1.1343054E2,2.401443E1,1.662028E1,6.149602E0,6.7157807E0,3.634244E0,1.0193411E2,1.1496426E1,7.672093E0,1.6342337E1],"tree_param":{"num_deleted":"0","num_feature":"4","num_nodes":"19","size_leaf_vector":"1"}},{"base_weights":[2.7432429E-2,1.1051516E-2,6.875275E-2,6.137022E-2,-4.6618247E-1,3.0087058E-2,8.7484926E-2,-2.509405E-2,-5.4566164E-2,5.3788748E-2,8.6580694E-4],"categories":[],"categories_nodes":[],"categories_segments":[],"categories_sizes":[],"default_left":[0,0,0,0,0,0,0,0,0,0,0],"id":32,"left_children":[1,3,-1,5,7,9,-1,-1,-1,-1,-1],"loss_changes":[1.8274108E0,4.1440396E0,0E0,3.8945756E0,6.4548254E-2,1.6049967E0,0E0,0E0,0E0,0E0,0E0],"parents":[2147483647,0,0,1,1,3,3,4,4,5,5],"right_children":[2,4,-1,6,8,10,-1,-1,-1,-1,-1],"split_conditions":[7.98E1,1.0781818E1,6.875275E-2,8.525E0,6.868091E-1,1.7266609E-2,8.7484926E-2,-2.509405E-2,-5.4566164E-2,5.3788748E-2,8.6580694E-4],"split_indices":[2,2,0,2,1,1,0,0,0,0,0],"split_type":[0,0,0,0,0,0,0,0,0,0,0],"sum_hessian":[1.7516518E2,1.7206348E2,3.10169E0,1.5662967E2,1.543381E1,1.5194633E2,4.6833363E0,5.622557E0,9.811253E0,4.9876246E0,1.4695871E2],"tree_param":{"num_deleted":"0","num_feature":"4","num_nodes":"11","size_leaf_vector":"1"}},{"base_weights":[5.1714834E-2,2.0726505E-1,-7.3659215E-3,-1.3878155E-1,2.680027E-1,-4.0485304E-2,2.6999522E-2,-0E0,-2.760666E-2,5.8364546E-1,1.3461642E-1,2.230956E-3,4.9243797E-2,2.4983512E-2,1.1644047E-1,-1.4335672E-2,3.501304E-2,4.5736555E-2,-1.3126073E-3],"categories":[],"categories_nodes":[],"categories_segments":[],"categories_sizes":[],"default_left":[0,0,0,0,0,0,0,0,0,0,0,0,0,0,0,0,0,0,0],"id":33,"left_children":[1,3,5,7,9,-1,11,-1,-1,13,15,17,-1,-1,-1,-1,-1,-1,-1],"loss_changes":[1.6668048E0,1.0964191E0,1.8278888E0,1.7221993E-1,1.6572828E0,0E0,1.3396224E0,0E0,0E0,1.9389324E0,1.9701426E0,8.591513E-1,0E0,0E0,0E0,0E0,0E0,0E0,0E0],"parents":[2147483647,0,0,1,1,2,2,3,3,4,4,6,6,9,9,10,10,11,11],"right_children":[2,4,6,8,10,-1,12,-1,-1,14,16,18,-1,-1,-1,-1,-1,-1,-1],"split_conditions":[8.913934E-1,2.8417267E-2,2.5506073E-1,1.423221E-2,2.9331228E-1,-4.0485304E-2,3.65E1,-0E0,-2.760666E-2,1.2578222E-1,5.5702096E-1,3.117002E-1,4.9243797E-2,2.4983512E-2,1.1644047E-1,-1.4335672E-2,3.501304E-2,4.5736555E-2,-1.3126073E-3],"split_indices":[2,1,1,1,2,0,2,0,0,1,2,1,0,0,0,0,0,0,0],"split_type":[0,0,0,0,0,0,0,0,0,0,0,0,0,0,0,0,0,0,0],"sum_hessian":[1.7802977E2,4.8781166E1,1.2924861E2,6.8459125E0,4.1935253E1,9.658847E0,1.1958976E2,3.6033857E0,3.2425268E0,1.1231629E1,3.0703625E1,1.147053E2,4.884462E0,8.149699E0,3.0819304E0,1.3352359E1,1.7351267E1,3.017108E0,1.1168819E2],"tree_param":{"num_deleted":"0","num_feature":"4","num_nodes":"19","size_leaf_vector":"1"}},{"base_weights":[-6.03932E-3,1.6029485E-1,-1.0048537E-1,-4.3774206E-2,2.0030537E-1,-4.966054E-1,1.2365253E-2,8.0570795E-2,1.4582185E-1,-2.6712778E-1,-5.6279123E-2,2.0108102E-1,-1.8228278E-1,-4.764549E-2,2.0688979E-2,-4.655994E-2,3.4113225E-4,-7.3825517E-3,5.7335358E-2,4.3278668E-2,-2.7952759E-2],"categories":[],"categories_nodes":[],"categories_segments":[],"categories_sizes":[],"default_left":[0,0,0,0,0,0,0,0,0,0,0,0,0,0,0,0,0,0,0,0,0],"id":34,"left_children":[1,3,5,-1,7,9,11,-1,13,15,-1,17,19,-1,-1,-1,-1,-1,-1,-1,-1],"loss_changes":[2.701177E0,1.5484409E0,4.9833927E0,0E0,1.7332206E0,1.4132738E-1,3.2192948E0,0E0,2.1804943E0,4.6467388E-1,0E0,4.66707E0,2.6709523E0,0E0,0E0,0E0,0E0,0E0,0E0,0E0,0E0],"parents":[2147483647,0,0,1,1,2,2,4,4,5,5,6,6,8,8,9,9,11,11,12,12],"right_children":[2,4,6,-1,8,10,12,-1,14,16,-1,18,20,-1,-1,-1,-1,-1,-1,-1,-1],"split_conditions":[1.0297158E0,2.4978466E-2,7.869497E-1,-4.3774206E-2,2.9248426E-2,4.893617E-1,3.7413793E0,8.0570795E-2,6.939372E-2,1.4765217E0,-5.6279123E-2,2.7325256E0,1.4281915E0,-4.764549E-2,2.0688979E-2,-4.655994E-2,3.4113225E-4,-7.3825517E-3,5.7335358E-2,4.3278668E-2,-2.7952759E-2],"split_indices":[0,2,3,0,3,3,0,0,3,0,0,0,2,0,0,0,0,0,0,0,0],"split_type":[0,0,0,0,0,0,0,0,0,0,0,0,0,0,0,0,0,0,0,0,0],"sum_hessian":[1.702997E2,6.1041E1,1.092587E2,3.047658E0,5.7993343E1,2.3667686E1,8.559101E1,3.4982653E0,5.4495075E1,6.7637E0,1.6903986E1,4.37018E1,4.188921E1,4.1158075E0,5.037927E1,3.6988173E0,3.064883E0,2.5444933E1,1.825687E1,5.1072483E0,3.6781963E1],"tree_param":{"num_deleted":"0","num_feature":"4","num_nodes":"21","size_leaf_vector":"1"}},{"base_weights":[-1.767374E-2,-1.9906315E-1,1.1591164E-2,3.601123E-2,-3.184334E-1,9.504346E-2,-1.2248715E-2,-5.466176E-2,-9.329762E-2,-4.5100562E-2,-0E0,2.6673531E-2,-5.0525337E-2,-1.4042037E-3,2.9499969E-2],"categories":[],"categories_nodes":[],"categories_segments":[],"categories_sizes":[],"default_left":[0,0,0,0,0,0,0,0,0,0,0,0,0,0,0],"id":35,"left_children":[1,3,5,-1,7,-1,9,-1,11,-1,13,-1,-1,-1,-1],"loss_changes":[1.0161626E0,1.8841931E0,3.7288365E0,0E0,1.0447929E0,0E0,8.492729E-1,0E0,2.0556476E0,0E0,6.4570117E-1,0E0,0E0,0E0,0E0],"parents":[2147483647,0,0,1,1,2,2,4,4,6,6,8,8,10,10],"right_children":[2,4,6,-1,8,-1,10,-1,12,-1,14,-1,-1,-1,-1],"split_conditions":[3.7269372E-1,2.4978466E-2,1.0854817E-1,3.601123E-2,8.442669E-2,9.504346E-2,1.6540284E-1,-5.466176E-2,2.955975E-1,-4.5100562E-2,3.1833334E1,2.6673531E-2,-5.0525337E-2,-1.4042037E-3,2.9499969E-2],"split_indices":[2,2,1,0,1,0,1,0,2,0,2,0,0,0,0],"split_type":[0,0,0,0,0,0,0,0,0,0,0,0,0,0,0],"sum_hessian":[1.8646112E2,2.5572554E1,1.6088857E2,3.996577E0,2.1575975E1,3.1256068E0,1.5776297E2,9.785676E0,1.1790299E1,3.2923613E0,1.5447061E2,6.3502254E0,5.4400744E0,1.4838936E2,6.081252E0],"tree_param":{"num_deleted":"0","num_feature":"4","num_nodes":"15","size_leaf_vector":"1"}},{"base_weights":[-3.9394875E-3,-3.2580297E-2,4.7193056E-1,2.2713536E-1,-6.2580645E-2,7.661437E-2,-9.0639135E-3,-2.4168856E-2,3.7916344E-1,-7.795533E-2,4.431067E-2,7.3340945E-2,-1.6958021E-3,-4.693316E-3,-3.3385336E-2],"categories":[],"categories_nodes":[],"categories_segments":[],"categories_sizes":[],"default_left":[0,0,0,0,0,0,0,0,0,0,0,0,0,0,0],"id":36,"left_children":[1,3,5,7,9,-1,-1,-1,11,13,-1,-1,-1,-1,-1],"loss_changes":[2.3720548E0,1.3010583E0,1.7698894E0,1.3307273E0,1.1726327E0,0E0,0E0,0E0,1.9830153E0,1.1184798E0,0E0,0E0,0E0,0E0,0E0],"parents":[2147483647,0,0,1,1,2,2,3,3,4,4,8,8,9,9],"right_children":[2,4,6,8,10,-1,-1,-1,12,14,-1,-1,-1,-1,-1],"split_conditions":[1.7262712E1,2.955975E-1,6.413333E1,1.7266609E-2,8.643991E-1,7.661437E-2,-9.0639135E-3,-2.4168856E-2,2.8318584E-1,7.5940645E-1,4.431067E-2,7.3340945E-2,-1.6958021E-3,-4.693316E-3,-3.3385336E-2],"split_indices":[0,2,0,1,1,0,0,0,0,1,0,0,0,0,0],"split_type":[0,0,0,0,0,0,0,0,0,0,0,0,0,0,0],"sum_hessian":[1.7513622E2,1.6627069E2,8.865525E0,1.6191868E1,1.5007883E2,5.700279E0,3.1652458E0,3.65942E0,1.2532447E1,1.4666333E2,3.4154913E0,6.2996917E0,6.2327557E0,1.322099E2,1.4453441E1],"tree_param":{"num_deleted":"0","num_feature":"4","num_nodes":"15","size_leaf_vector":"1"}},{"base_weights":[-3.0357478E-2,-4.7723506E-2,6.975525E-2,-3.536405E-4,-5.543797E-2,-1.3954908E-1,1.00888945E-1,4.0162653E-2,-1.9723607E-2,5.935609E-2,-1.941287E-5],"categories":[],"categories_nodes":[],"categories_segments":[],"categories_sizes":[],"default_left":[0,0,0,0,0,0,0,0,0,0,0],"id":37,"left_children":[1,3,-1,5,-1,7,9,-1,-1,-1,-1],"loss_changes":[2.2034414E0,4.1147943E0,0E0,2.2740345E0,0E0,2.1893382E0,4.683223E0,0E0,0E0,0E0,0E0],"parents":[2147483647,0,0,1,1,3,3,5,5,6,6],"right_children":[2,4,-1,6,-1,8,10,-1,-1,-1,-1],"split_conditions":[7.98E1,1.0781818E1,6.975525E-2,1.1721001E0,-5.543797E-2,3.0364372E-2,1.6424419E0,4.0162653E-2,-1.9723607E-2,5.935609E-2,-1.941287E-5],"split_indices":[2,2,0,0,0,0,0,0,0,0,0],"split_type":[0,0,0,0,0,0,0,0,0,0,0],"sum_hessian":[1.758176E2,1.7276764E2,3.0499668E0,1.5909143E2,1.3676198E1,6.724611E1,9.184532E1,5.7363534E0,6.1509758E1,1.4975081E1,7.687024E1],"tree_param":{"num_deleted":"0","num_feature":"4","num_nodes":"11","size_leaf_vector":"1"}},{"base_weights":[-0E0,-6.356785E-2,1.3414687E-1,-3.4227535E-2,-3.107909E-1,6.8947606E-2,7.647134E-2,-6.3133165E-2,4.3783095E-2,-4.8425797E-2,-1.4538907E-1,1.9390634E-1,-7.553204E-2,-3.6591967E-3,-3.5059184E-2,2.9713742E-3,-2.9850243E-2,8.308734E-3,5.4368287E-2,-1.8365987E-2,1.7495237E-2],"categories":[],"categories_nodes":[],"categories_segments":[],"categories_sizes":[],"default_left":[0,0,0,0,0,0,0,0,0,0,0,0,0,0,0,0,0,0,0,0,0],"id":38,"left_children":[1,3,5,7,9,-1,11,13,-1,-1,15,17,19,-1,-1,-1,-1,-1,-1,-1,-1],"loss_changes":[1.5114385E0,8.335426E-1,1.6895664E0,1.4880179E0,2.2143161E-1,0E0,9.678075E-1,7.458202E-1,0E0,0E0,2.5168878E-1,1.0705554E0,6.649494E-1,0E0,0E0,0E0,0E0,0E0,0E0,0E0,0E0],"parents":[2147483647,0,0,1,1,2,2,3,3,4,4,6,6,7,7,10,10,11,11,12,12],"right_children":[2,4,6,8,10,-1,12,14,-1,-1,16,18,20,-1,-1,-1,-1,-1,-1,-1,-1],"split_conditions":[3.1894736E0,2.5363288E0,3.4224422E0,2.2335136E0,5.206612E-1,6.8947606E-2,4.8944592E0,1.9342252E0,4.3783095E-2,-4.8425797E-2,4.782427E0,3.4845488E0,8.5267955E-1,-3.6591967E-3,-3.5059184E-2,2.9713742E-3,-2.9850243E-2,8.308734E-3,5.4368287E-2,-1.8365987E-2,1.7495237E-2],"split_indices":[2,2,2,2,1,0,0,2,0,0,0,0,1,0,0,0,0,0,0,0,0],"split_type":[0,0,0,0,0,0,0,0,0,0,0,0,0,0,0,0,0,0,0,0,0],"sum_hessian":[1.7592624E2,1.2013734E2,5.5788906E1,1.0877135E2,1.1365991E1,4.055196E0,5.1733707E1,1.0351113E2,5.2602158E0,4.3116956E0,7.054295E0,2.9401142E1,2.2332565E1,9.611221E1,7.3989167E0,3.3621328E0,3.6921623E0,2.3484148E1,5.9169946E0,1.6064104E1,6.2684617E0],"tree_param":{"num_deleted":"0","num_feature":"4","num_nodes":"21","size_leaf_vector":"1"}},{"base_weights":[8.5840754E-2,1.7598821E-1,-7.036187E-2,7.325422E-2,6.370697E-1,-5.2473355E-2,-8.032656E-3,1.750869E-1,-5.570358E-2,1.2607595E-1,1.9728501E-1,9.5418215E-2,-2.3675896E-1,1.0474293E-2,8.463875E-2,-4.79041E-2,5.5809654E-2,-5.977265E-3,7.737964E-2,-5.225736E-2,7.073623E-3],"categories":[],"categories_nodes":[],"categories_segments":[],"categories_sizes":[],"default_left":[0,0,0,0,0,0,0,0,0,0,0,0,0,0,0,0,0,0,0,0,0],"id":39,"left_children":[1,3,5,7,9,-1,11,13,-1,-1,15,17,19,-1,-1,-1,-1,-1,-1,-1,-1],"loss_changes":[2.3470414E0,4.8722944E0,1.6617159E0,5.6726236E0,4.7861295E0,0E0,1.3284634E0,3.414028E0,0E0,0E0,3.290552E0,4.1183853E0,1.628061E0,0E0,0E0,0E0,0E0,0E0,0E0,0E0,0E0],"parents":[2147483647,0,0,1,1,2,2,3,3,4,4,6,6,7,7,10,10,11,11,12,12],"right_children":[2,4,6,8,10,-1,12,14,-1,-1,16,18,20,-1,-1,-1,-1,-1,-1,-1,-1],"split_conditions":[5.1902175E-1,2.1995306E0,5.6449836E-1,1.4281915E0,2.6632016E0,-5.2473355E-2,7.39881E-1,1.3057692E0,-5.570358E-2,1.2607595E-1,3.52451E0,7.092419E-1,1.1601851E1,1.0474293E-2,8.463875E-2,-4.79041E-2,5.5809654E-2,-5.977265E-3,7.737964E-2,-5.225736E-2,7.073623E-3],"split_indices":[1,2,1,2,2,0,1,2,0,0,2,1,2,0,0,0,0,0,0,0,0],"split_type":[0,0,0,0,0,0,0,0,0,0,0,0,0,0,0,0,0,0,0,0,0],"sum_hessian":[1.6404877E2,1.04343636E2,5.9705135E1,8.645604E1,1.7887592E1,6.1137295E0,5.3591404E1,7.518901E1,1.1267029E1,6.5311537E0,1.1356439E1,3.7001556E1,1.658985E1,6.9238655E1,5.9503584E0,3.740395E0,7.6160436E0,3.073489E1,6.2666645E0,8.404076E0,8.185774E0],"tree_param":{"num_deleted":"0","num_feature":"4","num_nodes":"21","size_leaf_vector":"1"}},{"base_weights":[2.959476E-2,-8.147386E-2,1.24487154E-1,-3.9161844E-3,-2.676233E-1,2.1541725E-1,-9.315388E-2,-9.092185E-2,3.8071674E-1,-4.9136335E-1,4.7242947E-2,7.277961E-2,4.366326E-1,-3.1096327E-1,1.6448204E-1,-2.5000651E-3,-5.0271917E-2,9.521268E-2,-8.295808E-3,-5.644354E-2,-7.41857E-3,5.3128757E-2,-9.727413E-4,5.287881E-2,-1.3140097E-2,-5.618334E-2,7.005956E-3,5.0822325E-2,-0E0],"categories":[],"categories_nodes":[],"categories_segments":[],"categories_sizes":[],"default_left":[0,0,0,0,0,0,0,0,0,0,0,0,0,0,0,0,0,0,0,0,0,0,0,0,0,0,0,0,0],"id":40,"left_children":[1,3,5,7,9,11,13,15,17,19,-1,21,23,25,27,-1,-1,-1,-1,-1,-1,-1,-1,-1,-1,-1,-1,-1,-1],"loss_changes":[1.8918468E0,1.1583761E0,1.9507629E0,1.9938166E0,4.1711674E0,2.0944858E0,1.689816E0,1.2775762E0,3.0645685E0,4.689479E-1,0E0,1.7001185E0,1.5003319E0,1.6407558E0,7.567693E-1,0E0,0E0,0E0,0E0,0E0,0E0,0E0,0E0,0E0,0E0,0E0,0E0,0E0,0E0],"parents":[2147483647,0,0,1,1,2,2,3,3,4,4,5,5,6,6,7,7,8,8,9,9,11,11,12,12,13,13,14,14],"right_children":[2,4,6,8,10,12,14,16,18,20,-1,22,24,26,28,-1,-1,-1,-1,-1,-1,-1,-1,-1,-1,-1,-1,-1,-1],"split_conditions":[1.5799458E0,3.2354456E-1,6.215625E0,2.6476377E-1,5.6842103E0,2.75E0,1.1974843E1,2.4416342E-1,2.8198937E-1,1.4157304E0,4.7242947E-2,1.8269006E0,1.194362E1,6.7370243E0,1.46214285E1,-2.5000651E-3,-5.0271917E-2,9.521268E-2,-8.295808E-3,-5.644354E-2,-7.41857E-3,5.3128757E-2,-9.727413E-4,5.287881E-2,-1.3140097E-2,-5.618334E-2,7.005956E-3,5.0822325E-2,-0E0],"split_indices":[0,1,2,1,2,2,2,1,1,0,0,0,0,0,2,0,0,0,0,0,0,0,0,0,0,0,0,0,0],"split_type":[0,0,0,0,0,0,0,0,0,0,0,0,0,0,0,0,0,0,0,0,0,0,0,0,0,0,0,0,0],"sum_hessian":[1.7712904E2,8.118827E1,9.594078E1,5.841032E1,2.277795E1,6.800012E1,2.7940657E1,4.8469833E1,9.940488E0,1.7851942E1,4.926007E0,4.242556E1,2.5574564E1,1.5238745E1,1.2701913E1,4.2905067E1,5.5647655E0,4.0776386E0,5.862849E0,1.46867485E1,3.1651947E0,5.825395E0,3.6600163E1,2.221554E1,3.359024E0,9.060869E0,6.1778755E0,3.3651E0,9.336813E0],"tree_param":{"num_deleted":"0","num_feature":"4","num_nodes":"29","size_leaf_vector":"1"}},{"base_weights":[-2.9527028E-3,9.6795276E-2,-3.979034E-2,-1.5993786E-1,1.7774081E-1,-5.1851105E-2,-9.625519E-3,5.7256115E-3,-2.8069368E-2,7.3394336E-2,6.8064034E-2,-1.7066589E-1,1.2982073E-2,-9.957015E-3,2.0184046E-2,3.2782126E-3,-2.6943868E-2,2.7302045E-2,-3.0200225E-3],"categories":[],"categories_nodes":[],"categories_segments":[],"categories_sizes":[],"default_left":[0,0,0,0,0,0,0,0,0,0,0,0,0,0,0,0,0,0,0],"id":41,"left_children":[1,3,5,7,9,-1,11,-1,-1,-1,13,15,17,-1,-1,-1,-1,-1,-1],"loss_changes":[6.4389694E-1,1.006027E0,1.8163111E0,3.3966914E-1,2.0946147E0,0E0,4.6690157E-1,0E0,0E0,0E0,7.4156165E-1,3.4988698E-1,1.25099E0,0E0,0E0,0E0,0E0,0E0,0E0],"parents":[2147483647,0,0,1,1,2,2,3,3,4,4,6,6,10,10,11,11,12,12],"right_children":[2,4,6,8,10,-1,12,-1,-1,-1,14,16,18,-1,-1,-1,-1,-1,-1],"split_conditions":[7.388724E-1,1.2280702E-1,2.0509554E-1,3.2258064E-2,9.105691E-2,-5.1851105E-2,1.0597166E0,5.7256115E-3,-2.8069368E-2,7.3394336E-2,4.2725173E-1,3.1698686E-1,3.989783E-1,-9.957015E-3,2.0184046E-2,3.2782126E-3,-2.6943868E-2,2.7302045E-2,-3.0200225E-3],"split_indices":[2,2,1,2,1,0,2,0,0,0,2,1,1,0,0,0,0,0,0],"split_type":[0,0,0,0,0,0,0,0,0,0,0,0,0,0,0,0,0,0,0],"sum_hessian":[1.7473804E2,4.5956367E1,1.2878166E2,1.0486214E1,3.5470154E1,6.4775467E0,1.2230412E2,3.638916E0,6.847297E0,4.754594E0,3.071556E1,1.4794302E1,1.0750982E2,1.3414339E1,1.7301222E1,4.722591E0,1.0071711E1,1.48825035E1,9.262732E1],"tree_param":{"num_deleted":"0","num_feature":"4","num_nodes":"19","size_leaf_vector":"1"}},{"base_weights":[-1.4963225E-2,-4.9669422E-2,2.364697E-1,-2.068217E-2,-5.2437257E-2,4.872907E-1,-1.6428375E-1,-1.4061461E-1,6.503586E-2,1.4783847E-1,9.4303064E-2,-4.8286557E-2,2.5355784E-2,-3.848152E-4,-3.028295E-2,3.7222292E-2,-8.816104E-3,6.418855E-2,-2.1914259E-2],"categories":[],"categories_nodes":[],"categories_segments":[],"categories_sizes":[],"default_left":[0,0,0,0,0,0,0,0,0,0,0,0,0,0,0,0,0,0,0],"id":42,"left_children":[1,3,5,7,-1,9,11,13,15,17,-1,-1,-1,-1,-1,-1,-1,-1,-1],"loss_changes":[1.521251E0,2.0683186E0,2.229773E0,1.5317758E0,0E0,1.8185995E0,1.3039272E0,1.348788E0,4.1151996E0,1.8091794E0,0E0,0E0,0E0,0E0,0E0,0E0,0E0,0E0,0E0],"parents":[2147483647,0,0,1,1,2,2,3,3,5,5,6,6,7,7,8,8,9,9],"right_children":[2,4,6,8,-1,10,12,14,16,18,-1,-1,-1,-1,-1,-1,-1,-1,-1],"split_conditions":[7.7525324E-1,7.116873E-1,8.5267955E-1,1.0876737E0,-5.2437257E-2,8.329854E-1,8.842625E-1,2.0285544E-1,4.4038716E-1,7.850301E-1,9.4303064E-2,-4.8286557E-2,2.5355784E-2,-3.848152E-4,-3.028295E-2,3.7222292E-2,-8.816104E-3,6.418855E-2,-2.1914259E-2],"split_indices":[1,1,1,0,0,1,1,1,1,1,0,0,0,0,0,0,0,0,0],"split_type":[0,0,0,0,0,0,0,0,0,0,0,0,0,0,0,0,0,0,0],"sum_hessian":[1.7412453E2,1.5405934E2,2.0065193E1,1.463753E2,7.6840286E0,1.2361837E1,7.7033544E0,6.1230618E1,8.5144684E1,7.969598E0,4.39224E0,4.418325E0,3.2850296E0,3.4111095E1,2.7119524E1,2.8074123E1,5.7070564E1,3.1936092E0,4.7759886E0],"tree_param":{"num_deleted":"0","num_feature":"4","num_nodes":"19","size_leaf_vector":"1"}},{"base_weights":[-6.192742E-4,-3.3700097E-2,1.8953982E-1,6.28184E-2,-9.0906255E-2,3.714382E-1,-4.7397822E-2,-3.323427E-2,4.8040244E-1,-3.48424E-1,-5.382683E-2,-1.3087663E-2,6.5230423E-1,-2.6617114E-2,5.5697992E-2,1.056186E-2,-1.5069621E-2,1.0334716E-1,-2.2425756E-2,-7.0542893E-3,-4.3348428E-2,4.0689137E-2,-7.803076E-3,9.957417E-2,3.349598E-2,1.52962655E-2,-2.392361E-3],"categories":[],"categories_nodes":[],"categories_segments":[],"categories_sizes":[],"default_left":[0,0,0,0,0,0,0,0,0,0,0,0,0,0,0,0,0,0,0,0,0,0,0,0,0,0,0],"id":43,"left_children":[1,3,5,7,9,11,13,15,17,19,21,-1,23,-1,25,-1,-1,-1,-1,-1,-1,-1,-1,-1,-1,-1,-1],"loss_changes":[1.0883071E0,8.3624214E-1,1.1514525E0,2.2959182E0,8.498832E-1,2.2268553E0,3.008234E-1,7.714444E-1,4.4752407E0,1.8984687E-1,9.436457E-1,0E0,6.007314E-1,0E0,8.2396016E-2,0E0,0E0,0E0,0E0,0E0,0E0,0E0,0E0,0E0,0E0,0E0,0E0],"parents":[2147483647,0,0,1,1,2,2,3,3,4,4,5,5,6,6,7,7,8,8,9,9,10,10,12,12,14,14],"right_children":[2,4,6,8,10,12,14,16,18,20,22,-1,24,-1,26,-1,-1,-1,-1,-1,-1,-1,-1,-1,-1,-1,-1],"split_conditions":[8.744445E0,8.913934E-1,8.2329416E-1,6.734104E-1,2.8369606E-1,6.4300805E-1,8.555229E-1,3.101204E-1,3.5599926E-1,1.1174334E0,3.1698686E-1,-1.3087663E-2,1.41645565E1,-2.6617114E-2,1.28375E1,1.056186E-2,-1.5069621E-2,1.0334716E-1,-2.2425756E-2,-7.0542893E-3,-4.3348428E-2,4.0689137E-2,-7.803076E-3,9.957417E-2,3.349598E-2,1.52962655E-2,-2.392361E-3],"split_indices":[2,2,1,2,1,1,1,2,1,2,1,0,2,0,2,0,0,0,0,0,0,0,0,0,0,0,0],"split_type":[0,0,0,0,0,0,0,0,0,0,0,0,0,0,0,0,0,0,0,0,0,0,0,0,0,0,0],"sum_hessian":[1.7346669E2,1.4891032E2,2.455637E1,5.472756E1,9.418276E1,1.3809289E1,1.0747081E1,4.504683E1,9.68073E0,1.0458003E1,8.372476E1,5.0161457E0,8.793143E0,3.2463617E0,7.5007186E0,2.0299767E1,2.474706E1,5.241837E0,4.438893E0,3.1552315E0,7.3027716E0,3.1835637E0,8.05412E1,3.0449648E0,5.748178E0,3.5270019E0,3.9737167E0],"tree_param":{"num_deleted":"0","num_feature":"4","num_nodes":"27","size_leaf_vector":"1"}},{"base_weights":[-1.1784057E-2,-1.2726507E-1,1.1517839E-1,-4.4026405E-2,-4.5729163E-1,9.0451354E-1,9.353862E-3,-9.918367E-2,7.815051E-2,-5.5171072E-2,-1.753322E-2,4.0379483E-2,1.0986443E-1,3.0792242E-1,-8.223985E-2,-0E0,-4.326485E-2,-2.7267022E-2,6.816851E-2,-4.4594202E-2,5.5665593E-3],"categories":[],"categories_nodes":[],"categories_segments":[],"categories_sizes":[],"default_left":[0,0,0,0,0,0,0,0,0,0,0,0,0,0,0,0,0,0,0,0,0],"id":44,"left_children":[1,3,5,7,9,11,13,15,-1,-1,-1,-1,-1,17,19,-1,-1,-1,-1,-1,-1],"loss_changes":[2.4422235E0,2.3348331E0,6.4939537E0,3.2542589E0,2.9074812E-1,3.013687E-1,1.9821053E0,2.2450037E0,0E0,0E0,0E0,0E0,0E0,3.931289E0,2.8052738E0,0E0,0E0,0E0,0E0,0E0,0E0],"parents":[2147483647,0,0,1,1,2,2,3,3,4,4,5,5,6,6,7,7,13,13,14,14],"right_children":[2,4,6,8,10,12,14,16,-1,-1,-1,-1,-1,18,20,-1,-1,-1,-1,-1,-1],"split_conditions":[2.1683848E0,1.3533981E0,2.2764976E0,1.3057692E0,5.4163486E-1,2.225564E0,5.1902175E-1,3.3281612E-1,7.815051E-2,-5.5171072E-2,-1.753322E-2,4.0379483E-2,1.0986443E-1,4.4038716E-1,3.7847826E0,-0E0,-4.326485E-2,-2.7267022E-2,6.816851E-2,-4.4594202E-2,5.5665593E-3],"split_indices":[2,2,2,2,1,2,1,1,0,0,0,0,0,1,2,0,0,0,0,0,0],"split_type":[0,0,0,0,0,0,0,0,0,0,0,0,0,0,0,0,0,0,0,0,0],"sum_hessian":[1.6448888E2,8.655052E1,7.7938354E1,7.026486E1,1.628566E1,8.209821E0,6.972854E1,6.680249E1,3.4623692E0,1.1217813E1,5.0678473E0,3.2981303E0,4.9116907E0,1.6071177E1,5.365736E1,5.2245644E1,1.4556846E1,6.2952437E0,9.775933E0,1.4337113E1,3.9320244E1],"tree_param":{"num_deleted":"0","num_feature":"4","num_nodes":"21","size_leaf_vector":"1"}},{"base_weights":[3.0055203E-2,5.530136E-2,-2.563484E-1,3.320367E-2,8.4082626E-2,-4.0212557E-1,5.491148E-3,-2.1861378E-2,1.9732627E-1,-1.4828919E-2,-5.0707426E-2,2.8605806E-3,-4.42765E-2,5.059899E-2,5.6311193E-5],"categories":[],"categories_nodes":[],"categories_segments":[],"categories_sizes":[],"default_left":[0,0,0,0,0,0,0,0,0,0,0,0,0,0,0],"id":45,"left_children":[1,3,5,7,-1,9,-1,11,13,-1,-1,-1,-1,-1,-1],"loss_changes":[1.2791184E0,2.7395957E0,7.035551E-1,1.4781029E0,0E0,1.2689936E-1,0E0,2.6264231E0,2.4413729E0,0E0,0E0,0E0,0E0,0E0,0E0],"parents":[2147483647,0,0,1,1,2,2,3,3,5,5,7,7,8,8],"right_children":[2,4,6,8,-1,10,-1,12,14,-1,-1,-1,-1,-1,-1],"split_conditions":[8.080808E-1,7.848549E-1,8.6564523E-1,6.145092E-1,8.4082626E-2,7.9369864E0,5.491148E-3,3.1061645E0,6.6774064E-1,-1.4828919E-2,-5.0707426E-2,2.8605806E-3,-4.42765E-2,5.059899E-2,5.6311193E-5],"split_indices":[1,1,1,1,0,0,0,0,1,0,0,0,0,0,0],"split_type":[0,0,0,0,0,0,0,0,0,0,0,0,0,0,0],"sum_hessian":[1.767236E2,1.6346997E2,1.3253629E1,1.6013478E2,3.3351972E0,9.046219E0,4.2074103E0,1.20098E2,4.003678E1,3.6306596E0,5.415559E0,1.0785984E2,1.2238158E1,1.4776693E1,2.5260088E1],"tree_param":{"num_deleted":"0","num_feature":"4","num_nodes":"15","size_leaf_vector":"1"}},{"base_weights":[2.0967806E-2,-4.9443096E-3,4.3708038E-1,-1.6117912E-2,3.5302624E-2,6.402289E-2,2.3371807E-1,8.662795E-3,-3.3510822E-1,-0E0,3.9665315E-2,-1.6012698E-3,2.3438143E-2,-4.6129126E-2,-2.6262943E-3],"categories":[],"categories_nodes":[],"categories_segments":[],"categories_sizes":[],"default_left":[0,0,0,0,0,0,0,0,0,0,0,0,0,0,0],"id":46,"left_children":[1,3,5,7,-1,-1,9,11,13,-1,-1,-1,-1,-1,-1],"loss_changes":[1.9433107E0,6.378344E-1,1.9907379E-1,1.3213016E0,0E0,0E0,2.4407908E-1,8.7003565E-1,4.083817E-1,0E0,0E0,0E0,0E0,0E0,0E0],"parents":[2147483647,0,0,1,1,2,2,3,3,6,6,7,7,8,8],"right_children":[2,4,6,8,-1,-1,10,12,14,-1,-1,-1,-1,-1,-1],"split_conditions":[1.7262712E1,8.5267955E-1,2.5647058E1,7.5940645E-1,3.5302624E-2,6.402289E-2,6.8511397E-1,5.314815E0,8.677725E0,-0E0,3.9665315E-2,-1.6012698E-3,2.3438143E-2,-4.6129126E-2,-2.6262943E-3],"split_indices":[0,1,0,1,0,0,1,0,0,0,0,0,0,0,0],"split_type":[0,0,0,0,0,0,0,0,0,0,0,0,0,0,0],"sum_hessian":[1.7502237E2,1.6546626E2,9.556098E0,1.6165474E2,3.8115232E0,3.4598927E0,6.096205E0,1.506137E2,1.1041045E1,3.0811527E0,3.0150526E0,1.3620937E2,1.4404337E1,7.2582145E0,3.7828307E0],"tree_param":{"num_deleted":"0","num_feature":"4","num_nodes":"15","size_leaf_vector":"1"}},{"base_weights":[9.370321E-3,5.2431453E-2,-7.93771E-3,-1.2331198E-1,5.241045E-2,-5.6911048E-2,-5.2485835E-2,2.8636554E-1,-2.911069E-2,-1.3646205E-2,3.3758577E-2,4.5331087E-2,-1.7676871E-2,-5.258407E-2,1.5625738E-3],"categories":[],"categories_nodes":[],"categories_segments":[],"categories_sizes":[],"default_left":[0,0,0,0,0,0,0,0,0,0,0,0,0,0,0],"id":47,"left_children":[1,-1,3,5,7,9,-1,11,13,-1,-1,-1,-1,-1,-1],"loss_changes":[1.6438216E0,0E0,1.2193332E0,1.5208552E0,2.2051933E0,1.6928396E0,0E0,2.4138353E0,1.9483573E0,0E0,0E0,0E0,0E0,0E0,0E0],"parents":[2147483647,0,0,2,2,3,3,4,4,5,5,7,7,8,8],"right_children":[2,-1,4,6,8,10,-1,12,14,-1,-1,-1,-1,-1,-1],"split_conditions":[3.0364372E-2,5.2431453E-2,1.0876737E0,9.38326E-1,4.4038716E-1,7.577197E-1,-5.2485835E-2,2.3457944E0,1.4765217E0,-1.3646205E-2,3.3758577E-2,4.5331087E-2,-1.7676871E-2,-5.258407E-2,1.5625738E-3],"split_indices":[0,0,0,0,1,0,0,0,0,0,0,0,0,0,0],"split_type":[0,0,0,0,0,0,0,0,0,0,0,0,0,0,0],"sum_hessian":[1.7717577E2,4.9967985E0,1.7217897E2,5.9342E1,1.12836975E2,5.2114887E1,7.2271104E0,2.8825481E1,8.40115E1,4.4124645E1,7.990242E0,2.1362207E1,7.463273E0,6.2372656E0,7.777423E1],"tree_param":{"num_deleted":"0","num_feature":"4","num_nodes":"15","size_leaf_vector":"1"}},{"base_weights":[1.0591552E-2,2.649941E-1,-2.0555679E-2,1.08018935E-1,8.029717E-2,-1.5766886E-1,1.8807637E-2,3.220752E-1,-2.0884644E-2,8.614653E-2,-2.7078363E-1,7.233203E-2,-1.3703264E-2,-9.050149E-3,7.1438536E-2,-1.7413577E-2,2.6531229E-2,-5.135994E-2,-1.4907201E-2,4.913745E-2,-3.5021051E-3],"categories":[],"categories_nodes":[],"categories_segments":[],"categories_sizes":[],"default_left":[0,0,0,0,0,0,0,0,0,0,0,0,0,0,0,0,0,0,0,0,0],"id":48,"left_children":[1,3,5,7,-1,9,11,13,-1,15,17,-1,19,-1,-1,-1,-1,-1,-1,-1,-1],"loss_changes":[1.386285E0,1.4346226E0,8.430755E-1,1.1692636E0,0E0,1.0020571E0,2.8125467E0,1.7745562E0,0E0,5.9220403E-1,5.754893E-1,0E0,1.2081712E0,0E0,0E0,0E0,0E0,0E0,0E0,0E0,0E0],"parents":[2147483647,0,0,1,1,2,2,3,3,5,5,6,6,7,7,9,9,10,10,12,12],"right_children":[2,4,6,8,-1,10,12,14,-1,16,18,-1,20,-1,-1,-1,-1,-1,-1,-1,-1],"split_conditions":[2.9331228E-1,4.244186E-1,2.8198937E-1,7.087447E-2,8.029717E-2,1.705847E-1,3.093314E-1,5.031056E-2,-2.0884644E-2,9.88822E-2,2.0235096E-1,7.233203E-2,7.222222E-1,-9.050149E-3,7.1438536E-2,-1.7413577E-2,2.6531229E-2,-5.135994E-2,-1.4907201E-2,4.913745E-2,-3.5021051E-3],"split_indices":[2,0,1,1,0,1,1,0,0,1,1,0,2,0,0,0,0,0,0,0,0],"split_type":[0,0,0,0,0,0,0,0,0,0,0,0,0,0,0,0,0,0,0,0,0],"sum_hessian":[1.7017683E2,1.8093834E1,1.5208301E2,1.5080267E1,3.013566E0,3.381859E1,1.1826442E2,9.178764E0,5.901502E0,1.051284E1,2.3305746E1,4.415155E0,1.13849266E2,4.724554E0,4.4542108E0,4.0700393E0,6.442801E0,6.4321437E0,1.6873604E1,3.5276854E0,1.1032158E2],"tree_param":{"num_deleted":"0","num_feature":"4","num_nodes":"21","size_leaf_vector":"1"}},{"base_weights":[-8.440356E-3,5.6209553E-2,-2.4132916E-1,-3.645025E-1,1.1936645E-1,-3.8362843E-1,1.6661254E-1,1.5247943E-2,-5.6325912E-2,4.5320988E-1,2.3689158E-2,-4.8082322E-1,-5.0973944E-2,4.0979516E-2,-1.2254161E-2,7.453728E-2,-2.8467083E-2,-1.1737591E-2,4.4034753E-2,-0E0,-5.5969186E-2,4.4258926E-2,-4.642646E-2],"categories":[],"categories_nodes":[],"categories_segments":[],"categories_sizes":[],"default_left":[0,0,0,0,0,0,0,0,0,0,0,0,0,0,0,0,0,0,0,0,0,0,0],"id":49,"left_children":[1,3,5,7,9,11,13,-1,-1,15,17,19,21,-1,-1,-1,-1,-1,-1,-1,-1,-1,-1],"loss_changes":[2.745863E0,3.7802238E0,2.3895395E0,2.029591E0,3.9035072E0,8.893442E-1,8.369242E-1,0E0,0E0,6.152676E0,5.8261685E0,9.145832E-1,1.8628036E0,0E0,0E0,0E0,0E0,0E0,0E0,0E0,0E0,0E0,0E0],"parents":[2147483647,0,0,1,1,2,2,3,3,4,4,5,5,6,6,9,9,10,10,11,11,12,12],"right_children":[2,4,6,8,10,12,14,-1,-1,16,18,20,22,-1,-1,-1,-1,-1,-1,-1,-1,-1,-1],"split_conditions":[4.4962215E0,3.104027E-1,1.6194174E1,3.4587994E-2,7.222222E-1,1.28375E1,2.7335958E0,1.5247943E-2,-5.6325912E-2,1.0609137E0,2.7325256E0,1.045759E0,2.4826923E1,4.0979516E-2,-1.2254161E-2,7.453728E-2,-2.8467083E-2,-1.1737591E-2,4.4034753E-2,-0E0,-5.5969186E-2,4.4258926E-2,-4.642646E-2],"split_indices":[0,2,0,2,2,2,3,0,0,0,0,3,2,0,0,0,0,0,0,0,0,0,0],"split_type":[0,0,0,0,0,0,0,0,0,0,0,0,0,0,0,0,0,0,0,0,0,0,0],"sum_hessian":[1.7924327E2,1.4055458E2,3.8688686E1,1.7516407E1,1.2303818E2,2.8909227E1,9.779457E0,4.78915E0,1.2727258E1,2.634198E1,9.669619E1,2.1795118E1,7.114111E0,5.2732215E0,4.5062356E0,1.8960117E1,7.3818626E0,7.259612E1,2.4100067E1,3.0520675E0,1.874305E1,3.099614E0,4.014497E0],"tree_param":{"num_deleted":"0","num_feature":"4","num_nodes":"23","size_leaf_vector":"1"}},{"base_weights":[-1.9090163E-2,-3.2385236E-1,3.633726E-2,2.2657854E-2,-4.0485877E-1,1.6312104E-1,-4.9733773E-2,-5.4777306E-2,-2.520182E-1,6.967724E-2,6.327585E-1,-5.363503E-2,4.780865E-3,2.2927389E-2,-4.1700948E-2,1.5774712E-2,-2.7917696E-2,1.03022054E-1,5.467662E-3,5.455068E-3,-2.3956185E-2],"categories":[],"categories_nodes":[],"categories_segments":[],"categories_sizes":[],"default_left":[0,0,0,0,0,0,0,0,0,0,0,0,0,0,0,0,0,0,0,0,0],"id":50,"left_children":[1,3,5,-1,7,9,11,-1,13,15,17,-1,19,-1,-1,-1,-1,-1,-1,-1,-1],"loss_changes":[3.0434606E0,1.3462043E0,1.6676229E0,0E0,3.213606E-1,2.596746E0,2.4500906E0,0E0,1.2358555E0,1.654918E0,2.1214998E0,0E0,9.9142706E-1,0E0,0E0,0E0,0E0,0E0,0E0,0E0,0E0],"parents":[2147483647,0,0,1,1,2,2,4,4,5,5,6,6,8,8,9,9,10,10,12,12],"right_children":[2,4,6,-1,8,10,12,-1,14,16,18,-1,20,-1,-1,-1,-1,-1,-1,-1,-1],"split_conditions":[3.3718488E-1,2.4978466E-2,7.9182154E-1,2.2657854E-2,9.2211835E-2,7.0495766E-1,9.249249E-1,-5.4777306E-2,1.1851016E-1,1.8269006E0,7.564876E-1,-5.363503E-2,4.2105265E0,2.2927389E-2,-4.1700948E-2,1.5774712E-2,-2.7917696E-2,1.03022054E-1,5.467662E-3,5.455068E-3,-2.3956185E-2],"split_indices":[0,2,3,0,3,3,3,0,3,0,3,0,3,0,0,0,0,0,0,0,0],"split_type":[0,0,0,0,0,0,0,0,0,0,0,0,0,0,0,0,0,0,0,0,0],"sum_hessian":[1.7677106E2,2.6734638E1,1.5003642E2,3.0408473E0,2.369379E1,6.0777294E1,8.925913E1,1.0571052E1,1.3122739E1,5.1826637E1,8.950657E0,8.286518E0,8.097261E1,3.0959404E0,1.0026798E1,4.2046314E1,9.780322E0,4.737945E0,4.212712E0,6.825571E1,1.2716901E1],"tree_param":{"num_deleted":"0","num_feature":"4","num_nodes":"21","size_leaf_vector":"1"}},{"base_weights":[1.1081268E-2,-1.061631E-2,3.8172254E-1,2.1040474E-1,-4.400394E-2,6.507971E-2,-1.1259151E-2,-8.1001595E-2,3.9392048E-1,-5.8856893E-2,4.2134117E-2,8.866946E-3,-3.2970067E-2,7.576233E-2,9.039644E-3,-3.4294599E-3,-2.7037432E-2],"categories":[],"categories_nodes":[],"categories_segments":[],"categories_sizes":[],"default_left":[0,0,0,0,0,0,0,0,0,0,0,0,0,0,0,0,0],"id":51,"left_children":[1,3,5,7,9,-1,-1,11,13,15,-1,-1,-1,-1,-1,-1,-1],"loss_changes":[1.4661398E0,1.2331663E0,1.4679664E0,1.2312617E0,1.0064312E0,0E0,0E0,4.3559703E-1,1.3682666E0,7.073462E-1,0E0,0E0,0E0,0E0,0E0,0E0,0E0],"parents":[2147483647,0,0,1,1,2,2,3,3,4,4,7,7,8,8,9,9],"right_children":[2,4,6,8,10,-1,-1,12,14,16,-1,-1,-1,-1,-1,-1,-1],"split_conditions":[1.7262712E1,1.3524355E-1,8.508108E-1,8.684864E-2,8.643991E-1,6.507971E-2,-1.1259151E-2,2.6485326E-2,7.761297E-2,7.5940645E-1,4.2134117E-2,8.866946E-3,-3.2970067E-2,7.576233E-2,9.039644E-3,-3.4294599E-3,-2.7037432E-2],"split_indices":[0,1,1,0,1,0,0,1,1,1,0,0,0,0,0,0,0],"split_type":[0,0,0,0,0,0,0,0,0,0,0,0,0,0,0,0,0],"sum_hessian":[1.7619144E2,1.6711026E2,9.081187E0,2.0842049E1,1.462682E2,5.806316E0,3.274871E0,8.058919E0,1.2783131E1,1.4279875E2,3.469457E0,4.934088E0,3.1248302E0,4.9846435E0,7.798487E0,1.2940643E2,1.3392309E1],"tree_param":{"num_deleted":"0","num_feature":"4","num_nodes":"17","size_leaf_vector":"1"}},{"base_weights":[-4.7284268E-2,5.2203752E-2,-6.748858E-2,-1.2289268E-1,8.749565E-2,-4.9753997E-2,-2.7693766E-1,5.47398E-1,-1.6962428E-2,-1.6475676E-2,2.1810887E-2,-4.341378E-2,-1.1769891E-2,4.5918613E-3,1.0538528E-1,2.5734976E-2,-1.9321641E-2],"categories":[],"categories_nodes":[],"categories_segments":[],"categories_sizes":[],"default_left":[0,0,0,0,0,0,0,0,0,0,0,0,0,0,0,0,0],"id":52,"left_children":[1,-1,3,5,7,9,11,13,15,-1,-1,-1,-1,-1,-1,-1,-1],"loss_changes":[2.013859E0,0E0,1.4825376E0,1.3827479E0,2.2307582E0,2.7313592E0,8.994956E-1,2.0161283E0,1.8600448E0,0E0,0E0,0E0,0E0,0E0,0E0,0E0,0E0],"parents":[2147483647,0,0,2,2,3,3,4,4,5,5,6,6,7,7,8,8],"right_children":[2,-1,4,6,8,10,12,14,16,-1,-1,-1,-1,-1,-1,-1,-1],"split_conditions":[3.0364372E-2,5.2203752E-2,5.070281E0,1.9085366E0,6.1363635E0,1.1721001E0,5.6908494E-1,6.91129E-1,6.770073E-1,-1.6475676E-2,2.1810887E-2,-4.341378E-2,-1.1769891E-2,4.5918613E-3,1.0538528E-1,2.5734976E-2,-1.9321641E-2],"split_indices":[0,0,0,0,0,0,1,1,1,0,0,0,0,0,0,0,0],"split_type":[0,0,0,0,0,0,0,0,0,0,0,0,0,0,0,0,0],"sum_hessian":[1.7496498E2,4.975546E0,1.6998943E2,1.2585191E2,4.413752E1,8.6672844E1,3.9179066E1,7.5618005E0,3.657572E1,6.1169094E1,2.5503754E1,1.8530993E1,2.0648071E1,4.4468026E0,3.114998E0,1.3905883E1,2.2669838E1],"tree_param":{"num_deleted":"0","num_feature":"4","num_nodes":"17","size_leaf_vector":"1"}},{"base_weights":[1.2990604E-3,-1.4907615E-2,6.366361E-2,4.567867E-3,-2.480746E-1,-1.46691995E-2,4.6868104E-2,-4.0556E-1,9.994451E-3,2.2934107E-3,-1.8777205E-2,-4.9678594E-2,-2.0583173E-2],"categories":[],"categories_nodes":[],"categories_segments":[],"categories_sizes":[],"default_left":[0,0,0,0,0,0,0,0,0,0,0,0,0],"id":53,"left_children":[1,3,-1,5,7,9,-1,11,-1,-1,-1,-1,-1],"loss_changes":[1.8934891E0,8.1269807E-1,0E0,1.485946E0,8.262045E-1,1.0293968E0,0E0,7.5138807E-3,0E0,0E0,0E0,0E0,0E0],"parents":[2147483647,0,0,1,1,3,3,4,4,5,5,7,7],"right_children":[2,4,-1,6,8,10,-1,12,-1,-1,-1,-1,-1],"split_conditions":[3.65E1,7.848549E-1,6.366361E-2,7.561513E-1,8.6564523E-1,6.2184876E-1,4.6868104E-2,9.315385E0,9.994451E-3,2.2934107E-3,-1.8777205E-2,-4.9678594E-2,-2.0583173E-2],"split_indices":[2,1,0,1,1,1,0,2,0,0,0,0,0],"split_type":[0,0,0,0,0,0,0,0,0,0,0,0,0],"sum_hessian":[1.7593294E2,1.723555E2,3.5774403E0,1.5957812E2,1.2777374E1,1.5394997E2,5.628157E0,8.880692E0,3.896682E0,1.2671365E2,2.7236313E1,4.73156E0,4.1491313E0],"tree_param":{"num_deleted":"0","num_feature":"4","num_nodes":"13","size_leaf_vector":"1"}},{"base_weights":[-1.0937532E-2,5.379333E-2,-2.3659353E-1,-2.1541301E-2,3.267272E-1,-3.7876913E-1,2.1074753E-1,4.514189E-2,-5.4315526E-2,4.115037E-1,-1.4512929E-2,2.9033557E-2,-4.9228376E-1,7.0368454E-2,-4.5549862E-2,2.1733997E-2,-7.4382075E-3,2.6931196E-2,8.927872E-2,-2.2950264E-2,-5.577722E-2],"categories":[],"categories_nodes":[],"categories_segments":[],"categories_sizes":[],"default_left":[0,0,0,0,0,0,0,0,0,0,0,0,0,0,0,0,0,0,0,0,0],"id":54,"left_children":[1,3,5,7,9,11,13,15,-1,17,-1,-1,19,-1,-1,-1,-1,-1,-1,-1,-1],"loss_changes":[2.575352E0,2.8303986E0,2.5998497E0,3.7995322E0,1.2756493E0,2.4715838E0,3.6180356E0,2.0004005E0,0E0,1.3982105E0,0E0,0E0,2.4902153E-1,0E0,0E0,0E0,0E0,0E0,0E0,0E0,0E0],"parents":[2147483647,0,0,1,1,2,2,3,3,4,4,5,5,6,6,7,7,9,9,12,12],"right_children":[2,4,6,8,10,12,14,16,-1,18,-1,-1,20,-1,-1,-1,-1,-1,-1,-1,-1],"split_conditions":[4.4962215E0,2.7325256E0,1.1601851E1,1.9777777E0,2.5254092E0,1.1180556E0,2.0290909E1,7.222222E-1,-5.4315526E-2,2.1910112E0,-1.4512929E-2,2.9033557E-2,6.277193E0,7.0368454E-2,-4.5549862E-2,2.1733997E-2,-7.4382075E-3,2.6931196E-2,8.927872E-2,-2.2950264E-2,-5.577722E-2],"split_indices":[0,0,2,0,3,2,2,2,0,3,0,0,0,0,0,0,0,0,0,0,0],"split_type":[0,0,0,0,0,0,0,0,0,0,0,0,0,0,0,0,0,0,0,0,0],"sum_hessian":[1.7318776E2,1.3482951E2,3.8358246E1,1.0609898E2,2.873053E1,2.9393215E1,8.965031E0,9.4712654E1,1.13863325E1,2.4642881E1,4.0876493E0,3.9096136E0,2.54836E1,5.206665E0,3.7583652E0,3.881303E1,5.5899628E1,2.0387028E1,4.2558527E0,6.2871237E0,1.9196478E1],"tree_param":{"num_deleted":"0","num_feature":"4","num_nodes":"21","size_leaf_vector":"1"}},{"base_weights":[-5.9051465E-2,-1.151369E-1,1.3248575E-1,4.3424737E-2,-1.3434465E-1,3.2249936E-1,-2.3821512E-1,-4.1725963E-1,-8.4032E-2,1.0501161E-1,9.1502555E-2,-5.3257324E-2,2.090167E-2,-2.6386295E-2,-5.3587016E-2,9.632724E-2,-1.2262622E-2,7.096984E-2,-1.2297516E-2],"categories":[],"categories_nodes":[],"categories_segments":[],"categories_sizes":[],"default_left":[0,0,0,0,0,0,0,0,0,0,0,0,0,0,0,0,0,0,0],"id":55,"left_children":[1,3,5,-1,7,9,11,13,15,17,-1,-1,-1,-1,-1,-1,-1,-1,-1],"loss_changes":[1.8866234E0,1.4614832E0,2.8713636E0,0E0,1.7960355E0,3.2495177E0,1.9604931E0,1.3164663E-1,4.63223E0,3.016632E0,0E0,0E0,0E0,0E0,0E0,0E0,0E0,0E0,0E0],"parents":[2147483647,0,0,1,1,2,2,4,4,5,5,6,6,7,7,8,8,9,9],"right_children":[2,4,6,-1,8,10,12,14,16,18,-1,-1,-1,-1,-1,-1,-1,-1,-1],"split_conditions":[5.244076E0,2.4978466E-2,8.080808E-1,4.3424737E-2,3.7269372E-1,7.5940645E-1,8.6564523E-1,2.0525292E-1,9.815141E-2,5.4163486E-1,9.1502555E-2,-5.3257324E-2,2.090167E-2,-2.6386295E-2,-5.3587016E-2,9.632724E-2,-1.2262622E-2,7.096984E-2,-1.2297516E-2],"split_indices":[2,2,1,0,2,1,1,2,1,1,0,0,0,0,0,0,0,0,0],"split_type":[0,0,0,0,0,0,0,0,0,0,0,0,0,0,0,0,0,0,0],"sum_hessian":[1.7336475E2,1.3481078E2,3.8553974E1,3.648262E0,1.3116252E2,2.57532E1,1.2800772E1,1.84024E1,1.1276012E2,1.9823095E1,5.9301057E0,7.7395487E0,5.0612235E0,9.798237E0,8.604161E0,3.0640154E0,1.09696106E2,4.969164E0,1.4853931E1],"tree_param":{"num_deleted":"0","num_feature":"4","num_nodes":"19","size_leaf_vector":"1"}},{"base_weights":[7.681388E-3,-2.4629985E-1,2.436939E-2,-1.1113726E-2,-3.6502298E-2,8.214836E-2,1.6790683E-3,-1.4047139E-2,2.5513497E-1,-3.3638295E-2,-3.648032E-4,7.100648E-3,4.2833503E-2],"categories":[],"categories_nodes":[],"categories_segments":[],"categories_sizes":[],"default_left":[0,0,0,0,0,0,0,0,0,0,0,0,0],"id":56,"left_children":[1,3,5,-1,-1,-1,7,9,11,-1,-1,-1,-1],"loss_changes":[6.948847E-1,7.331681E-2,2.7867484E0,0E0,0E0,0E0,6.4724284E-1,4.5728287E-1,2.2276181E-1,0E0,0E0,0E0,0E0],"parents":[2147483647,0,0,1,1,2,2,6,6,7,7,8,8],"right_children":[2,4,6,-1,-1,-1,8,10,12,-1,-1,-1,-1],"split_conditions":[5.5199604E-2,2.6485326E-2,7.761297E-2,-1.1113726E-2,-3.6502298E-2,8.214836E-2,2.7702703E1,2.0525292E-1,8.407871E-1,-3.3638295E-2,-3.648032E-4,7.100648E-3,4.2833503E-2],"split_indices":[1,1,1,0,0,0,2,2,1,0,0,0,0],"split_type":[0,0,0,0,0,0,0,0,0,0,0,0,0],"sum_hessian":[1.6676826E2,9.064264E0,1.57704E2,5.5379176E0,3.5263464E0,3.268537E0,1.5443546E2,1.4593091E2,8.50456E0,3.2805912E0,1.4265031E2,5.085507E0,3.419053E0],"tree_param":{"num_deleted":"0","num_feature":"4","num_nodes":"13","size_leaf_vector":"1"}},{"base_weights":[1.417984E-2,3.9075155E-2,-5.1862627E-2,7.6127388E-3,4.1593498E-1,-8.4768794E-2,6.915586E-2,6.142246E-1,3.665767E-3,1.3065735E-2,-3.5514258E-2,2.3550825E-2,-9.891006E-3,1.0520329E-1,1.1581061E-2],"categories":[],"categories_nodes":[],"categories_segments":[],"categories_sizes":[],"default_left":[0,0,0,0,0,0,0,0,0,0,0,0,0,0,0],"id":57,"left_children":[1,3,-1,5,7,9,11,13,-1,-1,-1,-1,-1,-1,-1],"loss_changes":[2.28256E0,1.9405601E0,0E0,8.9043975E-1,8.632438E-1,3.686884E0,2.685822E0,1.521435E0,0E0,0E0,0E0,0E0,0E0,0E0,0E0],"parents":[2147483647,0,0,1,1,3,3,4,4,5,5,6,6,7,7],"right_children":[2,4,-1,6,8,10,12,14,-1,-1,-1,-1,-1,-1,-1],"split_conditions":[1.7262712E1,9.572917E0,-5.1862627E-2,1.0876737E0,1.3139896E1,4.797891E-1,2.637771E0,6.770073E-1,3.665767E-3,1.3065735E-2,-3.5514258E-2,2.3550825E-2,-9.891006E-3,1.0520329E-1,1.1581061E-2],"split_indices":[0,0,0,0,0,0,0,1,0,0,0,0,0,0,0],"split_type":[0,0,0,0,0,0,0,0,0,0,0,0,0,0,0],"sum_hessian":[1.7316951E2,1.6650398E2,6.6655354E0,1.5486086E2,1.164312E1,6.111688E1,9.374398E1,7.0658894E0,4.5772305E0,3.4096584E1,2.7020296E1,4.720951E1,4.653447E1,3.063502E0,4.002387E0],"tree_param":{"num_deleted":"0","num_feature":"4","num_nodes":"15","size_leaf_vector":"1"}},{"base_weights":[2.1491095E-2,-3.1665076E-2,1.2804514E-1,4.643651E-3,-4.5105632E-2,4.3601835E-1,3.0711342E-2,1.6991118E-1,-5.1183064E-2,5.9996426E-1,-7.0664524E-3,-3.569369E-2,8.6886615E-2,-8.881903E-3,9.2639826E-2,-4.9647376E-2,-8.610898E-4,3.478318E-2,8.222564E-2,3.2374244E-2,-5.9612603E-3],"categories":[],"categories_nodes":[],"categories_segments":[],"categories_sizes":[],"default_left":[0,0,0,0,0,0,0,0,0,0,0,0,0,0,0,0,0,0,0,0,0],"id":58,"left_children":[1,3,5,7,-1,9,11,13,15,17,-1,-1,19,-1,-1,-1,-1,-1,-1,-1,-1],"loss_changes":[9.714331E-1,1.7672861E0,1.651675E0,9.87093E-1,0E0,1.2076766E0,9.776785E-1,5.477092E0,1.4356495E0,1.7828488E-1,0E0,0E0,1.4365505E0,0E0,0E0,0E0,0E0,0E0,0E0,0E0,0E0],"parents":[2147483647,0,0,1,1,2,2,3,3,5,5,6,6,7,7,8,8,9,9,12,12],"right_children":[2,4,6,8,-1,10,12,14,16,18,-1,-1,20,-1,-1,-1,-1,-1,-1,-1,-1],"split_conditions":[3.0174603E0,2.5363288E0,1.402648E0,2.056686E-1,-4.5105632E-2,1.1974843E1,1.8011835E0,1.3710247E-1,2.4397591E-1,4.6103897E0,-7.0664524E-3,-3.569369E-2,4.8944592E0,-8.881903E-3,9.2639826E-2,-4.9647376E-2,-8.610898E-4,3.478318E-2,8.222564E-2,3.2374244E-2,-5.9612603E-3],"split_indices":[2,2,3,3,0,2,3,3,3,2,0,0,0,0,0,0,0,0,0,0,0],"split_type":[0,0,0,0,0,0,0,0,0,0,0,0,0,0,0,0,0,0,0,0,0],"sum_hessian":[1.6809245E2,1.11989204E2,5.6103252E1,1.0375695E2,8.232254E0,1.239075E1,4.37125E1,2.6135124E1,7.7621826E1,9.371652E0,3.0190983E0,4.6297684E0,3.9082733E1,2.0033693E1,6.1014304E0,5.638117E0,7.198371E1,5.8035955E0,3.5680563E0,1.4733983E1,2.4348751E1],"tree_param":{"num_deleted":"0","num_feature":"4","num_nodes":"21","size_leaf_vector":"1"}},{"base_weights":[-3.5762396E-2,-3.1434202E-1,1.601086E-2,-1.1608407E-2,-4.7786462E-1,2.8137222E-1,-5.4945823E-2,-4.52773E-2,2.4334739E-1,-5.6282323E-2,-2.3135874E-2,-5.2963823E-2,4.904512E-1,-3.2981434E-1,3.9834954E-2,-0E0,4.1508354E-2,6.06712E-2,3.250125E-3,-1.5891949E-2,-4.442277E-2,5.7058197E-2,-2.795645E-3],"categories":[],"categories_nodes":[],"categories_segments":[],"categories_sizes":[],"default_left":[0,0,0,0,0,0,0,0,0,0,0,0,0,0,0,0,0,0,0,0,0,0,0],"id":59,"left_children":[1,3,5,7,9,11,13,-1,15,-1,-1,-1,17,19,21,-1,-1,-1,-1,-1,-1,-1,-1],"loss_changes":[2.5540721E0,1.3180001E0,2.8237112E0,1.3642068E0,1.6235638E-1,5.626562E0,3.0972233E0,0E0,3.0286902E-1,0E0,0E0,0E0,1.2899332E0,4.644003E-1,3.2300246E0,0E0,0E0,0E0,0E0,0E0,0E0,0E0,0E0],"parents":[2147483647,0,0,1,1,2,2,3,3,4,4,5,5,6,6,8,8,12,12,13,13,14,14],"right_children":[2,4,6,8,10,12,14,-1,16,-1,-1,-1,18,20,22,-1,-1,-1,-1,-1,-1,-1,-1],"split_conditions":[4.7278383E-1,1.2280702E-1,2.8369606E-1,3.2258064E-2,3.639679E-1,1.705847E-1,4.4038716E-1,-4.52773E-2,9.48718E-2,-5.6282323E-2,-2.3135874E-2,-5.2963823E-2,1.2059369E0,3.5134068E-1,4.6741918E-1,-0E0,4.1508354E-2,6.06712E-2,3.250125E-3,-1.5891949E-2,-4.442277E-2,5.7058197E-2,-2.795645E-3],"split_indices":[2,2,1,2,2,1,1,0,2,0,0,0,2,1,1,0,0,0,0,0,0,0,0],"split_type":[0,0,0,0,0,0,0,0,0,0,0,0,0,0,0,0,0,0,0,0,0,0,0],"sum_hessian":[1.736662E2,2.6725046E1,1.4694116E2,9.9629345E0,1.6762112E1,3.0673471E1,1.16267685E2,3.5084314E0,6.454503E0,1.1209772E1,5.55234E0,5.8746014E0,2.479887E1,2.9446583E1,8.6821106E1,3.1345155E0,3.3199875E0,1.9344604E1,5.454266E0,1.3117095E1,1.6329487E1,9.160539E0,7.766057E1],"tree_param":{"num_deleted":"0","num_feature":"4","num_nodes":"23","size_leaf_vector":"1"}},{"base_weights":[3.3662744E-2,-1.4288536E-1,1.0046645E-1,4.1007247E-2,-2.527073E-1,7.850542E-2,6.820249E-2,-2.3854968E-1,6.9170766E-2,-3.5852954E-1,2.8153813E-2,-1.552243E-1,1.3996978E-1,-0E0,-4.9225487E-2,-5.503552E-2,-1.8350676E-2,-2.8074158E-2,3.0103782E-2,2.2932542E-2,-6.248535E-3],"categories":[],"categories_nodes":[],"categories_segments":[],"categories_sizes":[],"default_left":[0,0,0,0,0,0,0,0,0,0,0,0,0,0,0,0,0,0,0,0,0],"id":60,"left_children":[1,3,5,7,9,-1,11,13,-1,15,-1,17,19,-1,-1,-1,-1,-1,-1,-1,-1],"loss_changes":[2.117333E0,1.0220969E0,2.7461782E0,3.6410387E0,1.8719239E0,0E0,2.0401711E0,8.180477E-1,0E0,7.196522E-1,0E0,1.8441994E0,1.7715447E0,0E0,0E0,0E0,0E0,0E0,0E0,0E0,0E0],"parents":[2147483647,0,0,1,1,2,2,3,3,4,4,6,6,7,7,9,9,11,11,12,12],"right_children":[2,4,6,8,10,-1,12,14,-1,16,-1,18,20,-1,-1,-1,-1,-1,-1,-1,-1],"split_conditions":[2.6476377E-1,1.0595358E-1,2.8198937E-1,8.442669E-2,1.2895278E0,7.850542E-2,1.5799458E0,8.684864E-2,6.9170766E-2,3.985765E-1,2.8153813E-2,6.9626865E0,6.215625E0,-0E0,-4.9225487E-2,-5.503552E-2,-1.8350676E-2,-2.8074158E-2,3.0103782E-2,2.2932542E-2,-6.248535E-3],"split_indices":[1,1,1,1,2,0,0,0,0,0,0,2,2,0,0,0,0,0,0,0,0],"split_type":[0,0,0,0,0,0,0,0,0,0,0,0,0,0,0,0,0,0,0,0,0],"sum_hessian":[1.7766776E2,4.804889E1,1.2961887E2,1.7859644E1,3.0189243E1,4.6442366E0,1.2497463E2,1.2828094E1,5.0315504E0,2.5628824E1,4.5604196E0,2.976223E1,9.52124E1,7.2046914E0,5.623402E0,1.093175E1,1.4697074E1,2.3814693E1,5.947536E0,6.630793E1,2.8904472E1],"tree_param":{"num_deleted":"0","num_feature":"4","num_nodes":"21","size_leaf_vector":"1"}},{"base_weights":[3.007376E-2,1.5423117E-2,3.4126407E-1,3.6726817E-2,-1.8412076E-1,5.252412E-2,2.5120915E-3,2.2906894E-2,5.20762E-2,-2.895559E-1,-0E0,4.279466E-3,-3.6752567E-2,-6.106436E-3,-4.919798E-2],"categories":[],"categories_nodes":[],"categories_segments":[],"categories_sizes":[],"default_left":[0,0,0,0,0,0,0,0,0,0,0,0,0,0,0],"id":61,"left_children":[1,3,5,7,9,-1,-1,11,-1,13,-1,-1,-1,-1,-1],"loss_changes":[7.5802827E-1,7.0924914E-1,3.6945677E-1,9.6205384E-1,2.91816E-1,0E0,0E0,1.1534879E0,0E0,3.7464392E-1,0E0,0E0,0E0,0E0,0E0],"parents":[2147483647,0,0,1,1,2,2,3,3,4,4,7,7,9,9],"right_children":[2,4,6,8,10,-1,-1,12,-1,14,-1,-1,-1,-1,-1],"split_conditions":[2.7702703E1,9.793478E0,6.4666664E1,8.251845E-1,1.4772727E1,5.252412E-2,2.5120915E-3,7.561513E-1,5.20762E-2,8.634193E-1,-0E0,4.279466E-3,-3.6752567E-2,-6.106436E-3,-4.919798E-2],"split_indices":[2,2,2,1,2,0,0,1,0,1,0,0,0,0,0],"split_type":[0,0,0,0,0,0,0,0,0,0,0,0,0,0,0],"sum_hessian":[1.7424371E2,1.6771854E2,6.5251746E0,1.5272989E2,1.4988657E1,3.506739E0,3.0184355E0,1.4970938E2,3.0205045E0,8.945284E0,6.0433726E0,1.4354408E2,6.165298E0,5.0456014E0,3.899683E0],"tree_param":{"num_deleted":"0","num_feature":"4","num_nodes":"15","size_leaf_vector":"1"}},{"base_weights":[-5.649672E-3,7.163766E-2,-2.0684905E-1,-6.284604E-2,2.967035E-1,-2.8140092E-1,6.858312E-2,3.3807512E-2,-1.0103717E-1,5.893972E-1,1.452724E-1,-3.8451877E-1,-1.4223592E-2,-4.3638654E-2,-2.8347573E-3,9.097912E-2,1.8320335E-2,-3.5521317E-2,2.9625488E-2,-5.4467786E-2,-2.793837E-2,4.9356334E-2,-5.1159807E-2],"categories":[],"categories_nodes":[],"categories_segments":[],"categories_sizes":[],"default_left":[0,0,0,0,0,0,0,0,0,0,0,0,0,0,0,0,0,0,0,0,0,0,0],"id":62,"left_children":[1,3,5,7,9,11,-1,-1,13,15,17,19,21,-1,-1,-1,-1,-1,-1,-1,-1,-1,-1],"loss_changes":[2.7788332E0,3.9215612E0,3.4604533E0,1.2473224E0,1.985888E0,1.2408948E0,0E0,0E0,1.7633314E0,1.7995963E0,2.626655E0,3.2742834E-1,3.868289E0,0E0,0E0,0E0,0E0,0E0,0E0,0E0,0E0,0E0,0E0],"parents":[2147483647,0,0,1,1,2,2,3,3,4,4,5,5,8,8,9,9,10,10,11,11,12,12],"right_children":[2,4,6,8,10,12,-1,-1,14,16,18,20,22,-1,-1,-1,-1,-1,-1,-1,-1,-1,-1],"split_conditions":[3.2705882E0,1.3975409E0,7.98E1,1.7266609E-2,4.4038716E-1,7.785736E-1,6.858312E-2,3.3807512E-2,9.815141E-2,1.6436782E0,4.977169E-1,4.794737E0,1.1423424E1,-4.3638654E-2,-2.8347573E-3,9.097912E-2,1.8320335E-2,-3.5521317E-2,2.9625488E-2,-5.4467786E-2,-2.793837E-2,4.9356334E-2,-5.1159807E-2],"split_indices":[2,2,2,1,1,1,0,0,1,2,1,2,2,0,0,0,0,0,0,0,0,0,0],"split_type":[0,0,0,0,0,0,0,0,0,0,0,0,0,0,0,0,0,0,0,0,0,0,0],"sum_hessian":[1.7587877E2,1.27173965E2,4.8704796E1,7.977964E1,4.7394325E1,4.5686127E1,3.018669E0,6.0280485E0,7.3751595E1,1.4948517E1,3.244581E1,3.237675E1,1.3309375E1,1.2001984E1,6.174961E1,7.5261364E0,7.422381E0,7.05256E0,2.5393248E1,1.0797034E1,2.1579718E1,6.490057E0,6.819318E0],"tree_param":{"num_deleted":"0","num_feature":"4","num_nodes":"23","size_leaf_vector":"1"}},{"base_weights":[1.8392736E-2,-4.5645166E-2,3.1538125E-2,7.097879E-2,1.3041972E-2,-7.982915E-3,1.8529722E-1,3.261972E-3,-2.9819397E-2,3.2109078E-2,-2.685423E-4],"categories":[],"categories_nodes":[],"categories_segments":[],"categories_sizes":[],"default_left":[0,0,0,0,0,0,0,0,0,0,0],"id":63,"left_children":[1,-1,3,-1,5,7,9,-1,-1,-1,-1],"loss_changes":[1.0518104E0,0E0,2.0446627E0,0E0,6.209434E-1,1.7863057E0,5.083253E-1,0E0,0E0,0E0,0E0],"parents":[2147483647,0,0,2,2,4,4,5,5,6,6],"right_children":[2,-1,4,-1,6,8,10,-1,-1,-1,-1],"split_conditions":[5.031056E-2,-4.5645166E-2,9.8092645E-2,7.097879E-2,9.252174E0,5.5034966E0,7.785736E-1,3.261972E-3,-2.9819397E-2,3.2109078E-2,-2.685423E-4],"split_indices":[0,0,0,0,0,0,1,0,0,0,0],"split_type":[0,0,0,0,0,0,0,0,0,0,0],"sum_hessian":[1.7200604E2,3.5201147E0,1.6848593E2,3.3370118E0,1.6514893E2,1.4751666E2,1.7632257E1,1.2988748E2,1.7629179E1,1.0134934E1,7.497323E0],"tree_param":{"num_deleted":"0","num_feature":"4","num_nodes":"11","size_leaf_vector":"1"}},{"base_weights":[5.1040365E-3,-4.2203128E-1,4.2272326E-2,-0E0,-5.503992E-2,2.1805017E-1,-4.4947516E-2,7.482509E-2,7.3294437E-1,-3.349971E-1,1.1540543E-1,2.4146495E-2,-5.435133E-2,9.947168E-2,2.0625055E-2,-4.9553677E-2,-0E0,6.223355E-2,-1.1775236E-3],"categories":[],"categories_nodes":[],"categories_segments":[],"categories_sizes":[],"default_left":[0,0,0,0,0,0,0,0,0,0,0,0,0,0,0,0,0,0,0],"id":64,"left_children":[1,3,5,-1,-1,7,9,11,13,15,17,-1,-1,-1,-1,-1,-1,-1,-1],"loss_changes":[2.7684956E0,7.9791236E-1,2.521747E0,0E0,0E0,3.8845215E0,5.1396165E0,4.62608E0,1.2738066E0,2.1053166E0,4.635895E0,0E0,0E0,0E0,0E0,0E0,0E0,0E0,0E0],"parents":[2147483647,0,0,1,1,2,2,5,5,6,6,7,7,8,8,9,9,10,10],"right_children":[2,4,6,-1,-1,8,10,12,14,16,18,-1,-1,-1,-1,-1,-1,-1,-1],"split_conditions":[1.8234165E-1,1.076716E-2,1.0609137E0,-0E0,-5.503992E-2,