{"learner":{"attributes":{"best_iteration":"1","best_score":"1.6116830336081016","scikit_learn":"{\"_estimator_type\": \"classifier\"}"},"feature_names":["warm_up_body_to_lower_wick_ratio","warm_up_body_to_range_ratio","warm_up_body_to_upper_wick_ratio"],"feature_types":["float","float","float"],"gradient_booster":{"model":{"gbtree_model_param":{"num_parallel_tree":"1","num_trees":"260"},"iteration_indptr":[0,5,10,15,20,25,30,35,40,45,50,55,60,65,70,75,80,85,90,95,100,105,110,115,120,125,130,135,140,145,150,155,160,165,170,175,180,185,190,195,200,205,210,215,220,225,230,235,240,245,250,255,260],"tree_info":[0,1,2,3,4,0,1,2,3,4,0,1,2,3,4,0,1,2,3,4,0,1,2,3,4,0,1,2,3,4,0,1,2,3,4,0,1,2,3,4,0,1,2,3,4,0,1,2,3,4,0,1,2,3,4,0,1,2,3,4,0,1,2,3,4,0,1,2,3,4,0,1,2,3,4,0,1,2,3,4,0,1,2,3,4,0,1,2,3,4,0,1,2,3,4,0,1,2,3,4,0,1,2,3,4,0,1,2,3,4,0,1,2,3,4,0,1,2,3,4,0,1,2,3,4,0,1,2,3,4,0,1,2,3,4,0,1,2,3,4,0,1,2,3,4,0,1,2,3,4,0,1,2,3,4,0,1,2,3,4,0,1,2,3,4,0,1,2,3,4,0,1,2,3,4,0,1,2,3,4,0,1,2,3,4,0,1,2,3,4,0,1,2,3,4,0,1,2,3,4,0,1,2,3,4,0,1,2,3,4,0,1,2,3,4,0,1,2,3,4,0,1,2,3,4,0,1,2,3,4,0,1,2,3,4,0,1,2,3,4,0,1,2,3,4,0,1,2,3,4,0,1,2,3,4,0,1,2,3,4],"trees":[{"base_weights":[9.006462E-4,-1.3165106E-1,1.347175E-1,4.3082833E-2,-1.624592E-1,6.4553326E-1,6.93815E-2,-5.4262143E-2,-1.1610454E-1,3.4048032E-2,9.659438E-2,1.00511596E-1,-4.6215188E-2,4.413859E-2,-1.5122865E-2,5.1072184E-3,9.177149E-2],"categories":[],"categories_nodes":[],"categories_segments":[],"categories_sizes":[],"default_left":[0,0,0,0,0,0,0,0,0,0,0,0,0,0,0,0,0],"id":0,"left_children":[1,3,5,-1,7,9,11,-1,13,-1,-1,15,-1,-1,-1,-1,-1],"loss_changes":[3.169477E0,1.5921348E0,2.863488E0,0E0,1.3802979E0,5.0134563E-1,1.3414956E0,0E0,1.561929E0,0E0,0E0,2.967195E0,0E0,0E0,0E0,0E0,0E0],"parents":[2147483647,0,0,1,1,2,2,4,4,5,5,6,6,8,8,11,11],"right_children":[2,4,6,-1,8,10,12,-1,14,-1,-1,16,-1,-1,-1,-1,-1],"split_conditions":[1.6527259E0,3.2258064E-2,1.9453682E0,4.3082833E-2,1.4799447E-1,2.5363288E0,3.65E1,-5.4262143E-2,1.3267544E-1,3.4048032E-2,9.659438E-2,2.4826923E1,-4.6215188E-2,4.413859E-2,-1.5122865E-2,5.1072184E-3,9.177149E-2],"split_indices":[0,2,0,0,2,2,2,0,0,0,0,2,0,0,0,0,0],"split_type":[0,0,0,0,0,0,0,0,0,0,0,0,0,0,0,0,0],"sum_hessian":[1.766692E2,8.838686E1,8.828233E1,3.7469428E0,8.463992E1,8.830689E0,7.9451645E1,7.8008337E0,7.683909E1,5.7402816E0,3.0904078E0,7.599964E1,3.4520018E0,3.6999464E0,7.3139145E1,7.278136E1,3.2182837E0],"tree_param":{"num_deleted":"0","num_feature":"3","num_nodes":"17","size_leaf_vector":"1"}},{"base_weights":[-2.957455E-2,-4.7605596E-2,3.2458842E-1,1.2514226E-2,-1.6162373E-1,7.828721E-2,-1.4778653E-2,-4.5477312E-2,4.4494906E-1,-4.3918777E-2,-8.281086E-2,9.524571E-4,-3.2415822E-2,9.6000694E-2,4.527771E-3,-1.5976438E-2,1.6440244E-2],"categories":[],"categories_nodes":[],"categories_segments":[],"categories_sizes":[],"default_left":[0,0,0,0,0,0,0,0,0,0,0,0,0,0,0,0,0],"id":1,"left_children":[1,3,5,7,9,-1,-1,11,13,-1,15,-1,-1,-1,-1,-1,-1],"loss_changes":[1.1037616E0,1.1646578E0,1.9815352E0,2.818291E0,1.1900992E0,0E0,0E0,1.5318072E0,2.5942373E0,0E0,9.2065156E-1,0E0,0E0,0E0,0E0,0E0,0E0],"parents":[2147483647,0,0,1,1,2,2,3,3,4,4,7,7,8,8,10,10],"right_children":[2,4,6,8,10,-1,-1,12,14,-1,16,-1,-1,-1,-1,-1,-1],"split_conditions":[1.7262712E1,2.78E0,2.5647058E1,2.039906E0,3.3912175E0,7.828721E-2,-1.4778653E-2,1.6310976E0,2.3235705E0,-4.3918777E-2,9.315385E0,9.524571E-4,-3.2415822E-2,9.6000694E-2,4.527771E-3,-1.5976438E-2,1.6440244E-2],"split_indices":[0,0,0,0,0,0,0,0,0,0,2,0,0,0,0,0,0],"split_type":[0,0,0,0,0,0,0,0,0,0,0,0,0,0,0,0,0],"sum_hessian":[1.7376044E2,1.6643489E2,7.3255477E0,1.0898313E2,5.7451756E1,3.4920516E0,3.8334959E0,9.66813E1,1.230183E1,1.1413657E1,4.6038097E1,8.125198E1,1.54293165E1,4.6531296E0,7.6487E0,3.5687424E1,1.0350674E1],"tree_param":{"num_deleted":"0","num_feature":"3","num_nodes":"17","size_leaf_vector":"1"}},{"base_weights":[-4.943155E-2,-8.207025E-2,3.066919E-1,3.2040149E-3,-3.1109464E-1,9.0571664E-2,-1.7342837E-1,-9.932758E-2,1.3594413E-1,-4.110895E-1,-1.476047E-1,-4.9636703E-2,2.8406192E-2,9.819071E-3,-2.3742678E-2,7.03864E-2,6.796351E-3,-7.588093E-3,-4.513841E-2,6.6663556E-2,-4.5822363E-2],"categories":[],"categories_nodes":[],"categories_segments":[],"categories_sizes":[],"default_left":[0,0,0,0,0,0,0,0,0,0,0,0,0,0,0,0,0,0,0,0,0],"id":2,"left_children":[1,3,5,7,9,-1,11,13,15,17,19,-1,-1,-1,-1,-1,-1,-1,-1,-1,-1],"loss_changes":[2.0115354E0,3.1441176E0,4.3900847E0,1.6067722E0,5.95675E-1,0E0,1.458694E0,1.8388715E0,1.8728142E0,2.654562E-1,4.956893E0,0E0,0E0,0E0,0E0,0E0,0E0,0E0,0E0,0E0,0E0],"parents":[2147483647,0,0,1,1,2,2,3,3,4,4,6,6,7,7,8,8,9,9,10,10],"right_children":[2,4,6,8,10,-1,12,14,16,18,20,-1,-1,-1,-1,-1,-1,-1,-1,-1,-1],"split_conditions":[8.2329416E-1,3.2705882E0,8.5267955E-1,3.647541E-1,6.8511397E-1,9.0571664E-2,8.842625E-1,4.4186047E-1,3.820059E-1,4.0587825E-1,7.116873E-1,-4.9636703E-2,2.8406192E-2,9.819071E-3,-2.3742678E-2,7.03864E-2,6.796351E-3,-7.588093E-3,-4.513841E-2,6.6663556E-2,-4.5822363E-2],"split_indices":[1,2,1,1,1,0,1,2,1,1,1,0,0,0,0,0,0,0,0,0,0],"split_type":[0,0,0,0,0,0,0,0,0,0,0,0,0,0,0,0,0,0,0,0,0],"sum_hessian":[1.7182608E2,1.5836252E2,1.3463568E1,1.15796555E2,4.2565964E1,5.688332E0,7.775235E0,6.50493E1,5.074725E1,2.5092556E1,1.7473408E1,4.6361914E0,3.139044E0,2.6587307E1,3.8461994E1,4.267879E0,4.6479374E1,3.2683342E0,2.1824223E1,4.4197135E0,1.3053696E1],"tree_param":{"num_deleted":"0","num_feature":"3","num_nodes":"21","size_leaf_vector":"1"}},{"base_weights":[-1.05230315E-2,-5.962071E-2,8.798872E-2,-2.8995125E-2,-4.504275E-2,4.0294018E-2,4.2068623E-2,-5.7959378E-2,3.885966E-1,-2.643647E-1,9.891848E-2,1.593729E-2,-1.0497029E-2,7.885243E-3,5.6334127E-2,-9.202954E-3,-3.3525694E-2,5.3509284E-2,3.3819159E-3],"categories":[],"categories_nodes":[],"categories_segments":[],"categories_sizes":[],"default_left":[0,0,0,0,0,0,0,0,0,0,0,0,0,0,0,0,0,0,0],"id":3,"left_children":[1,3,5,7,-1,-1,9,11,13,15,17,-1,-1,-1,-1,-1,-1,-1,-1],"loss_changes":[8.745824E-1,1.3946105E0,8.0204684E-1,1.369362E0,0E0,0E0,9.416461E-1,1.1124847E0,2.867874E-1,2.8669775E-2,1.2349265E0,0E0,0E0,0E0,0E0,0E0,0E0,0E0,0E0],"parents":[2147483647,0,0,1,1,2,2,3,3,6,6,7,7,8,8,9,9,10,10],"right_children":[2,4,6,8,-1,-1,10,12,14,16,18,-1,-1,-1,-1,-1,-1,-1,-1],"split_conditions":[3.0174603E0,2.685864E0,3.4224422E0,2.2764976E0,-4.504275E-2,4.0294018E-2,4.3239436E0,2.9331228E-1,1.8811953E0,3.7656765E0,5.0906734E0,1.593729E-2,-1.0497029E-2,7.885243E-3,5.6334127E-2,-9.202954E-3,-3.3525694E-2,5.3509284E-2,3.3819159E-3],"split_indices":[2,2,2,2,0,0,2,2,0,2,2,0,0,0,0,0,0,0,0],"split_type":[0,0,0,0,0,0,0,0,0,0,0,0,0,0,0,0,0,0,0],"sum_hessian":[1.7932411E2,1.2061846E2,5.870564E1,1.1308651E2,7.531954E0,6.2037272E0,5.250191E1,1.06780846E2,6.3056684E0,7.3694897E0,4.5132423E1,1.8186596E1,8.8594246E1,3.004154E0,3.3015141E0,3.2289193E0,4.14057E0,4.7241592E0,4.0408264E1],"tree_param":{"num_deleted":"0","num_feature":"3","num_nodes":"19","size_leaf_vector":"1"}},{"base_weights":[2.6704773E-2,1.18890524E-1,-2.1076466E-1,1.3787943E-2,6.7773676E-1,-3.138573E-1,2.1649657E-1,1.627002E-1,-3.966739E-1,-9.099068E-3,8.83971E-1,8.083187E-2,-4.1894525E-1,8.431248E-2,-4.870223E-2,-1.057618E-2,2.3006322E-2,-2.1472162E-2,-5.727002E-2,6.0267605E-2,1.1487066E-1,-1.565561E-2,3.9835006E-2,-5.164832E-2,-6.6837007E-3],"categories":[],"categories_nodes":[],"categories_segments":[],"categories_sizes":[],"default_left":[0,0,0,0,0,0,0,0,0,0,0,0,0,0,0,0,0,0,0,0,0,0,0,0,0],"id":4,"left_children":[1,3,5,7,9,11,13,15,17,-1,19,21,23,-1,-1,-1,-1,-1,-1,-1,-1,-1,-1,-1,-1],"loss_changes":[3.8632438E0,7.412992E0,2.2450087E0,6.674545E0,3.333477E0,1.7365675E0,4.8404775E0,1.4929705E0,7.2720623E-1,0E0,3.225851E-1,7.723571E-1,1.0108857E0,0E0,0E0,0E0,0E0,0E0,0E0,0E0,0E0,0E0,0E0,0E0,0E0],"parents":[2147483647,0,0,1,1,2,2,3,3,4,4,5,5,6,6,7,7,8,8,10,10,11,11,12,12],"right_children":[2,4,6,8,10,12,14,16,18,-1,20,22,24,-1,-1,-1,-1,-1,-1,-1,-1,-1,-1,-1,-1],"split_conditions":[3.7413793E0,2.7325256E0,1.1601851E1,1.5013477E0,1.3169014E0,1.4281915E0,2.0290909E1,1.8234165E-1,1.9777777E0,-9.099068E-3,6.215625E0,1.1141732E0,1.6194174E1,8.431248E-2,-4.870223E-2,-1.057618E-2,2.3006322E-2,-2.1472162E-2,-5.727002E-2,6.0267605E-2,1.1487066E-1,-1.565561E-2,3.9835006E-2,-5.164832E-2,-6.6837007E-3],"split_indices":[0,0,2,0,2,2,2,0,0,0,2,2,0,0,0,0,0,0,0,0,0,0,0,0,0],"split_type":[0,0,0,0,0,0,0,0,0,0,0,0,0,0,0,0,0,0,0,0,0,0,0,0,0],"sum_hessian":[1.7474896E2,1.265447E2,4.8204266E1,1.07525856E2,1.9018847E1,3.923648E1,8.967786E0,7.952285E1,2.8003008E1,4.0387034E0,1.4980144E1,8.098687E0,3.1137793E1,4.7133136E0,4.2544723E0,1.5539342E1,6.3983505E1,1.5140611E1,1.2862397E1,9.034639E0,5.945504E0,4.743942E0,3.3547454E0,2.3795374E1,7.342418E0],"tree_param":{"num_deleted":"0","num_feature":"3","num_nodes":"25","size_leaf_vector":"1"}},{"base_weights":[-1.867702E-2,-1.1389216E-1,1.5162954E-1,-7.2681434E-2,-2.9759738E-1,2.5455767E-1,-2.4136591E-1,-1.3459274E-1,1.7567116E-1,-5.4961413E-2,-6.2334485E-2,1.6667399E-1,6.694528E-1,-5.0672513E-2,-7.652642E-3,-8.266769E-3,-4.27027E-2,8.231094E-2,-1.3849254E-2,2.3831647E-2,-2.0498222E-2,3.180171E-2,-2.9508686E-2,8.843536E-2,2.1346515E-2,2.991888E-2,-4.4144794E-2],"categories":[],"categories_nodes":[],"categories_segments":[],"categories_sizes":[],"default_left":[0,0,0,0,0,0,0,0,0,0,0,0,0,0,0,0,0,0,0,0,0,0,0,0,0,0,0],"id":5,"left_children":[1,3,5,7,9,11,13,15,17,-1,19,21,23,-1,25,-1,-1,-1,-1,-1,-1,-1,-1,-1,-1,-1,-1],"loss_changes":[2.9117377E0,8.1639826E-1,2.657413E0,1.4983069E0,1.1146984E0,1.6833386E0,7.896599E-1,1.0961949E0,4.1086435E0,0E0,5.554187E-1,3.1741583E0,5.319238E-1,0E0,1.2723844E0,0E0,0E0,0E0,0E0,0E0,0E0,0E0,0E0,0E0,0E0,0E0,0E0],"parents":[2147483647,0,0,1,1,2,2,3,3,4,4,5,5,6,6,7,7,8,8,10,10,11,11,12,12,14,14],"right_children":[2,4,6,8,10,12,14,16,18,-1,20,22,24,-1,26,-1,-1,-1,-1,-1,-1,-1,-1,-1,-1,-1,-1],"split_conditions":[2.6981132E0,1.9342252E0,7.964264E-1,4.144889E-1,5.1902175E-1,7.5940645E-1,1.1974843E1,3.6338797E-1,4.4190872E-1,-5.4961413E-2,5.6691325E-1,6.923569E-1,6.6043954E0,-5.0672513E-2,3.65E1,-8.266769E-3,-4.27027E-2,8.231094E-2,-1.3849254E-2,2.3831647E-2,-2.0498222E-2,3.180171E-2,-2.9508686E-2,8.843536E-2,2.1346515E-2,2.991888E-2,-4.4144794E-2],"split_indices":[2,2,1,1,1,1,2,1,1,0,1,1,2,0,2,0,0,0,0,0,0,0,0,0,0,0,0],"split_type":[0,0,0,0,0,0,0,0,0,0,0,0,0,0,0,0,0,0,0,0,0,0,0,0,0,0,0],"sum_hessian":[1.777299E2,1.1458567E2,6.314423E1,9.517499E1,1.9410683E1,5.0519543E1,1.2624686E1,7.687235E1,1.830264E1,8.521313E0,1.088937E1,4.3044537E1,7.4750066E0,5.16467E0,7.4600163E0,6.666064E1,1.0211715E1,5.554356E0,1.2748284E1,3.0626647E0,7.826705E0,3.281666E1,1.0227874E1,4.2930303E0,3.1819763E0,4.4161005E0,3.0439155E0],"tree_param":{"num_deleted":"0","num_feature":"3","num_nodes":"27","size_leaf_vector":"1"}},{"base_weights":[1.2001612E-2,2.1794146E-1,-3.8883325E-2,5.6928057E-2,5.5861366E-1,-1.6705163E-1,2.4122896E-2,1.8193895E-1,-4.7888923E-2,9.228134E-2,1.2221959E-2,-2.726824E-1,-0E0,6.688744E-2,-1.2294512E-2,-1.4846745E-2,2.677008E-2,-5.139309E-3,-2.9257242E-2,2.2774043E-2,-2.718687E-2,4.5592554E-2,-5.9344345E-3],"categories":[],"categories_nodes":[],"categories_segments":[],"categories_sizes":[],"default_left":[0,0,0,0,0,0,0,0,0,0,0,0,0,0,0,0,0,0,0,0,0,0,0],"id":6,"left_children":[1,3,5,7,9,11,13,15,-1,-1,-1,17,19,-1,21,-1,-1,-1,-1,-1,-1,-1,-1],"loss_changes":[1.882901E0,1.8617092E0,1.1692271E0,1.7665511E0,1.5510681E0,8.237884E-1,2.325623E0,6.6273445E-1,0E0,0E0,0E0,7.7994585E-2,1.2823983E0,0E0,2.005487E0,0E0,0E0,0E0,0E0,0E0,0E0,0E0,0E0],"parents":[2147483647,0,0,1,1,2,2,3,3,4,4,5,5,6,6,7,7,11,11,12,12,14,14],"right_children":[2,4,6,8,10,12,14,16,-1,-1,-1,18,20,-1,22,-1,-1,-1,-1,-1,-1,-1,-1],"split_conditions":[5.995763E-1,4.2725173E-1,1.5283018E0,3.639679E-1,5.132987E-1,3.756665E-1,1.679941E0,1.7266609E-2,-4.7888923E-2,9.228134E-2,1.2221959E-2,1.6112342E-1,1.2093596E0,6.688744E-2,4.0587825E-1,-1.4846745E-2,2.677008E-2,-5.139309E-3,-2.9257242E-2,2.2774043E-2,-2.718687E-2,4.5592554E-2,-5.9344345E-3],"split_indices":[2,2,2,2,2,1,2,1,0,0,0,1,2,0,1,0,0,0,0,0,0,0,0],"split_type":[0,0,0,0,0,0,0,0,0,0,0,0,0,0,0,0,0,0,0,0,0,0,0],"sum_hessian":[1.7616185E2,3.4642014E1,1.4151984E2,2.4515694E1,1.0126318E1,4.6620148E1,9.489969E1,2.0564817E1,3.9508762E0,4.787254E0,5.3390646E0,2.7951216E1,1.866893E1,4.2919507E0,9.0607735E1,3.8469317E0,1.6717886E1,3.0153222E0,2.4935894E1,1.0126097E1,8.542833E0,7.2858963E0,8.332184E1],"tree_param":{"num_deleted":"0","num_feature":"3","num_nodes":"23","size_leaf_vector":"1"}},{"base_weights":[2.3868114E-2,-3.767023E-1,6.401974E-2,3.0001868E-2,-5.6937456E-2,1.5146422E-1,-1.17088445E-1,1.05688944E-1,7.4830055E-1,-3.176272E-1,2.380113E-1,1.6892573E-2,-2.1017788E-2,3.1056765E-2,9.557552E-2,-4.8627358E-2,-1.2850235E-2,-1.1105239E-2,6.2425125E-2],"categories":[],"categories_nodes":[],"categories_segments":[],"categories_sizes":[],"default_left":[0,0,0,0,0,0,0,0,0,0,0,0,0,0,0,0,0,0,0],"id":7,"left_children":[1,3,5,-1,-1,7,9,11,13,15,17,-1,-1,-1,-1,-1,-1,-1,-1],"loss_changes":[2.8169959E0,2.272913E0,2.5657954E0,0E0,0E0,2.817982E0,3.8228793E0,2.0829558E0,2.5363684E-1,9.6579146E-1,2.7285728E0,0E0,0E0,0E0,0E0,0E0,0E0,0E0,0E0],"parents":[2147483647,0,0,1,1,2,2,5,5,6,6,7,7,8,8,9,9,10,10],"right_children":[2,4,6,-1,-1,8,10,12,14,16,18,-1,-1,-1,-1,-1,-1,-1,-1],"split_conditions":[1.0854817E-1,1.7266609E-2,6.2404287E-1,3.0001868E-2,-5.6937456E-2,5.867999E-1,7.7525324E-1,2.7325256E0,4.010989E0,4.155263E0,1.2266666E1,1.6892573E-2,-2.1017788E-2,3.1056765E-2,9.557552E-2,-4.8627358E-2,-1.2850235E-2,-1.1105239E-2,6.2425125E-2],"split_indices":[1,1,1,0,0,1,1,0,0,0,0,0,0,0,0,0,0,0,0],"split_type":[0,0,0,0,0,0,0,0,0,0,0,0,0,0,0,0,0,0,0],"sum_hessian":[1.745923E2,1.4915554E1,1.5967674E2,3.0670433E0,1.1848511E1,1.0816653E2,5.1510223E1,1.0171033E2,6.456198E0,3.316678E1,1.8343443E1,8.539581E1,1.6314516E1,3.0338318E0,3.4223661E0,1.6422544E1,1.6744234E1,9.873688E0,8.469756E0],"tree_param":{"num_deleted":"0","num_feature":"3","num_nodes":"19","size_leaf_vector":"1"}},{"base_weights":[1.1160932E-2,-2.8620044E-2,2.3964855E-1,1.2056684E-1,-1.1369374E-1,3.8767332E-1,-1.4302686E-1,3.1096611E-2,4.136606E-1,-5.9541866E-2,-2.7193215E-1,8.0919415E-2,1.6803999E-1,-4.7264826E-2,2.5321806E-2,-7.7775507E-3,3.911155E-2,6.708506E-2,-0E0,-1.2500052E-2,5.8851182E-2,-5.1783442E-2,5.1209703E-3,-3.960583E-3,6.0726967E-2],"categories":[],"categories_nodes":[],"categories_segments":[],"categories_sizes":[],"default_left":[0,0,0,0,0,0,0,0,0,0,0,0,0,0,0,0,0,0,0,0,0,0,0,0,0],"id":8,"left_children":[1,3,5,7,9,11,13,15,17,19,21,-1,23,-1,-1,-1,-1,-1,-1,-1,-1,-1,-1,-1,-1],"loss_changes":[1.608016E0,1.8987393E0,1.567244E0,1.359115E0,7.695184E-1,1.561533E0,1.1689744E0,1.7364217E0,1.2669232E0,3.1217153E0,1.9495445E0,0E0,1.3728702E0,0E0,0E0,0E0,0E0,0E0,0E0,0E0,0E0,0E0,0E0,0E0,0E0],"parents":[2147483647,0,0,1,1,2,2,3,3,4,4,5,5,6,6,7,7,8,8,9,9,10,10,12,12],"right_children":[2,4,6,8,10,12,14,16,18,20,22,-1,24,-1,-1,-1,-1,-1,-1,-1,-1,-1,-1,-1,-1],"split_conditions":[7.4971266E0,8.913934E-1,1.1536082E1,6.4324325E-1,5.5034966E0,1.3445455E1,1.7262712E1,1.0951087E0,1.5630713E0,4.010989E0,1.194362E1,8.0919415E-2,3.65E1,-4.7264826E-2,2.5321806E-2,-7.7775507E-3,3.911155E-2,6.708506E-2,-0E0,-1.2500052E-2,5.8851182E-2,-5.1783442E-2,5.1209703E-3,-3.960583E-3,6.0726967E-2],"split_indices":[2,2,0,2,0,2,0,0,0,0,0,0,2,0,0,0,0,0,0,0,0,0,0,0,0],"split_type":[0,0,0,0,0,0,0,0,0,0,0,0,0,0,0,0,0,0,0,0,0,0,0,0,0],"sum_hessian":[1.728337E2,1.4757683E2,2.5256872E1,5.3015377E1,9.4561455E1,1.839115E1,6.865722E0,4.172548E1,1.1289896E1,7.19479E1,2.2613552E1,5.2245593E0,1.316659E1,3.7804542E0,3.085268E0,3.242588E1,9.299599E0,6.4880147E0,4.8018813E0,6.622051E1,5.727384E0,1.2675102E1,9.938451E0,9.403325E0,3.7632644E0],"tree_param":{"num_deleted":"0","num_feature":"3","num_nodes":"25","size_leaf_vector":"1"}},{"base_weights":[3.9117265E-2,9.5522165E-2,-3.3766136E-1,4.941648E-2,9.5497385E-2,-5.620898E-2,-6.5019615E-2,2.2292487E-1,-7.544439E-2,7.455726E-2,-5.330477E-2,-1.6862383E-2,3.830419E-2,-3.7985504E-2,5.890411E-3],"categories":[],"categories_nodes":[],"categories_segments":[],"categories_sizes":[],"default_left":[0,0,0,0,0,0,0,0,0,0,0,0,0,0,0],"id":9,"left_children":[1,3,5,7,-1,-1,9,11,13,-1,-1,-1,-1,-1,-1],"loss_changes":[3.7955322E0,6.0348163E0,1.32003E0,3.2648232E0,0E0,0E0,4.854648E0,4.038412E0,3.620699E0,0E0,0E0,0E0,0E0,0E0,0E0],"parents":[2147483647,0,0,1,1,2,2,3,3,6,6,7,7,8,8],"right_children":[2,4,6,8,-1,-1,10,12,14,-1,-1,-1,-1,-1,-1],"split_conditions":[7.39881E-1,6.923569E-1,1.1601851E1,3.3281612E-1,9.5497385E-2,-5.620898E-2,1.4772727E1,3.104027E-1,4.4038716E-1,7.455726E-2,-5.330477E-2,-1.6862383E-2,3.830419E-2,-3.7985504E-2,5.890411E-3],"split_indices":[1,1,2,1,0,0,2,2,1,0,0,0,0,0,0],"split_type":[0,0,0,0,0,0,0,0,0,0,0,0,0,0,0],"sum_hessian":[1.7721681E2,1.550215E2,2.2195307E1,1.482428E2,6.7787037E0,1.1390581E1,1.0804725E1,6.204279E1,8.620001E1,3.6597025E0,7.1450224E0,1.7810783E1,4.4232002E1,2.6062899E1,6.013711E1],"tree_param":{"num_deleted":"0","num_feature":"3","num_nodes":"15","size_leaf_vector":"1"}},{"base_weights":[9.472585E-4,3.266426E-2,-3.6610496E-1,1.6298613E-3,1.1820381E-1,-5.4860074E-2,1.1648552E-3,-6.321938E-2,2.3631427E-1,6.134584E-2,-8.46918E-3,5.7579156E-2,-3.3504367E-3],"categories":[],"categories_nodes":[],"categories_segments":[],"categories_sizes":[],"default_left":[0,0,0,0,0,0,0,0,0,0,0,0,0],"id":10,"left_children":[1,3,5,7,-1,-1,-1,9,11,-1,-1,-1,-1],"loss_changes":[2.1299064E0,5.988628E0,1.0616822E0,2.5866995E0,0E0,0E0,0E0,1.9164671E0,3.451946E0,0E0,0E0,0E0,0E0],"parents":[2147483647,0,0,1,1,2,2,3,3,7,7,8,8],"right_children":[2,4,6,8,-1,-1,-1,10,12,-1,-1,-1,-1],"split_conditions":[8.080808E-1,7.848549E-1,2.0290909E1,6.2404287E-1,1.1820381E-1,-5.4860074E-2,1.1648552E-3,2.4978466E-2,6.7803466E-1,6.134584E-2,-8.46918E-3,5.7579156E-2,-3.3504367E-3],"split_indices":[1,1,2,1,0,0,0,2,1,0,0,0,0],"split_type":[0,0,0,0,0,0,0,0,0,0,0,0,0],"sum_hessian":[1.837904E2,1.7026154E2,1.3528859E1,1.6684496E2,3.4165814E0,8.995507E0,4.5333514E0,1.309615E2,3.5883465E1,3.0367024E0,1.279248E2,1.5552465E1,2.0330997E1],"tree_param":{"num_deleted":"0","num_feature":"3","num_nodes":"13","size_leaf_vector":"1"}},{"base_weights":[-3.3587592E-3,1.4145847E-1,-4.475919E-2,-1.8869978E-1,2.3875396E-1,-3.590532E-1,-1.662279E-2,-3.270463E-2,-3.4299945E-3,8.522274E-2,9.677255E-2,1.4050493E-3,-5.2938163E-2,-3.3388548E-2,1.5109077E-2,-1.2620635E-2,3.9434664E-2,-3.9534012E-4,3.0454338E-2],"categories":[],"categories_nodes":[],"categories_segments":[],"categories_sizes":[],"default_left":[0,0,0,0,0,0,0,0,0,0,0,0,0,0,0,0,0,0,0],"id":11,"left_children":[1,3,5,7,9,11,13,-1,-1,-1,15,-1,-1,-1,17,-1,-1,-1,-1],"loss_changes":[1.0203831E0,1.2599556E0,1.1421807E0,1.4270845E-1,2.415382E0,7.374747E-1,1.289371E0,0E0,0E0,0E0,1.7641294E0,0E0,0E0,0E0,6.589468E-1,0E0,0E0,0E0,0E0],"parents":[2147483647,0,0,1,1,2,2,3,3,4,4,5,5,6,6,10,10,14,14],"right_children":[2,4,6,8,10,12,14,-1,-1,-1,16,-1,-1,-1,18,-1,-1,-1,-1],"split_conditions":[5.995763E-1,3.7752416E-2,2.0509554E-1,1.076716E-2,7.761297E-2,9.386189E-1,8.519022E-1,-3.270463E-2,-3.4299945E-3,8.522274E-2,1.8358038E-1,1.4050493E-3,-5.2938163E-2,-3.3388548E-2,2.7702703E1,-1.2620635E-2,3.9434664E-2,-3.9534012E-4,3.0454338E-2],"split_indices":[2,1,1,1,1,2,2,0,0,0,1,0,0,0,2,0,0,0,0],"split_type":[0,0,0,0,0,0,0,0,0,0,0,0,0,0,0,0,0,0,0],"sum_hessian":[1.6974844E2,3.6664627E1,1.3308382E2,7.8976936E0,2.8766933E1,9.6766615E0,1.2340716E2,3.2340498E0,4.663644E0,4.3339767E0,2.4432957E1,3.136525E0,6.5401363E0,1.0641387E1,1.1276577E2,1.41041975E1,1.0328759E1,1.0639904E2,6.366725E0],"tree_param":{"num_deleted":"0","num_feature":"3","num_nodes":"19","size_leaf_vector":"1"}},{"base_weights":[2.3771E-2,4.8727818E-2,-5.310733E-2,1.8490745E-2,9.942072E-2,5.4375812E-2,-2.9610097E-1,5.205182E-4,5.1318593E-2,-5.4115254E-2,5.6647412E-5],"categories":[],"categories_nodes":[],"categories_segments":[],"categories_sizes":[],"default_left":[0,0,0,0,0,0,0,0,0,0,0],"id":12,"left_children":[1,3,-1,5,-1,7,9,-1,-1,-1,-1],"loss_changes":[2.4783077E0,4.8520546E0,0E0,1.9069947E0,0E0,3.4061666E0,1.3076146E0,0E0,0E0,0E0,0E0],"parents":[2147483647,0,0,1,1,3,3,5,5,6,6],"right_children":[2,4,-1,6,-1,8,10,-1,-1,-1,-1],"split_conditions":[8.5267955E-1,8.329854E-1,-5.310733E-2,7.116873E-1,9.942072E-2,6.080645E0,7.7525324E-1,5.205182E-4,5.1318593E-2,-5.4115254E-2,5.6647412E-5],"split_indices":[1,1,0,1,0,0,1,0,0,0,0],"split_type":[0,0,0,0,0,0,0,0,0,0,0],"sum_hessian":[1.7959056E2,1.7290569E2,6.684866E0,1.6863786E2,4.26783E0,1.5239894E2,1.6238922E1,1.387576E2,1.3641338E1,8.626381E0,7.612541E0],"tree_param":{"num_deleted":"0","num_feature":"3","num_nodes":"11","size_leaf_vector":"1"}},{"base_weights":[1.6638355E-2,3.5093832E-1,-2.1209335E-2,-1.1566499E-2,6.338357E-1,-1.880681E-1,2.6661728E-2,3.388464E-2,8.7071516E-2,1.4113195E-1,-3.2347012E-1,8.477891E-2,-8.188592E-3,-9.782834E-3,3.6491875E-2,-5.4633565E-2,-1.7064035E-2,6.1421406E-2,-3.5143818E-3],"categories":[],"categories_nodes":[],"categories_segments":[],"categories_sizes":[],"default_left":[0,0,0,0,0,0,0,0,0,0,0,0,0,0,0,0,0,0,0],"id":13,"left_children":[1,3,5,-1,7,9,11,-1,-1,13,15,-1,17,-1,-1,-1,-1,-1,-1],"loss_changes":[2.2055223E0,2.465352E0,1.2543948E0,0E0,3.7535238E-1,1.6244113E0,3.5358415E0,0E0,0E0,6.337496E-1,6.976726E-1,0E0,1.9157686E0,0E0,0E0,0E0,0E0,0E0,0E0],"parents":[2147483647,0,0,1,1,2,2,4,4,5,5,6,6,9,9,10,10,12,12],"right_children":[2,4,6,-1,8,10,12,-1,-1,14,16,-1,18,-1,-1,-1,-1,-1,-1],"split_conditions":[2.9331228E-1,2.8417267E-2,2.8198937E-1,-1.1566499E-2,8.6122446E-2,1.705847E-1,3.1698686E-1,3.388464E-2,8.7071516E-2,1.3524355E-1,2.0509554E-1,8.477891E-2,7.8417265E-1,-9.782834E-3,3.6491875E-2,-5.4633565E-2,-1.7064035E-2,6.1421406E-2,-3.5143818E-3],"split_indices":[2,1,1,0,1,1,1,0,0,1,1,0,2,0,0,0,0,0,0],"split_type":[0,0,0,0,0,0,0,0,0,0,0,0,0,0,0,0,0,0,0],"sum_hessian":[1.701211E2,1.6728844E1,1.5339224E2,6.403968E0,1.0324876E1,3.400949E1,1.1938275E2,5.8688855E0,4.4559903E0,9.684036E0,2.4325455E1,4.0276613E0,1.15355095E2,4.739344E0,4.944692E0,8.581817E0,1.5743639E1,3.7300904E0,1.11625E2],"tree_param":{"num_deleted":"0","num_feature":"3","num_nodes":"19","size_leaf_vector":"1"}},{"base_weights":[3.3868723E-2,1.248227E-1,-2.2352357E-1,2.4967692E-3,7.2845465E-1,-3.796134E-1,2.6465073E-1,1.580517E-1,-4.0351868E-1,-9.8697925E-3,9.304741E-1,2.6354003E-1,-5.293323E-1,8.13499E-2,-4.8169464E-2,-3.6407467E-2,3.0411154E-2,-2.4667038E-2,-5.646795E-2,1.0141583E-1,4.0104996E-2,-0E0,4.6866816E-2,-5.8925897E-2,-2.4806822E-2],"categories":[],"categories_nodes":[],"categories_segments":[],"categories_sizes":[],"default_left":[0,0,0,0,0,0,0,0,0,0,0,0,0,0,0,0,0,0,0,0,0,0,0,0,0],"id":14,"left_children":[1,3,5,7,9,11,13,15,17,-1,19,21,23,-1,-1,-1,-1,-1,-1,-1,-1,-1,-1,-1,-1],"loss_changes":[4.1439505E0,9.609316E0,3.6238084E0,6.9988027E0,3.8442564E0,3.5832825E0,5.1767435E0,6.248867E0,5.5375814E-1,0E0,2.421894E-1,3.9175195E-1,2.6302338E-1,0E0,0E0,0E0,0E0,0E0,0E0,0E0,0E0,0E0,0E0,0E0,0E0],"parents":[2147483647,0,0,1,1,2,2,3,3,4,4,5,5,6,6,7,7,8,8,10,10,11,11,12,12],"right_children":[2,4,6,8,10,12,14,16,18,-1,20,22,24,-1,-1,-1,-1,-1,-1,-1,-1,-1,-1,-1,-1],"split_conditions":[3.7413793E0,2.7325256E0,1.1601851E1,1.4157304E0,1.5524862E0,1.1180556E0,2.0290909E1,3.104027E-1,1.9777777E0,-9.8697925E-3,8.525E0,8.913934E-1,1.5753246E1,8.13499E-2,-4.8169464E-2,-3.6407467E-2,3.0411154E-2,-2.4667038E-2,-5.646795E-2,1.0141583E-1,4.0104996E-2,-0E0,4.6866816E-2,-5.8925897E-2,-2.4806822E-2],"split_indices":[0,0,2,0,2,2,2,2,0,0,2,2,0,0,0,0,0,0,0,0,0,0,0,0,0],"split_type":[0,0,0,0,0,0,0,0,0,0,0,0,0,0,0,0,0,0,0,0,0,0,0,0,0],"sum_hessian":[1.7523962E2,1.3015182E2,4.508781E1,1.0919356E2,2.0958258E1,3.448783E1,1.0599981E1,7.956658E1,2.9626978E1,4.11719E0,1.6841068E1,6.2426934E0,2.8245136E1,6.1335173E0,4.4664636E0,1.6916645E1,6.264994E1,1.6611282E1,1.3015695E1,1.3588681E1,3.2523873E0,3.1690223E0,3.073671E0,2.2088371E1,6.1567655E0],"tree_param":{"num_deleted":"0","num_feature":"3","num_nodes":"25","size_leaf_vector":"1"}},{"base_weights":[1.7828587E-2,-1.0926085E-1,2.0632805E-1,-2.539926E-1,-1.041287E-2,3.269956E-1,-4.1627362E-2,1.820733E-2,-2.9782826E-1,2.7206066E-1,-1.9391206E-1,-2.0207905E-3,5.041017E-1,-5.3436555E-2,1.9767554E-1,-5.5691957E-2,-1.8178625E-2,1.0851047E-2,8.361767E-2,-2.3984468E-2,2.5322726E-2,5.9726235E-2,-1.7392518E-2,3.8023498E-2,8.536657E-2,4.0269274E-2,-4.5491703E-2],"categories":[],"categories_nodes":[],"categories_segments":[],"categories_sizes":[],"default_left":[0,0,0,0,0,0,0,0,0,0,0,0,0,0,0,0,0,0,0,0,0,0,0,0,0,0,0],"id":15,"left_children":[1,3,5,7,9,11,13,-1,15,17,19,21,23,-1,25,-1,-1,-1,-1,-1,-1,-1,-1,-1,-1,-1,-1],"loss_changes":[4.286738E0,1.4933012E0,2.2018197E0,8.826041E-1,3.3976588E0,2.9028277E0,2.9980044E0,0E0,1.009922E0,2.1834478E0,8.811122E-1,1.9079449E0,9.382105E-1,0E0,2.4406812E0,0E0,0E0,0E0,0E0,0E0,0E0,0E0,0E0,0E0,0E0,0E0,0E0],"parents":[2147483647,0,0,1,1,2,2,3,3,4,4,5,5,6,6,8,8,9,9,10,10,11,11,12,12,14,14],"right_children":[2,4,6,8,10,12,14,-1,16,18,20,22,24,-1,26,-1,-1,-1,-1,-1,-1,-1,-1,-1,-1,-1,-1],"split_conditions":[5.182679E-1,2.3442137E-1,8.196E0,1.423221E-2,1.034568E0,2.75E0,1.1974843E1,1.820733E-2,8.442669E-2,9.0756303E-1,4.844186E0,5.4163486E-1,7.561513E-1,-5.3436555E-2,3.65E1,-5.5691957E-2,-1.8178625E-2,1.0851047E-2,8.361767E-2,-2.3984468E-2,2.5322726E-2,5.9726235E-2,-1.7392518E-2,3.8023498E-2,8.536657E-2,4.0269274E-2,-4.5491703E-2],"split_indices":[1,1,2,1,2,2,2,0,1,2,2,1,1,0,2,0,0,0,0,0,0,0,0,0,0,0,0],"split_type":[0,0,0,0,0,0,0,0,0,0,0,0,0,0,0,0,0,0,0,0,0,0,0,0,0,0,0],"sum_hessian":[1.7659377E2,1.0541267E2,7.118109E1,4.173042E1,6.3682247E1,4.7937046E1,2.3244047E1,3.3153534E0,3.8415066E1,2.4673288E1,3.900896E1,1.6922834E1,3.1014212E1,7.3319726E0,1.5912074E1,1.0441312E1,2.7973755E1,2.0189508E1,4.4837794E0,3.5998264E1,3.0106936E0,3.0910144E0,1.38318205E1,2.46525E1,6.3617105E0,1.2516183E1,3.395891E0],"tree_param":{"num_deleted":"0","num_feature":"3","num_nodes":"27","size_leaf_vector":"1"}},{"base_weights":[-1.2502767E-2,-3.0387606E-2,3.0517998E-1,-4.8018545E-2,5.1586516E-2,4.841014E-2,-0E0,-2.4171902E-2,-3.654318E-1,-7.864278E-4,-3.1962495E-2,-4.4621423E-2,-1.5705604E-2],"categories":[],"categories_nodes":[],"categories_segments":[],"categories_sizes":[],"default_left":[0,0,0,0,0,0,0,0,0,0,0,0,0],"id":16,"left_children":[1,3,5,7,-1,-1,-1,9,11,-1,-1,-1,-1],"loss_changes":[9.662826E-1,1.5694606E0,4.9008006E-1,1.1721506E0,0E0,0E0,0E0,6.9359046E-1,5.3047895E-2,0E0,0E0,0E0,0E0],"parents":[2147483647,0,0,1,1,2,2,3,3,7,7,8,8],"right_children":[2,4,6,8,-1,-1,-1,10,12,-1,-1,-1,-1],"split_conditions":[8.4489995E-1,1.6275E1,1.6194174E1,7.5940645E-1,5.1586516E-2,4.841014E-2,-0E0,9.252174E0,7.9369864E0,-7.864278E-4,-3.1962495E-2,-4.4621423E-2,-1.5705604E-2],"split_indices":[1,0,0,1,0,0,0,0,0,0,0,0,0],"split_type":[0,0,0,0,0,0,0,0,0,0,0,0,0],"sum_hessian":[1.7227338E2,1.6424583E2,8.027554E0,1.6017128E2,4.074552E0,4.6788397E0,3.3487136E0,1.5027278E2,9.898502E0,1.4370596E2,6.566814E0,5.9647965E0,3.9337065E0],"tree_param":{"num_deleted":"0","num_feature":"3","num_nodes":"13","size_leaf_vector":"1"}},{"base_weights":[-1.6381808E-2,1.01088226E-1,-2.7971625E-1,-6.278724E-2,3.2693812E-1,-5.1863372E-2,-8.616019E-2,-1.3822658E-1,2.6216638E-1,4.6801776E-1,-0E0,1.5352821E-1,-4.4067785E-1,2.553237E-3,-3.132745E-2,5.6580164E-2,-2.1832874E-2,6.723732E-2,1.830711E-2,-5.1573902E-2,2.999965E-2,-2.5915746E-2,6.2325876E-2,-4.5326245E-3,-5.494084E-2],"categories":[],"categories_nodes":[],"categories_segments":[],"categories_sizes":[],"default_left":[0,0,0,0,0,0,0,0,0,0,0,0,0,0,0,0,0,0,0,0,0,0,0,0,0],"id":17,"left_children":[1,3,5,7,9,-1,11,13,15,17,19,21,23,-1,-1,-1,-1,-1,-1,-1,-1,-1,-1,-1,-1],"loss_changes":[5.4290276E0,4.5181007E0,2.4015899E0,1.7543144E0,2.362318E0,0E0,2.7625866E0,1.7049607E0,2.1126342E0,1.8746743E0,2.6980407E0,3.9380093E0,4.7803545E-1,0E0,0E0,0E0,0E0,0E0,0E0,0E0,0E0,0E0,0E0,0E0,0E0],"parents":[2147483647,0,0,1,1,2,2,3,3,4,4,6,6,7,7,8,8,9,9,10,10,11,11,12,12],"right_children":[2,4,6,8,10,-1,12,14,16,18,20,22,24,-1,-1,-1,-1,-1,-1,-1,-1,-1,-1,-1,-1],"split_conditions":[3.2705882E0,3.647541E-1,6.8511397E-1,1.2093596E0,2.225564E0,-5.1863372E-2,1.1423424E1,4.3385214E-1,1.6149803E0,4.804992E-1,2.5363288E0,6.8005953E0,7.848549E-1,2.553237E-3,-3.132745E-2,5.6580164E-2,-2.1832874E-2,6.723732E-2,1.830711E-2,-5.1573902E-2,2.999965E-2,-2.5915746E-2,6.2325876E-2,-4.5326245E-3,-5.494084E-2],"split_indices":[2,1,1,2,2,0,2,2,2,1,2,2,1,0,0,0,0,0,0,0,0,0,0,0,0],"split_type":[0,0,0,0,0,0,0,0,0,0,0,0,0,0,0,0,0,0,0,0,0,0,0,0,0],"sum_hessian":[1.7301257E2,1.1980535E2,5.320722E1,6.9590256E1,5.0215096E1,2.2830301E1,3.0376915E1,5.7194645E1,1.2395614E1,3.477704E1,1.5438057E1,1.8293556E1,1.2083359E1,2.9696321E1,2.7498323E1,7.614455E0,4.7811584E0,1.9256355E1,1.5520683E1,5.413204E0,1.0024853E1,9.863391E0,8.430166E0,3.11038E0,8.972979E0],"tree_param":{"num_deleted":"0","num_feature":"3","num_nodes":"25","size_leaf_vector":"1"}},{"base_weights":[3.0704968E-2,1.673851E-2,4.5481347E-2,-3.6469463E-2,3.0113084E-2,3.5654214E-1,7.5646077E-4,8.784309E-3,8.8500306E-2,-1.8588291E-2,2.4872723E-3],"categories":[],"categories_nodes":[],"categories_segments":[],"categories_sizes":[],"default_left":[0,0,0,0,0,0,0,0,0,0,0],"id":18,"left_children":[1,3,-1,-1,5,7,9,-1,-1,-1,-1],"loss_changes":[9.991276E-1,8.6272675E-1,0E0,0E0,1.5817479E0,1.7626979E0,6.914532E-1,0E0,0E0,0E0,0E0],"parents":[2147483647,0,0,1,1,4,4,5,5,6,6],"right_children":[2,4,-1,-1,6,8,10,-1,-1,-1,-1],"split_conditions":[3.65E1,5.031056E-2,4.5481347E-2,-3.6469463E-2,2.9331228E-1,3.6236933E-1,5.5702096E-1,8.784309E-3,8.8500306E-2,-1.8588291E-2,2.4872723E-3],"split_indices":[2,0,0,0,2,0,2,0,0,0,0],"split_type":[0,0,0,0,0,0,0,0,0,0,0],"sum_hessian":[1.7692397E2,1.7251797E2,4.4059906E0,4.7011094E0,1.6781686E2,1.2646239E1,1.5517062E2,9.282136E0,3.3641033E0,1.6513762E1,1.3865686E2],"tree_param":{"num_deleted":"0","num_feature":"3","num_nodes":"11","size_leaf_vector":"1"}},{"base_weights":[-3.3507375E-3,-2.7941287E-1,4.106947E-2,-1.2107934E-1,-5.4456033E-2,3.774696E-1,-7.31566E-2,-4.9691636E-2,6.6117726E-2,2.4519365E-1,1.01954035E-1,-4.676299E-1,6.574313E-2,4.529473E-2,-1.0792189E-2,4.044814E-2,-2.9992653E-2,-5.2263767E-2,-0E0,2.9699786E-2,-1.3764239E-2],"categories":[],"categories_nodes":[],"categories_segments":[],"categories_sizes":[],"default_left":[0,0,0,0,0,0,0,0,0,0,0,0,0,0,0,0,0,0,0,0,0],"id":19,"left_children":[1,3,5,7,-1,9,11,-1,13,15,-1,17,19,-1,-1,-1,-1,-1,-1,-1,-1],"loss_changes":[2.2127008E0,9.191835E-1,5.9567947E0,1.2865306E0,0E0,2.961021E0,6.3837676E0,0E0,9.0411973E-1,3.0865965E0,0E0,7.9675865E-1,4.097001E0,0E0,0E0,0E0,0E0,0E0,0E0,0E0,0E0],"parents":[2147483647,0,0,1,1,2,2,3,3,5,5,6,6,8,8,9,9,11,11,12,12],"right_children":[2,4,6,8,-1,10,12,-1,14,16,-1,18,20,-1,-1,-1,-1,-1,-1,-1,-1],"split_conditions":[1.5014793E-1,9.154929E-2,9.9370277E-1,3.814433E-2,-5.4456033E-2,8.681319E-1,4.4038716E-1,-4.9691636E-2,4.6444952E-2,2.8369606E-1,1.01954035E-1,3.8835227E0,3.636E0,4.529473E-2,-1.0792189E-2,4.044814E-2,-2.9992653E-2,-5.2263767E-2,-0E0,2.9699786E-2,-1.3764239E-2],"split_indices":[1,1,0,0,0,0,1,0,1,1,0,0,0,0,0,0,0,0,0,0,0],"split_type":[0,0,0,0,0,0,0,0,0,0,0,0,0,0,0,0,0,0,0,0,0],"sum_hessian":[1.765616E2,2.4050966E1,1.5251064E2,1.6206818E1,7.844148E0,3.829659E1,1.1421404E2,5.015948E0,1.119087E1,3.302963E1,5.2669616E0,2.931451E1,8.489953E1,3.1535823E0,8.037289E0,2.5902256E1,7.127372E0,2.618603E1,3.128482E0,3.9742577E1,4.5156956E1],"tree_param":{"num_deleted":"0","num_feature":"3","num_nodes":"21","size_leaf_vector":"1"}},{"base_weights":[2.676425E-2,-4.2822678E-2,1.7507581E-1,4.0246587E-2,-2.787965E-1,4.2244766E-2,3.450566E-1,-1.7056697E-3,5.961817E-2,-4.809712E-1,-7.209254E-2,2.374025E-1,-2.533538E-1,6.0803866E-1,-9.976799E-2,3.3446704E-3,-5.0179463E-2,-5.607E-2,-1.1698945E-2,4.579162E-2,-3.303564E-2,1.7241572E-4,5.1846724E-2,9.788231E-3,-5.3304363E-2,9.452582E-2,1.609222E-2,-4.5228947E-2,1.1560376E-2],"categories":[],"categories_nodes":[],"categories_segments":[],"categories_sizes":[],"default_left":[0,0,0,0,0,0,0,0,0,0,0,0,0,0,0,0,0,0,0,0,0,0,0,0,0,0,0,0,0],"id":20,"left_children":[1,3,5,7,9,11,13,15,-1,17,19,21,23,25,27,-1,-1,-1,-1,-1,-1,-1,-1,-1,-1,-1,-1,-1,-1],"loss_changes":[1.8734859E0,2.437032E0,1.2559569E0,2.187291E0,1.2616887E0,2.0211108E0,3.0321028E0,1.5688004E0,0E0,3.2892895E-1,2.5221555E0,1.352148E0,1.4522126E0,2.1455612E0,8.447291E-1,0E0,0E0,0E0,0E0,0E0,0E0,0E0,0E0,0E0,0E0,0E0,0E0,0E0,0E0],"parents":[2147483647,0,0,1,1,2,2,3,3,4,4,5,5,6,6,7,7,9,9,10,10,11,11,12,12,13,13,14,14],"right_children":[2,4,6,8,10,12,14,16,-1,18,20,22,24,26,28,-1,-1,-1,-1,-1,-1,-1,-1,-1,-1,-1,-1,-1,-1],"split_conditions":[3.52451E0,1.9342252E0,4.5618377E0,1.679941E0,2.5685072E0,2.7607844E0,1.2266666E1,5.940341E0,5.961817E-2,8.83237E0,2.7138102E0,1.6717172E0,5.6842103E0,7.936E0,1.3885593E1,3.3446704E-3,-5.0179463E-2,-5.607E-2,-1.1698945E-2,4.579162E-2,-3.303564E-2,1.7241572E-4,5.1846724E-2,9.788231E-3,-5.3304363E-2,9.452582E-2,1.609222E-2,-4.5228947E-2,1.1560376E-2],"split_indices":[2,2,0,2,2,0,0,0,0,0,2,0,2,2,0,0,0,0,0,0,0,0,0,0,0,0,0,0,0],"split_type":[0,0,0,0,0,0,0,0,0,0,0,0,0,0,0,0,0,0,0,0,0,0,0,0,0,0,0,0,0],"sum_hessian":[1.7852184E2,1.2153522E2,5.698661E1,9.019113E1,3.1344088E1,3.3020023E1,2.3966585E1,8.462237E1,5.568761E0,1.4930296E1,1.6413792E1,2.0211393E1,1.2808633E1,1.49726095E1,8.993976E0,7.974974E1,4.8726335E0,1.1578803E1,3.3514934E0,4.9975557E0,1.1416235E1,1.1734069E1,8.4773245E0,5.807736E0,7.0008965E0,7.7726364E0,7.199973E0,3.1698396E0,5.8241363E0],"tree_param":{"num_deleted":"0","num_feature":"3","num_nodes":"29","size_leaf_vector":"1"}},{"base_weights":[1.80064E-2,-1.6857374E-2,5.5962163E-1,2.8663225E-2,-1.0904975E-1,7.193588E-2,1.12869935E-2,-3.1183394E-2,4.358533E-1,-4.31992E-2,-3.9486393E-2,1.438355E-3,-2.5021601E-2,-1.2143138E-2,7.0541985E-2,4.0129623E-3,-1.8932043E-2],"categories":[],"categories_nodes":[],"categories_segments":[],"categories_sizes":[],"default_left":[0,0,0,0,0,0,0,0,0,0,0,0,0,0,0,0,0],"id":21,"left_children":[1,3,5,7,9,-1,-1,11,13,-1,15,-1,-1,-1,-1,-1,-1],"loss_changes":[3.4534042E0,7.223022E-1,6.247926E-1,2.8201034E0,1.2150978E0,0E0,0E0,1.0220644E0,2.3712683E0,0E0,5.976158E-1,0E0,0E0,0E0,0E0,0E0,0E0],"parents":[2147483647,0,0,1,1,2,2,3,3,4,4,7,7,8,8,10,10],"right_children":[2,4,6,8,10,-1,-1,12,14,-1,16,-1,-1,-1,-1,-1,-1],"split_conditions":[1.7262712E1,2.78E0,8.508108E-1,2.039906E0,3.3312101E0,7.193588E-2,1.12869935E-2,1.569869E0,4.184423E-1,-4.31992E-2,7.5940645E-1,1.438355E-3,-2.5021601E-2,-1.2143138E-2,7.0541985E-2,4.0129623E-3,-1.8932043E-2],"split_indices":[0,0,1,0,0,0,0,0,1,0,1,0,0,0,0,0,0],"split_type":[0,0,0,0,0,0,0,0,0,0,0,0,0,0,0,0,0],"sum_hessian":[1.7851271E2,1.684536E2,1.0059115E1,1.1250694E2,5.5946648E1,6.7953773E0,3.2637386E0,9.868115E1,1.3825794E1,8.737222E0,4.7209427E1,8.208267E1,1.6598476E1,4.565642E0,9.260153E0,3.0870699E1,1.6338726E1],"tree_param":{"num_deleted":"0","num_feature":"3","num_nodes":"17","size_leaf_vector":"1"}},{"base_weights":[1.3358059E-2,8.663885E-2,-1.7495689E-1,-1.3467321E-1,2.6708958E-1,-4.3307143E-1,3.6358014E-2,9.518639E-2,-3.725571E-1,8.314343E-2,2.1083367E-1,-8.383471E-3,-4.8581806E-1,7.861802E-2,-1.6275021E-1,-7.458457E-3,7.894748E-2,-5.7495464E-2,-7.2472664E-3,-4.8158064E-2,2.6637612E-2,-5.5688567E-2,-2.5936875E-2,-5.2889295E-2,5.6738243E-3],"categories":[],"categories_nodes":[],"categories_segments":[],"categories_sizes":[],"default_left":[0,0,0,0,0,0,0,0,0,0,0,0,0,0,0,0,0,0,0,0,0,0,0,0,0],"id":22,"left_children":[1,3,5,7,9,11,13,15,17,-1,19,-1,21,-1,23,-1,-1,-1,-1,-1,-1,-1,-1,-1,-1],"loss_changes":[2.428926E0,5.1380854E0,2.73494E0,3.2154374E0,1.9674888E0,3.150277E-1,4.329003E0,3.6548815E0,1.6395929E0,0E0,2.6397119E0,0E0,7.983065E-2,0E0,1.895704E0,0E0,0E0,0E0,0E0,0E0,0E0,0E0,0E0,0E0,0E0],"parents":[2147483647,0,0,1,1,2,2,3,3,4,4,5,5,6,6,7,7,8,8,10,10,12,12,14,14],"right_children":[2,4,6,8,10,12,14,16,18,-1,20,-1,22,-1,24,-1,-1,-1,-1,-1,-1,-1,-1,-1,-1],"split_conditions":[3.2705882E0,9.6031743E-1,6.8064785E-1,4.4186047E-1,2.0285544E-1,4.5289046E-1,7.116873E-1,1.8013632E-1,2.9214272E-1,8.314343E-2,2.6476377E-1,-8.383471E-3,6.4545155E-1,7.861802E-2,7.785736E-1,-7.458457E-3,7.894748E-2,-5.7495464E-2,-7.2472664E-3,-4.8158064E-2,2.6637612E-2,-5.5688567E-2,-2.5936875E-2,-5.2889295E-2,5.6738243E-3],"split_indices":[2,2,1,2,1,1,1,1,1,0,1,0,1,0,1,0,0,0,0,0,0,0,0,0,0],"split_type":[0,0,0,0,0,0,0,0,0,0,0,0,0,0,0,0,0,0,0,0,0,0,0,0,0],"sum_hessian":[1.7455237E2,1.2642597E2,4.8126396E1,5.6648937E1,6.977703E1,2.1404854E1,2.6721544E1,2.890167E1,2.7747269E1,4.9149046E0,6.486213E1,3.3971932E0,1.800766E1,5.093532E0,2.1628012E1,2.3824518E1,5.077152E0,1.5824755E1,1.1922514E1,4.113289E0,6.0748837E1,1.2259422E1,5.748237E0,7.7483826E0,1.3879629E1],"tree_param":{"num_deleted":"0","num_feature":"3","num_nodes":"25","size_leaf_vector":"1"}},{"base_weights":[-3.9111026E-2,-7.562296E-2,1.8854998E-1,1.9743966E-2,-1.267311E-1,4.3827954E-1,-1.16017684E-1,-3.7305064E-2,6.805083E-2,-3.1597063E-1,-8.6134516E-2,4.807848E-2,7.563532E-1,-4.5709472E-2,5.443023E-2,5.2458506E-2,6.3630514E-4,-2.2173185E-2,-4.7987666E-2,3.6520135E-2,-1.2843731E-2,-7.47513E-3,1.707744E-2,1.03114896E-1,2.481029E-2,1.800253E-2,-4.5150067E-3],"categories":[],"categories_nodes":[],"categories_segments":[],"categories_sizes":[],"default_left":[0,0,0,0,0,0,0,0,0,0,0,0,0,0,0,0,0,0,0,0,0,0,0,0,0,0,0],"id":23,"left_children":[1,3,5,7,9,11,13,-1,15,17,19,21,23,-1,25,-1,-1,-1,-1,-1,-1,-1,-1,-1,-1,-1,-1],"loss_changes":[1.5074464E0,7.787654E-1,1.978725E0,1.0382565E0,7.245045E-1,1.6312196E0,7.5341934E-1,0E0,1.3527673E0,9.216893E-2,1.6782815E0,1.3591117E-1,6.7073727E-1,0E0,1.2907648E-1,0E0,0E0,0E0,0E0,0E0,0E0,0E0,0E0,0E0,0E0,0E0,0E0],"parents":[2147483647,0,0,1,1,2,2,3,3,4,4,5,5,6,6,8,8,9,9,10,10,11,11,12,12,14,14],"right_children":[2,4,6,8,10,12,14,-1,16,18,20,22,24,-1,26,-1,-1,-1,-1,-1,-1,-1,-1,-1,-1,-1,-1],"split_conditions":[8.744445E0,8.913934E-1,8.2329416E-1,2.1104904E-2,1.1833333E0,6.616757E-1,8.5267955E-1,-3.7305064E-2,6.1363637E-2,1.1141732E0,1.3057692E0,5.4163486E-1,2.0666666E1,-4.5709472E-2,1.3445455E1,5.2458506E-2,6.3630514E-4,-2.2173185E-2,-4.7987666E-2,3.6520135E-2,-1.2843731E-2,-7.47513E-3,1.707744E-2,1.03114896E-1,2.481029E-2,1.800253E-2,-4.5150067E-3],"split_indices":[2,2,1,1,2,1,1,0,1,2,2,1,2,0,2,0,0,0,0,0,0,0,0,0,0,0,0],"split_type":[0,0,0,0,0,0,0,0,0,0,0,0,0,0,0,0,0,0,0,0,0,0,0,0,0,0,0],"sum_hessian":[1.799935E2,1.5607025E2,2.392324E1,5.3987507E1,1.0208275E2,1.3084196E1,1.0839045E1,4.949482E0,4.9038025E1,1.6397928E1,8.568482E1,6.534033E0,6.5501633E0,3.2468522E0,7.5921926E0,4.7511487E0,4.4286877E1,1.2292933E1,4.1049953E0,6.486138E0,7.9198685E1,3.0532196E0,3.4808135E0,3.456022E0,3.0941415E0,3.4443722E0,4.1478205E0],"tree_param":{"num_deleted":"0","num_feature":"3","num_nodes":"27","size_leaf_vector":"1"}},{"base_weights":[-1.658429E-2,5.507959E-2,-2.4059848E-1,-6.266941E-2,6.113736E-1,-3.6435878E-1,1.823885E-1,6.510978E-2,-4.4919607E-1,-1.6971665E-3,7.235834E-1,-4.6274203E-1,3.596893E-2,9.011159E-2,-4.8604798E-2,-2.4239995E-2,1.4502457E-2,-5.663986E-2,-2.5445212E-2,8.616881E-2,-0E0,-0E0,-5.1636185E-2],"categories":[],"categories_nodes":[],"categories_segments":[],"categories_sizes":[],"default_left":[0,0,0,0,0,0,0,0,0,0,0,0,0,0,0,0,0,0,0,0,0,0,0],"id":24,"left_children":[1,3,5,7,9,11,13,15,17,-1,19,21,-1,-1,-1,-1,-1,-1,-1,-1,-1,-1,-1],"loss_changes":[2.8918302E0,8.965552E0,2.3725002E0,5.6263366E0,1.7682667E0,2.622047E0,5.464455E0,2.1207268E0,4.19343E-1,0E0,2.0639553E0,7.9729414E-1,0E0,0E0,0E0,0E0,0E0,0E0,0E0,0E0,0E0,0E0,0E0],"parents":[2147483647,0,0,1,1,2,2,3,3,4,4,5,5,6,6,7,7,8,8,10,10,11,11],"right_children":[2,4,6,8,10,12,14,16,18,-1,20,22,-1,-1,-1,-1,-1,-1,-1,-1,-1,-1,-1],"split_conditions":[4.4962215E0,2.7325256E0,1.28375E1,1.5013477E0,1.279661E0,2.8839285E1,2.0290909E1,3.101204E-1,2.2635658E0,-1.6971665E-3,3.7413793E0,1.1028744E0,3.596893E-2,9.011159E-2,-4.8604798E-2,-2.4239995E-2,1.4502457E-2,-5.663986E-2,-2.5445212E-2,8.616881E-2,-0E0,-0E0,-5.1636185E-2],"split_indices":[0,0,2,0,2,0,2,2,2,0,0,2,0,0,0,0,0,0,0,0,0,0,0],"split_type":[0,0,0,0,0,0,0,0,0,0,0,0,0,0,0,0,0,0,0,0,0,0,0],"sum_hessian":[1.7715343E2,1.3444966E2,4.2703766E1,1.1154654E2,2.290312E1,3.3327583E1,9.376183E0,8.4263336E1,2.72832E1,3.4638777E0,1.9439241E1,2.9780088E1,3.547494E0,4.4224787E0,4.9537034E0,1.6703648E1,6.755969E1,1.5520559E1,1.176264E1,1.6192297E1,3.2469444E0,3.0703282E0,2.670976E1],"tree_param":{"num_deleted":"0","num_feature":"3","num_nodes":"23","size_leaf_vector":"1"}},{"base_weights":[5.1566865E-2,-3.421852E-2,2.5014392E-1,4.385906E-2,-5.2693702E-2,3.662911E-1,-1.230384E-1,-5.1066674E-2,-2.3168877E-2,2.9856735E-1,8.741944E-2,-3.6909893E-1,2.8467327E-2,7.2341055E-2,-5.612438E-3,4.5527108E-2,-2.41143E-3,-4.8922032E-2,-8.482697E-3],"categories":[],"categories_nodes":[],"categories_segments":[],"categories_sizes":[],"default_left":[0,0,0,0,0,0,0,0,0,0,0,0,0,0,0,0,0,0,0],"id":25,"left_children":[1,3,5,-1,7,9,11,-1,13,15,-1,17,-1,-1,-1,-1,-1,-1,-1],"loss_changes":[3.0854406E0,1.0831938E0,2.435057E0,0E0,1.5863266E0,1.0691385E0,1.4677577E0,0E0,2.82784E0,2.0171115E0,0E0,2.0865119E-1,0E0,0E0,0E0,0E0,0E0,0E0,0E0],"parents":[2147483647,0,0,1,1,2,2,4,4,5,5,6,6,8,8,9,9,11,11],"right_children":[2,4,6,-1,8,10,12,-1,14,16,-1,18,-1,-1,-1,-1,-1,-1,-1],"split_conditions":[6.2404287E-1,1.423221E-2,8.080808E-1,4.385906E-2,1.2615955E-1,7.848549E-1,1.9031916E1,-5.1066674E-2,2.174888E-1,6.215625E0,8.741944E-2,1.1974843E1,2.8467327E-2,7.2341055E-2,-5.612438E-3,4.5527108E-2,-2.41143E-3,-4.8922032E-2,-8.482697E-3],"split_indices":[1,1,1,0,2,1,2,0,2,2,0,2,0,0,0,0,0,0,0],"split_type":[0,0,0,0,0,0,0,0,0,0,0,0,0,0,0,0,0,0,0],"sum_hessian":[1.7835353E2,1.2477483E2,5.3578697E1,3.6335828E0,1.2114125E2,4.107971E1,1.249899E1,6.144709E0,1.14996544E2,3.7821346E1,3.2583616E0,8.00676E0,4.4922304E0,3.8475688E0,1.1114897E2,2.5390146E1,1.2431198E1,4.8743362E0,3.1324236E0],"tree_param":{"num_deleted":"0","num_feature":"3","num_nodes":"19","size_leaf_vector":"1"}},{"base_weights":[-4.6676874E-2,-8.0352336E-2,5.603942E-2,-5.4371186E-2,-3.7094817E-1,-7.2887905E-2,4.621743E-2,-4.4846114E-2,-5.733273E-3,-2.6751615E-3,-1.8920187E-2],"categories":[],"categories_nodes":[],"categories_segments":[],"categories_sizes":[],"default_left":[0,0,0,0,0,0,0,0,0,0,0],"id":26,"left_children":[1,3,-1,5,7,9,-1,-1,-1,-1,-1],"loss_changes":[3.5984716E0,1.2052386E0,0E0,1.483448E0,2.4689913E-1,7.853069E-1,0E0,0E0,0E0,0E0,0E0],"parents":[2147483647,0,0,1,1,3,3,4,4,5,5],"right_children":[2,4,-1,6,8,10,-1,-1,-1,-1,-1],"split_conditions":[1.7262712E1,9.252174E0,5.603942E-2,7.9369864E0,8.977556E0,2.78E0,4.621743E-2,-4.4846114E-2,-5.733273E-3,-2.6751615E-3,-1.8920187E-2],"split_indices":[0,0,0,0,2,0,0,0,0,0,0],"split_type":[0,0,0,0,0,0,0,0,0,0,0],"sum_hessian":[1.7516672E2,1.6693866E2,8.228063E0,1.5464372E2,1.229493E1,1.5030809E2,4.33564E0,9.257917E0,3.0370138E0,1.09116455E2,4.119164E1],"tree_param":{"num_deleted":"0","num_feature":"3","num_nodes":"11","size_leaf_vector":"1"}},{"base_weights":[1.4020945E-2,-3.8725104E-2,1.9263491E-1,2.5204092E-2,-2.9960606E-1,4.2239317E-1,-2.5500503E-1,-1.0223266E-1,2.0765303E-1,-5.460603E-2,-1.6915323E-1,1.7900197E-1,9.497424E-1,-3.8983274E-1,-0E0,7.7118736E-4,-4.7227528E-2,3.805252E-2,-1.5563539E-2,-1.4566698E-3,-4.9031895E-2,4.0152505E-2,-2.9281262E-2,5.095305E-2,1.1677581E-1,-1.2727109E-2,-5.0757814E-2],"categories":[],"categories_nodes":[],"categories_segments":[],"categories_sizes":[],"default_left":[0,0,0,0,0,0,0,0,0,0,0,0,0,0,0,0,0,0,0,0,0,0,0,0,0,0,0],"id":27,"left_children":[1,3,5,7,9,11,13,15,17,-1,19,21,23,25,-1,-1,-1,-1,-1,-1,-1,-1,-1,-1,-1,-1,-1],"loss_changes":[1.7204962E0,2.3617885E0,4.4112797E0,2.651407E0,7.313323E-1,3.3196692E0,5.251025E-1,2.7630281E0,3.032575E0,0E0,9.314194E-1,2.2876828E0,5.317545E-2,1.7204976E-1,0E0,0E0,0E0,0E0,0E0,0E0,0E0,0E0,0E0,0E0,0E0,0E0,0E0],"parents":[2147483647,0,0,1,1,2,2,3,3,4,4,5,5,6,6,7,7,8,8,10,10,11,11,12,12,13,13],"right_children":[2,4,6,8,10,12,14,16,18,-1,20,22,24,26,-1,-1,-1,-1,-1,-1,-1,-1,-1,-1,-1,-1,-1],"split_conditions":[5.314815E0,2.7325256E0,1.3139896E1,1.0876737E0,5.485232E-1,9.572917E0,8.407871E-1,7.9288167E-1,5.070994E-1,-5.460603E-2,7.092419E-1,7.384824E0,1.25E1,6.518538E-1,-0E0,7.7118736E-4,-4.7227528E-2,3.805252E-2,-1.5563539E-2,-1.4566698E-3,-4.9031895E-2,4.0152505E-2,-2.9281262E-2,5.095305E-2,1.1677581E-1,-1.2727109E-2,-5.0757814E-2],"split_indices":[0,0,0,0,1,0,1,0,1,0,1,0,0,1,0,0,0,0,0,0,0,0,0,0,0,0,0],"split_type":[0,0,0,0,0,0,0,0,0,0,0,0,0,0,0,0,0,0,0,0,0,0,0,0,0,0,0],"sum_hessian":[1.7919453E2,1.3851372E2,4.0680817E1,1.1166913E2,2.6844585E1,2.7067692E1,1.3613125E1,6.56827E1,4.5986423E1,7.9232903E0,1.8921295E1,1.9566221E1,7.5014706E0,8.708251E0,4.904875E0,5.1184143E1,1.4498562E1,3.1313562E1,1.4672862E1,1.3689066E1,5.23223E0,1.3540844E1,6.025377E0,3.7418435E0,3.7596273E0,3.6033328E0,5.104918E0],"tree_param":{"num_deleted":"0","num_feature":"3","num_nodes":"27","size_leaf_vector":"1"}},{"base_weights":[-1.945568E-2,-3.5752032E-2,4.0222682E-2,-1.7976271E-2,-2.8005704E-1,-5.1306065E-2,4.6796322E-1,-8.316028E-3,-3.3594227E-1,-1.7437683E-3,-2.011809E-2,5.9785474E-2,2.088417E-2,-4.635573E-2,-1.0518038E-2],"categories":[],"categories_nodes":[],"categories_segments":[],"categories_sizes":[],"default_left":[0,0,0,0,0,0,0,0,0,0,0,0,0,0,0],"id":28,"left_children":[1,3,-1,5,7,9,11,-1,13,-1,-1,-1,-1,-1,-1],"loss_changes":[1.1822397E0,7.030108E-1,0E0,2.5710156E0,5.200416E-2,7.3941463E-1,1.3660908E-1,0E0,1.2704265E-1,0E0,0E0,0E0,0E0,0E0,0E0],"parents":[2147483647,0,0,1,1,3,3,4,4,5,5,6,6,8,8],"right_children":[2,4,-1,6,8,10,12,-1,14,-1,-1,-1,-1,-1,-1],"split_conditions":[3.65E1,1.41645565E1,4.0222682E-2,8.977556E0,2.381356E0,5.5034966E0,1.1601851E1,-8.316028E-3,6.1363635E0,-1.7437683E-3,-2.011809E-2,5.9785474E-2,2.088417E-2,-4.635573E-2,-1.0518038E-2],"split_indices":[2,2,0,2,0,0,2,0,0,0,0,0,0,0,0],"split_type":[0,0,0,0,0,0,0,0,0,0,0,0,0,0,0],"sum_hessian":[1.7428033E2,1.6890518E2,5.3751535E0,1.5883144E2,1.0073754E1,1.4966628E2,9.165159E0,3.1727712E0,6.900983E0,1.2353392E2,2.613235E1,4.9771E0,4.188059E0,3.5149817E0,3.386001E0],"tree_param":{"num_deleted":"0","num_feature":"3","num_nodes":"15","size_leaf_vector":"1"}},{"base_weights":[1.7055044E-2,2.1541408E-1,-1.10373124E-1,1.20580286E-1,6.1626315E-1,-4.2946863E-1,-1.1582693E-2,2.265041E-1,-5.4176535E-2,1.0260197E-1,4.434311E-3,-4.9190134E-1,-0E0,1.6896908E-1,-1.8933176E-1,-7.3502655E-5,4.552462E-2,-2.7294118E-2,-5.6320366E-2,-1.4654486E-2,6.639411E-2,-3.3292007E-2,1.455368E-2],"categories":[],"categories_nodes":[],"categories_segments":[],"categories_sizes":[],"default_left":[0,0,0,0,0,0,0,0,0,0,0,0,0,0,0,0,0,0,0,0,0,0,0],"id":29,"left_children":[1,3,5,7,9,11,13,15,-1,-1,-1,17,-1,19,21,-1,-1,-1,-1,-1,-1,-1,-1],"loss_changes":[4.5086994E0,2.5086076E0,3.359693E0,4.157513E0,2.8764858E0,7.0994854E-1,2.7246199E0,2.686519E0,0E0,0E0,0E0,1.0951996E-1,0E0,6.6832495E0,2.1346421E0,0E0,0E0,0E0,0E0,0E0,0E0,0E0,0E0],"parents":[2147483647,0,0,1,1,2,2,3,3,4,4,5,5,6,6,7,7,11,11,13,13,14,14],"right_children":[2,4,6,8,10,12,14,16,-1,-1,-1,18,-1,20,22,-1,-1,-1,-1,-1,-1,-1,-1],"split_conditions":[1.0609137E0,8.681319E-1,4.437086E-1,7.014043E-1,3.5134068E-1,4.0853176E0,3.636E0,3.130531E-1,-5.4176535E-2,1.0260197E-1,4.434311E-3,3.2857144E-1,-0E0,2.78E0,8.251845E-1,-7.3502655E-5,4.552462E-2,-2.7294118E-2,-5.6320366E-2,-1.4654486E-2,6.639411E-2,-3.3292007E-2,1.455368E-2],"split_indices":[0,0,1,0,1,0,0,0,0,0,0,1,0,0,1,0,0,0,0,0,0,0,0],"split_type":[0,0,0,0,0,0,0,0,0,0,0,0,0,0,0,0,0,0,0,0,0,0,0],"sum_hessian":[1.7601875E2,6.888473E1,1.0713403E2,5.695942E1,1.1925305E1,2.4296434E1,8.28376E1,4.9803703E1,7.155716E0,6.3831835E0,5.542122E0,2.1216703E1,3.0797312E0,4.084022E1,4.1997375E1,2.526466E1,2.4539045E1,6.742323E0,1.44743805E1,2.5248056E1,1.5592165E1,2.9606743E1,1.2390632E1],"tree_param":{"num_deleted":"0","num_feature":"3","num_nodes":"23","size_leaf_vector":"1"}},{"base_weights":[-8.959483E-3,-8.679919E-2,1.6489924E-1,-1.7365616E-2,-2.4839033E-1,4.648184E-1,4.958317E-2,-1.1331231E-1,1.6882843E-1,2.4156593E-2,-3.0149287E-1,-6.165547E-3,7.621863E-1,1.8367252E-1,-3.0561116E-1,-1.8669831E-3,-4.4892978E-2,5.04792E-2,-1.9258758E-2,-4.8025455E-2,-1.3592909E-2,1.0311826E-1,4.1498534E-2,-5.727253E-4,7.833336E-2,-5.388233E-2,1.5410055E-2],"categories":[],"categories_nodes":[],"categories_segments":[],"categories_sizes":[],"default_left":[0,0,0,0,0,0,0,0,0,0,0,0,0,0,0,0,0,0,0,0,0,0,0,0,0,0,0],"id":30,"left_children":[1,3,5,7,9,11,13,15,17,-1,19,-1,21,23,25,-1,-1,-1,-1,-1,-1,-1,-1,-1,-1,-1,-1],"loss_changes":[2.4745996E0,1.3943269E0,1.8743484E0,1.627781E0,1.0588982E0,2.5105436E0,2.0471592E0,1.8691795E0,3.8651717E0,0E0,8.9757466E-1,0E0,3.5826302E-1,3.6442404E0,1.3756125E0,0E0,0E0,0E0,0E0,0E0,0E0,0E0,0E0,0E0,0E0,0E0,0E0],"parents":[2147483647,0,0,1,1,2,2,3,3,4,4,5,5,6,6,7,7,8,8,10,10,12,12,13,13,14,14],"right_children":[2,4,6,8,10,12,14,16,18,-1,20,-1,22,24,26,-1,-1,-1,-1,-1,-1,-1,-1,-1,-1,-1,-1],"split_conditions":[6.2404287E-1,4.4190872E-1,6.6774064E-1,1.0609137E0,1.0711539E0,3.0645933E0,1.194362E1,7.577197E-1,1.8269006E0,2.4156593E-2,5.1902175E-1,-6.165547E-3,4.782427E0,8.163522E0,8.643991E-1,-1.8669831E-3,-4.4892978E-2,5.04792E-2,-1.9258758E-2,-4.8025455E-2,-1.3592909E-2,1.0311826E-1,4.1498534E-2,-5.727253E-4,7.833336E-2,-5.388233E-2,1.5410055E-2],"split_indices":[1,1,1,0,0,0,0,0,0,0,1,0,0,0,1,0,0,0,0,0,0,0,0,0,0,0,0],"split_type":[0,0,0,0,0,0,0,0,0,0,0,0,0,0,0,0,0,0,0,0,0,0,0,0,0,0,0],"sum_hessian":[1.8137463E2,1.260263E2,5.5348335E1,8.935706E1,3.6669235E1,1.4288407E1,4.105993E1,5.9582443E1,2.9774618E1,3.054487E0,3.361475E1,5.32217E0,8.966238E0,3.0362295E1,1.0697634E1,4.7532185E1,1.2050257E1,1.5368458E1,1.4406161E1,1.49587965E1,1.8655952E1,3.7798035E0,5.1864343E0,2.3700352E1,6.661943E0,7.127357E0,3.5702763E0],"tree_param":{"num_deleted":"0","num_feature":"3","num_nodes":"27","size_leaf_vector":"1"}},{"base_weights":[-3.8328795E-3,-3.8650498E-2,6.577198E-1,-1.648476E-2,-2.7414232E-1,3.457851E-2,9.1876715E-2,-3.289971E-2,4.2944666E-2,-3.8955014E-2,-0E0,3.8225611E-3,-9.722886E-3],"categories":[],"categories_nodes":[],"categories_segments":[],"categories_sizes":[],"default_left":[0,0,0,0,0,0,0,0,0,0,0,0,0],"id":31,"left_children":[1,3,5,7,9,-1,-1,11,-1,-1,-1,-1,-1],"loss_changes":[4.09618E0,8.61809E-1,2.7915525E-1,1.1327156E0,4.6747386E-1,0E0,0E0,7.131276E-1,0E0,0E0,0E0,0E0,0E0],"parents":[2147483647,0,0,1,1,2,2,3,3,4,4,7,7],"right_children":[2,4,6,8,10,-1,-1,12,-1,-1,-1,-1,-1],"split_conditions":[1.7262712E1,9.252174E0,6.8511397E-1,7.9369864E0,8.4489995E-1,3.457851E-2,9.1876715E-2,1.2257054E0,4.2944666E-2,-3.8955014E-2,-0E0,3.8225611E-3,-9.722886E-3],"split_indices":[0,0,1,0,1,0,0,0,0,0,0,0,0],"split_type":[0,0,0,0,0,0,0,0,0,0,0,0,0],"sum_hessian":[1.7841832E2,1.7053574E2,7.882586E0,1.5723097E2,1.3304766E1,4.8248644E0,3.0577216E0,1.5275833E2,4.4726357E0,9.16502E0,4.139746E0,7.200144E1,8.075689E1],"tree_param":{"num_deleted":"0","num_feature":"3","num_nodes":"13","size_leaf_vector":"1"}},{"base_weights":[2.7078653E-2,1.1177853E-2,6.532271E-2,6.1830033E-2,-4.6726438E-1,3.1896695E-2,8.141998E-2,-2.6835302E-2,-5.4187544E-2,5.2423414E-2,1.0856336E-3],"categories":[],"categories_nodes":[],"categories_segments":[],"categories_sizes":[],"default_left":[0,0,0,0,0,0,0,0,0,0,0],"id":32,"left_children":[1,3,-1,5,7,9,-1,-1,-1,-1,-1],"loss_changes":[1.6821628E0,4.1849093E0,0E0,3.4401054E0,1.8525839E-2,1.5236224E0,0E0,0E0,0E0,0E0,0E0],"parents":[2147483647,0,0,1,1,3,3,4,4,5,5],"right_children":[2,4,-1,6,8,10,-1,-1,-1,-1,-1],"split_conditions":[7.98E1,1.0781818E1,6.532271E-2,8.525E0,6.868091E-1,1.7266609E-2,8.141998E-2,-2.6835302E-2,-5.4187544E-2,5.2423414E-2,1.0856336E-3],"split_indices":[2,2,0,2,1,1,0,0,0,0,0],"split_type":[0,0,0,0,0,0,0,0,0,0,0],"sum_hessian":[1.753619E2,1.7216733E2,3.1945653E0,1.5666153E2,1.5505812E1,1.517975E2,4.8640175E0,5.8491316E0,9.65668E0,5.046342E0,1.4675116E2],"tree_param":{"num_deleted":"0","num_feature":"3","num_nodes":"11","size_leaf_vector":"1"}},{"base_weights":[5.2503403E-2,1.8990442E-1,2.5574513E-2,-1.193785E-2,7.879284E-1,-4.951728E-2,4.7519136E-2,1.6356032E-1,-1.5977083E-1,3.803888E-2,1.0020242E-1,8.644367E-2,-5.8371115E-2,-1.681186E-2,6.2342245E-2,-4.8664298E-2,4.6756705E-3,5.137904E-3,3.7692253E-2,-2.4869932E-2,1.7982101E-2],"categories":[],"categories_nodes":[],"categories_segments":[],"categories_sizes":[],"default_left":[0,0,0,0,0,0,0,0,0,0,0,0,0,0,0,0,0,0,0,0,0],"id":33,"left_children":[1,3,5,7,9,-1,11,13,15,-1,-1,17,19,-1,-1,-1,-1,-1,-1,-1,-1],"loss_changes":[6.356757E-1,3.5342088E0,1.708668E0,6.0203063E-1,1.21605396E-1,0E0,6.110878E-1,1.7275549E0,9.356664E-1,0E0,0E0,1.0389612E0,1.8307623E0,0E0,0E0,0E0,0E0,0E0,0E0,0E0,0E0],"parents":[2147483647,0,0,1,1,2,2,3,3,4,4,6,6,7,7,8,8,11,11,12,12],"right_children":[2,4,6,8,10,-1,12,14,16,-1,-1,18,20,-1,-1,-1,-1,-1,-1,-1,-1],"split_conditions":[1.705847E-1,1.2578222E-1,1.9612591E-1,5.5199604E-2,3.4323433E-1,-4.951728E-2,5.5034966E0,5.031056E-2,1.434263E-1,3.803888E-2,1.0020242E-1,6.7803466E-1,1.25E1,-1.681186E-2,6.2342245E-2,-4.8664298E-2,4.6756705E-3,5.137904E-3,3.7692253E-2,-2.4869932E-2,1.7982101E-2],"split_indices":[1,1,1,1,0,0,0,0,0,0,0,1,0,0,0,0,0,0,0,0,0],"split_type":[0,0,0,0,0,0,0,0,0,0,0,0,0,0,0,0,0,0,0,0,0],"sum_hessian":[1.779379E2,2.7558556E1,1.5037933E2,2.1212E1,6.3465548E0,5.024563E0,1.4535478E2,9.340596E0,1.1871403E1,3.3029892E0,3.0435658E0,1.07109924E2,3.8244854E1,5.6688533E0,3.6717434E0,4.258826E0,7.6125774E0,9.693029E1,1.0179629E1,2.1467165E1,1.677769E1],"tree_param":{"num_deleted":"0","num_feature":"3","num_nodes":"21","size_leaf_vector":"1"}},{"base_weights":[-5.5114855E-3,1.4287443E-2,-5.082434E-2,-1.8917229E-2,5.0709444E-1,8.486176E-3,-3.731636E-1,2.5346693E-1,7.757276E-2,-6.497232E-3,1.4924549E-2,-5.1576365E-2,-0E0,-0E0,4.6924453E-2],"categories":[],"categories_nodes":[],"categories_segments":[],"categories_sizes":[],"default_left":[0,0,0,0,0,0,0,0,0,0,0,0,0,0,0],"id":34,"left_children":[1,3,-1,5,7,9,11,13,-1,-1,-1,-1,-1,-1,-1],"loss_changes":[1.7621393E0,2.7687457E0,0E0,1.5535407E0,4.282341E-1,1.5222726E0,6.0884273E-1,4.2036653E-1,0E0,0E0,0E0,0E0,0E0,0E0,0E0],"parents":[2147483647,0,0,1,1,3,3,4,4,5,5,6,6,7,7],"right_children":[2,4,-1,6,8,10,12,14,-1,-1,-1,-1,-1,-1,-1],"split_conditions":[2.7702703E1,1.41645565E1,-5.082434E-2,7.39881E-1,8.2329416E-1,2.1995306E0,8.508108E-1,2.2275E1,7.757276E-2,-6.497232E-3,1.4924549E-2,-5.1576365E-2,-0E0,-0E0,4.6924453E-2],"split_indices":[2,2,0,1,1,2,1,2,0,0,0,0,0,0,0],"split_type":[0,0,0,0,0,0,0,0,0,0,0,0,0,0,0],"sum_hessian":[1.7034406E2,1.6463304E2,5.7110224E0,1.5495132E2,9.681717E0,1.4446938E2,1.0481948E1,6.171115E0,3.510602E0,9.481563E1,4.965374E1,7.2993073E0,3.182641E0,3.1696775E0,3.0014374E0],"tree_param":{"num_deleted":"0","num_feature":"3","num_nodes":"15","size_leaf_vector":"1"}},{"base_weights":[-1.6186086E-2,-3.6506172E-2,1.169224E-1,-1.3439564E-2,-3.937551E-1,4.2252874E-1,-1.3668738E-1,-4.3140836E-2,1.3443622E-1,-9.56113E-3,-5.1672466E-2,9.172025E-3,7.209011E-2,-3.661448E-1,2.0346878E-2,1.9129822E-3,-4.8330303E-2,-3.21543E-2,4.820454E-2,-6.8842075E-3,-4.9138833E-2],"categories":[],"categories_nodes":[],"categories_segments":[],"categories_sizes":[],"default_left":[0,0,0,0,0,0,0,0,0,0,0,0,0,0,0,0,0,0,0,0,0],"id":35,"left_children":[1,3,5,7,9,11,13,15,17,-1,-1,-1,-1,19,-1,-1,-1,-1,-1,-1,-1],"loss_changes":[5.025079E-1,1.3038198E0,1.9756216E0,6.781809E-1,2.42666E-1,9.855578E-1,1.1755397E0,3.6335092E0,4.233926E0,0E0,0E0,0E0,0E0,2.3902345E-1,0E0,0E0,0E0,0E0,0E0,0E0,0E0],"parents":[2147483647,0,0,1,1,2,2,3,3,4,4,5,5,6,6,7,7,8,8,13,13],"right_children":[2,4,6,8,10,12,14,16,18,-1,-1,-1,-1,20,-1,-1,-1,-1,-1,-1,-1],"split_conditions":[7.39881E-1,6.923569E-1,8.080808E-1,6.145092E-1,3.523766E0,6.8238096E0,8.6564523E-1,3.2007723E0,3.545E0,-9.56113E-3,-5.1672466E-2,9.172025E-3,7.209011E-2,8.407871E-1,2.0346878E-2,1.9129822E-3,-4.8330303E-2,-3.21543E-2,4.820454E-2,-6.8842075E-3,-4.9138833E-2],"split_indices":[1,1,1,1,0,0,1,0,0,0,0,0,0,1,0,0,0,0,0,0,0],"split_type":[0,0,0,0,0,0,0,0,0,0,0,0,0,0,0,0,0,0,0,0,0],"sum_hessian":[1.8618044E2,1.628041E2,2.3376352E1,1.5416745E2,8.636643E0,1.0478154E1,1.2898198E1,1.2953456E2,2.4632881E1,3.2785113E0,5.3581324E0,5.7479243E0,4.7302294E0,7.8323493E0,5.0658484E0,1.1411923E2,1.5415335E1,1.056347E1,1.406941E1,3.0175076E0,4.8148417E0],"tree_param":{"num_deleted":"0","num_feature":"3","num_nodes":"21","size_leaf_vector":"1"}},{"base_weights":[-4.579582E-3,-3.2410912E-2,4.5083582E-1,1.5208028E-1,-7.5655036E-2,7.271511E-2,-8.897544E-3,-2.452875E-2,2.1679348E-1,-1.5425067E-1,2.3926105E-2,4.647204E-2,4.694658E-3,-2.5692789E-2,1.3642348E-3,2.6247168E-2,-9.558581E-3],"categories":[],"categories_nodes":[],"categories_segments":[],"categories_sizes":[],"default_left":[0,0,0,0,0,0,0,0,0,0,0,0,0,0,0,0,0],"id":36,"left_children":[1,3,5,7,9,-1,-1,-1,11,13,15,-1,-1,-1,-1,-1,-1],"loss_changes":[2.20723E0,1.3384354E0,1.6220622E0,8.6438906E-1,1.086007E0,0E0,0E0,0E0,1.1048605E0,1.3561095E0,1.7685535E0,0E0,0E0,0E0,0E0,0E0,0E0],"parents":[2147483647,0,0,1,1,2,2,3,3,4,4,8,8,9,9,10,10],"right_children":[2,4,6,8,10,-1,-1,-1,12,14,16,-1,-1,-1,-1,-1,-1],"split_conditions":[1.7262712E1,5.132987E-1,6.413333E1,3.0364372E-2,2.75E0,7.271511E-2,-8.897544E-3,-2.452875E-2,2.8318584E-1,2.0221238E0,2.5995476E0,4.647204E-2,4.694658E-3,-2.5692789E-2,1.3642348E-3,2.6247168E-2,-9.558581E-3],"split_indices":[0,2,0,0,2,0,0,0,0,0,0,0,0,0,0,0,0],"split_type":[0,0,0,0,0,0,0,0,0,0,0,0,0,0,0,0,0],"sum_hessian":[1.7529135E2,1.6627818E2,9.013175E0,3.065716E1,1.3562102E2,5.8545747E0,3.1586006E0,3.6862547E0,2.6970905E1,7.605159E1,5.9569435E1,1.0019897E1,1.6951008E1,4.7231716E1,2.8819872E1,1.976302E1,3.9806416E1],"tree_param":{"num_deleted":"0","num_feature":"3","num_nodes":"17","size_leaf_vector":"1"}},{"base_weights":[-2.9296942E-2,-1.5286803E-1,5.1296894E-2,3.8908925E-2,-2.0899883E-1,6.071931E-1,-4.468493E-2,-1.34017E-1,-4.5756692E-1,2.1042271E-1,1.0975039E-1,-2.3215356E-1,1.1412311E-1,-5.411939E-2,-4.5335996E-3,-5.4462083E-2,-2.1001764E-2,6.577297E-2,-4.6552207E-2,5.6780153E-3,-4.0849205E-2,4.2790025E-2,-8.875669E-3],"categories":[],"categories_nodes":[],"categories_segments":[],"categories_sizes":[],"default_left":[0,0,0,0,0,0,0,0,0,0,0,0,0,0,0,0,0,0,0,0,0,0,0],"id":37,"left_children":[1,3,5,-1,7,9,11,13,15,17,-1,19,21,-1,-1,-1,-1,-1,-1,-1,-1,-1,-1],"loss_changes":[1.778651E0,2.2088132E0,5.8063745E0,0E0,1.0859048E0,2.7538176E0,2.7845933E0,1.7746074E0,1.17827415E-1,3.409956E0,0E0,2.2453356E0,3.2753441E0,0E0,0E0,0E0,0E0,0E0,0E0,0E0,0E0,0E0,0E0],"parents":[2147483647,0,0,1,1,2,2,4,4,5,5,6,6,7,7,8,8,9,9,11,11,12,12],"right_children":[2,4,6,-1,8,10,12,14,16,18,-1,20,22,-1,-1,-1,-1,-1,-1,-1,-1,-1,-1],"split_conditions":[1.1721001E0,3.0364372E-2,1.6424419E0,3.8908925E-2,9.38326E-1,1.4765217E0,3.9086537E0,1.3612565E-1,1.0951087E0,4.3794325E-1,1.0975039E-1,4.804992E-1,6.616757E-1,-5.411939E-2,-4.5335996E-3,-5.4462083E-2,-2.1001764E-2,6.577297E-2,-4.6552207E-2,5.6780153E-3,-4.0849205E-2,4.2790025E-2,-8.875669E-3],"split_indices":[0,0,0,0,0,0,0,0,0,1,0,1,1,0,0,0,0,0,0,0,0,0,0],"split_type":[0,0,0,0,0,0,0,0,0,0,0,0,0,0,0,0,0,0,0,0,0,0,0],"sum_hessian":[1.7578885E2,6.952821E1,1.0626063E2,5.801345E0,6.3726868E1,1.5014891E1,9.1245735E1,5.044987E1,1.3276998E1,9.201747E0,5.813144E0,4.1923737E1,4.9322002E1,7.9083805E0,4.2541492E1,8.636021E0,4.6409764E0,5.6426244E0,3.5591223E0,1.5931161E1,2.5992575E1,1.9125683E1,3.0196318E1],"tree_param":{"num_deleted":"0","num_feature":"3","num_nodes":"23","size_leaf_vector":"1"}},{"base_weights":[-0E0,-6.3528284E-2,1.3395043E-1,-3.427793E-2,-3.1043375E-1,6.511771E-2,7.8552105E-2,-6.0456056E-2,6.4722195E-2,-4.8409253E-2,-1.4478648E-1,1.491886E-1,-1.4776675E-1,6.4380215E-3,-1.0745195E-2,2.6405884E-3,-2.9583124E-2,-3.0371992E-2,2.0429006E-2,-5.0980814E-2,1.8824048E-2],"categories":[],"categories_nodes":[],"categories_segments":[],"categories_sizes":[],"default_left":[0,0,0,0,0,0,0,0,0,0,0,0,0,0,0,0,0,0,0,0,0],"id":38,"left_children":[1,3,5,7,9,-1,11,13,-1,-1,15,17,19,-1,-1,-1,-1,-1,-1,-1,-1],"loss_changes":[1.5087401E0,8.304875E-1,1.5038576E0,1.9408252E0,2.2243905E-1,0E0,8.635716E-1,6.382387E-1,0E0,0E0,2.4277955E-1,1.0739572E0,1.6712364E0,0E0,0E0,0E0,0E0,0E0,0E0,0E0,0E0],"parents":[2147483647,0,0,1,1,2,2,3,3,4,4,6,6,7,7,10,10,11,11,12,12],"right_children":[2,4,6,8,10,-1,12,14,-1,-1,16,18,20,-1,-1,-1,-1,-1,-1,-1,-1],"split_conditions":[3.1894736E0,2.5363288E0,3.4224422E0,2.2682216E0,5.206612E-1,6.511771E-2,8.2329416E-1,1.705847E-1,6.4722195E-2,-4.8409253E-2,6.354015E-1,3.666008E0,8.5267955E-1,6.4380215E-3,-1.0745195E-2,2.6405884E-3,-2.9583124E-2,-3.0371992E-2,2.0429006E-2,-5.0980814E-2,1.8824048E-2],"split_indices":[2,2,2,2,1,0,1,1,0,0,1,2,1,0,0,0,0,0,0,0,0],"split_type":[0,0,0,0,0,0,0,0,0,0,0,0,0,0,0,0,0,0,0,0,0],"sum_hessian":[1.7605559E2,1.20239395E2,5.5816193E1,1.0888399E2,1.1355409E1,4.184841E0,5.163135E1,1.05875084E2,3.0089042E0,4.3104067E0,7.045002E0,3.994634E1,1.1685014E1,2.8273575E1,7.760151E1,3.378722E0,3.6662803E0,3.6465478E0,3.629979E1,5.5188823E0,6.166131E0],"tree_param":{"num_deleted":"0","num_feature":"3","num_nodes":"21","size_leaf_vector":"1"}},{"base_weights":[8.691741E-2,2.8231263E-1,-4.4396527E-2,1.5638494E-1,8.098434E-1,-4.1288415E-1,6.951499E-2,2.5694174E-1,-3.447466E-1,1.1872611E-1,1.3942807E-2,-4.7756335E-1,-0E0,5.60277E-1,-6.7523256E-2,5.673467E-3,7.8365356E-2,-5.165804E-2,-0E0,-5.5718075E-2,-2.9219512E-2,2.7229447E-2,7.936144E-2,1.7715327E-2,-2.5368337E-2],"categories":[],"categories_nodes":[],"categories_segments":[],"categories_sizes":[],"default_left":[0,0,0,0,0,0,0,0,0,0,0,0,0,0,0,0,0,0,0,0,0,0,0,0,0],"id":39,"left_children":[1,3,5,7,9,11,13,15,17,-1,-1,19,-1,21,23,-1,-1,-1,-1,-1,-1,-1,-1,-1,-1],"loss_changes":[4.2751245E0,4.217087E0,4.233722E0,2.869167E0,2.8617716E0,6.7955303E-1,5.2351403E0,4.811002E0,5.8793294E-1,0E0,0E0,5.8939457E-2,0E0,8.180356E-1,2.811556E0,0E0,0E0,0E0,0E0,0E0,0E0,0E0,0E0,0E0,0E0],"parents":[2147483647,0,0,1,1,2,2,3,3,4,4,5,5,6,6,7,7,8,8,11,11,13,13,14,14],"right_children":[2,4,6,8,10,12,14,16,18,-1,-1,20,-1,22,24,-1,-1,-1,-1,-1,-1,-1,-1,-1,-1],"split_conditions":[1.0609137E0,8.681319E-1,4.4038716E-1,2.8369606E-1,3.756665E-1,3.6833334E0,5.1902175E-1,2.0455295E-1,3.4240687E-1,1.1872611E-1,1.3942807E-2,1.8811953E0,-0E0,4.8587057E-1,3.636E0,5.673467E-3,7.8365356E-2,-5.165804E-2,-0E0,-5.5718075E-2,-2.9219512E-2,2.7229447E-2,7.936144E-2,1.7715327E-2,-2.5368337E-2],"split_indices":[0,0,1,1,1,0,1,1,1,0,0,0,0,1,0,0,0,0,0,0,0,0,0,0,0],"split_type":[0,0,0,0,0,0,0,0,0,0,0,0,0,0,0,0,0,0,0,0,0,0,0,0,0],"sum_hessian":[1.6420308E2,6.584191E1,9.836117E1,5.4353188E1,1.1488722E1,2.281409E1,7.554708E1,4.5841484E1,8.511703E0,6.7619267E0,4.726795E0,1.977997E1,3.0341208E0,1.5975783E1,5.9571293E1,3.415608E1,1.1685407E1,5.4394474E0,3.0722551E0,1.2056372E1,7.7235975E0,8.312324E0,7.6634593E0,2.5528946E1,3.4042347E1],"tree_param":{"num_deleted":"0","num_feature":"3","num_nodes":"25","size_leaf_vector":"1"}},{"base_weights":[2.9965447E-2,-8.4678575E-2,1.3500546E-1,-2.866813E-2,-3.5733613E-1,1.8863793E-1,-2.1096937E-1,-6.7569934E-2,6.1881382E-2,-5.3580213E-2,-5.165392E-3,1.3981034E-1,5.6746244E-1,-3.546973E-1,4.173321E-3,-1.3144915E-4,-4.143412E-2,3.9985742E-2,6.326685E-3,-1.0804726E-2,9.632853E-2,-7.3835985E-3,-4.7740474E-2],"categories":[],"categories_nodes":[],"categories_segments":[],"categories_sizes":[],"default_left":[0,0,0,0,0,0,0,0,0,0,0,0,0,0,0,0,0,0,0,0,0,0,0],"id":40,"left_children":[1,3,5,7,9,11,13,15,-1,-1,-1,17,19,21,-1,-1,-1,-1,-1,-1,-1,-1,-1],"loss_changes":[2.1602094E0,1.253488E0,1.7769829E0,1.8036768E0,6.850375E-1,1.365557E0,5.1111424E-1,1.5453866E0,0E0,0E0,0E0,1.4042145E0,2.5411315E0,2.0321679E-1,0E0,0E0,0E0,0E0,0E0,0E0,0E0,0E0,0E0],"parents":[2147483647,0,0,1,1,2,2,3,3,4,4,5,5,6,6,7,7,11,11,12,12,13,13],"right_children":[2,4,6,8,10,12,14,16,-1,-1,-1,18,20,22,-1,-1,-1,-1,-1,-1,-1,-1,-1],"split_conditions":[1.6424419E0,4.2782527E-1,8.080808E-1,4.030612E-1,4.824462E-1,7.5940645E-1,8.6564523E-1,3.2354456E-1,6.1881382E-2,-5.3580213E-2,-5.165392E-3,2.1029668E0,6.7370243E0,6.4593496E0,4.173321E-3,-1.3144915E-4,-4.143412E-2,3.9985742E-2,6.326685E-3,-1.0804726E-2,9.632853E-2,-7.3835985E-3,-4.7740474E-2],"split_indices":[0,1,1,1,1,1,1,1,0,0,0,0,0,0,0,0,0,0,0,0,0,0,0],"split_type":[0,0,0,0,0,0,0,0,0,0,0,0,0,0,0,0,0,0,0,0,0,0,0],"sum_hessian":[1.770192E2,8.427768E1,9.2741516E1,7.1136444E1,1.3141238E1,8.0938385E1,1.1803136E1,6.809525E1,3.0411906E0,7.6152773E0,5.525961E0,7.314375E1,7.7946324E0,7.518817E0,4.284319E0,5.825667E1,9.838577E0,1.5375842E1,5.776791E1,3.055138E0,4.7394943E0,3.0209436E0,4.4978733E0],"tree_param":{"num_deleted":"0","num_feature":"3","num_nodes":"23","size_leaf_vector":"1"}},{"base_weights":[-5.02182E-3,-3.1817626E-2,4.6890238E-1,7.294086E-2,-1.139843E-1,8.2246475E-2,8.246004E-3,-0E0,4.4575313E-1,-2.6256904E-1,-6.077218E-2,2.9959555E-3,-3.707236E-2,9.510272E-2,1.3952701E-2,-3.9004743E-2,2.1802667E-3,1.8198961E-2,-1.5903043E-2],"categories":[],"categories_nodes":[],"categories_segments":[],"categories_sizes":[],"default_left":[0,0,0,0,0,0,0,0,0,0,0,0,0,0,0,0,0,0,0],"id":41,"left_children":[1,3,5,7,9,-1,-1,11,13,15,17,-1,-1,-1,-1,-1,-1,-1,-1],"loss_changes":[2.208714E0,1.457644E0,1.1113627E0,2.0462048E0,7.029966E-1,0E0,0E0,7.3485446E-1,1.657752E0,9.2477024E-1,1.7384043E0,0E0,0E0,0E0,0E0,0E0,0E0,0E0,0E0],"parents":[2147483647,0,0,1,1,2,2,3,3,4,4,7,7,8,8,9,9,10,10],"right_children":[2,4,6,8,10,-1,-1,12,14,16,18,-1,-1,-1,-1,-1,-1,-1,-1],"split_conditions":[1.7262712E1,1.2257054E0,7.561513E-1,3.5599926E-1,1.9453682E0,8.2246475E-2,8.246004E-3,3.2857144E-1,3.989783E-1,5.070994E-1,5.4163486E-1,2.9959555E-3,-3.707236E-2,9.510272E-2,1.3952701E-2,-3.9004743E-2,2.1802667E-3,1.8198961E-2,-1.5903043E-2],"split_indices":[0,0,1,1,0,0,0,1,1,1,1,0,0,0,0,0,0,0,0],"split_type":[0,0,0,0,0,0,0,0,0,0,0,0,0,0,0,0,0,0,0],"sum_hessian":[1.7519269E2,1.669E2,8.292705E0,7.287859E1,9.40214E1,3.6062336E0,4.686471E0,6.1602207E1,1.1276383E1,2.3259632E1,7.0761765E1,5.763828E1,3.9639266E0,3.3374262E0,7.938957E0,1.6046387E1,7.213245E0,1.9849846E1,5.0911922E1],"tree_param":{"num_deleted":"0","num_feature":"3","num_nodes":"19","size_leaf_vector":"1"}},{"base_weights":[-1.47954915E-2,-1.3829595E-1,5.1648412E-2,-3.6176944E-3,-2.9882362E-1,3.625723E-1,-5.4175805E-2,-1.8455398E-1,1.4180689E-1,-4.6573377E-1,-6.035172E-2,5.925376E-1,-3.342297E-1,-2.5417328E-1,9.773297E-2,1.8382046E-2,-3.0836323E-2,6.8246745E-2,-0E0,-7.301631E-3,-5.5498686E-2,4.3988585E-2,-3.511584E-2,2.5829342E-3,8.463602E-2,-4.773141E-2,-6.0069803E-3,-5.8244057E-3,-3.6994964E-2,1.9214088E-2,-3.5210516E-2],"categories":[],"categories_nodes":[],"categories_segments":[],"categories_sizes":[],"default_left":[0,0,0,0,0,0,0,0,0,0,0,0,0,0,0,0,0,0,0,0,0,0,0,0,0,0,0,0,0,0,0],"id":42,"left_children":[1,3,5,7,9,11,13,15,17,19,21,23,25,27,29,-1,-1,-1,-1,-1,-1,-1,-1,-1,-1,-1,-1,-1,-1,-1,-1],"loss_changes":[1.4533775E0,1.31083E0,3.805004E0,9.542616E-1,1.0326343E0,4.926153E0,2.646072E0,8.164465E-1,1.5282762E0,4.595623E-1,2.0239825E0,3.1320128E0,2.2408104E-1,7.881739E-1,2.1402159E0,0E0,0E0,0E0,0E0,0E0,0E0,0E0,0E0,0E0,0E0,0E0,0E0,0E0,0E0,0E0,0E0],"parents":[2147483647,0,0,1,1,2,2,3,3,4,4,5,5,6,6,7,7,8,8,9,9,10,10,11,11,12,12,13,13,14,14],"right_children":[2,4,6,8,10,12,14,16,18,20,22,24,26,28,30,-1,-1,-1,-1,-1,-1,-1,-1,-1,-1,-1,-1,-1,-1,-1,-1],"split_conditions":[1.0876737E0,2.0285544E-1,4.4038716E-1,9.815141E-2,3.117002E-1,2.5490196E0,3.9086537E0,1.8905472E-2,2.1937984E-1,4.2636988E-1,3.4240687E-1,3.3600557E-1,3.8835227E0,1.9314721E0,1.7262712E1,1.8382046E-2,-3.0836323E-2,6.8246745E-2,-0E0,-7.301631E-3,-5.5498686E-2,4.3988585E-2,-3.511584E-2,2.5829342E-3,8.463602E-2,-4.773141E-2,-6.0069803E-3,-5.8244057E-3,-3.6994964E-2,1.9214088E-2,-3.5210516E-2],"split_indices":[0,1,1,1,1,0,0,0,0,0,1,1,0,0,0,0,0,0,0,0,0,0,0,0,0,0,0,0,0,0,0],"split_type":[0,0,0,0,0,0,0,0,0,0,0,0,0,0,0,0,0,0,0,0,0,0,0,0,0,0,0,0,0,0,0],"sum_hessian":[1.7418837E2,6.1080532E1,1.1310783E2,3.410928E1,2.6971254E1,2.8345177E1,8.476265E1,1.5385418E1,1.8723862E1,1.5058941E1,1.19123125E1,2.1532095E1,6.8130817E0,3.6583397E1,4.8179256E1,3.5451107E0,1.1840307E1,3.1328154E0,1.5591047E1,3.3328302E0,1.172611E1,4.064376E0,7.847937E0,7.1234183E0,1.4408677E1,3.7501287E0,3.062953E0,1.4467219E1,2.2116179E1,4.047905E1,7.700205E0],"tree_param":{"num_deleted":"0","num_feature":"3","num_nodes":"31","size_leaf_vector":"1"}},{"base_weights":[-0E0,3.5804346E-2,-1.6358612E-1,1.988681E-3,6.248533E-1,-2.3931804E-1,5.7660703E-2,2.196125E-2,-3.8566258E-2,9.157124E-2,1.7714737E-2,7.09427E-3,-3.1298137E-1,1.9040106E-2,-4.6350094E-3,-2.838548E-3,2.380999E-2,-4.6931632E-2,-1.2478824E-2],"categories":[],"categories_nodes":[],"categories_segments":[],"categories_sizes":[],"default_left":[0,0,0,0,0,0,0,0,0,0,0,0,0,0,0,0,0,0,0],"id":43,"left_children":[1,3,5,7,9,11,13,15,-1,-1,-1,-1,17,-1,-1,-1,-1,-1,-1],"loss_changes":[1.0289123E0,2.7999234E0,5.607931E-1,1.0338321E0,7.2361326E-1,5.9592927E-1,1.4082736E-1,1.4598353E0,0E0,0E0,0E0,0E0,4.6679783E-1,0E0,0E0,0E0,0E0,0E0,0E0],"parents":[2147483647,0,0,1,1,2,2,3,3,4,4,5,5,6,6,7,7,12,12],"right_children":[2,4,6,8,10,12,14,16,-1,-1,-1,-1,18,-1,-1,-1,-1,-1,-1],"split_conditions":[6.8238096E0,7.39881E-1,8.5267955E-1,5.5034966E0,7.848549E-1,5.3121287E-1,1.3885593E1,2.78E0,-3.8566258E-2,9.157124E-2,1.7714737E-2,7.09427E-3,1.25159235E1,1.9040106E-2,-4.6350094E-3,-2.838548E-3,2.380999E-2,-4.6931632E-2,-1.2478824E-2],"split_indices":[0,1,1,0,1,1,0,0,0,0,0,0,0,0,0,0,0,0,0],"split_type":[0,0,0,0,0,0,0,0,0,0,0,0,0,0,0,0,0,0,0],"sum_hessian":[1.7333578E2,1.4277422E2,3.0561565E1,1.3613237E2,6.64184E0,2.3044E1,7.517565E0,1.3060468E2,5.527702E0,3.257106E0,3.384734E0,4.1680593E0,1.887594E1,3.3601425E0,4.1574225E0,1.06259E2,2.434567E1,9.204473E0,9.671468E0],"tree_param":{"num_deleted":"0","num_feature":"3","num_nodes":"19","size_leaf_vector":"1"}},{"base_weights":[-1.2698013E-2,7.331617E-2,-2.9300946E-1,-3.354806E-2,5.873476E-1,-4.0815628E-1,2.88543E-2,6.858838E-2,-4.7479963E-1,-2.666145E-3,7.070725E-1,-5.1571256E-1,3.9110605E-2,-3.0879327E-3,5.366682E-2,-1.903117E-2,-5.567481E-2,8.512837E-2,3.881589E-2,-5.764565E-2,-8.700291E-3],"categories":[],"categories_nodes":[],"categories_segments":[],"categories_sizes":[],"default_left":[0,0,0,0,0,0,0,0,0,0,0,0,0,0,0,0,0,0,0,0,0],"id":44,"left_children":[1,3,5,7,9,11,-1,13,15,-1,17,19,-1,-1,-1,-1,-1,-1,-1,-1,-1],"loss_changes":[4.043531E0,7.0775666E0,2.769977E0,4.864848E0,1.7155867E0,3.0913572E0,0E0,4.1189985E0,2.9247284E-1,0E0,4.062462E-1,6.6581297E-1,0E0,0E0,0E0,0E0,0E0,0E0,0E0,0E0,0E0],"parents":[2147483647,0,0,1,1,2,2,3,3,4,4,5,5,7,7,8,8,10,10,11,11],"right_children":[2,4,6,8,10,12,-1,14,16,-1,18,20,-1,-1,-1,-1,-1,-1,-1,-1,-1],"split_conditions":[3.7413793E0,2.7325256E0,8.634193E-1,1.7606695E0,5.350206E-1,2.8839285E1,2.88543E-2,4.437086E-1,1.926282E0,-2.666145E-3,3.3312101E0,8.2329416E-1,3.9110605E-2,-3.0879327E-3,5.366682E-2,-1.903117E-2,-5.567481E-2,8.512837E-2,3.881589E-2,-5.764565E-2,-8.700291E-3],"split_indices":[0,0,1,0,1,0,0,1,0,0,0,1,0,0,0,0,0,0,0,0,0],"split_type":[0,0,0,0,0,0,0,0,0,0,0,0,0,0,0,0,0,0,0,0,0],"sum_hessian":[1.6490433E2,1.26476456E2,3.842788E1,1.0532101E2,2.1155447E1,3.2469135E1,5.958743E0,8.602641E1,1.9294592E1,3.442524E0,1.7712923E1,2.9040985E1,3.4281507E0,7.154366E1,1.4482753E1,5.3308616E0,1.396373E1,1.0831902E1,6.881022E0,2.4930668E1,4.110316E0],"tree_param":{"num_deleted":"0","num_feature":"3","num_nodes":"21","size_leaf_vector":"1"}},{"base_weights":[2.9734746E-2,-7.743012E-2,9.163547E-2,-1.3372543E-1,5.0766584E-2,3.9377517E-1,3.320297E-2,-2.2003517E-2,-5.5469602E-2,1.2949944E-1,1.0930919E-1,-4.906499E-2,6.779722E-2,5.2173655E-2,-7.495053E-3,-2.8382022E-2,3.8374532E-2,-4.728179E-2,9.8894145E-3],"categories":[],"categories_nodes":[],"categories_segments":[],"categories_sizes":[],"default_left":[0,0,0,0,0,0,0,0,0,0,0,0,0,0,0,0,0,0,0],"id":45,"left_children":[1,3,5,7,-1,9,11,13,-1,-1,15,-1,17,-1,-1,-1,-1,-1,-1],"loss_changes":[1.1876382E0,2.1724977E0,1.9519179E0,2.7647538E0,0E0,4.347825E0,1.742681E0,1.4010507E0,0E0,0E0,1.7267915E0,0E0,1.5514796E0,0E0,0E0,0E0,0E0,0E0,0E0],"parents":[2147483647,0,0,1,1,2,2,3,3,5,5,6,6,7,7,10,10,12,12],"right_children":[2,4,6,8,-1,10,12,14,-1,-1,16,-1,18,-1,-1,-1,-1,-1,-1],"split_conditions":[1.0609137E0,5.4006515E0,9.9358976E-1,7.577197E-1,5.0766584E-2,1.1477901E0,1.2585635E0,2.4978466E-2,-5.5469602E-2,1.2949944E-1,6.397059E-1,-4.906499E-2,1.1653544E0,5.2173655E-2,-7.495053E-3,-2.8382022E-2,3.8374532E-2,-4.728179E-2,9.8894145E-3],"split_indices":[0,2,2,0,0,0,0,2,0,0,2,0,2,0,0,0,0,0,0],"split_type":[0,0,0,0,0,0,0,0,0,0,0,0,0,0,0,0,0,0,0],"sum_hessian":[1.7675043E2,6.4031075E1,1.1271936E2,5.927067E1,4.7604003E0,1.7059362E1,9.5659996E1,4.7859097E1,1.1411572E1,3.156217E0,1.3903146E1,4.930155E0,9.072984E1,3.29353E0,4.4565567E1,5.551727E0,8.3514185E0,3.9874928E0,8.674235E1],"tree_param":{"num_deleted":"0","num_feature":"3","num_nodes":"19","size_leaf_vector":"1"}},{"base_weights":[2.1217013E-2,-2.0985985E-3,3.8101974E-1,2.1443786E-1,-5.480488E-2,5.4044988E-2,2.1022207E-1,8.707346E-2,7.201593E-2,-2.4188617E-1,-1.8247323E-2,-0E0,3.8615264E-2,1.7984468E-2,-3.6384966E-2,-0E0,-3.1342197E-2,-4.6883248E-2,1.629894E-3],"categories":[],"categories_nodes":[],"categories_segments":[],"categories_sizes":[],"default_left":[0,0,0,0,0,0,0,0,0,0,0,0,0,0,0,0,0,0,0],"id":46,"left_children":[1,3,5,7,9,-1,11,13,-1,15,17,-1,-1,-1,-1,-1,-1,-1,-1],"loss_changes":[1.5143443E0,1.8895359E0,1.1007559E-1,1.9379736E0,8.902496E-1,0E0,2.8367686E-1,1.1810746E0,0E0,3.466165E-1,1.8296058E0,0E0,0E0,0E0,0E0,0E0,0E0,0E0,0E0],"parents":[2147483647,0,0,1,1,2,2,3,3,4,4,6,6,7,7,9,9,10,10],"right_children":[2,4,6,8,10,-1,12,14,-1,16,18,-1,-1,-1,-1,-1,-1,-1,-1],"split_conditions":[1.7262712E1,5.2365416E-1,2.5647058E1,4.3385214E-1,8.519022E-1,5.4044988E-2,2.2444444E0,3.7269372E-1,7.201593E-2,5.995763E-1,3.130531E-1,-0E0,3.8615264E-2,1.7984468E-2,-3.6384966E-2,-0E0,-3.1342197E-2,-4.6883248E-2,1.629894E-3],"split_indices":[0,2,0,2,2,0,2,2,0,2,0,0,0,0,0,0,0,0,0],"split_type":[0,0,0,0,0,0,0,0,0,0,0,0,0,0,0,0,0,0,0],"sum_hessian":[1.7490288E2,1.6493138E2,9.971498E0,3.131445E1,1.3361693E2,3.7351687E0,6.2363286E0,2.6108915E1,5.2055354E0,2.0476675E1,1.1314026E2,3.1892583E0,3.0470703E0,2.2336432E1,3.7724824E0,5.156413E0,1.5320262E1,7.3676677E0,1.0577259E2],"tree_param":{"num_deleted":"0","num_feature":"3","num_nodes":"19","size_leaf_vector":"1"}},{"base_weights":[1.072213E-2,5.0166972E-2,-6.0641924E-3,-1.1847911E-1,5.234394E-2,-5.3850513E-2,-5.1755793E-2,2.782556E-1,-2.7148938E-2,-1.33913355E-2,3.4401353E-2,1.9156613E-3,6.0215842E-2,-5.107082E-2,1.4434542E-3],"categories":[],"categories_nodes":[],"categories_segments":[],"categories_sizes":[],"default_left":[0,0,0,0,0,0,0,0,0,0,0,0,0,0,0],"id":47,"left_children":[1,-1,3,5,7,9,-1,11,13,-1,-1,-1,-1,-1,-1],"loss_changes":[1.5190277E0,0E0,1.1477153E0,1.462291E0,2.0773084E0,1.7121255E0,0E0,2.4483185E0,1.7622325E0,0E0,0E0,0E0,0E0,0E0,0E0],"parents":[2147483647,0,0,2,2,3,3,4,4,5,5,7,7,8,8],"right_children":[2,-1,4,6,8,10,-1,12,14,-1,-1,-1,-1,-1,-1],"split_conditions":[3.0364372E-2,5.0166972E-2,1.0876737E0,9.38326E-1,4.4038716E-1,7.577197E-1,-5.1755793E-2,3.9479905E-1,1.4765217E0,-1.33913355E-2,3.4401353E-2,1.9156613E-3,6.0215842E-2,-5.107082E-2,1.4434542E-3],"split_indices":[0,0,0,0,1,0,0,1,0,0,0,0,0,0,0],"split_type":[0,0,0,0,0,0,0,0,0,0,0,0,0,0,0],"sum_hessian":[1.7693817E2,5.091757E0,1.7184642E2,5.8991787E1,1.1285463E2,5.1962296E1,7.029491E0,2.9051224E1,8.3803406E1,4.4019035E1,7.943261E0,1.6900173E1,1.2151051E1,5.933077E0,7.787032E1],"tree_param":{"num_deleted":"0","num_feature":"3","num_nodes":"15","size_leaf_vector":"1"}},{"base_weights":[1.0124008E-2,2.7469912E-1,-2.1967115E-2,1.0575194E-1,7.3078506E-2,-1.6265474E-1,1.8814119E-2,3.15863E-1,-2.5815804E-2,7.0736386E-2,-2.721016E-1,7.561699E-2,-1.4530798E-2,2.9126704E-3,6.433719E-2,-1.8866641E-2,2.5349144E-2,-5.1155683E-2,-1.5316556E-2,4.5603257E-2,-3.8115324E-3],"categories":[],"categories_nodes":[],"categories_segments":[],"categories_sizes":[],"default_left":[0,0,0,0,0,0,0,0,0,0,0,0,0,0,0,0,0,0,0,0,0],"id":48,"left_children":[1,3,5,7,-1,9,11,13,-1,15,17,-1,19,-1,-1,-1,-1,-1,-1,-1,-1],"loss_changes":[1.4866263E0,1.2994356E0,8.978668E-1,1.2463758E0,0E0,9.3699676E-1,3.0187051E0,8.750813E-1,0E0,6.099197E-1,5.506519E-1,0E0,1.2518849E0,0E0,0E0,0E0,0E0,0E0,0E0,0E0,0E0],"parents":[2147483647,0,0,1,1,2,2,3,3,5,5,6,6,7,7,9,9,10,10,12,12],"right_children":[2,4,6,8,-1,10,12,14,-1,16,18,-1,20,-1,-1,-1,-1,-1,-1,-1,-1],"split_conditions":[2.9331228E-1,1.20571785E-1,2.8198937E-1,7.087447E-2,7.3078506E-2,1.705847E-1,3.093314E-1,2.8417267E-2,-2.5815804E-2,9.88822E-2,2.0235096E-1,7.561699E-2,7.8417265E-1,2.9126704E-3,6.433719E-2,-1.8866641E-2,2.5349144E-2,-5.1155683E-2,-1.5316556E-2,4.5603257E-2,-3.8115324E-3],"split_indices":[2,1,1,1,0,1,1,1,0,1,1,0,2,0,0,0,0,0,0,0,0],"split_type":[0,0,0,0,0,0,0,0,0,0,0,0,0,0,0,0,0,0,0,0,0],"sum_hessian":[1.7040529E2,1.7952461E1,1.5245284E2,1.4158774E1,3.7936869E0,3.4139965E1,1.1831287E2,9.2340975E0,4.924677E0,1.0719997E1,2.3419968E1,4.3107624E0,1.140021E2,5.6669297E0,3.5671678E0,4.1913137E0,6.528684E0,6.397638E0,1.7022331E1,4.3635464E0,1.0963856E2],"tree_param":{"num_deleted":"0","num_feature":"3","num_nodes":"21","size_leaf_vector":"1"}},{"base_weights":[-9.3462E-3,1.341139E-1,-1.0870894E-1,-3.4625015E-1,2.7861074E-1,-2.839526E-1,9.41861E-3,1.7939491E-2,-5.5946805E-2,7.587377E-1,2.2899648E-2,-4.8487738E-1,-4.980695E-2,3.7020245E-1,-2.3549826E-1,3.1576734E-2,1.1469125E-1,-1.4481718E-2,4.7758456E-2,-2.1587303E-2,-5.5785425E-2,3.4711502E-2,-5.4044873E-2,5.0565988E-2,-2.0936042E-2,-3.7945677E-2,1.720631E-2],"categories":[],"categories_nodes":[],"categories_segments":[],"categories_sizes":[],"default_left":[0,0,0,0,0,0,0,0,0,0,0,0,0,0,0,0,0,0,0,0,0,0,0,0,0,0,0],"id":49,"left_children":[1,3,5,7,9,11,13,-1,-1,15,17,19,21,23,25,-1,-1,-1,-1,-1,-1,-1,-1,-1,-1,-1,-1],"loss_changes":[2.5836349E0,5.216216E0,2.2564807E0,2.0845952E0,6.962993E0,1.977222E0,5.832695E0,0E0,0E0,2.898261E0,3.0521166E0,2.5689745E-1,4.397013E0,2.2382228E0,2.3792627E0,0E0,0E0,0E0,0E0,0E0,0E0,0E0,0E0,0E0,0E0,0E0,0E0],"parents":[2147483647,0,0,1,1,2,2,3,3,4,4,5,5,6,6,9,9,10,10,11,11,12,12,13,13,14,14],"right_children":[2,4,6,8,10,12,14,-1,-1,16,18,20,22,24,26,-1,-1,-1,-1,-1,-1,-1,-1,-1,-1,-1,-1],"split_conditions":[1.0609137E0,3.104027E-1,2.7325256E0,3.4587994E-2,7.222222E-1,2.1995306E0,4.4962215E0,1.7939491E-2,-5.5946805E-2,5.132987E-1,9.0335053E-1,6.4324325E-1,1.685152E0,6.4880953E0,1.6194174E1,3.1576734E-2,1.1469125E-1,-1.4481718E-2,4.7758456E-2,-2.1587303E-2,-5.5785425E-2,3.4711502E-2,-5.4044873E-2,5.0565988E-2,-2.0936042E-2,-3.7945677E-2,1.720631E-2],"split_indices":[0,2,0,2,2,2,0,0,0,2,0,2,0,2,0,0,0,0,0,0,0,0,0,0,0,0,0],"split_type":[0,0,0,0,0,0,0,0,0,0,0,0,0,0,0,0,0,0,0,0,0,0,0,0,0,0,0],"sum_hessian":[1.7940479E2,7.285723E1,1.0654755E2,1.6365063E1,5.6492172E1,4.267759E1,6.3869957E1,4.6329927E0,1.173207E1,1.8812086E1,3.7680084E1,2.2162022E1,2.051557E1,2.578426E1,3.8085697E1,9.753193E0,9.058892E0,2.786373E1,9.816355E0,5.8663006E0,1.6295721E1,1.1389968E1,9.125602E0,2.114276E1,4.6415E0,2.8376791E1,9.708907E0],"tree_param":{"num_deleted":"0","num_feature":"3","num_nodes":"27","size_leaf_vector":"1"}},{"base_weights":[-2.1042801E-2,-2.0986354E-1,4.298562E-2,-1.0423175E-1,-3.888458E-1,2.5048885E-1,-4.4136725E-2,-3.572939E-1,1.01025455E-1,-5.5617273E-2,3.4361293E-3,1.187699E-1,9.700482E-2,-2.4916492E-1,3.292611E-2,2.0549107E-2,-5.451081E-2,6.7216985E-2,-1.1318998E-2,4.452422E-2,-1.2300167E-3,-2.078328E-3,-4.51363E-2,1.3617962E-2,-1.6339753E-2],"categories":[],"categories_nodes":[],"categories_segments":[],"categories_sizes":[],"default_left":[0,0,0,0,0,0,0,0,0,0,0,0,0,0,0,0,0,0,0,0,0,0,0,0,0],"id":50,"left_children":[1,3,5,7,9,11,13,15,17,-1,-1,19,-1,21,23,-1,-1,-1,-1,-1,-1,-1,-1,-1,-1],"loss_changes":[2.180267E0,7.7405524E-1,2.44545E0,1.6435077E0,1.2213926E0,3.5643575E0,1.5236713E0,1.6338654E0,2.25787E0,0E0,0E0,1.5483035E0,0E0,1.1578897E0,1.4232392E0,0E0,0E0,0E0,0E0,0E0,0E0,0E0,0E0,0E0,0E0],"parents":[2147483647,0,0,1,1,2,2,3,3,4,4,5,5,6,6,7,7,8,8,11,11,13,13,14,14],"right_children":[2,4,6,8,10,12,14,16,18,-1,-1,20,-1,22,24,-1,-1,-1,-1,-1,-1,-1,-1,-1,-1],"split_conditions":[2.5E-1,4.7715735E-1,4.30682E-1,8.442669E-2,1.2254902E0,4.134752E-1,5.3121287E-1,2.4978466E-2,1.0595358E-1,-5.5617273E-2,3.4361293E-3,2.8198937E-1,9.700482E-2,1.9342252E0,8.196E0,2.0549107E-2,-5.451081E-2,6.7216985E-2,-1.1318998E-2,4.452422E-2,-1.2300167E-3,-2.078328E-3,-4.51363E-2,1.3617962E-2,-1.6339753E-2],"split_indices":[1,2,1,1,2,1,1,2,1,0,0,1,0,2,2,0,0,0,0,0,0,0,0,0,0],"split_type":[0,0,0,0,0,0,0,0,0,0,0,0,0,0,0,0,0,0,0,0,0,0,0,0,0],"sum_hessian":[1.7721149E2,4.469359E1,1.325179E2,2.9452423E1,1.5241166E1,3.8971172E1,9.354673E1,1.3076658E1,1.6375765E1,1.0866781E1,4.374385E0,3.404339E1,4.9277806E0,2.5299896E1,6.824683E1,3.1152515E0,9.961407E0,4.0108843E0,1.2364881E1,9.2841625E0,2.4759228E1,1.2630812E1,1.2669085E1,4.525916E1,2.298767E1],"tree_param":{"num_deleted":"0","num_feature":"3","num_nodes":"25","size_leaf_vector":"1"}},{"base_weights":[1.0599374E-2,1.8580091E-1,-2.9099679E-2,8.699815E-2,5.623455E-2,-7.868472E-2,1.8139717E-1,3.1898358E-1,-1.4127652E-1,-1.2839977E-1,-1.6457153E-2,6.8812154E-2,5.698667E-2,-8.950127E-3,7.5131096E-2,-2.799576E-2,1.7370292E-3,-1.9033952E-2,1.7648617E-2,4.74015E-2,-1.3152483E-2,-1.4595811E-2,3.3150706E-2],"categories":[],"categories_nodes":[],"categories_segments":[],"categories_sizes":[],"default_left":[0,0,0,0,0,0,0,0,0,0,0,0,0,0,0,0,0,0,0,0,0,0,0],"id":51,"left_children":[1,3,5,7,-1,9,11,13,15,17,19,-1,21,-1,-1,-1,-1,-1,-1,-1,-1,-1,-1],"loss_changes":[1.2534027E0,1.126179E0,1.5158316E0,1.5348355E0,0E0,3.4941936E-1,1.6220175E0,2.6606283E0,3.49834E-1,1.2573438E0,3.1087067E0,0E0,1.3680794E0,0E0,0E0,0E0,0E0,0E0,0E0,0E0,0E0,0E0,0E0],"parents":[2147483647,0,0,1,1,2,2,3,3,5,5,6,6,7,7,8,8,9,9,10,10,12,12],"right_children":[2,4,6,8,-1,10,12,14,16,18,20,-1,22,-1,-1,-1,-1,-1,-1,-1,-1,-1,-1],"split_conditions":[5.132987E-1,4.2725173E-1,7.9369864E0,2.8318584E-1,5.623455E-2,1.9453682E0,9.252174E0,8.684864E-2,4.958791E-1,4.844186E0,2.381356E0,6.8812154E-2,1.7262712E1,-8.950127E-3,7.5131096E-2,-2.799576E-2,1.7370292E-3,-1.9033952E-2,1.7648617E-2,4.74015E-2,-1.3152483E-2,-1.4595811E-2,3.3150706E-2],"split_indices":[2,2,0,0,0,0,0,0,0,2,0,0,0,0,0,0,0,0,0,0,0,0,0],"split_type":[0,0,0,0,0,0,0,0,0,0,0,0,0,0,0,0,0,0,0,0,0,0,0],"sum_hessian":[1.7617706E2,3.2331047E1,1.4384602E2,2.6796453E1,5.5345926E0,1.1731285E2,2.6533176E1,1.3310393E1,1.348606E1,6.3728367E1,5.358448E1,4.1786547E0,2.2354523E1,7.1327143E0,6.1776786E0,7.124154E0,6.361906E0,5.3552494E1,1.0175872E1,9.424474E0,4.4160007E1,1.2912637E1,9.441885E0],"tree_param":{"num_deleted":"0","num_feature":"3","num_nodes":"23","size_leaf_vector":"1"}},{"base_weights":[-4.6298675E-2,-2.3903556E-1,3.4301423E-2,4.8722353E-2,-3.3087367E-1,2.1693744E-1,-9.755503E-2,-1.5848981E-1,-4.659257E-1,3.6752455E-2,9.2769027E-1,-1.4122754E-1,5.9713867E-2,-3.0827284E-2,3.5979442E-2,-5.6551155E-2,-2.2910517E-2,2.1425366E-2,-3.52114E-2,1.3229452E-1,4.454763E-2,-5.6696488E-3,-4.428154E-2],"categories":[],"categories_nodes":[],"categories_segments":[],"categories_sizes":[],"default_left":[0,0,0,0,0,0,0,0,0,0,0,0,0,0,0,0,0,0,0,0,0,0,0],"id":52,"left_children":[1,3,5,-1,7,9,11,13,15,17,19,21,-1,-1,-1,-1,-1,-1,-1,-1,-1,-1,-1],"loss_changes":[2.7593145E0,3.635478E0,3.0301735E0,0E0,9.618163E-1,6.63239E0,2.2427626E0,1.8571692E0,3.9488888E-1,3.0491154E0,1.2401304E0,1.6914846E0,0E0,0E0,0E0,0E0,0E0,0E0,0E0,0E0,0E0,0E0,0E0],"parents":[2147483647,0,0,1,1,2,2,4,4,5,5,6,6,7,7,8,8,9,9,10,10,11,11],"right_children":[2,4,6,-1,8,10,12,14,16,18,20,22,-1,-1,-1,-1,-1,-1,-1,-1,-1,-1,-1],"split_conditions":[9.195402E-1,1.7266609E-2,2.225564E0,4.8722353E-2,4.4186047E-1,1.9342252E0,6.4666664E1,1.8013632E-1,3.3600557E-1,4.4038716E-1,2.027508E0,1.1423424E1,5.9713867E-2,-3.0827284E-2,3.5979442E-2,-5.6551155E-2,-2.2910517E-2,2.1425366E-2,-3.52114E-2,1.3229452E-1,4.454763E-2,-5.6696488E-3,-4.428154E-2],"split_indices":[2,1,2,0,2,2,2,1,1,1,2,2,0,0,0,0,0,0,0,0,0,0,0],"split_type":[0,0,0,0,0,0,0,0,0,0,0,0,0,0,0,0,0,0,0,0,0,0,0],"sum_hessian":[1.7477791E2,5.1323757E1,1.23454155E2,5.1559787E0,4.6167778E1,5.1807743E1,7.164641E1,2.1560896E1,2.4606882E1,4.2281296E1,9.526447E0,6.829372E1,3.3526902E0,1.719091E1,4.369987E0,1.6048222E1,8.5586605E0,2.9515087E1,1.276621E1,4.1631737E0,5.3632736E0,5.452942E1,1.37643E1],"tree_param":{"num_deleted":"0","num_feature":"3","num_nodes":"23","size_leaf_vector":"1"}},{"base_weights":[4.4279313E-3,-1.1066471E-2,5.9283804E-2,6.3180435E-3,-2.2676082E-1,-1.519045E-2,5.5833723E-2,-3.8753226E-1,1.1946209E-2,2.5598556E-3,-1.9907739E-2,-1.6148223E-2,-4.9137753E-2],"categories":[],"categories_nodes":[],"categories_segments":[],"categories_sizes":[],"default_left":[0,0,0,0,0,0,0,0,0,0,0,0,0],"id":53,"left_children":[1,3,-1,5,7,9,-1,11,-1,-1,-1,-1,-1],"loss_changes":[1.6733985E0,6.7118514E-1,0E0,1.9671738E0,8.1563026E-1,1.1863693E0,0E0,7.9367995E-2,0E0,0E0,0E0,0E0,0E0],"parents":[2147483647,0,0,1,1,3,3,4,4,5,5,7,7],"right_children":[2,4,-1,6,8,10,-1,12,-1,-1,-1,-1,-1],"split_conditions":[3.65E1,7.848549E-1,5.9283804E-2,7.561513E-1,8.6564523E-1,6.2184876E-1,5.5833723E-2,8.2329416E-1,1.1946209E-2,2.5598556E-3,-1.9907739E-2,-1.6148223E-2,-4.9137753E-2],"split_indices":[2,1,0,1,1,1,0,1,0,0,0,0,0],"split_type":[0,0,0,0,0,0,0,0,0,0,0,0,0],"sum_hessian":[1.7544505E2,1.7173409E2,3.710972E0,1.5939433E2,1.2339761E1,1.5417836E2,5.21597E0,8.542499E0,3.7972622E0,1.26447334E2,2.7731022E1,3.7964325E0,4.7460656E0],"tree_param":{"num_deleted":"0","num_feature":"3","num_nodes":"13","size_leaf_vector":"1"}},{"base_weights":[-1.063074E-2,3.4950066E-2,-3.1642568E-1,5.4893855E-2,-4.973526E-2,-4.5063594E-1,1.5911391E-2,2.0285977E-2,6.470373E-2,-0E0,-5.475195E-2,1.7396143E-2,-4.386567E-3],"categories":[],"categories_nodes":[],"categories_segments":[],"categories_sizes":[],"default_left":[0,0,0,0,0,0,0,0,0,0,0,0,0],"id":54,"left_children":[1,3,5,7,-1,9,-1,11,-1,-1,-1,-1,-1],"loss_changes":[2.4649317E0,1.5974765E0,1.5661936E0,2.946157E0,0E0,8.43915E-1,0E0,1.4077408E0,0E0,0E0,0E0,0E0,0E0],"parents":[2147483647,0,0,1,1,2,2,3,3,5,5,7,7],"right_children":[2,4,6,8,-1,10,-1,12,-1,-1,-1,-1,-1],"split_conditions":[7.9369864E0,3.1833334E1,1.1601851E1,1.9031916E1,-4.973526E-2,1.5155808E0,1.5911391E-2,7.222222E-1,6.470373E-2,-0E0,-5.475195E-2,1.7396143E-2,-4.386567E-3],"split_indices":[0,2,2,2,0,2,0,2,0,0,0,0,0],"split_type":[0,0,0,0,0,0,0,0,0,0,0,0,0],"sum_hessian":[1.7303207E2,1.510724E2,2.1959673E1,1.4666216E2,4.4102545E0,1.7331038E1,4.628635E0,1.3970049E2,6.96167E0,3.0982502E0,1.4232787E1,4.1097763E1,9.8602715E1],"tree_param":{"num_deleted":"0","num_feature":"3","num_nodes":"13","size_leaf_vector":"1"}},{"base_weights":[-5.9087772E-2,-1.1676647E-1,1.4129144E-1,-5.9475522E-2,-3.4009132E-1,8.461188E-2,4.6968665E-2,-8.394852E-2,5.6579918E-2,-4.4717848E-1,-2.2100107E-1,5.729533E-2,-6.2473368E-2,-2.2586652E-3,-2.8552547E-2,-1.3870457E-2,-5.4236915E-2,8.273034E-3,-4.2621728E-2,-2.6077861E-2,9.924788E-3],"categories":[],"categories_nodes":[],"categories_segments":[],"categories_sizes":[],"default_left":[0,0,0,0,0,0,0,0,0,0,0,0,0,0,0,0,0,0,0,0,0],"id":55,"left_children":[1,3,5,7,9,-1,11,13,-1,15,17,-1,19,-1,-1,-1,-1,-1,-1,-1,-1],"loss_changes":[2.0287254E0,1.6835738E0,2.4654825E0,1.6830754E0,1.8196249E-1,0E0,2.13639E0,1.2851639E0,0E0,2.3640847E-1,1.0247895E0,0E0,1.0110744E0,0E0,0E0,0E0,0E0,0E0,0E0,0E0,0E0],"parents":[2147483647,0,0,1,1,2,2,3,3,4,4,6,6,7,7,9,9,10,10,12,12],"right_children":[2,4,6,8,10,-1,12,14,-1,16,18,-1,20,-1,-1,-1,-1,-1,-1,-1,-1],"split_conditions":[5.244076E0,4.010989E0,1.0156695E0,3.636E0,2.1960785E0,8.461188E-2,6.215625E0,2.046841E0,5.6579918E-2,9.195402E-1,2.8020833E0,5.729533E-2,1.1974843E1,-2.2586652E-3,-2.8552547E-2,-1.3870457E-2,-5.4236915E-2,8.273034E-3,-4.2621728E-2,-2.6077861E-2,9.924788E-3],"split_indices":[2,0,0,0,2,0,2,2,0,2,2,0,2,0,0,0,0,0,0,0,0],"split_type":[0,0,0,0,0,0,0,0,0,0,0,0,0,0,0,0,0,0,0,0,0],"sum_hessian":[1.7331625E2,1.3528973E2,3.8026516E1,1.0903292E2,2.6256817E1,3.422349E0,3.4604168E1,1.0591319E2,3.1197293E0,1.1932411E1,1.4324405E1,5.3879375E0,2.9216228E1,8.242914E1,2.348405E1,3.641015E0,8.291397E0,5.820021E0,8.504383E0,1.3126333E1,1.6089895E1],"tree_param":{"num_deleted":"0","num_feature":"3","num_nodes":"21","size_leaf_vector":"1"}},{"base_weights":[5.368971E-3,-2.5319016E-1,2.2525318E-2,-1.1668141E-2,-3.720774E-2,8.3357565E-2,-0E0,-1.6429607E-2,2.5884354E-1,-1.7576357E-2,4.922409E-4,6.221368E-3,4.5476686E-2],"categories":[],"categories_nodes":[],"categories_segments":[],"categories_sizes":[],"default_left":[0,0,0,0,0,0,0,0,0,0,0,0,0],"id":56,"left_children":[1,3,5,-1,-1,-1,7,9,11,-1,-1,-1,-1],"loss_changes":[7.279785E-1,7.282913E-2,2.871163E0,0E0,0E0,0E0,6.7496043E-1,5.1846683E-1,2.85271E-1,0E0,0E0,0E0,0E0],"parents":[2147483647,0,0,1,1,2,2,6,6,7,7,8,8],"right_children":[2,4,6,-1,-1,-1,8,10,12,-1,-1,-1,-1],"split_conditions":[5.5199604E-2,2.6485326E-2,7.761297E-2,-1.1668141E-2,-3.720774E-2,8.3357565E-2,2.7702703E1,1.8042986E-1,8.407871E-1,-1.7576357E-2,4.922409E-4,6.221368E-3,4.5476686E-2],"split_indices":[1,1,1,0,0,0,2,1,1,0,0,0,0],"split_type":[0,0,0,0,0,0,0,0,0,0,0,0,0],"sum_hessian":[1.6702377E2,9.174254E0,1.5784952E2,5.5845447E0,3.5897098E0,3.2480664E0,1.5460146E2,1.4612013E2,8.481317E0,1.6966164E1,1.2915398E2,5.1453524E0,3.3359637E0],"tree_param":{"num_deleted":"0","num_feature":"3","num_nodes":"13","size_leaf_vector":"1"}},{"base_weights":[1.5338266E-2,4.026354E-2,-5.1890787E-2,9.593332E-3,4.0244257E-1,7.9761066E-2,-1.8883577E-1,6.512209E-1,-0E0,-7.572451E-3,3.241926E-2,-3.076573E-2,1.4549832E-2,1.00818194E-1,1.7379655E-2],"categories":[],"categories_nodes":[],"categories_segments":[],"categories_sizes":[],"default_left":[0,0,0,0,0,0,0,0,0,0,0,0,0,0,0],"id":57,"left_children":[1,3,-1,5,7,9,11,13,-1,-1,-1,-1,-1,-1,-1],"loss_changes":[2.2888682E0,1.8129411E0,0E0,2.1690364E0,1.2767632E0,4.455858E0,1.6716156E0,1.0514123E0,0E0,0E0,0E0,0E0,0E0,0E0,0E0],"parents":[2147483647,0,0,1,1,3,3,4,4,5,5,6,6,7,7],"right_children":[2,4,-1,6,8,10,12,14,-1,-1,-1,-1,-1,-1,-1],"split_conditions":[1.7262712E1,9.572917E0,-5.1890787E-2,3.2705882E0,1.3139896E1,1.3169014E0,5.1732283E0,2.7734628E0,-0E0,-7.572451E-3,3.241926E-2,-3.076573E-2,1.4549832E-2,1.00818194E-1,1.7379655E-2],"split_indices":[0,0,0,2,0,2,0,2,0,0,0,0,0,0,0],"split_type":[0,0,0,0,0,0,0,0,0,0,0,0,0,0,0],"sum_hessian":[1.7291103E2,1.6626572E2,6.6453195E0,1.5448605E2,1.1779663E1,1.1494251E2,3.954353E1,6.891175E0,4.8884883E0,7.042529E1,4.451722E1,2.94544E1,1.0089131E1,3.1870852E0,3.7040899E0],"tree_param":{"num_deleted":"0","num_feature":"3","num_nodes":"15","size_leaf_vector":"1"}},{"base_weights":[2.232527E-2,-3.0119985E-2,1.2727493E-1,6.022045E-3,-4.4964544E-2,3.8623855E-1,2.7440144E-2,-1.0031876E-2,4.297801E-2,5.419843E-1,1.06212385E-4,-3.962114E-2,2.587556E-1,5.494292E-3,-1.4511667E-2,7.427713E-2,3.4453657E-2,1.3346769E-2,-2.4598796E-2,6.257612E-2,-0E0],"categories":[],"categories_nodes":[],"categories_segments":[],"categories_sizes":[],"default_left":[0,0,0,0,0,0,0,0,0,0,0,0,0,0,0,0,0,0,0,0,0],"id":58,"left_children":[1,3,5,7,-1,9,11,13,-1,15,-1,17,19,-1,-1,-1,-1,-1,-1,-1,-1],"loss_changes":[9.4415504E-1,1.7590824E0,1.4259212E0,7.587116E-1,0E0,8.779874E-1,6.93196E-1,9.0918165E-1,0E0,6.694293E-2,0E0,1.2431197E0,9.1499084E-1,0E0,0E0,0E0,0E0,0E0,0E0,0E0,0E0],"parents":[2147483647,0,0,1,1,2,2,3,3,5,5,6,6,7,7,9,9,11,11,12,12],"right_children":[2,4,6,8,-1,10,12,14,-1,16,-1,18,20,-1,-1,-1,-1,-1,-1,-1,-1],"split_conditions":[3.0174603E0,2.5363288E0,2.184874E0,2.2764976E0,-4.4964544E-2,1.1974843E1,1.25E1,1.2254902E0,4.297801E-2,1.010101E0,1.06212385E-4,4.8944592E0,4.794737E0,5.494292E-3,-1.4511667E-2,7.427713E-2,3.4453657E-2,1.3346769E-2,-2.4598796E-2,6.257612E-2,-0E0],"split_indices":[2,2,0,2,0,2,0,2,0,0,0,0,2,0,0,0,0,0,0,0,0],"split_type":[0,0,0,0,0,0,0,0,0,0,0,0,0,0,0,0,0,0,0,0,0],"sum_hessian":[1.6807469E2,1.11910934E2,5.616376E1,1.0372254E2,8.188395E0,1.4550492E1,4.161327E1,1.006498E2,3.072739E0,9.886263E0,4.6642294E0,3.256784E1,9.045426E0,6.786178E1,3.2788025E1,3.2812226E0,6.60504E0,1.7640589E1,1.4927253E1,3.0543153E0,5.9911113E0],"tree_param":{"num_deleted":"0","num_feature":"3","num_nodes":"21","size_leaf_vector":"1"}},{"base_weights":[-3.7121996E-2,-3.0322617E-1,1.0398996E-2,7.3193572E-3,-4.086904E-1,5.8221376E-1,-4.3244075E-2,-5.540034E-2,-2.5140557E-1,-0E0,7.701626E-1,2.8599E-2,-2.2910044E-1,-7.714761E-3,-4.778223E-2,1.0504693E-1,4.0031802E-2,-1.1903408E-2,4.39523E-2,-5.254347E-2,-1.2123148E-2],"categories":[],"categories_nodes":[],"categories_segments":[],"categories_sizes":[],"default_left":[0,0,0,0,0,0,0,0,0,0,0,0,0,0,0,0,0,0,0,0,0],"id":59,"left_children":[1,3,5,-1,7,9,11,-1,13,-1,15,17,19,-1,-1,-1,-1,-1,-1,-1,-1],"loss_changes":[2.2467241E0,1.1307306E0,4.6562414E0,0E0,2.6836705E-1,1.4689736E0,1.8584733E0,0E0,3.9761567E-1,0E0,4.629345E-1,6.117392E0,1.1101799E0,0E0,0E0,0E0,0E0,0E0,0E0,0E0,0E0],"parents":[2147483647,0,0,1,1,2,2,4,4,5,5,6,6,8,8,10,10,11,11,12,12],"right_children":[2,4,6,-1,8,10,12,-1,14,-1,16,18,20,-1,-1,-1,-1,-1,-1,-1,-1],"split_conditions":[1.745283E-1,5.031056E-2,4.5232275E-1,7.3193572E-3,1.8234165E-1,3.2690355E-1,4.4962215E0,-5.540034E-2,3.4323433E-1,-0E0,2.1282052E-1,2.7325256E0,6.2740965E0,-7.714761E-3,-4.778223E-2,1.0504693E-1,4.0031802E-2,-1.1903408E-2,4.39523E-2,-5.254347E-2,-1.2123148E-2],"split_indices":[1,0,0,0,0,0,0,0,0,0,1,0,0,0,0,0,0,0,0,0,0],"split_type":[0,0,0,0,0,0,0,0,0,0,0,0,0,0,0,0,0,0,0,0,0],"sum_hessian":[1.7410437E2,2.5884106E1,1.4822026E2,5.524397E0,2.0359709E1,1.20270605E1,1.3619319E2,8.9410925E0,1.1418617E1,3.1058104E0,8.92125E0,9.844659E1,3.7746613E1,7.4597435E0,3.9588735E0,3.8742542E0,5.046996E0,7.276956E1,2.5677021E1,8.792909E0,2.8953703E1],"tree_param":{"num_deleted":"0","num_feature":"3","num_nodes":"21","size_leaf_vector":"1"}},{"base_weights":[3.3456568E-2,-1.5378463E-1,1.0601604E-1,2.936687E-2,-2.6263574E-1,7.794893E-2,7.3934846E-2,-2.4837315E-1,6.9206335E-2,-3.6631495E-1,2.6237532E-2,-2.6213467E-1,1.1784363E-1,1.1193856E-2,-3.941853E-2,-5.522537E-2,-2.0180743E-2,-7.663835E-4,-5.1706363E-2,9.698168E-2,7.6355324E-3],"categories":[],"categories_nodes":[],"categories_segments":[],"categories_sizes":[],"default_left":[0,0,0,0,0,0,0,0,0,0,0,0,0,0,0,0,0,0,0,0,0],"id":60,"left_children":[1,3,5,7,9,-1,11,13,-1,15,-1,17,19,-1,-1,-1,-1,-1,-1,-1,-1],"loss_changes":[2.440342E0,1.0268978E0,2.6618865E0,3.7460828E0,1.8360682E0,0E0,1.8634224E0,8.154231E-1,0E0,6.4241576E-1,0E0,8.8487905E-1,3.767921E0,0E0,0E0,0E0,0E0,0E0,0E0,0E0,0E0],"parents":[2147483647,0,0,1,1,2,2,3,3,4,4,6,6,7,7,9,9,11,11,12,12],"right_children":[2,4,6,8,10,-1,12,14,-1,16,-1,18,20,-1,-1,-1,-1,-1,-1,-1,-1],"split_conditions":[2.6476377E-1,1.0595358E-1,2.8198937E-1,8.442669E-2,1.2895278E0,7.794893E-2,3.4619883E-1,1.423221E-2,6.9206335E-2,1.770751E-1,2.6237532E-2,3.2354456E-1,3.6338797E-1,1.1193856E-2,-3.941853E-2,-5.522537E-2,-2.0180743E-2,-7.663835E-4,-5.1706363E-2,9.698168E-2,7.6355324E-3],"split_indices":[1,1,1,1,2,0,1,1,0,1,0,1,1,0,0,0,0,0,0,0,0],"split_type":[0,0,0,0,0,0,0,0,0,0,0,0,0,0,0,0,0,0,0,0,0],"sum_hessian":[1.7777177E2,4.895215E1,1.2881963E2,1.817785E1,3.07743E1,4.6563087E0,1.2416332E2,1.31435995E1,5.0342507E0,2.6110699E1,4.6635995E0,1.3510337E1,1.10652985E2,3.6559622E0,9.4876375E0,1.0865178E1,1.5245522E1,7.4730473E0,6.037289E0,3.987275E0,1.0666571E2],"tree_param":{"num_deleted":"0","num_feature":"3","num_nodes":"21","size_leaf_vector":"1"}},{"base_weights":[2.8064368E-2,1.2863971E-2,3.5605243E-1,3.6719482E-2,-2.0422165E-1,5.5580582E-2,2.400425E-3,-5.5999756E-2,8.770524E-2,-3.1041202E-1,-9.143461E-3,7.1893493E-3,-3.517033E-2,1.5322432E-2,-1.6647194E-3,-9.742671E-3,-5.005274E-2,-1.8925857E-2,1.4735185E-2],"categories":[],"categories_nodes":[],"categories_segments":[],"categories_sizes":[],"default_left":[0,0,0,0,0,0,0,0,0,0,0,0,0,0,0,0,0,0,0],"id":61,"left_children":[1,3,5,7,9,-1,-1,11,13,15,17,-1,-1,-1,-1,-1,-1,-1,-1],"loss_changes":[8.333788E-1,8.6612314E-1,4.223758E-1,7.340186E-1,3.06459E-1,0E0,0E0,2.1104758E0,7.0103526E-1,3.0869144E-1,2.3414563E-1,0E0,0E0,0E0,0E0,0E0,0E0,0E0,0E0],"parents":[2147483647,0,0,1,1,2,2,3,3,4,4,7,7,8,8,9,9,10,10],"right_children":[2,4,6,8,10,-1,-1,12,14,16,18,-1,-1,-1,-1,-1,-1,-1,-1],"split_conditions":[2.7702703E1,9.793478E0,6.4666664E1,2.969994E-1,1.4772727E1,5.5580582E-2,2.400425E-3,6.648936E-1,6.145092E-1,8.634193E-1,6.866197E-1,7.1893493E-3,-3.517033E-2,1.5322432E-2,-1.6647194E-3,-9.742671E-3,-5.005274E-2,-1.8925857E-2,1.4735185E-2],"split_indices":[2,2,2,1,2,0,0,2,1,1,1,0,0,0,0,0,0,0,0],"split_type":[0,0,0,0,0,0,0,0,0,0,0,0,0,0,0,0,0,0,0],"sum_hessian":[1.7447733E2,1.6803401E2,6.443319E0,1.5256064E2,1.5473369E1,3.4143083E0,3.0290103E0,5.3396935E1,9.9163704E1,9.304599E0,6.168771E0,3.75675E1,1.58294325E1,6.121746E1,3.7946247E1,5.3497534E0,3.954845E0,3.0677018E0,3.1010687E0],"tree_param":{"num_deleted":"0","num_feature":"3","num_nodes":"19","size_leaf_vector":"1"}},{"base_weights":[-4.9498663E-3,6.9529645E-2,-2.0138966E-1,-5.9576146E-2,2.8198168E-1,-2.7664325E-1,6.898838E-2,3.4392387E-2,-9.805243E-2,5.8321625E-1,1.2871765E-1,-3.7723538E-1,-2.3459967E-2,-5.1490992E-2,-4.6782973E-3,8.816485E-2,1.9235503E-2,-3.5066042E-2,2.6980761E-2,-5.4208662E-2,-2.6857143E-2,5.0705142E-2,-5.192995E-2],"categories":[],"categories_nodes":[],"categories_segments":[],"categories_sizes":[],"default_left":[0,0,0,0,0,0,0,0,0,0,0,0,0,0,0,0,0,0,0,0,0,0,0],"id":62,"left_children":[1,3,5,7,9,11,-1,-1,13,15,17,19,21,-1,-1,-1,-1,-1,-1,-1,-1,-1,-1],"loss_changes":[2.6111534E0,3.5618062E0,3.4480314E0,1.257661E0,2.1166255E0,1.1268744E0,0E0,0E0,1.5103118E0,1.5922546E0,2.385373E0,3.5895157E-1,4.072447E0,0E0,0E0,0E0,0E0,0E0,0E0,0E0,0E0,0E0,0E0],"parents":[2147483647,0,0,1,1,2,2,3,3,4,4,5,5,8,8,9,9,10,10,11,11,12,12],"right_children":[2,4,6,8,10,12,-1,-1,14,16,18,20,22,-1,-1,-1,-1,-1,-1,-1,-1,-1,-1],"split_conditions":[3.2705882E0,1.3975409E0,7.98E1,1.7266609E-2,4.4038716E-1,7.785736E-1,6.898838E-2,3.4392387E-2,7.087447E-2,1.6436782E0,4.977169E-1,4.794737E0,1.1423424E1,-5.1490992E-2,-4.6782973E-3,8.816485E-2,1.9235503E-2,-3.5066042E-2,2.6980761E-2,-5.4208662E-2,-2.6857143E-2,5.0705142E-2,-5.192995E-2],"split_indices":[2,2,2,1,1,1,0,0,1,2,1,2,2,0,0,0,0,0,0,0,0,0,0],"split_type":[0,0,0,0,0,0,0,0,0,0,0,0,0,0,0,0,0,0,0,0,0,0,0],"sum_hessian":[1.7561206E2,1.27433174E2,4.8178886E1,7.941939E1,4.801379E1,4.516707E1,3.011819E0,5.99651E0,7.3422874E1,1.5024984E1,3.2988804E1,3.1690992E1,1.3476074E1,6.8372707E0,6.65856E1,7.662768E0,7.362216E0,7.0024867E0,2.5986319E1,1.0640164E1,2.1050829E1,6.402059E0,7.0740156E0],"tree_param":{"num_deleted":"0","num_feature":"3","num_nodes":"23","size_leaf_vector":"1"}},{"base_weights":[2.1670107E-2,-4.543377E-2,3.4544054E-2,3.8983428E-1,-1.6255187E-3,1.8133616E-1,7.636842E-2,-4.1897897E-2,1.8122576E-1,5.50101E-2,-1.1352873E-2,5.8733206E-3,-1.1134923E-2,3.551993E-2,3.8824335E-3],"categories":[],"categories_nodes":[],"categories_segments":[],"categories_sizes":[],"default_left":[0,0,0,0,0,0,0,0,0,0,0,0,0,0,0],"id":63,"left_children":[1,-1,3,5,7,9,-1,11,13,-1,-1,-1,-1,-1,-1],"loss_changes":[1.0313195E0,0E0,2.2134318E0,1.0056336E0,1.1297663E0,1.3766166E0,0E0,9.042574E-1,6.302349E-1,0E0,0E0,0E0,0E0,0E0,0E0],"parents":[2147483647,0,0,2,2,3,3,4,4,5,5,7,7,8,8],"right_children":[2,-1,4,6,8,10,-1,12,14,-1,-1,-1,-1,-1,-1],"split_conditions":[2.1104904E-2,-4.543377E-2,3.206651E-1,1.2578222E-1,8.525E0,6.1363637E-2,7.636842E-2,1.3057692E0,1.41645565E1,5.50101E-2,-1.1352873E-2,5.8733206E-3,-1.1134923E-2,3.551993E-2,3.8824335E-3],"split_indices":[1,0,2,1,2,1,0,2,2,0,0,0,0,0,0],"split_type":[0,0,0,0,0,0,0,0,0,0,0,0,0,0,0],"sum_hessian":[1.7158276E2,3.4108117E0,1.6817195E2,1.4890528E1,1.5328143E2,1.0684348E1,4.20618E0,1.2669503E2,2.6586397E1,4.513365E0,6.170983E0,5.1209618E1,7.548541E1,1.0977933E1,1.5608465E1],"tree_param":{"num_deleted":"0","num_feature":"3","num_nodes":"15","size_leaf_vector":"1"}},{"base_weights":[3.3383004E-3,-4.1995224E-1,3.9887145E-2,-0E0,-5.493008E-2,2.1832559E-1,-4.859776E-2,1.329932E-1,1.0215529E-1,-4.1515428E-1,6.0982518E-2,2.7093867E-2,-2.035748E-2,-4.7568068E-2,-0E0,2.3089586E-2,-1.3773523E-2],"categories":[],"categories_nodes":[],"categories_segments":[],"categories_sizes":[],"default_left":[0,0,0,0,0,0,0,0,0,0,0,0,0,0,0,0,0],"id":64,"left_children":[1,3,5,-1,-1,7,9,