{"learner":{"attributes":{"best_iteration":"42","best_score":"0.474025974025974","scikit_learn":"{\"_estimator_type\": \"classifier\"}"},"feature_names":["avg_true_range_26","warm_up_body_to_lower_wick_ratio","warm_up_body_to_upper_wick_ratio","warm_up_body_to_wick_ratio"],"feature_types":["float","float","float","float"],"gradient_booster":{"model":{"gbtree_model_param":{"num_parallel_tree":"1","num_trees":"93"},"iteration_indptr":[0,1,2,3,4,5,6,7,8,9,10,11,12,13,14,15,16,17,18,19,20,21,22,23,24,25,26,27,28,29,30,31,32,33,34,35,36,37,38,39,40,41,42,43,44,45,46,47,48,49,50,51,52,53,54,55,56,57,58,59,60,61,62,63,64,65,66,67,68,69,70,71,72,73,74,75,76,77,78,79,80,81,82,83,84,85,86,87,88,89,90,91,92,93],"tree_info":[0,0,0,0,0,0,0,0,0,0,0,0,0,0,0,0,0,0,0,0,0,0,0,0,0,0,0,0,0,0,0,0,0,0,0,0,0,0,0,0,0,0,0,0,0,0,0,0,0,0,0,0,0,0,0,0,0,0,0,0,0,0,0,0,0,0,0,0,0,0,0,0,0,0,0,0,0,0,0,0,0,0,0,0,0,0,0,0,0,0,0,0,0],"trees":[{"base_weights":[4.1225564E-2,-6.752739E-2,6.4451647E-1,9.068362E-2,-6.198748E-1,1.0227085E0,-5.511002E-2,1.1347844E-2,8.23093E-1,-9.4030476E-1,3.2012892E-1,4.0979937E-2,1.2311996E0,1.8857624E-2,-3.803956E-2,1.1774607E-1,2.3008622E-2,3.498102E-2,-1.2079283E-1,7.529793E-2,-1.6193071E-2,1.4166741E-1,5.3782433E-2],"categories":[],"categories_nodes":[],"categories_segments":[],"categories_sizes":[],"default_left":[0,0,0,0,0,0,0,0,0,0,0,0,0,0,0,0,0,0,0,0,0,0,0],"id":0,"left_children":[1,3,5,7,9,11,-1,13,15,17,19,-1,21,-1,-1,-1,-1,-1,-1,-1,-1,-1,-1],"loss_changes":[9.37927E0,1.0646227E1,1.0483404E1,5.396102E0,8.530572E0,1.5038109E0,0E0,6.0488977E0,1.4996047E0,7.6056137E0,1.7585456E0,0E0,5.942135E-1,0E0,0E0,0E0,0E0,0E0,0E0,0E0,0E0,0E0,0E0],"parents":[2147483647,0,0,1,1,2,2,3,3,4,4,5,5,7,7,8,8,9,9,10,10,12,12],"right_children":[2,4,6,8,10,12,-1,14,16,18,20,-1,22,-1,-1,-1,-1,-1,-1,-1,-1,-1,-1],"split_conditions":[3.6368463E-2,2.9054038E-2,4.9530577E-2,2.652E-2,8.847826E0,6.9359756E-1,-5.511002E-2,3.3396227E0,1.2794118E0,3.7785387E-1,1.1601851E1,4.0979937E-2,3.7680411E0,1.8857624E-2,-3.803956E-2,1.1774607E-1,2.3008622E-2,3.498102E-2,-1.2079283E-1,7.529793E-2,-1.6193071E-2,1.4166741E-1,5.3782433E-2],"split_indices":[0,0,0,0,2,1,0,2,2,2,2,0,1,0,0,0,0,0,0,0,0,0,0],"split_type":[0,0,0,0,0,0,0,0,0,0,0,0,0,0,0,0,0,0,0,0,0,0,0],"sum_hessian":[1.4041283E2,1.1957907E2,2.0833754E1,9.3462906E1,2.6116167E1,1.600073E1,4.8330216E0,8.536776E1,8.095145E0,1.9555962E1,6.5602055E0,4.9358406E0,1.1064891E1,5.9309486E1,2.6058271E1,4.3446617E0,3.750483E0,3.242809E0,1.6313152E1,3.26971E0,3.2904954E0,7.792939E0,3.2719517E0],"tree_param":{"num_deleted":"0","num_feature":"4","num_nodes":"23","size_leaf_vector":"1"}},{"base_weights":[1.0506628E-1,2.933653E-1,-1.9962962E-1,6.545685E-2,5.9213865E-1,-5.967861E-1,5.110137E-1,2.623731E-1,-7.943956E-1,7.808768E-1,1.5018792E-1,-1.0059212E0,-3.0843303E-1,7.335162E-1,-2.0074945E-2,-1.2432999E-2,1.0348908E-1,-2.647532E-2,-1.0782828E-1,5.3403288E-2,1.3455671E-1,-3.8953926E-2,8.94795E-2,-7.005454E-2,-1.390365E-1,6.733108E-2,-7.7416025E-2,1.1261847E-1,2.6607214E-2],"categories":[],"categories_nodes":[],"categories_segments":[],"categories_sizes":[],"default_left":[0,0,0,0,0,0,0,0,0,0,0,0,0,0,0,0,0,0,0,0,0,0,0,0,0,0,0,0,0],"id":1,"left_children":[1,3,5,7,9,11,13,15,17,19,21,23,25,27,-1,-1,-1,-1,-1,-1,-1,-1,-1,-1,-1,-1,-1,-1,-1],"loss_changes":[7.793512E0,5.603725E0,1.4939842E1,8.429653E0,2.7892523E0,3.545332E0,3.2138839E0,1.2351084E1,9.725065E-1,2.5507488E0,5.2853403E0,3.8841057E-1,1.0320253E1,2.280943E0,0E0,0E0,0E0,0E0,0E0,0E0,0E0,0E0,0E0,0E0,0E0,0E0,0E0,0E0,0E0],"parents":[2147483647,0,0,1,1,2,2,3,3,4,4,5,5,6,6,7,7,8,8,9,9,10,10,11,11,12,12,13,13],"right_children":[2,4,6,8,10,12,14,16,18,20,22,24,26,28,-1,-1,-1,-1,-1,-1,-1,-1,-1,-1,-1,-1,-1,-1,-1],"split_conditions":[2.6632016E0,1.2354261E0,8.847826E0,4.6452478E-1,4.076923E0,1.7542788E0,1.1581081E1,7.8027344E-1,5.392089E-1,2.6956522E0,1.6268656E0,1.7198582E0,5.4387097E0,1.5396E1,-2.0074945E-2,-1.2432999E-2,1.0348908E-1,-2.647532E-2,-1.0782828E-1,5.3403288E-2,1.3455671E-1,-3.8953926E-2,8.94795E-2,-7.005454E-2,-1.390365E-1,6.733108E-2,-7.7416025E-2,1.1261847E-1,2.6607214E-2],"split_indices":[2,1,2,3,1,3,1,2,3,1,3,1,1,2,0,0,0,0,0,0,0,0,0,0,0,0,0,0,0],"split_type":[0,0,0,0,0,0,0,0,0,0,0,0,0,0,0,0,0,0,0,0,0,0,0,0,0,0,0,0,0],"sum_hessian":[1.3365298E2,8.283016E1,5.082283E1,4.7868893E1,3.496127E1,3.279542E1,1.8027409E1,3.9609108E1,8.259785E0,2.3802912E1,1.1158355E1,1.2386005E1,2.0409418E1,1.3817795E1,4.209614E0,2.6868845E1,1.2740262E1,3.6796293E0,4.580156E0,1.8039902E1,5.7630115E0,6.6677794E0,4.490576E0,8.620676E0,3.7653291E0,6.354281E0,1.4055137E1,6.6273947E0,7.1904E0],"tree_param":{"num_deleted":"0","num_feature":"4","num_nodes":"29","size_leaf_vector":"1"}},{"base_weights":[3.0270541E-2,7.352822E-2,-1.1890949E-1,-3.0340733E-2,9.303823E-1,8.540628E-2,-4.6556622E-1,1.0840242E0,2.5411138E-2,2.6939169E-2,-2.0365003E-2,-6.7149684E-2,6.222867E-2,5.0929952E-2,1.306594E-1],"categories":[],"categories_nodes":[],"categories_segments":[],"categories_sizes":[],"default_left":[0,0,0,0,0,0,0,0,0,0,0,0,0,0,0],"id":2,"left_children":[1,3,-1,5,7,9,11,13,-1,-1,-1,-1,-1,-1,-1],"loss_changes":[7.062983E0,1.1757576E1,0E0,5.997142E0,1.0739279E0,5.033017E0,6.0281277E0,5.863209E-1,0E0,0E0,0E0,0E0,0E0,0E0,0E0],"parents":[2147483647,0,0,1,1,3,3,4,4,5,5,6,6,7,7],"right_children":[2,4,-1,6,8,10,12,14,-1,-1,-1,-1,-1,-1,-1],"split_conditions":[4.9530577E-2,3.656E-2,-1.1890949E-1,3.0073076E-2,4.076923E0,2.6632016E0,1.1423424E1,6.9359756E-1,2.5411138E-2,2.6939169E-2,-2.0365003E-2,-6.7149684E-2,6.222867E-2,5.0929952E-2,1.306594E-1],"split_indices":[0,0,0,0,1,2,2,1,0,0,0,0,0,0,0],"split_type":[0,0,0,0,0,0,0,0,0,0,0,0,0,0,0],"sum_hessian":[1.333606E2,1.2977835E2,3.5822508E0,1.16503525E2,1.3274822E1,9.2482155E1,2.4021374E1,1.0205438E1,3.0693848E0,5.6765003E1,3.5717148E1,2.0597013E1,3.4243593E0,3.8922772E0,6.3131604E0],"tree_param":{"num_deleted":"0","num_feature":"4","num_nodes":"15","size_leaf_vector":"1"}},{"base_weights":[2.25161E-2,-3.707682E-1,1.0458972E-1,-5.911929E-1,8.022064E-2,4.8347607E-1,2.7501212E-2,-0E0,-1.3134716E-1,7.094383E-1,-4.3609247E-2,-7.6317906E-1,9.6217014E-2,-3.4478765E-2,6.76324E-2,1.7820379E-2,9.950399E-2,-1.7835556E-2,-1.11411214E-1,-3.804787E-4,5.4415364E-2],"categories":[],"categories_nodes":[],"categories_segments":[],"categories_sizes":[],"default_left":[0,0,0,0,0,0,0,0,0,0,0,0,0,0,0,0,0,0,0,0,0],"id":3,"left_children":[1,3,5,7,-1,9,11,13,-1,15,-1,17,19,-1,-1,-1,-1,-1,-1,-1,-1],"loss_changes":[4.495744E0,6.6564417E0,3.3211315E0,8.835926E0,0E0,4.350505E0,5.309288E0,3.1316693E0,0E0,2.1290169E0,0E0,1.2726893E0,4.124071E0,0E0,0E0,0E0,0E0,0E0,0E0,0E0,0E0],"parents":[2147483647,0,0,1,1,2,2,3,3,5,5,6,6,7,7,9,9,11,11,12,12],"right_children":[2,4,6,8,-1,10,12,14,-1,16,-1,18,20,-1,-1,-1,-1,-1,-1,-1,-1],"split_conditions":[1.8805193E-2,5.4197083E0,2.1202693E-2,1.0542452E0,8.022064E-2,5.5304346E0,2.1960769E-2,8.029412E-1,-1.3134716E-1,3.4841076E-1,-4.3609247E-2,7.401392E-1,8.847826E0,-3.4478765E-2,6.76324E-2,1.7820379E-2,9.950399E-2,-1.7835556E-2,-1.11411214E-1,-3.804787E-4,5.4415364E-2],"split_indices":[0,2,0,3,0,2,0,2,0,3,0,3,2,0,0,0,0,0,0,0,0],"split_type":[0,0,0,0,0,0,0,0,0,0,0,0,0,0,0,0,0,0,0,0,0],"sum_hessian":[1.379041E2,2.2992348E1,1.1491176E2,1.9844435E1,3.1479132E0,1.8316772E1,9.6594986E1,1.149991E1,8.344524E0,1.497442E1,3.3423533E0,6.799122E0,8.979586E1,7.9898376E0,3.5100727E0,5.925942E0,9.048478E0,3.2223392E0,3.5767825E0,7.403297E1,1.57628975E1],"tree_param":{"num_deleted":"0","num_feature":"4","num_nodes":"21","size_leaf_vector":"1"}},{"base_weights":[-1.6166449E-1,-1.8932547E-1,7.351365E-2,-1.4261962E-1,-9.311962E-2,-1.9848616E-1,5.8120334E-1,-7.241592E-3,-6.031684E-2,2.0168474E-2,7.179035E-2],"categories":[],"categories_nodes":[],"categories_segments":[],"categories_sizes":[],"default_left":[0,0,0,0,0,0,0,0,0,0,0],"id":4,"left_children":[1,3,-1,5,-1,7,9,-1,-1,-1,-1],"loss_changes":[3.4518166E0,4.3537283E0,0E0,5.1737013E0,0E0,5.9027925E0,2.3832536E-1,0E0,0E0,0E0,0E0],"parents":[2147483647,0,0,1,1,3,3,5,5,6,6],"right_children":[2,4,-1,6,-1,8,10,-1,-1,-1,-1],"split_conditions":[3.84E1,1.5396E1,7.351365E-2,8.977556E0,-9.311962E-2,1.4417177E0,3.4728813E0,-7.241592E-3,-6.031684E-2,2.0168474E-2,7.179035E-2],"split_indices":[2,2,0,2,0,3,1,0,0,0,0],"split_type":[0,0,0,0,0,0,0,0,0,0,0],"sum_hessian":[1.3473982E2,1.315817E2,3.15812E0,1.2503681E2,6.544888E0,1.1687967E2,8.157142E0,9.020442E1,2.6675245E1,3.0093193E0,5.147823E0],"tree_param":{"num_deleted":"0","num_feature":"4","num_nodes":"11","size_leaf_vector":"1"}},{"base_weights":[5.637149E-3,-8.170243E-2,6.603154E-1,-2.7432756E-2,-1.0124611E-1,9.380924E-1,-3.715735E-2,2.069703E-1,-1.690748E-1,1.1390747E-1,2.2421606E-2,-3.0069582E-3,1.22991376E-1,-4.509372E-2,8.898086E-3],"categories":[],"categories_nodes":[],"categories_segments":[],"categories_sizes":[],"default_left":[0,0,0,0,0,0,0,0,0,0,0,0,0,0,0],"id":5,"left_children":[1,3,5,7,-1,9,-1,11,13,-1,-1,-1,-1,-1,-1],"loss_changes":[7.8910284E0,5.9696198E0,5.06552E0,3.8581645E0,0E0,1.4979E0,0E0,1.0728973E1,5.3617315E0,0E0,0E0,0E0,0E0,0E0,0E0],"parents":[2147483647,0,0,1,1,2,2,3,3,5,5,7,7,8,8],"right_children":[2,4,6,8,-1,10,-1,12,14,-1,-1,-1,-1,-1,-1],"split_conditions":[3.6626346E-2,3.586904E-2,7.5E0,5.158166E-1,-1.0124611E-1,4.7218654E-2,-3.715735E-2,1.1102662E0,3.4845488E0,1.1390747E-1,2.2421606E-2,-3.0069582E-3,1.22991376E-1,-4.509372E-2,8.898086E-3],"split_indices":[0,0,1,3,0,0,0,1,1,0,0,0,0,0,0],"split_type":[0,0,0,0,0,0,0,0,0,0,0,0,0,0,0],"sum_hessian":[1.3504948E2,1.19790825E2,1.5258649E1,1.1426528E2,5.525545E0,1.21703E1,3.0883489E0,4.259978E1,7.16655E1,8.922571E0,3.2477286E0,3.529415E1,7.305632E0,3.408074E1,3.758476E1],"tree_param":{"num_deleted":"0","num_feature":"4","num_nodes":"15","size_leaf_vector":"1"}},{"base_weights":[3.5109553E-2,2.2909516E-1,-1.590221E-1,-1.4094993E-1,4.971231E-1,-4.362263E-1,1.4431705E-1,-2.6708293E-1,5.2515913E-2,8.179868E-1,2.9964972E-1,4.1197617E-2,-5.626595E-1,-6.1530787E-2,6.7333627E-1,-2.7630155E-3,-1.0898181E-1,1.9517107E-2,1.0391021E-1,7.7956575E-3,7.019017E-2,-7.3765695E-2,5.83199E-3,2.060501E-2,-9.410508E-2,9.033292E-2,1.9969061E-2],"categories":[],"categories_nodes":[],"categories_segments":[],"categories_sizes":[],"default_left":[0,0,0,0,0,0,0,0,0,0,0,0,0,0,0,0,0,0,0,0,0,0,0,0,0,0,0],"id":6,"left_children":[1,3,5,7,9,11,13,15,-1,17,19,-1,21,23,25,-1,-1,-1,-1,-1,-1,-1,-1,-1,-1,-1,-1],"loss_changes":[5.137426E0,6.8824606E0,5.805067E0,2.5781593E0,2.1777916E0,4.099016E0,3.69843E0,4.8707595E0,0E0,1.6663666E0,2.2334907E0,0E0,3.565135E0,6.045287E0,7.408509E-1,0E0,0E0,0E0,0E0,0E0,0E0,0E0,0E0,0E0,0E0,0E0,0E0],"parents":[2147483647,0,0,1,1,2,2,3,3,4,4,5,5,6,6,7,7,9,9,10,10,12,12,13,13,14,14],"right_children":[2,4,6,8,10,12,14,16,-1,18,20,-1,22,24,26,-1,-1,-1,-1,-1,-1,-1,-1,-1,-1,-1,-1],"split_conditions":[2.3762116E-2,1.910827E-2,8.6756754E-1,6.05E0,2.0857885E-2,6.478335E-2,3.6368463E-2,4.220238E0,5.2515913E-2,3.3766234E-1,2.3116155E-2,4.1197617E-2,3.7255384E-2,3.4797307E-2,4.1186538E-2,-2.7630155E-3,-1.0898181E-1,1.9517107E-2,1.0391021E-1,7.7956575E-3,7.019017E-2,-7.3765695E-2,5.83199E-3,2.060501E-2,-9.410508E-2,9.033292E-2,1.9969061E-2],"split_indices":[0,0,3,2,0,3,0,2,0,3,0,0,0,0,0,0,0,0,0,0,0,0,0,0,0,0,0],"split_type":[0,0,0,0,0,0,0,0,0,0,0,0,0,0,0,0,0,0,0,0,0,0,0,0,0,0,0],"sum_hessian":[1.3426704E2,6.732635E1,6.694069E1,2.8323435E1,3.9002914E1,3.4920464E1,3.2020226E1,2.4443949E1,3.8794878E0,1.3469081E1,2.5533834E1,4.13443E0,3.0786036E1,2.355093E1,8.469295E0,1.9828186E1,4.6157613E0,4.1407495E0,9.328332E0,1.7391344E1,8.142491E0,2.3996698E1,6.789337E0,1.8557203E1,4.9937277E0,4.9482236E0,3.5210707E0],"tree_param":{"num_deleted":"0","num_feature":"4","num_nodes":"27","size_leaf_vector":"1"}},{"base_weights":[-3.9897352E-2,-3.3736306E-1,6.473952E-2,-6.987142E-2,-1.1674465E0,3.5013163E-1,-1.9183642E-1,-5.949687E-1,1.1696859E-1,-4.642343E-2,-1.5269133E-1,1.804592E-1,8.922176E-1,-4.260518E-1,2.3689994E-1,2.1792134E-2,-1.2311105E-1,6.882339E-2,-2.806483E-2,3.41031E-2,-3.6192443E-2,1.1921507E-1,1.8754246E-2,-2.4977315E-2,-1.3904265E-1,7.962603E-2,-2.893278E-2],"categories":[],"categories_nodes":[],"categories_segments":[],"categories_sizes":[],"default_left":[0,0,0,0,0,0,0,0,0,0,0,0,0,0,0,0,0,0,0,0,0,0,0,0,0,0,0],"id":7,"left_children":[1,3,5,7,9,11,13,15,17,-1,-1,19,21,23,25,-1,-1,-1,-1,-1,-1,-1,-1,-1,-1,-1,-1],"loss_changes":[4.3067245E0,7.78927E0,7.535968E0,2.9022188E0,1.2710342E0,4.2131834E0,5.548215E0,4.37934E0,5.1472545E0,0E0,0E0,3.474599E0,2.0100622E0,5.5182385E0,6.047473E0,0E0,0E0,0E0,0E0,0E0,0E0,0E0,0E0,0E0,0E0,0E0,0E0],"parents":[2147483647,0,0,1,1,2,2,3,3,4,4,5,5,6,6,7,7,8,8,11,11,12,12,13,13,14,14],"right_children":[2,4,6,8,10,12,14,16,18,-1,-1,20,22,24,26,-1,-1,-1,-1,-1,-1,-1,-1,-1,-1,-1,-1],"split_conditions":[7.8027344E-1,3.304E-2,2.6730158E0,1.85475E-2,3.104027E-1,3.4922883E-2,8.847826E0,1.6759615E-2,2.1625577E-2,-4.642343E-2,-1.5269133E-1,2.774904E-2,4.1186538E-2,3.6187844E0,1.5396E1,2.1792134E-2,-1.2311105E-1,6.882339E-2,-2.806483E-2,3.41031E-2,-3.6192443E-2,1.1921507E-1,1.8754246E-2,-2.4977315E-2,-1.3904265E-1,7.962603E-2,-2.893278E-2],"split_indices":[2,0,2,0,2,0,2,0,0,0,0,0,0,3,2,0,0,0,0,0,0,0,0,0,0,0,0],"split_type":[0,0,0,0,0,0,0,0,0,0,0,0,0,0,0,0,0,0,0,0,0,0,0,0,0,0,0],"sum_hessian":[1.3578717E2,3.5005043E1,1.0078213E2,2.7384972E1,7.6200724E0,4.7723686E1,5.3058445E1,6.7540774E0,2.0630894E1,3.4468205E0,4.173252E0,3.750273E1,1.0220953E1,3.4468224E1,1.8590221E1,3.184727E0,3.5693502E0,8.269916E0,1.2360978E1,2.9364908E1,8.137824E0,6.5846314E0,3.6363213E0,3.0293543E1,4.1746817E0,8.854793E0,9.735429E0],"tree_param":{"num_deleted":"0","num_feature":"4","num_nodes":"27","size_leaf_vector":"1"}},{"base_weights":[2.6852258E-2,1.2972207E-1,-2.873758E-1,-9.907533E-2,3.7122735E-1,-5.034327E-1,3.2931492E-1,2.0723306E-1,-5.575913E-1,6.680595E-1,-1.1893426E-2,-1.0980093E0,-1.2937947E-1,7.65812E-2,-1.3487287E-2,-1.1303688E-2,8.267317E-2,-1.253082E-1,-3.6292564E-2,4.796232E-2,1.1070577E-1,-9.116478E-2,1.7785635E-2,-5.469459E-2,-1.3899939E-1,4.7305167E-2,-8.029509E-2],"categories":[],"categories_nodes":[],"categories_segments":[],"categories_sizes":[],"default_left":[0,0,0,0,0,0,0,0,0,0,0,0,0,0,0,0,0,0,0,0,0,0,0,0,0,0,0],"id":8,"left_children":[1,3,5,7,9,11,13,15,17,19,21,23,25,-1,-1,-1,-1,-1,-1,-1,-1,-1,-1,-1,-1,-1,-1],"loss_changes":[4.5035186E0,5.8872833E0,4.7491274E0,7.8322763E0,5.952269E0,5.4938803E0,2.0659947E0,6.789205E0,2.4036689E0,1.7334318E0,4.230919E0,6.168146E-1,7.3641505E0,0E0,0E0,0E0,0E0,0E0,0E0,0E0,0E0,0E0,0E0,0E0,0E0,0E0,0E0],"parents":[2147483647,0,0,1,1,2,2,3,3,4,4,5,5,6,6,7,7,8,8,9,9,10,10,11,11,12,12],"right_children":[2,4,6,8,10,12,14,16,18,20,22,24,26,-1,-1,-1,-1,-1,-1,-1,-1,-1,-1,-1,-1,-1,-1],"split_conditions":[5.586207E0,1.2114478E0,9.638298E0,6.217228E-1,3.1320422E0,9.284314E0,1.4772727E1,7.4285716E-1,7.057221E-1,3.087137E0,3.7847826E0,2.7734628E0,1.6049383E1,7.65812E-2,-1.3487287E-2,-1.1303688E-2,8.267317E-2,-1.253082E-1,-3.6292564E-2,4.796232E-2,1.1070577E-1,-9.116478E-2,1.7785635E-2,-5.469459E-2,-1.3899939E-1,4.7305167E-2,-8.029509E-2],"split_indices":[1,1,2,1,2,1,2,2,1,1,2,2,1,0,0,0,0,0,0,0,0,0,0,0,0,0,0],"split_type":[0,0,0,0,0,0,0,0,0,0,0,0,0,0,0,0,0,0,0,0,0,0,0,0,0,0,0],"sum_hessian":[1.3765622E2,1.04387856E2,3.3268368E1,5.3694458E1,5.06934E1,2.4892958E1,8.37541E0,3.2387894E1,2.1306564E1,2.8291304E1,2.2402096E1,8.762207E0,1.613075E1,4.0925956E0,4.2828145E0,2.1782722E1,1.0605172E1,3.3581078E0,1.7948456E1,2.1418095E1,6.87321E0,3.3307762E0,1.907132E1,4.148471E0,4.613736E0,8.593817E0,7.5369334E0],"tree_param":{"num_deleted":"0","num_feature":"4","num_nodes":"27","size_leaf_vector":"1"}},{"base_weights":[3.6815163E-2,1.7379349E-3,1.16354994E-1,5.643991E-2,-8.021507E-1,9.835755E-2,-1.0342669E-1,-3.287023E-2,-1.05322435E-1,2.6925688E-3,7.376429E-2],"categories":[],"categories_nodes":[],"categories_segments":[],"categories_sizes":[],"default_left":[0,0,0,0,0,0,0,0,0,0,0],"id":9,"left_children":[1,3,-1,5,7,9,-1,-1,-1,-1,-1],"loss_changes":[5.2678127E0,5.830633E0,0E0,5.7605505E0,5.1879454E-1,5.4823303E0,0E0,0E0,0E0,0E0,0E0],"parents":[2147483647,0,0,1,1,3,3,4,4,5,5],"right_children":[2,4,-1,6,8,10,-1,-1,-1,-1,-1],"split_conditions":[3.84E1,1.4772727E1,1.16354994E-1,4.9530577E-2,2.296748E0,3.6626346E-2,-1.0342669E-1,-3.287023E-2,-1.05322435E-1,2.6925688E-3,7.376429E-2],"split_indices":[2,2,0,0,3,0,0,0,0,0,0],"split_type":[0,0,0,0,0,0,0,0,0,0,0],"sum_hessian":[1.352852E2,1.3225807E2,3.0271313E0,1.24818756E2,7.439318E0,1.2116374E2,3.6550145E0,3.5162382E0,3.9230797E0,1.1006405E2,1.109969E1],"tree_param":{"num_deleted":"0","num_feature":"4","num_nodes":"11","size_leaf_vector":"1"}},{"base_weights":[3.7643902E-2,3.8535672E-1,-2.9483456E-2,8.205095E-2,1.0973517E-1,-9.2241895E-1,5.550594E-2,6.0586274E-1,-4.406786E-1,-1.534594E-1,-1.6008478E-2,4.3422619E-1,-7.423041E-2,-2.6955346E-2,1.1330362E-1,-9.394174E-2,-7.0381927E-4,2.3004E-2,1.127082E-1,-1.3218722E-2,8.046188E-2],"categories":[],"categories_nodes":[],"categories_segments":[],"categories_sizes":[],"default_left":[0,0,0,0,0,0,0,0,0,0,0,0,0,0,0,0,0,0,0,0,0],"id":10,"left_children":[1,3,5,7,-1,9,11,13,15,-1,-1,17,19,-1,-1,-1,-1,-1,-1,-1,-1],"loss_changes":[3.2703533E0,4.685242E0,8.974636E0,4.9572444E0,0E0,4.381749E0,5.333543E0,4.564786E0,1.8509909E0,0E0,0E0,3.5217981E0,4.138223E0,0E0,0E0,0E0,0E0,0E0,0E0,0E0,0E0],"parents":[2147483647,0,0,1,1,2,2,3,3,5,5,6,6,7,7,8,8,11,11,12,12],"right_children":[2,4,6,8,-1,10,12,14,16,-1,-1,18,20,-1,-1,-1,-1,-1,-1,-1,-1],"split_conditions":[3.9055794E-1,4.2626262E-1,5.912863E-1,1.0935819E-1,1.0973517E-1,5.1863855E-1,1.3014493E0,3.0384272E-2,8.94198E-2,-1.534594E-1,-1.6008478E-2,1.1653544E0,3.84E1,-2.6955346E-2,1.1330362E-1,-9.394174E-2,-7.0381927E-4,2.3004E-2,1.127082E-1,-1.3218722E-2,8.046188E-2],"split_indices":[2,1,2,1,0,1,2,1,3,0,0,2,2,0,0,0,0,0,0,0,0],"split_type":[0,0,0,0,0,0,0,0,0,0,0,0,0,0,0,0,0,0,0,0,0],"sum_hessian":[1.3710025E2,2.165882E1,1.1544144E2,1.6069145E1,5.5896735E0,9.278697E0,1.0616274E2,8.042381E0,8.026765E0,4.5115795E0,4.767117E0,2.6686008E1,7.947673E1,3.135165E0,4.907216E0,3.0834584E0,4.943306E0,2.1751993E1,4.934015E0,7.546357E1,4.013163E0],"tree_param":{"num_deleted":"0","num_feature":"4","num_nodes":"21","size_leaf_vector":"1"}},{"base_weights":[-5.7547215E-2,7.408599E-2,-2.3280627E-1,-1.7932276E-1,4.3229374E-1,-9.8328985E-2,-1.17747955E-1,1.9117998E-1,-4.4553983E-1,6.102183E-1,3.0435324E-2,8.0398425E-2,-2.0394844E-1,-8.909161E-3,1.1735286E-1,-1.0650369E-1,-5.4133474E-3,2.3979573E-2,1.19375624E-1,-9.1490015E-2,7.204448E-2,-1.0479903E-1,-9.556933E-3],"categories":[],"categories_nodes":[],"categories_segments":[],"categories_sizes":[],"default_left":[0,0,0,0,0,0,0,0,0,0,0,0,0,0,0,0,0,0,0,0,0,0,0],"id":11,"left_children":[1,3,5,7,9,-1,11,13,15,17,19,-1,21,-1,-1,-1,-1,-1,-1,-1,-1,-1,-1],"loss_changes":[3.0006118E0,6.8100867E0,4.587215E0,4.432672E0,2.13899E0,0E0,4.0434275E0,5.4066486E0,6.1239495E0,4.1769376E0,7.6584883E0,0E0,4.0152082E0,0E0,0E0,0E0,0E0,0E0,0E0,0E0,0E0,0E0,0E0],"parents":[2147483647,0,0,1,1,2,2,3,3,4,4,6,6,7,7,8,8,9,9,10,10,12,12],"right_children":[2,4,6,8,10,-1,12,14,16,18,20,-1,22,-1,-1,-1,-1,-1,-1,-1,-1,-1,-1],"split_conditions":[2.5716536E0,1.2354261E0,3.013245E0,3.7785387E-1,4.47E0,-9.8328985E-2,3.132716E0,1.5947467E-1,7.4285716E-1,2.5995476E0,7.016129E0,8.0398425E-2,3.611386E0,-8.909161E-3,1.1735286E-1,-1.0650369E-1,-5.4133474E-3,2.3979573E-2,1.19375624E-1,-9.1490015E-2,7.204448E-2,-1.0479903E-1,-9.556933E-3],"split_indices":[2,1,2,2,1,0,2,3,2,1,1,0,2,0,0,0,0,0,0,0,0,0,0],"split_type":[0,0,0,0,0,0,0,0,0,0,0,0,0,0,0,0,0,0,0,0,0,0,0],"sum_hessian":[1.2763042E2,7.2890594E1,5.4739826E1,4.2819088E1,3.0071507E1,6.1580386E0,4.8581787E1,1.786376E1,2.4955328E1,2.031127E1,9.760237E0,3.3434675E0,4.523832E1,1.4526693E1,3.3370662E0,8.897036E0,1.605829E1,1.3392304E1,6.918965E0,3.9195185E0,5.8407183E0,4.0562716E0,4.118205E1],"tree_param":{"num_deleted":"0","num_feature":"4","num_nodes":"23","size_leaf_vector":"1"}},{"base_weights":[5.019599E-2,1.2761293E-1,-2.4487975E-1,6.5078914E-2,8.594889E-2,-9.719713E-2,-3.5159066E-2,1.2366057E-1,-3.965515E-1,3.306252E-1,-3.4476274E-1,-1.3543017E-2,2.5647914E-2,-1.1085953E-1,-1.0504808E-4,-3.940265E-2,6.835355E-2,-5.9599765E-2,2.9753773E-2],"categories":[],"categories_nodes":[],"categories_segments":[],"categories_sizes":[],"default_left":[0,0,0,0,0,0,0,0,0,0,0,0,0,0,0,0,0,0,0],"id":12,"left_children":[1,3,5,7,-1,-1,9,11,13,15,17,-1,-1,-1,-1,-1,-1,-1,-1],"loss_changes":[3.1385076E0,4.844076E0,4.203471E0,2.7721658E0,0E0,0E0,2.7456946E0,3.185442E0,3.126038E0,3.1137848E0,2.3399112E0,0E0,0E0,0E0,0E0,0E0,0E0,0E0,0E0],"parents":[2147483647,0,0,1,1,2,2,3,3,6,6,7,7,8,8,9,9,10,10],"right_children":[2,4,6,8,-1,-1,10,12,14,16,18,-1,-1,-1,-1,-1,-1,-1,-1],"split_conditions":[2.1958456E0,1.897283E0,4.063025E0,1.4417177E0,8.594889E-2,-9.719713E-2,3.6518152E0,5.912863E-1,1.6268656E0,3.621795E0,1.7262712E1,-1.3543017E-2,2.5647914E-2,-1.1085953E-1,-1.0504808E-4,-3.940265E-2,6.835355E-2,-5.9599765E-2,2.9753773E-2],"split_indices":[3,3,2,3,0,0,3,2,3,1,1,0,0,0,0,0,0,0,0],"split_type":[0,0,0,0,0,0,0,0,0,0,0,0,0,0,0,0,0,0,0],"sum_hessian":[1.355349E2,1.0808407E2,2.7450834E1,1.0070503E2,7.3790317E0,5.224908E0,2.2225927E1,9.0206436E1,1.0498599E1,1.0009369E1,1.2216558E1,3.030925E1,5.9897182E1,3.0148783E0,7.483721E0,3.14719E0,6.8621783E0,8.945369E0,3.271189E0],"tree_param":{"num_deleted":"0","num_feature":"4","num_nodes":"19","size_leaf_vector":"1"}},{"base_weights":[-4.8648156E-2,2.7632096E-1,-1.0655984E-1,-2.791312E-2,8.217469E-2,-1.040227E0,-4.0313993E-3,4.4802552E-1,-7.294583E-2,-1.4221786E-1,-2.7957014E-3,5.590851E-1,-6.9567345E-2,-4.3227367E-2,1.0917278E-1,8.006378E-2,2.88739E-2,-1.1376003E-1,-9.919313E-4],"categories":[],"categories_nodes":[],"categories_segments":[],"categories_sizes":[],"default_left":[0,0,0,0,0,0,0,0,0,0,0,0,0,0,0,0,0,0,0],"id":13,"left_children":[1,3,5,7,-1,9,11,13,-1,-1,-1,15,17,-1,-1,-1,-1,-1,-1],"loss_changes":[2.5402057E0,3.4762497E0,1.0898326E1,4.996609E0,0E0,4.1752424E0,3.8540287E0,5.5341263E0,0E0,0E0,0E0,3.695295E-1,5.915747E0,0E0,0E0,0E0,0E0,0E0,0E0],"parents":[2147483647,0,0,1,1,2,2,3,3,5,5,6,6,7,7,11,11,12,12],"right_children":[2,4,6,8,-1,10,12,14,-1,-1,-1,16,18,-1,-1,-1,-1,-1,-1],"split_conditions":[3.3988765E-1,3.2488114E-1,5.912863E-1,1.2280702E-1,8.217469E-2,3.0819365E-1,5.993209E-1,1.6755521E-2,-7.294583E-2,-1.4221786E-1,-2.7957014E-3,2.6009694E-1,7.057221E-1,-4.3227367E-2,1.0917278E-1,8.006378E-2,2.88739E-2,-1.1376003E-1,-9.919313E-4],"split_indices":[2,1,2,2,0,3,1,3,0,0,0,3,1,0,0,0,0,0,0],"split_type":[0,0,0,0,0,0,0,0,0,0,0,0,0,0,0,0,0,0,0],"sum_hessian":[1.333147E2,1.9332571E1,1.13982124E2,1.29016285E1,6.430942E0,1.0276739E1,1.0370539E2,7.8171735E0,5.084455E0,7.0956626E0,3.1810758E0,9.866949E0,9.383844E1,3.374905E0,4.4422684E0,3.9796915E0,5.8872576E0,3.9189506E0,8.991949E1],"tree_param":{"num_deleted":"0","num_feature":"4","num_nodes":"19","size_leaf_vector":"1"}},{"base_weights":[4.530393E-4,1.6151407E-1,-2.2517346E-1,-3.089853E-1,3.1058347E-1,-6.422378E-1,1.15011066E-1,-5.905497E-1,5.62054E-2,4.56906E-1,-2.5975585E-1,-1.3040228E-1,-4.3449396E-1,2.785578E-1,-5.9689987E-2,3.7525993E-2,-1.0177028E-1,5.525731E-2,-4.0877283E-2,-1.184801E-1,1.7485447E-2,2.8253673E-2,-9.643067E-2,-8.787203E-3,8.6178E-2],"categories":[],"categories_nodes":[],"categories_segments":[],"categories_sizes":[],"default_left":[0,0,0,0,0,0,0,0,0,0,0,0,0,0,0,0,0,0,0,0,0,0,0,0,0],"id":14,"left_children":[1,3,5,7,9,11,13,15,-1,17,19,-1,21,23,-1,-1,-1,-1,-1,-1,-1,-1,-1,-1,-1],"loss_changes":[4.602067E0,5.303944E0,7.584134E0,4.7996273E0,4.8991666E0,2.5449762E0,3.5884337E0,6.358888E0,0E0,4.0416822E0,5.191036E0,0E0,7.863408E0,5.478727E0,0E0,0E0,0E0,0E0,0E0,0E0,0E0,0E0,0E0,0E0,0E0],"parents":[2147483647,0,0,1,1,2,2,3,3,4,4,5,5,6,6,7,7,9,9,10,10,12,12,13,13],"right_children":[2,4,6,8,10,12,14,16,-1,18,20,-1,22,24,-1,-1,-1,-1,-1,-1,-1,-1,-1,-1,-1],"split_conditions":[2.5205193E-2,1.8277308E-2,3.4236345E-2,5.295238E0,2.3216374E0,2.652E-2,4.9530577E-2,2.2008863E-1,5.62054E-2,7.888889E0,2.7024186E0,-1.3040228E-1,2.9997116E-2,3.6626346E-2,-5.9689987E-2,3.7525993E-2,-1.0177028E-1,5.525731E-2,-4.0877283E-2,-1.184801E-1,1.7485447E-2,2.8253673E-2,-9.643067E-2,-8.787203E-3,8.6178E-2],"split_indices":[0,0,0,2,3,0,0,3,0,2,3,0,0,0,0,0,0,0,0,0,0,0,0,0,0],"split_type":[0,0,0,0,0,0,0,0,0,0,0,0,0,0,0,0,0,0,0,0,0,0,0,0,0],"sum_hessian":[1.2481481E2,7.325202E1,5.1562798E1,1.7205063E1,5.6046955E1,2.2897114E1,2.8665684E1,1.3332228E1,3.8728344E0,4.4901535E1,1.114542E1,4.094694E0,1.880242E1,2.3919792E1,4.74589E0,4.0538025E0,9.278425E0,4.0862934E1,4.0386014E0,3.0844023E0,8.061018E0,8.107704E0,1.06947155E1,1.5106484E1,8.813308E0],"tree_param":{"num_deleted":"0","num_feature":"4","num_nodes":"25","size_leaf_vector":"1"}},{"base_weights":[-9.315552E-3,2.613023E-2,-9.02447E-2,4.9129185E-1,-7.4585885E-2,-2.0220166E-2,6.136475E-1,-9.9748634E-2,-7.6917093E-3,1.156471E-1,2.9923528E-2,-6.6150962E-3,8.3903335E-2],"categories":[],"categories_nodes":[],"categories_segments":[],"categories_sizes":[],"default_left":[0,0,0,0,0,0,0,0,0,0,0,0,0],"id":15,"left_children":[1,3,-1,5,7,-1,9,-1,11,-1,-1,-1,-1],"loss_changes":[4.3097925E0,6.0949655E0,0E0,2.1309276E0,6.4519305E0,0E0,2.932384E0,0E0,4.937367E0,0E0,0E0,0E0,0E0],"parents":[2147483647,0,0,1,1,3,3,4,4,6,6,8,8],"right_children":[2,4,-1,6,8,-1,10,-1,12,-1,-1,-1,-1],"split_conditions":[4.9530577E-2,2.0395328E-1,-9.02447E-2,1.5742129E-2,5E-1,-2.0220166E-2,1.3137996E-1,-9.9748634E-2,3.7629616E-2,1.156471E-1,2.9923528E-2,-6.6150962E-3,8.3903335E-2],"split_indices":[0,3,0,3,2,0,2,0,0,0,0,0,0],"split_type":[0,0,0,0,0,0,0,0,0,0,0,0,0],"sum_hessian":[1.3162411E2,1.27425735E2,4.1983786E0,2.2166006E1,1.05259735E2,3.1038709E0,1.9062134E1,6.072644E0,9.918709E1,5.892556E0,1.3169579E1,9.375413E1,5.4329586E0],"tree_param":{"num_deleted":"0","num_feature":"4","num_nodes":"13","size_leaf_vector":"1"}},{"base_weights":[-3.7862323E-2,-6.745284E-2,8.381787E-2,-2.0486534E-2,-9.315121E-2,-7.387054E-2,8.1801397E-1,1.4629551E-3,-5.703774E-2,1.0531906E-1,3.6245562E-2],"categories":[],"categories_nodes":[],"categories_segments":[],"categories_sizes":[],"default_left":[0,0,0,0,0,0,0,0,0,0,0],"id":16,"left_children":[1,3,-1,5,-1,7,9,-1,-1,-1,-1],"loss_changes":[3.388332E0,5.089969E0,0E0,5.481169E0,0E0,5.180564E0,2.6079988E-1,0E0,0E0,0E0,0E0],"parents":[2147483647,0,0,1,1,3,3,5,5,6,6],"right_children":[2,4,-1,6,-1,8,10,-1,-1,-1,-1],"split_conditions":[3.2673077E1,1.5396E1,8.381787E-2,9.638298E0,-9.315121E-2,4.881323E0,1.3421053E1,1.4629551E-3,-5.703774E-2,1.0531906E-1,3.6245562E-2],"split_indices":[2,2,0,2,0,2,2,0,0,0,0],"split_type":[0,0,0,0,0,0,0,0,0,0,0],"sum_hessian":[1.3050221E2,1.2724146E2,3.2607517E0,1.2176246E2,5.4790072E0,1.1544377E2,6.3186855E0,9.8632164E1,1.6811605E1,3.1573586E0,3.1613271E0],"tree_param":{"num_deleted":"0","num_feature":"4","num_nodes":"11","size_leaf_vector":"1"}},{"base_weights":[-4.658287E-2,-3.2504057E-3,-8.172883E-2,-1.9688033E-1,8.41966E-2,-3.0378038E-2,-8.8019025E-1,8.2302624E-1,-7.4442425E-3,-1.23968E-2,6.1478138E-2,-1.7654489E-1,1.717338E-2,1.0333431E-1,2.6771832E-2,-8.964789E-3,6.424021E-2],"categories":[],"categories_nodes":[],"categories_segments":[],"categories_sizes":[],"default_left":[0,0,0,0,0,0,0,0,0,0,0,0,0,0,0,0,0],"id":17,"left_children":[1,3,-1,5,7,9,11,13,15,-1,-1,-1,-1,-1,-1,-1,-1],"loss_changes":[4.2280507E0,2.117137E0,0E0,4.324328E0,5.8662477E0,1.9923629E0,7.443371E0,7.0827436E-1,4.10492E0,0E0,0E0,0E0,0E0,0E0,0E0,0E0,0E0],"parents":[2147483647,0,0,1,1,3,3,4,4,5,5,6,6,7,7,8,8],"right_children":[2,4,-1,6,8,10,12,14,16,-1,-1,-1,-1,-1,-1,-1,-1],"split_conditions":[2.342E1,3.9160466E-1,-8.172883E-2,6.6888887E-1,5.0402033E-1,5.4157305E-1,1.0536829E0,2.7195193E-2,3.6368463E-2,-1.23968E-2,6.1478138E-2,-1.7654489E-1,1.717338E-2,1.0333431E-1,2.6771832E-2,-8.964789E-3,6.424021E-2],"split_indices":[1,3,0,1,3,1,1,0,0,0,0,0,0,0,0,0,0],"split_type":[0,0,0,0,0,0,0,0,0,0,0,0,0,0,0,0,0],"sum_hessian":[1.2813786E2,1.223905E2,5.747366E0,3.804385E1,8.434665E1,3.1547474E1,6.4963765E0,8.547217E0,7.579943E1,2.8391687E1,3.155787E0,3.2109365E0,3.2854402E0,5.444315E0,3.1029027E0,6.818958E1,7.609851E0],"tree_param":{"num_deleted":"0","num_feature":"4","num_nodes":"17","size_leaf_vector":"1"}},{"base_weights":[9.976674E-3,-2.3385467E-2,1.0761086E-1,-4.2201185E-1,6.932078E-2,-5.9794888E-2,-6.8620825E-1,1.1546977E-1,-5.2712536E-1,-3.5474505E-2,4.1944627E-2,-1.2244447E-1,-1.015931E-2,5.3447228E-2,3.8415906E-3,-2.5244579E-2,-6.69375E-2],"categories":[],"categories_nodes":[],"categories_segments":[],"categories_sizes":[],"default_left":[0,0,0,0,0,0,0,0,0,0,0,0,0,0,0,0,0],"id":18,"left_children":[1,3,-1,5,7,9,11,13,15,-1,-1,-1,-1,-1,-1,-1,-1],"loss_changes":[4.8099566E0,4.8117642E0,0E0,2.2368512E0,2.9064736E0,1.7852831E0,4.1355586E0,3.09654E0,3.4071684E-2,0E0,0E0,0E0,0E0,0E0,0E0,0E0,0E0],"parents":[2147483647,0,0,1,1,3,3,4,4,5,5,6,6,7,7,8,8],"right_children":[2,4,-1,6,8,10,12,14,16,-1,-1,-1,-1,-1,-1,-1,-1],"split_conditions":[3.84E1,1.8805193E-2,1.0761086E-1,6.4228296E-1,1.5396E1,3.1811145E-1,1.6268656E0,2.0857885E-2,2.2655962E-2,-3.5474505E-2,4.1944627E-2,-1.2244447E-1,-1.015931E-2,5.3447228E-2,3.8415906E-3,-2.5244579E-2,-6.69375E-2],"split_indices":[2,0,0,3,2,3,3,0,0,0,0,0,0,0,0,0,0],"split_type":[0,0,0,0,0,0,0,0,0,0,0,0,0,0,0,0,0],"sum_hessian":[1.3056378E2,1.27459496E2,3.1042833E0,2.3582775E1,1.03876724E2,1.0623138E1,1.2959637E1,9.732076E1,6.5559616E0,6.865927E0,3.7572112E0,6.088578E0,6.8710585E0,1.3993415E1,8.332735E1,3.4233115E0,3.1326504E0],"tree_param":{"num_deleted":"0","num_feature":"4","num_nodes":"17","size_leaf_vector":"1"}},{"base_weights":[-4.100253E-2,-1.0618471E-1,4.033764E-1,5.6216568E-2,-1.4938089E-1,6.61407E-1,-3.146145E-2,-7.8317314E-2,-9.738762E-2,8.449595E-2,1.9637508E-2,-9.516883E-4,-4.210047E-2],"categories":[],"categories_nodes":[],"categories_segments":[],"categories_sizes":[],"default_left":[0,0,0,0,0,0,0,0,0,0,0,0,0],"id":19,"left_children":[1,3,5,-1,7,9,-1,-1,11,-1,-1,-1,-1],"loss_changes":[3.6157362E0,3.202652E0,3.1925528E0,0E0,3.254204E0,7.659745E-1,0E0,0E0,2.7159011E0,0E0,0E0,0E0,0E0],"parents":[2147483647,0,0,1,1,2,2,4,4,5,5,8,8],"right_children":[2,4,6,-1,8,10,-1,-1,12,-1,-1,-1,-1],"split_conditions":[3.6626346E-2,5.225225E-2,5.2690383E-2,5.6216568E-2,1.3257143E-1,9.80846E-1,-3.146145E-2,-7.8317314E-2,3.212654E-2,8.449595E-2,1.9637508E-2,-9.516883E-4,-4.210047E-2],"split_indices":[0,3,0,0,3,3,0,0,0,0,0,0,0],"split_type":[0,0,0,0,0,0,0,0,0,0,0,0,0],"sum_hessian":[1.2337598E2,1.0845388E2,1.4922098E1,5.714065E0,1.02739815E2,1.1137577E1,3.7845209E0,6.5772734E0,9.6162544E1,7.245629E0,3.8919487E0,7.6680214E1,1.9482327E1],"tree_param":{"num_deleted":"0","num_feature":"4","num_nodes":"13","size_leaf_vector":"1"}},{"base_weights":[8.879442E-2,1.4015909E-1,-3.4297368E-1,8.174666E-2,1.0747236E-1,2.7223544E-3,-5.7489777E-1,8.225301E-3,4.5917115E-1,-7.429231E-2,-2.9872179E-2,7.1289516E-3,-1.10371806E-1,5.959591E-2,5.7389005E-3],"categories":[],"categories_nodes":[],"categories_segments":[],"categories_sizes":[],"default_left":[0,0,0,0,0,0,0,0,0,0,0,0,0,0,0],"id":20,"left_children":[1,3,5,7,-1,-1,9,11,13,-1,-1,-1,-1,-1,-1],"loss_changes":[2.9526572E0,6.2806787E0,1.281393E0,3.0844011E0,0E0,0E0,8.6120844E-2,6.6930094E0,8.99575E-1,0E0,0E0,0E0,0E0,0E0,0E0],"parents":[2147483647,0,0,1,1,2,2,3,3,6,6,7,7,8,8],"right_children":[2,4,6,8,-1,-1,10,12,14,-1,-1,-1,-1,-1,-1],"split_conditions":[1.2846154E1,9.284314E0,2.6774647E0,6.1666665E0,1.0747236E-1,2.7223544E-3,1.7262712E1,2.1958456E0,3.4700854E0,-7.429231E-2,-2.9872179E-2,7.1289516E-3,-1.10371806E-1,5.959591E-2,5.7389005E-3],"split_indices":[1,1,3,2,0,0,1,3,3,0,0,0,0,0,0],"split_type":[0,0,0,0,0,0,0,0,0,0,0,0,0,0,0],"sum_hessian":[1.3088371E2,1.1777927E2,1.3104451E1,1.1197504E2,5.804225E0,5.221437E0,7.8830147E0,9.47958E1,1.717924E1,3.6252763E0,4.2577386E0,9.067875E1,4.117053E0,1.2269778E1,4.9094615E0],"tree_param":{"num_deleted":"0","num_feature":"4","num_nodes":"15","size_leaf_vector":"1"}},{"base_weights":[6.646236E-2,4.001356E-2,8.401062E-2,8.576613E-2,-6.5128154E-1,-8.3186254E-2,2.0920706E-1,-1.8447356E-2,-8.87542E-2,1.3562667E-2,-4.7784295E-2,7.216295E-2,7.805315E-3],"categories":[],"categories_nodes":[],"categories_segments":[],"categories_sizes":[],"default_left":[0,0,0,0,0,0,0,0,0,0,0,0,0],"id":21,"left_children":[1,3,-1,5,7,9,11,-1,-1,-1,-1,-1,-1],"loss_changes":[2.6224196E0,4.1377954E0,0E0,2.6107583E0,6.227424E-1,4.64264E0,4.7112074E0,0E0,0E0,0E0,0E0,0E0,0E0],"parents":[2147483647,0,0,1,1,3,3,4,4,5,5,6,6],"right_children":[2,4,-1,6,8,10,12,-1,-1,-1,-1,-1,-1],"split_conditions":[3.65E1,1.5396E1,8.401062E-2,1.2354261E0,2.3315217E0,2.898173E-2,2.0187714E0,-1.8447356E-2,-8.87542E-2,1.3562667E-2,-4.7784295E-2,7.216295E-2,7.805315E-3],"split_indices":[2,2,0,1,1,0,1,0,0,0,0,0,0],"split_type":[0,0,0,0,0,0,0,0,0,0,0,0,0],"sum_hessian":[1.3310486E2,1.2984673E2,3.258131E0,1.2274367E2,7.103058E0,5.1614883E1,7.1128784E1,3.1275837E0,3.9754739E0,3.3464066E1,1.8150816E1,1.3422406E1,5.770638E1],"tree_param":{"num_deleted":"0","num_feature":"4","num_nodes":"13","size_leaf_vector":"1"}},{"base_weights":[-1.6673533E-2,-8.020325E-2,8.3200475E-3,1.0270522E-1,-3.851302E-2,-9.106008E-2,-6.932641E-3,4.90197E-2,-3.7184705E-3],"categories":[],"categories_nodes":[],"categories_segments":[],"categories_sizes":[],"default_left":[0,0,0,0,0,0,0,0,0],"id":22,"left_children":[1,-1,3,-1,5,-1,7,-1,-1],"loss_changes":[2.6440427E0,0E0,6.2054825E0,0E0,3.274193E0,0E0,1.7668761E0,0E0,0E0],"parents":[2147483647,0,0,2,2,4,4,6,6],"right_children":[2,-1,4,-1,6,-1,8,-1,-1],"split_conditions":[3.0384272E-2,-8.020325E-2,1.0935819E-1,1.0270522E-1,1.4720812E-1,-9.106008E-2,2.6545453E-1,4.90197E-2,-3.7184705E-3],"split_indices":[1,0,1,0,1,0,1,0,0],"split_type":[0,0,0,0,0,0,0,0,0],"sum_hessian":[1.2931778E2,3.1530416E0,1.26164734E2,4.7190566E0,1.2144568E2,3.1607623E0,1.1828491E2,5.723403E0,1.12561516E2],"tree_param":{"num_deleted":"0","num_feature":"4","num_nodes":"9","size_leaf_vector":"1"}},{"base_weights":[2.4534168E-2,-2.5874605E-2,9.8996095E-2,1.7669566E-2,-7.042821E-1,-4.0733445E-2,9.457233E-2,-1.0365893E-1,-2.5022525E-2,1.5647929E-3,-5.6354523E-2],"categories":[],"categories_nodes":[],"categories_segments":[],"categories_sizes":[],"default_left":[0,0,0,0,0,0,0,0,0,0,0],"id":23,"left_children":[1,3,-1,5,7,9,-1,-1,-1,-1,-1],"loss_changes":[6.614581E0,3.8524613E0,0E0,6.676699E0,7.9837656E-1,3.438958E0,0E0,0E0,0E0,0E0,0E0],"parents":[2147483647,0,0,1,1,3,3,4,4,5,5],"right_children":[2,4,-1,6,8,10,-1,-1,-1,-1,-1],"split_conditions":[5.8389425E0,3.6518152E0,9.8996095E-2,3.104918E0,8.196E0,2.1488888E0,9.457233E-2,-1.0365893E-1,-2.5022525E-2,1.5647929E-3,-5.6354523E-2],"split_indices":[3,3,0,3,2,3,0,0,0,0,0],"split_type":[0,0,0,0,0,0,0,0,0,0,0],"sum_hessian":[1.324106E2,1.2666646E2,5.744142E0,1.1980333E2,6.8631296E0,1.1350852E2,6.294807E0,3.0949008E0,3.768229E0,1.03162056E2,1.0346467E1],"tree_param":{"num_deleted":"0","num_feature":"4","num_nodes":"11","size_leaf_vector":"1"}},{"base_weights":[3.9768633E-2,9.747553E-2,-5.0888944E-1,4.8078485E-2,9.448265E-2,-8.828628E-2,-1.2807494E-1,1.2179606E-1,-5.59275E-1,-6.632523E-2,7.336234E-2,-7.043458E-3,3.187969E-2,-9.733011E-2,-4.6463753E-3],"categories":[],"categories_nodes":[],"categories_segments":[],"categories_sizes":[],"default_left":[0,0,0,0,0,0,0,0,0,0,0,0,0,0,0],"id":24,"left_children":[1,3,5,7,-1,9,-1,11,13,-1,-1,-1,-1,-1,-1],"loss_changes":[4.167743E0,4.8726306E0,3.8074327E0,5.147789E0,0E0,4.8496675E0,0E0,3.9483924E0,2.4893253E0,0E0,0E0,0E0,0E0,0E0,0E0],"parents":[2147483647,0,0,1,1,2,2,3,3,5,5,7,7,8,8],"right_children":[2,4,6,8,-1,10,-1,12,14,-1,-1,-1,-1,-1,-1],"split_conditions":[3.6518152E0,3.104918E0,3.4944423E-2,2.1958456E0,9.448265E-2,5.7879233E0,-1.2807494E-1,1.1653544E0,4.525E0,-6.632523E-2,7.336234E-2,-7.043458E-3,3.187969E-2,-9.733011E-2,-4.6463753E-3],"split_indices":[3,3,0,3,0,3,0,2,2,0,0,0,0,0,0],"split_type":[0,0,0,0,0,0,0,0,0,0,0,0,0,0,0],"sum_hessian":[1.3036774E2,1.1886981E2,1.1497918E1,1.1343195E2,5.4378576E0,8.247575E0,3.2503433E0,1.020141E2,1.1417855E1,5.0379705E0,3.209604E0,5.1700417E1,5.0313686E1,5.712669E0,5.705187E0],"tree_param":{"num_deleted":"0","num_feature":"4","num_nodes":"15","size_leaf_vector":"1"}},{"base_weights":[-5.213959E-2,4.9709496E-1,-9.458988E-2,-3.213715E-2,1.0585485E-1,-4.518769E-1,-2.700314E-2,-6.865739E-1,4.1578993E-2,4.5265022E-1,-9.3329936E-2,-3.5869233E-2,-1.15917146E-1,7.7804276E-3,8.065846E-2,-4.7605142E-2,-1.1168371E-3],"categories":[],"categories_nodes":[],"categories_segments":[],"categories_sizes":[],"default_left":[0,0,0,0,0,0,0,0,0,0,0,0,0,0,0,0,0],"id":25,"left_children":[1,3,5,-1,-1,7,9,11,-1,13,15,-1,-1,-1,-1,-1,-1],"loss_changes":[3.1223612E0,4.815322E0,2.9596324E0,0E0,0E0,4.3025675E0,3.3931465E0,1.8946729E0,0E0,1.562978E0,2.9186845E0,0E0,0E0,0E0,0E0,0E0,0E0],"parents":[2147483647,0,0,1,1,2,2,5,5,6,6,7,7,9,9,10,10],"right_children":[2,4,6,-1,-1,8,10,12,-1,14,16,-1,-1,-1,-1,-1,-1],"split_conditions":[1.3131313E-1,3.0384272E-2,5.2365416E-1,-3.213715E-2,1.0585485E-1,1.0536829E0,5.993209E-1,3.7785387E-1,4.1578993E-2,1.0839506E0,1.8805193E-2,-3.5869233E-2,-1.15917146E-1,7.7804276E-3,8.065846E-2,-4.7605142E-2,-1.1168371E-3],"split_indices":[2,1,2,0,0,1,1,2,0,2,0,0,0,0,0,0,0],"split_type":[0,0,0,0,0,0,0,0,0,0,0,0,0,0,0,0,0],"sum_hessian":[1.3262941E2,8.578067E0,1.2405134E2,3.5917065E0,4.98636E0,1.8593607E1,1.0545773E2,1.48899555E1,3.7036507E0,1.1920489E1,9.353725E1,9.954346E0,4.9356093E0,6.51885E0,5.401639E0,1.5469002E1,7.8068245E1],"tree_param":{"num_deleted":"0","num_feature":"4","num_nodes":"17","size_leaf_vector":"1"}},{"base_weights":[2.3422172E-2,-1.7865755E-2,4.3315774E-1,8.024044E-2,-4.308571E-1,-5.996046E-3,7.588301E-2,-2.5374502E-1,1.576692E-1,-1.1488142E-1,-7.546331E-2,1.7716791E-2,-3.9952304E-2,1.04657345E-1,4.7647287E-3,-5.658443E-2,8.242927E-2],"categories":[],"categories_nodes":[],"categories_segments":[],"categories_sizes":[],"default_left":[0,0,0,0,0,0,0,0,0,0,0,0,0,0,0,0,0],"id":26,"left_children":[1,3,5,7,9,-1,-1,11,13,-1,15,-1,-1,-1,-1,-1,-1],"loss_changes":[2.1144898E0,4.593033E0,1.9520714E0,2.3800318E0,5.348861E0,0E0,0E0,1.1759973E0,7.1384068E0,0E0,7.38264E0,0E0,0E0,0E0,0E0,0E0,0E0],"parents":[2147483647,0,0,1,1,2,2,3,3,4,4,7,7,8,8,10,10],"right_children":[2,4,6,8,10,-1,-1,12,14,-1,16,-1,-1,-1,-1,-1,-1],"split_conditions":[3.8929274E0,5.144231E0,1.1423424E1,1.8805193E-2,6.1666665E0,-5.996046E-3,7.588301E-2,1.5850578E-2,1.9907884E-2,-1.1488142E-1,2.6276154E-2,1.7716791E-2,-3.9952304E-2,1.04657345E-1,4.7647287E-3,-5.658443E-2,8.242927E-2],"split_indices":[3,2,2,0,2,0,0,0,0,0,0,0,0,0,0,0,0],"split_type":[0,0,0,0,0,0,0,0,0,0,0,0,0,0,0,0,0],"sum_hessian":[1.2107873E2,1.10641975E2,1.0436751E1,8.985942E1,2.0782557E1,4.3535833E0,6.0831676E0,1.624005E1,7.361937E1,6.0488796E0,1.4733676E1,3.8773842E0,1.2362664E1,7.070786E0,6.6548584E1,9.8484E0,4.8852763E0],"tree_param":{"num_deleted":"0","num_feature":"4","num_nodes":"17","size_leaf_vector":"1"}},{"base_weights":[8.160546E-3,8.332324E-2,-2.1802822E-1,-8.6428E-2,2.2823891E-1,-1.3262382E-1,-2.8896723E-2,5.266059E-2,-7.87915E-1,6.735337E-1,1.1728674E-1,7.250612E-2,-1.4995477E-1,-1.5103631E-2,3.3957575E-2,-1.0120084E-1,-3.3731986E-2,1.2063847E-1,-3.393624E-2,-1.6204465E-2,6.7736275E-2,-9.294918E-2,5.9903595E-3],"categories":[],"categories_nodes":[],"categories_segments":[],"categories_sizes":[],"default_left":[0,0,0,0,0,0,0,0,0,0,0,0,0,0,0,0,0,0,0,0,0,0,0],"id":27,"left_children":[1,3,5,7,9,-1,11,13,15,17,19,-1,21,-1,-1,-1,-1,-1,-1,-1,-1,-1,-1],"loss_changes":[2.22725E0,2.4736893E0,6.648862E0,4.6113234E0,2.5146232E0,0E0,2.6894817E0,2.3656049E0,3.1200743E-1,6.109066E0,7.153925E0,0E0,4.3713703E0,0E0,0E0,0E0,0E0,0E0,0E0,0E0,0E0,0E0,0E0],"parents":[2147483647,0,0,1,1,2,2,3,3,4,4,6,6,7,7,8,8,9,9,10,10,12,12],"right_children":[2,4,6,8,10,-1,12,14,16,18,20,-1,22,-1,-1,-1,-1,-1,-1,-1,-1,-1,-1],"split_conditions":[5.144231E0,1.0714285E0,5.4327483E0,8.676056E-1,7.892157E-1,-1.3262382E-1,1.8753078E-2,5.69873E-1,1.4579831E0,2.9054038E-2,2.5975384E-2,7.250612E-2,2.1960769E-2,-1.5103631E-2,3.3957575E-2,-1.0120084E-1,-3.3731986E-2,1.2063847E-1,-3.393624E-2,-1.6204465E-2,6.7736275E-2,-9.294918E-2,5.9903595E-3],"split_indices":[2,1,2,1,2,0,0,2,2,0,0,0,0,0,0,0,0,0,0,0,0,0,0],"split_type":[0,0,0,0,0,0,0,0,0,0,0,0,0,0,0,0,0,0,0,0,0,0,0],"sum_hessian":[1.2973111E2,9.817967E1,3.1551445E1,4.508342E1,5.309625E1,3.6461222E0,2.7905323E1,3.8276463E1,6.8069587E0,9.399715E0,4.3696533E1,3.0561278E0,2.4849195E1,2.2457615E1,1.5818849E1,3.5657475E0,3.2412112E0,6.0989575E0,3.3007574E0,2.9510595E1,1.4185939E1,4.64443E0,2.0204765E1],"tree_param":{"num_deleted":"0","num_feature":"4","num_nodes":"23","size_leaf_vector":"1"}},{"base_weights":[-7.219939E-2,-2.6619363E-1,6.032875E-2,-1.4130902E-1,-5.7425964E-1,5.616605E-1,-2.8515555E-2,-5.354849E-1,9.936743E-2,-8.2533723E-1,-4.8940363E-3,-1.0629702E-2,8.883951E-1,-5.0892985E-1,1.0430184E-1,2.5573545E-4,-1.0815813E-1,-3.8072042E-2,3.9113495E-2,-1.0172033E-1,-3.592546E-2,3.635121E-2,1.1549982E-1,2.0895505E-2,-9.204394E-2,4.747824E-2,-1.2976766E-2],"categories":[],"categories_nodes":[],"categories_segments":[],"categories_sizes":[],"default_left":[0,0,0,0,0,0,0,0,0,0,0,0,0,0,0,0,0,0,0,0,0,0,0,0,0,0,0],"id":28,"left_children":[1,3,5,7,9,11,13,15,17,19,-1,-1,21,23,25,-1,-1,-1,-1,-1,-1,-1,-1,-1,-1,-1,-1],"loss_changes":[3.191369E0,1.7822595E0,3.3390965E0,3.6396418E0,1.7121387E0,2.6320367E0,4.12248E0,4.362735E0,3.4939234E0,3.23833E-1,0E0,0E0,5.1625776E-1,4.401929E0,4.4435806E0,0E0,0E0,0E0,0E0,0E0,0E0,0E0,0E0,0E0,0E0,0E0,0E0],"parents":[2147483647,0,0,1,1,2,2,3,3,4,4,5,5,6,6,7,7,8,8,9,9,12,12,13,13,14,14],"right_children":[2,4,6,8,10,12,14,16,18,20,-1,-1,22,24,26,-1,-1,-1,-1,-1,-1,-1,-1,-1,-1,-1,-1],"split_conditions":[1.2274678E0,4.6452478E-1,1.8415301E0,1.3257143E-1,7.3052365E-1,6.7263925E-1,2.6956522E0,1.0935819E-1,2.3204615E-2,3.3126153E-2,-4.8940363E-3,-1.0629702E-2,1.5809768E0,2.00975E-2,1.9767442E0,2.5573545E-4,-1.0815813E-1,-3.8072042E-2,3.9113495E-2,-1.0172033E-1,-3.592546E-2,3.635121E-2,1.1549982E-1,2.0895505E-2,-9.204394E-2,4.747824E-2,-1.2976766E-2],"split_indices":[1,3,1,3,3,3,1,1,0,0,0,0,1,0,3,0,0,0,0,0,0,0,0,0,0,0,0],"split_type":[0,0,0,0,0,0,0,0,0,0,0,0,0,0,0,0,0,0,0,0,0,0,0,0,0,0,0],"sum_hessian":[1.217056E2,4.9294483E1,7.241112E1,3.63444E1,1.2950085E1,1.0268968E1,6.214215E1,1.3471529E1,2.2872868E1,8.246957E0,4.703129E0,3.4942107E0,6.774757E0,1.3008861E1,4.913329E1,7.1949205E0,6.2766085E0,8.401323E0,1.4471544E1,4.8524175E0,3.3945389E0,3.2044616E0,3.5702953E0,4.830753E0,8.178108E0,1.8790655E1,3.0342632E1],"tree_param":{"num_deleted":"0","num_feature":"4","num_nodes":"27","size_leaf_vector":"1"}},{"base_weights":[6.490391E-2,-1.625356E-1,1.9819848E-1,-1.2027327E-3,-9.229803E-1,5.8560866E-1,1.0845159E-1,-1.1526403E-1,6.843131E-2,-1.402548E-1,-1.6741348E-2,5.892001E-2,1.1195713E-1,2.548033E-1,-2.870352E-1,4.5284133E-2,-2.0752018E-2,5.1665463E-2,-3.930005E-2,-1.3503152E-2,4.686112E-2,-9.768142E-2,-6.0324944E-3],"categories":[],"categories_nodes":[],"categories_segments":[],"categories_sizes":[],"default_left":[0,0,0,0,0,0,0,0,0,0,0,0,0,0,0,0,0,0,0,0,0,0,0],"id":29,"left_children":[1,3,5,7,9,11,13,15,-1,-1,-1,17,-1,19,21,-1,-1,-1,-1,-1,-1,-1,-1],"loss_changes":[3.7680216E0,5.5208054E0,2.5911248E0,3.0606701E0,2.470615E0,3.8375769E0,3.8349006E0,1.8671292E0,0E0,0E0,0E0,1.9423705E0,0E0,4.1134815E0,2.629569E0,0E0,0E0,0E0,0E0,0E0,0E0,0E0,0E0],"parents":[2147483647,0,0,1,1,2,2,3,3,4,4,5,5,6,6,7,7,11,11,13,13,14,14],"right_children":[2,4,6,8,10,12,14,16,-1,-1,-1,18,-1,20,22,-1,-1,-1,-1,-1,-1,-1,-1],"split_conditions":[2.2150384E-2,2.1202693E-2,2.3762116E-2,2.02725E-2,4.968944E0,2.285294E0,4.561321E0,2.8798586E-1,6.843131E-2,-1.402548E-1,-1.6741348E-2,1.1570743E0,1.1195713E-1,7.057221E-1,2.1900454E0,4.5284133E-2,-2.0752018E-2,5.1665463E-2,-3.930005E-2,-1.3503152E-2,4.686112E-2,-9.768142E-2,-6.0324944E-3],"split_indices":[0,0,0,0,2,2,1,1,0,0,0,1,0,1,2,0,0,0,0,0,0,0,0],"split_type":[0,0,0,0,0,0,0,0,0,0,0,0,0,0,0,0,0,0,0,0,0,0,0],"sum_hessian":[1.2210943E2,4.476229E1,7.734714E1,3.78626E1,6.8996916E0,1.3299192E1,6.404794E1,3.329968E1,4.5629187E0,3.61596E0,3.2837317E0,7.3484607E0,5.9507318E0,4.7192657E1,1.6855288E1,3.954675E0,2.9345005E1,3.6895149E0,3.658946E0,1.6680294E1,3.0512363E1,3.2418957E0,1.3613392E1],"tree_param":{"num_deleted":"0","num_feature":"4","num_nodes":"23","size_leaf_vector":"1"}},{"base_weights":[3.6695983E-2,-3.0061802E-1,9.71192E-2,-5.054407E-1,4.167978E-2,2.2482702E-1,-1.6698387E-1,-7.076915E-3,-7.5726664E-1,1.1716899E-1,7.222505E-1,-4.6137065E-1,2.1696171E-1,-9.4122395E-2,-2.7165238E-2,2.1786084E-2,-9.2727035E-2,1.1592945E-1,1.581495E-2,4.987778E-2,-6.7044035E-2,4.621145E-2,-2.7487412E-2],"categories":[],"categories_nodes":[],"categories_segments":[],"categories_sizes":[],"default_left":[0,0,0,0,0,0,0,0,0,0,0,0,0,0,0,0,0,0,0,0,0,0,0],"id":30,"left_children":[1,3,5,7,-1,9,11,-1,13,15,17,19,21,-1,-1,-1,-1,-1,-1,-1,-1,-1,-1],"loss_changes":[2.633281E0,3.0929122E0,3.760511E0,1.5900197E0,0E0,3.84618E0,4.220794E0,0E0,4.929061E-1,6.755485E0,2.8849454E0,4.5630713E0,2.106389E0,0E0,0E0,0E0,0E0,0E0,0E0,0E0,0E0,0E0,0E0],"parents":[2147483647,0,0,1,1,2,2,3,3,5,5,6,6,8,8,9,9,10,10,11,11,12,12],"right_children":[2,4,6,8,-1,10,12,-1,14,16,18,20,22,-1,-1,-1,-1,-1,-1,-1,-1,-1,-1],"split_conditions":[1.8347116E-2,5.319672E0,3.212654E-2,3.6734694E-1,4.167978E-2,2.652E-2,3.648904E-2,-7.076915E-3,1.5011655E0,2.5205193E-2,2.898173E-2,2.0395328E-1,4.9530577E-2,-9.4122395E-2,-2.7165238E-2,2.1786084E-2,-9.2727035E-2,1.1592945E-1,1.581495E-2,4.987778E-2,-6.7044035E-2,4.621145E-2,-2.7487412E-2],"split_indices":[0,2,0,3,0,0,0,0,3,0,0,3,0,0,0,0,0,0,0,0,0,0,0],"split_type":[0,0,0,0,0,0,0,0,0,0,0,0,0,0,0,0,0,0,0,0,0,0,0],"sum_hessian":[1.2776494E2,1.8554394E1,1.0921055E2,1.4771873E1,3.7825203E0,7.396966E1,3.524089E1,6.034305E0,8.737568E0,6.1989723E1,1.197993E1,1.9980116E1,1.5260775E1,5.5072203E0,3.2303476E0,5.734809E1,4.6416345E0,6.0557637E0,5.924166E0,3.239368E0,1.6740747E1,1.0360427E1,4.900347E0],"tree_param":{"num_deleted":"0","num_feature":"4","num_nodes":"23","size_leaf_vector":"1"}},{"base_weights":[7.7950065E-3,3.5493872E-1,-2.547934E-2,-4.129232E-2,8.0165714E-2,-5.164614E-1,6.6578895E-2,3.8823113E-2,-8.605396E-1,5.6468874E-1,-1.6650854E-2,4.1866828E-2,-2.767915E-2,-1.3933097E-1,-3.7600007E-2,-1.5911491E-3,7.3368184E-2,-6.4815305E-2,3.340222E-3],"categories":[],"categories_nodes":[],"categories_segments":[],"categories_sizes":[],"default_left":[0,0,0,0,0,0,0,0,0,0,0,0,0,0,0,0,0,0,0],"id":31,"left_children":[1,3,5,-1,-1,7,9,11,13,15,17,-1,-1,-1,-1,-1,-1,-1,-1],"loss_changes":[1.5191847E0,4.319974E0,5.384336E0,0E0,0E0,3.7108812E0,4.1913743E0,1.0945263E0,2.3382788E0,1.5015769E0,2.804573E0,0E0,0E0,0E0,0E0,0E0,0E0,0E0,0E0],"parents":[2147483647,0,0,1,1,2,2,5,5,6,6,7,7,8,8,9,9,10,10],"right_children":[2,4,6,-1,-1,8,10,12,14,16,18,-1,-1,-1,-1,-1,-1,-1,-1],"split_conditions":[1.3137996E-1,1.5742129E-2,5.912863E-1,-4.129232E-2,8.0165714E-2,2.1479422E-2,1.010453E0,3.3988765E-1,2.4340961E-2,1.9388461E-2,1.1653544E0,4.1866828E-2,-2.767915E-2,-1.3933097E-1,-3.7600007E-2,-1.5911491E-3,7.3368184E-2,-6.4815305E-2,3.340222E-3],"split_indices":[2,3,2,0,0,0,2,2,0,0,2,0,0,0,0,0,0,0,0],"split_type":[0,0,0,0,0,0,0,0,0,0,0,0,0,0,0,0,0,0,0],"sum_hessian":[1.2688482E2,1.0515655E1,1.1636916E2,3.8131127E0,6.702542E0,1.7817528E1,9.8551636E1,7.044853E0,1.0772675E1,1.3453357E1,8.5098274E1,3.1927154E0,3.852138E0,4.1393666E0,6.633308E0,3.1038237E0,1.0349533E1,5.518746E0,7.957953E1],"tree_param":{"num_deleted":"0","num_feature":"4","num_nodes":"19","size_leaf_vector":"1"}},{"base_weights":[-2.942173E-2,-2.4599145E-1,1.01794355E-1,-1.4260335E-1,-1.0606374E-1,8.772333E-2,3.8936332E-2,-2.7981314E-1,3.9326552E-1,-7.104885E-2,2.6271853E-1,1.833725E-3,-7.475495E-2,7.8320295E-2,-2.94366E-3,4.658137E-3,-6.730438E-2,5.7151783E-2,-2.0462902E-2],"categories":[],"categories_nodes":[],"categories_segments":[],"categories_sizes":[],"default_left":[0,0,0,0,0,0,0,0,0,0,0,0,0,0,0,0,0,0,0],"id":32,"left_children":[1,3,5,7,-1,-1,9,11,13,15,17,-1,-1,-1,-1,-1,-1,-1,-1],"loss_changes":[3.5699682E0,3.725204E0,3.665601E0,3.2878184E0,0E0,0E0,1.8374403E0,5.004501E0,1.5998566E0,3.5999744E0,3.7047572E0,0E0,0E0,0E0,0E0,0E0,0E0,0E0,0E0],"parents":[2147483647,0,0,1,1,2,2,3,3,6,6,7,7,8,8,9,9,10,10],"right_children":[2,4,6,8,-1,-1,10,12,14,16,18,-1,-1,-1,-1,-1,-1,-1,-1],"split_conditions":[1.1653544E0,6.6133004E-1,1.3014493E0,4.1684902E-1,-1.0606374E-1,8.772333E-2,6.3103447E0,2.1142857E-1,2.0328767E0,5.144231E0,1.5396E1,1.833725E-3,-7.475495E-2,7.8320295E-2,-2.94366E-3,4.658137E-3,-6.730438E-2,5.7151783E-2,-2.0462902E-2],"split_indices":[2,3,2,3,0,0,2,3,1,2,2,0,0,0,0,0,0,0,0],"split_type":[0,0,0,0,0,0,0,0,0,0,0,0,0,0,0,0,0,0,0],"sum_hessian":[1.2323741E2,4.645375E1,7.678366E1,4.2373817E1,4.0799317E0,4.6667166E0,7.211694E1,3.426474E1,8.1090765E0,4.8510498E1,2.3606445E1,2.1382097E1,1.2882644E1,3.8974514E0,4.2116256E0,4.1213802E1,7.2966976E0,1.4208966E1,9.39748E0],"tree_param":{"num_deleted":"0","num_feature":"4","num_nodes":"19","size_leaf_vector":"1"}},{"base_weights":[3.9536696E-2,-1.3665338E-1,1.6137886E-1,6.3688144E-2,-5.0923795E-1,3.8672403E-1,-2.1791547E-3,-1.1276327E-1,4.8272052E-1,-8.025703E-1,2.424427E-2,6.09022E-1,-0E0,-5.138346E-1,1.3070476E-1,1.2651726E-2,-9.249332E-2,8.078026E-2,2.0573076E-2,-1.568575E-2,-9.779952E-2,2.8491566E-2,1.0122656E-1,-4.8906963E-2,7.725575E-2,-5.5047125E-3,-1.0573957E-1,4.20784E-2,-1.6860627E-2],"categories":[],"categories_nodes":[],"categories_segments":[],"categories_sizes":[],"default_left":[0,0,0,0,0,0,0,0,0,0,0,0,0,0,0,0,0,0,0,0,0,0,0,0,0,0,0,0,0],"id":33,"left_children":[1,3,5,7,9,11,13,15,17,19,-1,21,23,25,27,-1,-1,-1,-1,-1,-1,-1,-1,-1,-1,-1,-1,-1,-1],"loss_changes":[2.7308204E0,3.939396E0,2.81541E0,2.632306E0,4.3031735E0,2.7509947E0,3.1229844E0,5.0211673E0,6.815312E-1,1.2677774E0,0E0,2.2343807E0,5.1529064E0,2.2016335E0,3.2108178E0,0E0,0E0,0E0,0E0,0E0,0E0,0E0,0E0,0E0,0E0,0E0,0E0,0E0,0E0],"parents":[2147483647,0,0,1,1,2,2,3,3,4,4,5,5,6,6,7,7,8,8,9,9,11,11,12,12,13,13,14,14],"right_children":[2,4,6,8,10,12,14,16,18,20,-1,22,24,26,28,-1,-1,-1,-1,-1,-1,-1,-1,-1,-1,-1,-1,-1,-1],"split_conditions":[1.2274678E0,6.217228E-1,2.7192984E0,6.374675E-1,3.0050378E0,4.47E0,1.7795138E0,4.314721E-1,2.6009694E-1,3.631124E-1,2.424427E-2,2.2131147E0,1.5714285E0,1.4065995E0,6.8714285E0,1.2651726E-2,-9.249332E-2,8.078026E-2,2.0573076E-2,-1.568575E-2,-9.779952E-2,2.8491566E-2,1.0122656E-1,-4.8906963E-2,7.725575E-2,-5.5047125E-3,-1.0573957E-1,4.20784E-2,-1.6860627E-2],"split_indices":[1,1,2,2,2,1,3,2,3,3,0,1,3,3,1,0,0,0,0,0,0,0,0,0,0,0,0,0,0],"split_type":[0,0,0,0,0,0,0,0,0,0,0,0,0,0,0,0,0,0,0,0,0,0,0,0,0,0,0,0,0],"sum_hessian":[1.2506544E2,5.0744286E1,7.432115E1,3.336457E1,1.7379713E1,3.0939976E1,4.3381176E1,2.3824503E1,9.54007E0,1.2548269E1,4.831444E0,1.9295591E1,1.1644384E1,8.507953E0,3.4873226E1,1.8959711E1,4.864791E0,3.3412774E0,6.1987925E0,3.2072103E0,9.34106E0,1.17811E1,7.5144906E0,7.3618817E0,4.2825027E0,5.3107276E0,3.1972249E0,1.7673296E1,1.7199928E1],"tree_param":{"num_deleted":"0","num_feature":"4","num_nodes":"29","size_leaf_vector":"1"}},{"base_weights":[-1.7710958E-2,-7.5866416E-2,3.742635E-1,9.204126E-3,-3.831149E-1,8.0130136E-1,-3.7593957E-2,-6.2010974E-2,6.731693E-1,7.2350495E-2,-6.015635E-1,3.514829E-2,9.35391E-2,-7.6635217E-4,-6.3166246E-2,9.619869E-3,1.1129873E-1,-9.683255E-2,-1.5423608E-2],"categories":[],"categories_nodes":[],"categories_segments":[],"categories_sizes":[],"default_left":[0,0,0,0,0,0,0,0,0,0,0,0,0,0,0,0,0,0,0],"id":34,"left_children":[1,3,5,7,9,11,-1,13,15,-1,17,-1,-1,-1,-1,-1,-1,-1,-1],"loss_changes":[2.8223298E0,2.8879476E0,5.4537935E0,4.170564E0,6.1999946E0,1.8001127E-1,0E0,2.3606775E0,1.9425771E0,0E0,3.1146755E0,0E0,0E0,0E0,0E0,0E0,0E0,0E0,0E0],"parents":[2147483647,0,0,1,1,2,2,3,3,4,4,5,5,7,7,8,8,10,10],"right_children":[2,4,6,8,10,12,-1,14,16,-1,18,-1,-1,-1,-1,-1,-1,-1,-1],"split_conditions":[3.6626346E-2,3.0073076E-2,4.9530577E-2,2.652E-2,2.2486034E-1,1.1131922E0,-3.7593957E-2,2.4800962E-2,6.8315667E-1,7.2350495E-2,9.31E-1,3.514829E-2,9.35391E-2,-7.6635217E-4,-6.3166246E-2,9.619869E-3,1.1129873E-1,-9.683255E-2,-1.5423608E-2],"split_indices":[0,0,0,0,3,2,0,0,3,0,3,0,0,0,0,0,0,0,0],"split_type":[0,0,0,0,0,0,0,0,0,0,0,0,0,0,0,0,0,0,0],"sum_hessian":[1.2287448E2,1.0792388E2,1.4950604E1,8.502644E1,2.2897432E1,9.568892E0,5.3817124E0,7.747291E1,7.553539E0,3.3182106E0,1.9579222E1,3.2002664E0,6.368625E0,7.1810814E1,5.6620936E0,3.8928435E0,3.6606953E0,9.995617E0,9.583606E0],"tree_param":{"num_deleted":"0","num_feature":"4","num_nodes":"19","size_leaf_vector":"1"}},{"base_weights":[-7.538958E-2,2.5714502E-1,-1.2303592E-1,-5.3077605E-2,4.9595717E-1,-1.3078542E-1,-7.655989E-2,9.333234E-2,1.5318774E-1,5.133649E-1,-1.203077E-1,-3.1722695E-2,7.6467626E-2,2.3814209E-2,6.61531E-2,-1.5693149E-2,6.724509E-2],"categories":[],"categories_nodes":[],"categories_segments":[],"categories_sizes":[],"default_left":[0,0,0,0,0,0,0,0,0,0,0,0,0,0,0,0,0],"id":35,"left_children":[1,3,5,-1,7,-1,9,-1,11,13,15,-1,-1,-1,-1,-1,-1],"loss_changes":[2.0935707E0,3.3600485E0,6.1220207E0,0E0,1.7360268E0,0E0,2.9204955E0,0E0,2.8064754E0,6.993866E-2,3.1172776E0,0E0,0E0,0E0,0E0,0E0,0E0],"parents":[2147483647,0,0,1,1,2,2,4,4,6,6,8,8,9,9,10,10],"right_children":[2,4,6,-1,8,-1,10,-1,12,14,16,-1,-1,-1,-1,-1,-1],"split_conditions":[2.6545453E-1,3.0384272E-2,3.2488114E-1,-5.3077605E-2,5.727273E-2,-1.3078542E-1,2.0395328E-1,9.333234E-2,1.1266202E-1,2.0658682E-1,3.65E1,-3.1722695E-2,7.6467626E-2,2.3814209E-2,6.61531E-2,-1.5693149E-2,6.724509E-2],"split_indices":[1,1,1,0,3,0,3,0,3,2,2,0,0,0,0,0,0],"split_type":[0,0,0,0,0,0,0,0,0,0,0,0,0,0,0,0,0],"sum_hessian":[1.2998563E2,1.5476424E1,1.1450921E2,3.2179675E0,1.2258457E1,3.21658E0,1.11292625E2,4.5008454E0,7.7576113E0,6.7845645E0,1.04508064E2,4.564134E0,3.193477E0,3.522885E0,3.2616792E0,1.007804E2,3.7276568E0],"tree_param":{"num_deleted":"0","num_feature":"4","num_nodes":"17","size_leaf_vector":"1"}},{"base_weights":[-3.914205E-2,3.8138172E-1,-1.0841668E-1,-0E0,8.698786E-1,-6.8490523E-1,-6.36168E-2,2.27072E-1,-4.3902975E-2,1.194508E-1,2.4031155E-2,-9.2745036E-2,-2.7061773E-2,4.8367027E-2,-1.0055856E-1,-2.3613727E-2,6.674065E-2,-8.572429E-2,-4.3219076E-3],"categories":[],"categories_nodes":[],"categories_segments":[],"categories_sizes":[],"default_left":[0,0,0,0,0,0,0,0,0,0,0,0,0,0,0,0,0,0,0],"id":36,"left_children":[1,3,5,7,9,11,13,15,-1,-1,-1,-1,-1,-1,17,-1,-1,-1,-1],"loss_changes":[3.656329E0,3.382288E0,2.6793146E0,1.199792E0,1.17837E0,3.8765216E-1,2.0680835E0,1.7610803E0,0E0,0E0,0E0,0E0,0E0,0E0,4.053029E0,0E0,0E0,0E0,0E0],"parents":[2147483647,0,0,1,1,2,2,3,3,4,4,5,5,6,6,7,7,14,14],"right_children":[2,4,6,8,10,12,14,16,-1,-1,-1,-1,-1,-1,18,-1,-1,-1,-1],"split_conditions":[3.9055794E-1,3.2488114E-1,5.265823E-1,1.3131313E-1,6.6888887E-1,4.4756278E-1,4.111675E-1,8.20643E-2,-4.3902975E-2,1.194508E-1,2.4031155E-2,-9.2745036E-2,-2.7061773E-2,4.8367027E-2,6.9359756E-1,-2.3613727E-2,6.674065E-2,-8.572429E-2,-4.3219076E-3],"split_indices":[2,1,2,2,1,1,1,1,0,0,0,0,0,0,1,0,0,0,0],"split_type":[0,0,0,0,0,0,0,0,0,0,0,0,0,0,0,0,0,0,0],"sum_hessian":[1.2402828E2,1.6700556E1,1.0732773E2,9.828271E0,6.8722854E0,6.5479465E0,1.0077978E2,6.650031E0,3.1782396E0,3.8373892E0,3.0348961E0,3.1965065E0,3.3514397E0,5.4366603E0,9.5343124E1,3.3561575E0,3.2938738E0,5.6104274E0,8.97327E1],"tree_param":{"num_deleted":"0","num_feature":"4","num_nodes":"19","size_leaf_vector":"1"}},{"base_weights":[-5.2263737E-3,1.298725E-1,-1.394966E-1,4.2791195E-2,9.8085806E-2,-3.640454E-1,6.1748814E-2,1.80053E-1,-4.1307762E-1,-1.5374078E-1,-6.7695147E-1,-4.6869162E-1,2.7332634E-1,-2.8651422E-2,4.2569477E-2,3.3607434E-2,-7.7693604E-2,4.2445E-2,-5.497774E-2,-1.2224632E-1,-3.1896487E-3,2.1480825E-2,-9.4046645E-2,8.221956E-2,-3.9216364E-3],"categories":[],"categories_nodes":[],"categories_segments":[],"categories_sizes":[],"default_left":[0,0,0,0,0,0,0,0,0,0,0,0,0,0,0,0,0,0,0,0,0,0,0,0,0],"id":37,"left_children":[1,3,5,7,-1,9,11,13,15,17,19,21,23,-1,-1,-1,-1,-1,-1,-1,-1,-1,-1,-1,-1],"loss_changes":[2.3303938E0,4.573122E0,2.9790802E0,3.7367625E0,0E0,1.8519568E0,4.0109096E0,5.423445E0,4.057601E0,4.829378E0,4.0476913E0,3.5469425E0,4.5060377E0,0E0,0E0,0E0,0E0,0E0,0E0,0E0,0E0,0E0,0E0,0E0,0E0],"parents":[2147483647,0,0,1,1,2,2,3,3,5,5,6,6,7,7,8,8,9,9,10,10,11,11,12,12],"right_children":[2,4,6,8,-1,10,12,14,16,18,20,22,24,-1,-1,-1,-1,-1,-1,-1,-1,-1,-1,-1,-1],"split_conditions":[2.3762116E-2,2.3265E-2,3.2930963E-2,4.881323E0,9.8085806E-2,2.774904E-2,8.490566E-1,1.8347116E-2,1.8147884E-2,1.2666667E0,1.5586207E0,2.7352297E-1,2.7192984E0,-2.8651422E-2,4.2569477E-2,3.3607434E-2,-7.7693604E-2,4.2445E-2,-5.497774E-2,-1.2224632E-1,-3.1896487E-3,2.1480825E-2,-9.4046645E-2,8.221956E-2,-3.9216364E-3],"split_indices":[0,0,0,2,0,0,2,0,0,2,2,2,2,0,0,0,0,0,0,0,0,0,0,0,0],"split_type":[0,0,0,0,0,0,0,0,0,0,0,0,0,0,0,0,0,0,0,0,0,0,0,0,0],"sum_hessian":[1.2641707E2,6.2659176E1,6.3757893E1,5.7901875E1,4.757301E0,2.9986746E1,3.3771145E1,4.5135883E1,1.2765991E1,1.9016588E1,1.0970159E1,9.148163E0,2.462298E1,1.5369626E1,2.9766258E1,4.1084948E0,8.657496E0,7.59869E0,1.1417898E1,5.3747077E0,5.595451E0,3.8716679E0,5.2764955E0,8.4583E0,1.616468E1],"tree_param":{"num_deleted":"0","num_feature":"4","num_nodes":"25","size_leaf_vector":"1"}},{"base_weights":[-3.773895E-2,4.1030723E-1,-6.8943545E-2,6.1663475E-2,6.5706866E-3,-2.0989086E-1,4.5429226E-2,-1.0288294E-1,-9.5884755E-2,-4.9537726E-2,4.8055577E-1,-2.2364406E-2,7.7303186E-2,-5.2121766E-2,5.1533906E-3,1.0380878E-1,-4.1708034E-2],"categories":[],"categories_nodes":[],"categories_segments":[],"categories_sizes":[],"default_left":[0,0,0,0,0,0,0,0,0,0,0,0,0,0,0,0,0],"id":38,"left_children":[1,3,5,-1,-1,7,9,11,-1,13,15,-1,-1,-1,-1,-1,-1],"loss_changes":[1.6529821E0,4.3591547E-1,1.8312805E0,0E0,0E0,3.8613267E0,2.6393325E0,4.944495E0,0E0,2.5441494E0,6.2176666E0,0E0,0E0,0E0,0E0,0E0,0E0],"parents":[2147483647,0,0,1,1,2,2,5,5,6,6,7,7,9,9,10,10],"right_children":[2,4,6,-1,-1,8,10,12,-1,14,16,-1,-1,-1,-1,-1,-1],"split_conditions":[1.6036347E-2,4.47E0,1.6436782E0,6.1663475E-2,6.5706866E-3,1.3014493E0,3.5231344E-2,1.1653544E0,-9.5884755E-2,1.4220666E0,7.5E0,-2.2364406E-2,7.7303186E-2,-5.2121766E-2,5.1533906E-3,1.0380878E-1,-4.1708034E-2],"split_indices":[0,1,2,0,0,2,0,2,0,1,1,0,0,0,0,0,0],"split_type":[0,0,0,0,0,0,0,0,0,0,0,0,0,0,0,0,0],"sum_hessian":[1.17648056E2,6.6605167E0,1.1098754E2,3.4908056E0,3.1697109E0,4.973535E1,6.1252186E1,4.4629726E1,5.1056285E0,5.0817528E1,1.0434658E1,3.9976994E1,4.652731E0,8.408645E0,4.2408882E1,6.408932E0,4.0257263E0],"tree_param":{"num_deleted":"0","num_feature":"4","num_nodes":"17","size_leaf_vector":"1"}},{"base_weights":[2.5813868E-2,-3.2117575E-1,8.883613E-2,-0E0,-1.0750276E-1,4.5410198E-1,-1.25123635E-2,-3.0560428E-1,6.67173E-2,1.751128E-1,1.1467935E-1,-3.2443413E-1,7.72776E-2,1.5498628E-2,-7.673902E-2,5.638487E-2,-9.115781E-3,-2.59071E-3,-8.209001E-2,7.668797E-2,-0E0],"categories":[],"categories_nodes":[],"categories_segments":[],"categories_sizes":[],"default_left":[0,0,0,0,0,0,0,0,0,0,0,0,0,0,0,0,0,0,0,0,0],"id":39,"left_children":[1,3,5,7,-1,9,11,13,-1,15,-1,17,19,-1,-1,-1,-1,-1,-1,-1,-1],"loss_changes":[2.5283287E0,4.290598E0,3.7024527E0,2.9399962E0,0E0,3.855145E0,2.234266E0,2.2820923E0,0E0,1.8306355E0,0E0,2.5432692E0,3.2438672E0,0E0,0E0,0E0,0E0,0E0,0E0,0E0,0E0],"parents":[2147483647,0,0,1,1,2,2,3,3,5,5,6,6,7,7,9,9,11,11,12,12],"right_children":[2,4,6,8,-1,10,12,14,-1,16,-1,18,20,-1,-1,-1,-1,-1,-1,-1,-1],"split_conditions":[3.3281973E-1,2.6545453E-1,4.6452478E-1,2.5052193E-1,-1.0750276E-1,3.9160466E-1,1.6436782E0,6.6287875E-2,6.67173E-2,3.7785387E-1,1.1467935E-1,1.2887324E0,1.9815418E0,1.5498628E-2,-7.673902E-2,5.638487E-2,-9.115781E-3,-2.59071E-3,-8.209001E-2,7.668797E-2,-0E0],"split_indices":[1,1,3,2,0,3,2,2,0,2,0,2,2,0,0,0,0,0,0,0,0],"split_type":[0,0,0,0,0,0,0,0,0,0,0,0,0,0,0,0,0,0,0,0,0],"sum_hessian":[1.14375084E2,1.670689E1,9.76682E1,1.2413807E1,4.293082E0,2.0671827E1,7.699637E1,8.88234E0,3.5314662E0,1.5732538E1,4.9392896E0,1.687493E1,6.012144E1,4.671129E0,4.2112117E0,6.0938854E0,9.638654E0,1.1321108E1,5.5538216E0,5.1364503E0,5.498499E1],"tree_param":{"num_deleted":"0","num_feature":"4","num_nodes":"21","size_leaf_vector":"1"}},{"base_weights":[-1.1751703E-2,1.10944845E-2,-6.611766E-2,4.023835E-1,-4.596662E-2,7.684071E-1,6.2222745E-2,-1.2194538E-1,3.2434338E-1,2.9404933E-2,1.0330238E-1,-5.1039673E-2,7.622572E-2,-7.3839263E-3,-1.0306249E-1,8.5361555E-2,4.257865E-3],"categories":[],"categories_nodes":[],"categories_segments":[],"categories_sizes":[],"default_left":[0,0,0,0,0,0,0,0,0,0,0,0,0,0,0,0,0],"id":40,"left_children":[1,3,-1,5,7,9,11,13,15,-1,-1,-1,-1,-1,-1,-1,-1],"loss_changes":[1.9167086E0,2.7539592E0,0E0,1.8257387E0,3.0074587E0,4.8486805E-1,4.1722136E0,3.7071803E0,2.5777798E0,0E0,0E0,0E0,0E0,0E0,0E0,0E0,0E0],"parents":[2147483647,0,0,1,1,3,3,4,4,5,5,6,6,7,7,8,8],"right_children":[2,4,-1,6,8,10,12,14,16,-1,-1,-1,-1,-1,-1,-1,-1],"split_conditions":[5.2690383E-2,3.090909E-1,-6.611766E-2,2.1625577E-2,9.284314E0,8.20643E-2,3.1020192E-2,8.180258E0,2.5716536E0,2.9404933E-2,1.0330238E-1,-5.1039673E-2,7.622572E-2,-7.3839263E-3,-1.0306249E-1,8.5361555E-2,4.257865E-3],"split_indices":[0,2,0,0,1,1,0,1,2,0,0,0,0,0,0,0,0],"split_type":[0,0,0,0,0,0,0,0,0,0,0,0,0,0,0,0,0],"sum_hessian":[1.2330947E2,1.1991973E2,3.3897355E0,1.4714907E1,1.0520483E2,6.33997E0,8.374936E0,8.807474E1,1.7130093E1,3.1615818E0,3.178388E0,4.677141E0,3.6977954E0,8.477785E1,3.2968876E0,5.122831E0,1.2007261E1],"tree_param":{"num_deleted":"0","num_feature":"4","num_nodes":"17","size_leaf_vector":"1"}},{"base_weights":[6.322536E-2,2.1813715E-2,2.8878385E-1,8.1643716E-2,-6.7601365E-1,7.789407E-2,2.2718793E-2,-3.884164E-2,2.4107945E-1,-9.748856E-2,-2.8602723E-2,-3.7945833E-2,2.3654605E-1,1.2930418E-2,-6.5205E-2,5.4932833E-2,-4.0172823E-3,6.489479E-2,-1.4439093E-2],"categories":[],"categories_nodes":[],"categories_segments":[],"categories_sizes":[],"default_left":[0,0,0,0,0,0,0,0,0,0,0,0,0,0,0,0,0,0,0],"id":41,"left_children":[1,3,5,7,9,-1,11,13,15,-1,-1,-1,17,-1,-1,-1,-1,-1,-1],"loss_changes":[1.1041663E0,4.367451E0,2.3148494E0,1.9018471E0,5.5598927E-1,0E0,1.206634E0,5.912431E0,3.752977E0,0E0,0E0,0E0,1.6155617E0,0E0,0E0,0E0,0E0,0E0,0E0],"parents":[2147483647,0,0,1,1,2,2,3,3,4,4,6,6,7,7,8,8,12,12],"right_children":[2,4,6,8,10,-1,12,14,16,-1,-1,-1,18,-1,-1,-1,-1,-1,-1],"split_conditions":[3.104918E0,2.3216374E0,3.6518152E0,7.564876E-1,2.5869565E0,7.789407E-2,9.638298E0,5.158166E-1,2.7192984E0,-9.748856E-2,-2.8602723E-2,-3.7945833E-2,1.4772727E1,1.2930418E-2,-6.5205E-2,5.4932833E-2,-4.0172823E-3,6.489479E-2,-1.4439093E-2],"split_indices":[3,3,3,3,3,0,2,3,2,0,0,0,2,0,0,0,0,0,0],"split_type":[0,0,0,0,0,0,0,0,0,0,0,0,0,0,0,0,0,0,0],"sum_hessian":[1.21209206E2,1.0370874E2,1.7500462E1,9.6464424E1,7.244317E0,5.346824E0,1.2153637E1,5.501719E1,4.144724E1,3.1070051E0,4.137312E0,3.7875507E0,8.366086E0,4.3668934E1,1.1348255E1,1.9489452E1,2.1957787E1,3.8053613E0,4.5607247E0],"tree_param":{"num_deleted":"0","num_feature":"4","num_nodes":"19","size_leaf_vector":"1"}},{"base_weights":[-2.5523046E-2,-1.4877488E-1,5.984792E-2,2.183924E-1,-2.9217196E-1,4.7375536E-1,-5.4697596E-2,6.367217E-1,-4.277017E-2,-1.0426253E-1,-1.5112548E-1,7.836952E-2,1.1478666E-1,-3.583665E-1,1.6041581E-1,1.6360627E-2,8.381358E-2,2.6097206E-2,-4.100824E-2,8.552622E-2,-5.8122378E-2,-5.0099265E-2,1.2401194E-2,7.746304E-2,-0E0],"categories":[],"categories_nodes":[],"categories_segments":[],"categories_sizes":[],"default_left":[0,0,0,0,0,0,0,0,0,0,0,0,0,0,0,0,0,0,0,0,0,0,0,0,0],"id":42,"left_children":[1,3,5,7,9,11,13,15,-1,-1,17,-1,19,21,23,-1,-1,-1,-1,-1,-1,-1,-1,-1,-1],"loss_changes":[1.3054177E0,2.7480845E0,3.506561E0,4.254463E0,3.6592104E0,1.6019013E0,3.8344157E0,6.576686E-1,0E0,0E0,3.5992408E0,0E0,5.0295596E0,1.7751722E0,3.3113728E0,0E0,0E0,0E0,0E0,0E0,0E0,0E0,0E0,0E0,0E0],"parents":[2147483647,0,0,1,1,2,2,3,3,4,4,5,5,6,6,7,7,10,10,12,12,13,13,14,14],"right_children":[2,4,6,8,10,12,14,16,-1,-1,18,-1,20,22,24,-1,-1,-1,-1,-1,-1,-1,-1,-1,-1],"split_conditions":[1.2274678E0,2.6545453E-1,9.014523E-1,2.898173E-2,3.3281973E-1,2.286423E-2,2.2150384E-2,3.9233577E-2,-4.277017E-2,-1.0426253E-1,6.217228E-1,7.836952E-2,2.1029668E0,9.252174E0,2.3762116E-2,1.6360627E-2,8.381358E-2,2.6097206E-2,-4.100824E-2,8.552622E-2,-5.8122378E-2,-5.0099265E-2,1.2401194E-2,7.746304E-2,-0E0],"split_indices":[1,1,3,0,1,0,0,3,0,0,1,0,1,1,0,0,0,0,0,0,0,0,0,0,0],"split_type":[0,0,0,0,0,0,0,0,0,0,0,0,0,0,0,0,0,0,0,0,0,0,0,0,0],"sum_hessian":[1.2137269E2,4.9842587E1,7.15301E1,1.3656037E1,3.618655E1,1.5014093E1,5.6516006E1,8.391828E0,5.2642097E0,4.6016903E0,3.1584858E1,7.2728376E0,7.7412553E0,2.3351023E1,3.316498E1,3.1951945E0,5.1966333E0,1.2036434E1,1.9548424E1,3.7095683E0,4.0316873E0,1.815253E1,5.1984916E0,5.98364E0,2.7181343E1],"tree_param":{"num_deleted":"0","num_feature":"4","num_nodes":"25","size_leaf_vector":"1"}},{"base_weights":[9.767275E-3,-1.17999054E-1,2.132238E-1,-3.4540422E-2,-6.085461E-1,8.59122E-2,1.4819346E-1,6.3963667E-3,-5.676315E-2,-1.4348082E-1,4.3403447E-4,-2.8894871E-2,2.2473268E-1,-6.8381988E-3,6.5523155E-2,8.43863E-2,1.2862846E-2],"categories":[],"categories_nodes":[],"categories_segments":[],"categories_sizes":[],"default_left":[0,0,0,0,0,0,0,0,0,0,0,0,0,0,0,0,0],"id":43,"left_children":[1,3,5,7,9,-1,11,13,-1,-1,-1,-1,15,-1,-1,-1,-1],"loss_changes":[3.1961167E0,2.987102E0,1.7700784E0,1.4863113E0,5.5562243E0,0E0,1.5497184E0,3.0884738E0,0E0,0E0,0E0,0E0,2.09601E0,0E0,0E0,0E0,0E0],"parents":[2147483647,0,0,1,1,2,2,3,3,4,4,6,6,7,7,12,12],"right_children":[2,4,6,8,10,-1,12,14,-1,-1,-1,-1,16,-1,-1,-1,-1],"split_conditions":[2.842233E0,2.0187714E0,3.0816777E0,1.1601851E1,2.2446153E0,8.59122E-2,1.1131922E0,1.670571E0,-5.676315E-2,-1.4348082E-1,4.3403447E-4,-2.8894871E-2,1.4249166E0,-6.8381988E-3,6.5523155E-2,8.43863E-2,1.2862846E-2],"split_indices":[1,1,1,2,1,0,2,1,0,0,0,0,3,0,0,0,0],"split_type":[0,0,0,0,0,0,0,0,0,0,0,0,0,0,0,0,0],"sum_hessian":[1.2061751E2,7.404645E1,4.657106E1,6.4369316E1,9.677132E0,3.0023265E0,4.3568733E1,6.0522156E1,3.8471622E0,3.6195436E0,6.0575876E0,5.8836217E0,3.7685112E1,5.4931747E1,5.5904074E0,3.8783636E0,3.3806747E1],"tree_param":{"num_deleted":"0","num_feature":"4","num_nodes":"17","size_leaf_vector":"1"}},{"base_weights":[-3.690859E-2,-7.712581E-2,-9.106268E-3,5.3584643E-2,-3.227478E-1,-8.985893E-2,3.5069528E-1,1.2742986E-2,-4.5229366E-1,-7.254053E-4,-9.099708E-2,4.6850584E-2,-3.762134E-3,-9.535473E-2,-2.3377966E-2],"categories":[],"categories_nodes":[],"categories_segments":[],"categories_sizes":[],"default_left":[0,0,0,0,0,0,0,0,0,0,0,0,0,0,0],"id":44,"left_children":[1,-1,3,5,7,9,11,-1,13,-1,-1,-1,-1,-1,-1],"loss_changes":[2.274129E0,0E0,2.2558517E0,4.078015E0,1.2066627E0,4.25015E0,1.4855835E0,0E0,1.3297386E0,0E0,0E0,0E0,0E0,0E0,0E0],"parents":[2147483647,0,0,2,2,3,3,4,4,5,5,6,6,8,8],"right_children":[2,-1,4,6,8,10,12,-1,14,-1,-1,-1,-1,-1,-1],"split_conditions":[5.3949904E-2,-7.712581E-2,8.431915E0,2.5995476E0,2.0490196E0,2.1029668E0,5.586207E0,1.2742986E-2,3.0289855E0,-7.254053E-4,-9.099708E-2,4.6850584E-2,-3.762134E-3,-9.535473E-2,-2.3377966E-2],"split_indices":[1,0,1,1,3,1,1,0,2,0,0,0,0,0,0],"split_type":[0,0,0,0,0,0,0,0,0,0,0,0,0,0,0],"sum_hessian":[1.1455237E2,3.072047E0,1.1148032E2,9.333481E1,1.8145515E1,6.318863E1,3.014618E1,3.8859773E0,1.4259538E1,5.8433735E1,4.7548943E0,2.3168234E1,6.977945E0,3.1689053E0,1.1090632E1],"tree_param":{"num_deleted":"0","num_feature":"4","num_nodes":"15","size_leaf_vector":"1"}},{"base_weights":[-6.985763E-2,-1.4815675E-1,1.487517E-1,-8.03755E-2,-8.9217436E-1,2.7054566E-1,-4.965886E-2,-1.4264213E-1,4.755292E-1,-1.3011794E-1,-2.3795601E-2,3.8404375E-1,-4.2316075E-2,2.5564183E-2,-2.081187E-2,7.684188E-2,1.0291168E-3,9.492987E-2,1.8400926E-2],"categories":[],"categories_nodes":[],"categories_segments":[],"categories_sizes":[],"default_left":[0,0,0,0,0,0,0,0,0,0,0,0,0,0,0,0,0,0,0],"id":45,"left_children":[1,3,5,7,9,11,-1,13,15,-1,-1,17,-1,-1,-1,-1,-1,-1,-1],"loss_changes":[2.0504904E0,4.2736745E0,2.580903E0,2.8715687E0,1.445169E0,2.3005626E0,0E0,1.9948405E0,1.0485712E0,0E0,0E0,2.42883E0,0E0,0E0,0E0,0E0,0E0,0E0,0E0],"parents":[2147483647,0,0,1,1,2,2,3,3,4,4,5,5,7,7,8,8,11,11],"right_children":[2,4,6,8,10,12,-1,14,16,-1,-1,18,-1,-1,-1,-1,-1,-1,-1],"split_conditions":[3.2930963E-2,2.9997116E-2,4.9530577E-2,3.4338462E0,8.2810366E-1,1.2027174E1,-4.965886E-2,2.6545453E-1,1.25E1,-1.3011794E-1,-2.3795601E-2,3.463596E-2,-4.2316075E-2,2.5564183E-2,-2.081187E-2,7.684188E-2,1.0291168E-3,9.492987E-2,1.8400926E-2],"split_indices":[0,0,0,3,3,1,0,1,1,0,0,0,0,0,0,0,0,0,0],"split_type":[0,0,0,0,0,0,0,0,0,0,0,0,0,0,0,0,0,0,0],"sum_hessian":[1.1750916E2,8.709436E1,3.04148E1,8.0961105E1,6.1332574E0,2.620492E1,4.209881E0,7.363641E1,7.3246875E0,3.0713482E0,3.0619092E0,2.302785E1,3.1770709E0,9.770768E0,6.386565E1,3.9631085E0,3.361579E0,4.909385E0,1.8118464E1],"tree_param":{"num_deleted":"0","num_feature":"4","num_nodes":"19","size_leaf_vector":"1"}},{"base_weights":[5.6586195E-2,-9.001757E-2,2.3887073E-1,-4.261194E-2,-7.289963E-2,3.487091E-1,-2.081183E-1,-1.1511958E-1,2.2910567E-1,1.7955783E-1,6.4317966E-1,3.018992E-2,-4.7159168E-1,3.509399E-2,-2.3617357E-2,4.919922E-2,-3.4517605E-2,3.80938E-2,-1.1736705E-1,1.3694142E-1,2.727573E-2,-9.344305E-2,8.506821E-3],"categories":[],"categories_nodes":[],"categories_segments":[],"categories_sizes":[],"default_left":[0,0,0,0,0,0,0,0,0,0,0,0,0,0,0,0,0,0,0,0,0,0,0],"id":46,"left_children":[1,3,5,7,-1,9,11,13,15,17,19,-1,21,-1,-1,-1,-1,-1,-1,-1,-1,-1,-1],"loss_changes":[3.3327148E0,1.9754369E0,2.8144968E0,1.3003992E0,0E0,2.0513968E0,1.6921058E0,3.0309749E0,2.2659495E0,8.620372E0,3.7319388E0,0E0,2.2360682E0,0E0,0E0,0E0,0E0,0E0,0E0,0E0,0E0,0E0,0E0],"parents":[2147483647,0,0,1,1,2,2,3,3,5,5,6,6,7,7,8,8,9,9,10,10,12,12],"right_children":[2,4,6,8,-1,10,12,14,16,18,20,-1,22,-1,-1,-1,-1,-1,-1,-1,-1,-1,-1],"split_conditions":[2.5995476E0,1.4065995E0,1.5304124E1,3.4922883E-2,-7.289963E-2,2.5869565E0,2.1958456E0,2.6545453E-1,4.1186538E-2,2.3216374E0,3.2208436E0,3.018992E-2,2.5297297E1,3.509399E-2,-2.3617357E-2,4.919922E-2,-3.4517605E-2,3.80938E-2,-1.1736705E-1,1.3694142E-1,2.727573E-2,-9.344305E-2,8.506821E-3],"split_indices":[1,3,1,0,0,3,3,1,0,3,3,0,1,0,0,0,0,0,0,0,0,0,0],"split_type":[0,0,0,0,0,0,0,0,0,0,0,0,0,0,0,0,0,0,0,0,0,0,0],"sum_hessian":[1.2234892E2,6.7787704E1,5.4561222E1,6.4244606E1,3.5430996E0,4.4154697E1,1.0406523E1,5.145755E1,1.2787053E1,2.9283104E1,1.4871593E1,3.3658004E0,7.0407224E0,1.0047898E1,4.1409653E1,8.989425E0,3.7976289E0,2.6179592E1,3.1035116E0,4.021111E0,1.0850482E1,3.5718703E0,3.468852E0],"tree_param":{"num_deleted":"0","num_feature":"4","num_nodes":"23","size_leaf_vector":"1"}},{"base_weights":[9.462052E-2,1.344853E-1,-2.3729397E-1,4.7921635E-2,4.2674458E-1,1.46949E-1,-6.874166E-2,1.3182051E-1,-4.725314E-1,1.1104865E-1,1.4903818E-1,-3.7260722E-2,5.63865E-2,6.1926106E-3,1.1565465E-1,-9.796425E-2,3.6876753E-2,-5.3122356E-3,8.4472224E-2],"categories":[],"categories_nodes":[],"categories_segments":[],"categories_sizes":[],"default_left":[0,0,0,0,0,0,0,0,0,0,0,0,0,0,0,0,0,0,0],"id":47,"left_children":[1,3,5,7,9,11,-1,13,15,-1,17,-1,-1,-1,-1,-1,-1,-1,-1],"loss_changes":[1.6744514E0,2.776372E0,2.4877038E0,3.8763194E0,4.51246E0,1.9577653E0,0E0,5.310023E0,5.6643057E0,0E0,2.8315196E0,0E0,0E0,0E0,0E0,0E0,0E0,0E0,0E0],"parents":[2147483647,0,0,1,1,2,2,3,3,4,4,5,5,7,7,8,8,10,10],"right_children":[2,4,6,8,10,12,-1,14,16,-1,18,-1,-1,-1,-1,-1,-1,-1,-1],"split_conditions":[3.6518152E0,3.2930963E-2,2.9997116E-2,2.774904E-2,3.530019E-2,4.3910255E0,-6.874166E-2,2.5975384E-2,8.432836E-1,1.1104865E-1,1.938949E0,-3.7260722E-2,5.63865E-2,6.1926106E-3,1.1565465E-1,-9.796425E-2,3.6876753E-2,-5.3122356E-3,8.4472224E-2],"split_indices":[3,0,0,0,0,3,0,0,3,0,3,0,0,0,0,0,0,0,0],"split_type":[0,0,0,0,0,0,0,0,0,0,0,0,0,0,0,0,0,0,0],"sum_hessian":[1.2391365E2,1.1142677E2,1.24868765E1,8.712695E1,2.4299818E1,6.9799123E0,5.5069637E0,7.584012E1,1.1286837E1,6.048619E0,1.82512E1,3.0479772E0,3.931935E0,7.20816E1,3.7585166E0,7.0136385E0,4.273198E0,1.4746016E1,3.5051847E0],"tree_param":{"num_deleted":"0","num_feature":"4","num_nodes":"19","size_leaf_vector":"1"}},{"base_weights":[7.913485E-2,1.482811E-1,-6.793115E-2,1.0389983E-1,7.384819E-2,-2.4152404E-1,2.5120476E-1,1.550426E-1,-2.718803E-1,-1.6428944E-2,-4.192534E-1,-3.0136263E-2,4.6848303E-1,-3.0089912E-4,3.6607563E-2,3.7518695E-2,-7.933449E-2,-3.697129E-2,6.893399E-2,-6.2250145E-2,-1.82395E-2,6.142611E-2,7.671529E-3],"categories":[],"categories_nodes":[],"categories_segments":[],"categories_sizes":[],"default_left":[0,0,0,0,0,0,0,0,0,0,0,0,0,0,0,0,0,0,0,0,0,0,0],"id":48,"left_children":[1,3,5,7,-1,9,11,13,15,17,19,-1,21,-1,-1,-1,-1,-1,-1,-1,-1,-1,-1],"loss_changes":[1.2286075E0,1.9802548E0,2.1810899E0,1.5170038E0,0E0,9.7027254E-1,1.8120914E0,2.3373232E0,3.5095258E0,3.3511202E0,4.7841263E-1,0E0,4.783454E-1,0E0,0E0,0E0,0E0,0E0,0E0,0E0,0E0,0E0,0E0],"parents":[2147483647,0,0,1,1,2,2,3,3,5,5,6,6,7,7,8,8,9,9,10,10,12,12],"right_children":[2,4,6,8,-1,10,12,14,16,18,20,-1,22,-1,-1,-1,-1,-1,-1,-1,-1,-1,-1],"split_conditions":[3.0073076E-2,2.8322885E-2,3.6626346E-2,2.5205193E-2,7.384819E-2,3.463596E-2,7.8027344E-1,2.6956522E0,1.0638587E0,3.400423E-2,3.5530385E-2,-3.0136263E-2,3.7680411E0,-3.0089912E-4,3.6607563E-2,3.7518695E-2,-7.933449E-2,-3.697129E-2,6.893399E-2,-6.2250145E-2,-1.82395E-2,6.142611E-2,7.671529E-3],"split_indices":[0,0,0,0,0,0,2,1,1,0,0,0,1,0,0,0,0,0,0,0,0,0,0],"split_type":[0,0,0,0,0,0,0,0,0,0,0,0,0,0,0,0,0,0,0,0,0,0,0],"sum_hessian":[1.1803751E2,8.074515E1,3.729236E1,7.634939E1,4.395761E0,2.4514385E1,1.2777975E1,6.7954475E1,8.394916E0,1.1546182E1,1.2968203E1,3.367288E0,9.410687E0,3.914729E1,2.8807182E1,3.7858865E0,4.6090293E0,8.106292E0,3.4398897E0,5.875817E0,7.092386E0,6.2586484E0,3.1520386E0],"tree_param":{"num_deleted":"0","num_feature":"4","num_nodes":"23","size_leaf_vector":"1"}},{"base_weights":[-4.0560775E-2,-6.456E-2,5.3088076E-2,-1.8694801E-2,-7.7969715E-2,-4.7691714E-2,4.276916E-2,-1.5245493E-3,-5.8192253E-2],"categories":[],"categories_nodes":[],"categories_segments":[],"categories_sizes":[],"default_left":[0,0,0,0,0,0,0,0,0],"id":49,"left_children":[1,3,-1,5,-1,7,-1,-1,-1],"loss_changes":[1.6601496E0,3.7792203E0,0E0,1.4338818E0,0E0,1.7758497E0,0E0,0E0,0E0],"parents":[2147483647,0,0,1,1,3,3,5,5],"right_children":[2,4,-1,6,-1,8,-1,-1,-1],"split_conditions":[3.65E1,1.5396E1,5.3088076E-2,9.969027E0,-7.7969715E-2,3.6518152E0,4.276916E-2,-1.5245493E-3,-5.8192253E-2],"split_indices":[2,2,0,2,0,3,0,0,0],"split_type":[0,0,0,0,0,0,0,0,0],"sum_hessian":[1.20954865E2,1.1709899E2,3.8558693E0,1.1113721E2,5.9617915E0,1.0540721E2,5.7299886E0,1.0051803E2,4.8891854E0],"tree_param":{"num_deleted":"0","num_feature":"4","num_nodes":"9","size_leaf_vector":"1"}},{"base_weights":[3.528083E-2,7.019409E-2,-7.119234E-2,2.2018708E-2,6.733955E-1,6.5227516E-2,-6.688404E-2,9.7480714E-2,1.8932767E-2,2.0229446E-2,-7.2674523E-3],"categories":[],"categories_nodes":[],"categories_segments":[],"categories_sizes":[],"default_left":[0,0,0,0,0,0,0,0,0,0,0],"id":50,"left_children":[1,3,-1,5,7,9,-1,-1,-1,-1,-1],"loss_changes":[3.1400564E0,3.3025723E0,0E0,3.2406082E0,9.2940426E-1,1.9886074E0,0E0,0E0,0E0,0E0,0E0],"parents":[2147483647,0,0,1,1,3,3,4,4,5,5],"right_children":[2,4,-1,6,8,10,-1,-1,-1,-1,-1],"split_conditions":[4.9530577E-2,3.6626346E-2,-7.119234E-2,3.586904E-2,6.777211E-1,1.8188865E0,-6.688404E-2,9.7480714E-2,1.8932767E-2,2.0229446E-2,-7.2674523E-3],"split_indices":[0,0,0,0,3,2,0,0,0,0,0],"split_type":[0,0,0,0,0,0,0,0,0,0,0],"sum_hessian":[1.1991142E2,1.1555212E2,4.3593054E0,1.0811933E2,7.4327903E0,1.027437E2,5.3756275E0,3.8285346E0,3.6042557E0,5.1657368E1,5.1086334E1],"tree_param":{"num_deleted":"0","num_feature":"4","num_nodes":"11","size_leaf_vector":"1"}},{"base_weights":[-3.894857E-2,6.643202E-2,-1.956013E-1,-6.2217142E-2,4.266036E-1,-1.1955953E-1,-9.92477E-2,1.6603866E-1,-2.821761E-1,8.0058634E-2,2.3267387E-1,3.9811435E-1,-2.352832E-1,-3.6818698E-2,5.292329E-2,-1.0442182E-1,-1.04244985E-2,-1.686013E-2,6.2150426E-2,-0E0,7.925474E-2,-1.2318163E-1,-9.4290385E-3],"categories":[],"categories_nodes":[],"categories_segments":[],"categories_sizes":[],"default_left":[0,0,0,0,0,0,0,0,0,0,0,0,0,0,0,0,0,0,0,0,0,0,0],"id":51,"left_children":[1,3,5,7,9,-1,11,13,15,-1,17,19,21,-1,-1,-1,-1,-1,-1,-1,-1,-1,-1],"loss_changes":[2.052288E0,3.4802032E0,4.5695934E0,2.820237E0,1.1421669E0,0E0,3.243029E0,5.527555E0,3.655091E0,0E0,2.4258842E0,1.6760479E0,5.023782E0,0E0,0E0,0E0,0E0,0E0,0E0,0E0,0E0,0E0,0E0],"parents":[2147483647,0,0,1,1,2,2,3,3,4,4,6,6,7,7,8,8,10,10,11,11,12,12],"right_children":[2,4,6,8,10,-1,12,14,16,-1,18,20,22,-1,-1,-1,-1,-1,-1,-1,-1,-1,-1],"split_conditions":[2.5205193E-2,2.304E-2,2.6276154E-2,9.014523E-1,2.3517307E-2,-1.1955953E-1,4.8161766E-1,4.4313726E-1,1.0819912E0,8.0058634E-2,2.43475E-2,1.1266202E-1,7.057221E-1,-3.6818698E-2,5.292329E-2,-1.0442182E-1,-1.04244985E-2,-1.686013E-2,6.2150426E-2,-0E0,7.925474E-2,-1.2318163E-1,-9.4290385E-3],"split_indices":[0,0,0,3,0,0,1,1,3,0,0,3,1,0,0,0,0,0,0,0,0,0,0],"split_type":[0,0,0,0,0,0,0,0,0,0,0,0,0,0,0,0,0,0,0,0,0,0,0],"sum_hessian":[1.2175004E2,7.274913E1,4.9000908E1,5.4007782E1,1.874135E1,3.2126415E0,4.5788265E1,2.6401218E1,2.7606562E1,5.1554565E0,1.3585893E1,9.262351E0,3.6525913E1,1.0567825E1,1.5833393E1,4.197758E0,2.3408804E1,6.838121E0,6.7477717E0,5.004566E0,4.2577853E0,3.48042E0,3.3045494E1],"tree_param":{"num_deleted":"0","num_feature":"4","num_nodes":"23","size_leaf_vector":"1"}},{"base_weights":[-2.0288581E-2,-5.085083E-2,4.836027E-2,-1.9637922E-2,-4.949602E-1,-5.4831475E-2,8.5757226E-2,-1.2067319E-2,-7.182799E-2,-8.172964E-4,-3.848117E-2],"categories":[],"categories_nodes":[],"categories_segments":[],"categories_sizes":[],"default_left":[0,0,0,0,0,0,0,0,0,0,0],"id":52,"left_children":[1,3,-1,5,7,9,-1,-1,-1,-1,-1],"loss_changes":[1.7954159E0,1.4934936E0,0E0,3.240459E0,4.2398107E-1,1.543387E0,0E0,0E0,0E0,0E0,0E0],"parents":[2147483647,0,0,1,1,3,3,4,4,5,5],"right_children":[2,4,-1,6,8,10,-1,-1,-1,-1,-1],"split_conditions":[5.8389425E0,1.6049383E1,4.836027E-2,1.26306305E1,2.3762116E-2,2.3216374E0,8.5757226E-2,-1.2067319E-2,-7.182799E-2,-8.172964E-4,-3.848117E-2],"split_indices":[3,1,0,1,0,3,0,0,0,0,0],"split_type":[0,0,0,0,0,0,0,0,0,0,0],"sum_hessian":[1.1679828E2,1.1115405E2,5.6442285E0,1.0504095E2,6.1131034E0,1.02000206E2,3.0407434E0,3.0273578E0,3.0857453E0,9.05276E1,1.1472598E1],"tree_param":{"num_deleted":"0","num_feature":"4","num_nodes":"11","size_leaf_vector":"1"}},{"base_weights":[-1.0554657E-2,-6.042534E-2,2.1131189E-1,-5.5625415E-3,-7.3012984E-1,8.233807E-2,1.4415006E-2,-4.080737E-2,5.6833137E-2,-1.1055088E-1,-1.2836958E-2,-6.013879E-2,2.27013E-1,2.7859774E-3,-3.226147E-2,6.0201015E-2,-1.7984837E-2],"categories":[],"categories_nodes":[],"categories_segments":[],"categories_sizes":[],"default_left":[0,0,0,0,0,0,0,0,0,0,0,0,0,0,0,0,0],"id":53,"left_children":[1,3,5,7,9,-1,11,13,-1,-1,-1,-1,15,-1,-1,-1,-1],"loss_changes":[1.3105134E0,3.523858E0,2.5110655E0,1.826149E0,1.3783278E0,0E0,2.3910425E0,1.7323235E0,0E0,0E0,0E0,0E0,2.2652173E0,0E0,0E0,0E0,0E0],"parents":[2147483647,0,0,1,1,2,2,3,3,4,4,6,6,7,7,12,12],"right_children":[2,4,6,8,10,-1,12,14,-1,-1,-1,-1,16,-1,-1,-1,-1],"split_conditions":[2.5869565E0,2.1958456E0,5.144231E0,2.026389E0,6.1666665E0,8.233807E-2,6.9557524E0,3.1320422E0,5.6833137E-2,-1.1055088E-1,-1.2836958E-2,-6.013879E-2,8.180258E0,2.7859774E-3,-3.226147E-2,6.0201015E-2,-1.7984837E-2],"split_indices":[3,3,2,3,2,0,2,2,0,0,0,0,1,0,0,0,0],"split_type":[0,0,0,0,0,0,0,0,0,0,0,0,0,0,0,0,0],"sum_hessian":[1.1765129E2,9.70214E1,2.0629889E1,9.074511E1,6.276296E0,4.123138E0,1.6506752E1,8.65339E1,4.211207E0,3.2473128E0,3.0289834E0,3.6461964E0,1.2860555E1,7.001889E1,1.6515007E1,6.5706444E0,6.289911E0],"tree_param":{"num_deleted":"0","num_feature":"4","num_nodes":"17","size_leaf_vector":"1"}},{"base_weights":[-8.1249714E-2,-1.7314109E-1,2.8847468E-1,-4.6689755E-1,-1.1416859E-1,6.2112474E-1,7.78637E-2,-1.8616791E-1,-6.7201346E-1,5.908528E-1,-2.112458E-1,1.1486512E-1,5.9603504E-3,-2.9036584E-1,3.8809356E-1,-4.1790497E-2,8.344344E-3,-3.6236443E-2,-8.7267384E-2,9.698882E-3,9.27659E-2,-2.499701E-2,5.029173E-2,-0E0,-4.722611E-2,7.669016E-2,-4.9885E-4],"categories":[],"categories_nodes":[],"categories_segments":[],"categories_sizes":[],"default_left":[0,0,0,0,0,0,0,0,0,0,0,0,0,0,0,0,0,0,0,0,0,0,0,0,0,0,0],"id":54,"left_children":[1,3,5,7,9,11,13,15,17,19,21,-1,-1,23,25,-1,-1,-1,-1,-1,-1,-1,-1,-1,-1,-1,-1],"loss_changes":[4.1634254E0,1.5878062E0,1.5861435E0,6.9840765E-1,5.7877035E0,2.507476E0,1.9758085E0,5.8414996E-1,9.063792E-2,1.5074925E0,2.1490083E0,0E0,0E0,3.739267E-1,1.4768388E0,0E0,0E0,0E0,0E0,0E0,0E0,0E0,0E0,0E0,0E0,0E0,0E0],"parents":[2147483647,0,0,1,1,2,2,3,3,4,4,5,5,6,6,7,7,8,8,9,9,10,10,13,13,14,14],"right_children":[2,4,6,8,10,12,14,16,18,20,22,-1,-1,24,26,-1,-1,-1,-1,-1,-1,-1,-1,-1,-1,-1,-1],"split_conditions":[6.3103447E0,1.8347116E-2,2.296748E0,1.68425E-2,1.9314038E-2,1.5396E1,4.2357144E0,1.5850578E-2,6.4228296E-1,1.885077E-2,2.71875E0,1.1486512E-1,5.9603504E-3,9.777778E0,6.110843E0,-4.1790497E-2,8.344344E-3,-3.6236443E-2,-8.7267384E-2,9.698882E-3,9.27659E-2,-2.499701E-2,5.029173E-2,-0E0,-4.722611E-2,7.669016E-2,-4.9885E-4],"split_indices":[2,0,3,0,0,2,3,0,3,0,3,0,0,2,3,0,0,0,0,0,0,0,0,0,0,0,0],"split_type":[0,0,0,0,0,0,0,0,0,0,0,0,0,0,0,0,0,0,0,0,0,0,0,0,0,0,0],"sum_hessian":[1.2041501E2,9.708713E1,2.332788E1,1.4791938E1,8.229519E1,8.104012E0,1.5223868E1,7.256103E0,7.535835E0,9.219829E0,7.307536E1,3.5475445E0,4.556467E0,6.843096E0,8.380773E0,3.805805E0,3.450298E0,4.2624493E0,3.2733853E0,4.3809085E0,4.83892E0,7.006615E1,3.0092144E0,3.2015955E0,3.6415002E0,3.9131377E0,4.467635E0],"tree_param":{"num_deleted":"0","num_feature":"4","num_nodes":"27","size_leaf_vector":"1"}},{"base_weights":[6.8588614E-2,1.7293006E-1,-2.7333498E-1,8.373897E-2,5.002561E-1,-4.8912966E-1,4.6632174E-2,3.55118E-1,-2.091198E-3,7.89789E-2,1.2545662E-1,2.579939E-3,-6.281976E-1,-2.5173206E-2,5.294024E-2,-7.338134E-2,1.03569245E-2,-5.631132E-2,5.421797E-2,-7.8990854E-2,-2.8101748E-2],"categories":[],"categories_nodes":[],"categories_segments":[],"categories_sizes":[],"default_left":[0,0,0,0,0,0,0,0,0,0,0,0,0,0,0,0,0,0,0,0,0],"id":55,"left_children":[1,3,5,7,9,11,-1,13,15,-1,17,-1,19,-1,-1,-1,-1,-1,-1,-1,-1],"loss_changes":[4.284389E0,2.5870106E0,4.6991663E0,1.7545283E0,1.9004669E0,1.6709766E0,0E0,2.0661964E0,4.527767E0,0E0,3.097338E0,0E0,6.660209E-1,0E0,0E0,0E0,0E0,0E0,0E0,0E0,0E0],"parents":[2147483647,0,0,1,1,2,2,3,3,4,4,5,5,7,7,8,8,10,10,12,12],"right_children":[2,4,6,8,10,12,-1,14,16,-1,18,-1,20,-1,-1,-1,-1,-1,-1,-1,-1],"split_conditions":[5.586207E0,2.6956522E0,1.1423424E1,3.52459E-1,4.881323E0,1.7725E0,4.6632174E-2,3.0384272E-2,5E-1,7.89789E-2,6.1666665E0,2.579939E-3,1.4442857E1,-2.5173206E-2,5.294024E-2,-7.338134E-2,1.03569245E-2,-5.631132E-2,5.421797E-2,-7.8990854E-2,-2.8101748E-2],"split_indices":[1,1,2,2,2,2,0,1,2,0,2,0,1,0,0,0,0,0,0,0,0],"split_type":[0,0,0,0,0,0,0,0,0,0,0,0,0,0,0,0,0,0,0,0,0],"sum_hessian":[1.1804546E2,9.104796E1,2.6997501E1,7.277836E1,1.8269602E1,2.1266817E1,5.7306843E0,1.7013252E1,5.5765106E1,9.532047E0,8.737555E0,4.5425296E0,1.6724287E1,3.568779E0,1.3444473E1,6.405689E0,4.9359417E1,3.0713582E0,5.666196E0,1.0343298E1,6.3809896E0],"tree_param":{"num_deleted":"0","num_feature":"4","num_nodes":"21","size_leaf_vector":"1"}},{"base_weights":[5.5065572E-2,4.7246388E-1,-6.010205E-3,1.9526836E-1,9.2773244E-2,6.2369104E-2,-2.213346E-1,5.737617E-1,-4.8332494E-2,-1.5595376E-2,5.044392E-1,-6.6133225E-1,8.025543E-2,1.706304E-2,7.927301E-2,1.9069286E-3,-5.541714E-2,-7.2687194E-3,7.538121E-2,-8.4358E-2,-1.953194E-2,6.227246E-2,-1.6501179E-2],"categories":[],"categories_nodes":[],"categories_segments":[],"categories_sizes":[],"default_left":[0,0,0,0,0,0,0,0,0,0,0,0,0,0,0,0,0,0,0,0,0,0,0],"id":56,"left_children":[1,3,5,7,-1,9,11,13,-1,15,17,19,21,-1,-1,-1,-1,-1,-1,-1,-1,-1,-1],"loss_changes":[3.0386739E0,1.6233563E0,1.5472282E0,3.0715332E0,0E0,2.7675831E0,3.4835725E0,4.31597E-1,0E0,1.3268646E0,1.8519654E0,6.297641E-1,2.2554312E0,0E0,0E0,0E0,0E0,0E0,0E0,0E0,0E0,0E0,0E0],"parents":[2147483647,0,0,1,1,2,2,3,3,5,5,6,6,7,7,9,9,10,10,11,11,12,12],"right_children":[2,4,6,8,-1,10,12,14,-1,16,18,20,22,-1,-1,-1,-1,-1,-1,-1,-1,-1,-1],"split_conditions":[3.090909E-1,2.8033474E-1,5.586207E0,6.478335E-2,9.2773244E-2,3.4845488E0,9.284314E0,5.3949904E-2,-4.8332494E-2,2.0852458E0,1.2610217E0,5.3766665E0,1.2846154E1,1.706304E-2,7.927301E-2,1.9069286E-3,-5.541714E-2,-7.2687194E-3,7.538121E-2,-8.4358E-2,-1.953194E-2,6.227246E-2,-1.6501179E-2],"split_indices":[2,1,1,3,0,1,1,1,0,3,3,2,1,0,0,0,0,0,0,0,0,0,0],"split_type":[0,0,0,0,0,0,0,0,0,0,0,0,0,0,0,0,0,0,0,0,0,0,0],"sum_hessian":[1.1625562E2,1.4188887E1,1.02066734E2,9.8438835E0,4.3450036E0,7.765289E1,2.4413841E1,6.5130186E0,3.3308651E0,6.663883E1,1.1014062E1,9.578407E0,1.4835434E1,3.0794802E0,3.4335382E0,6.3340904E1,3.297927E0,3.4159672E0,7.598095E0,6.1489077E0,3.4294996E0,4.2668943E0,1.056854E1],"tree_param":{"num_deleted":"0","num_feature":"4","num_nodes":"23","size_leaf_vector":"1"}},{"base_weights":[5.021428E-3,-2.722479E-1,7.615208E-2,1.8426517E-1,-4.5398912E-1,9.775475E-2,3.2171305E-2,3.6660913E-2,-7.3410704E-4,-7.156059E-1,2.637552E-2,-5.368156E-1,7.9582654E-2,-2.2602987E-2,-9.428074E-2,2.015691E-2,-1.290748E-2,-2.111859E-2,-7.0263125E-2,7.7223234E-2,5.487952E-4],"categories":[],"categories_nodes":[],"categories_segments":[],"categories_sizes":[],"default_left":[0,0,0,0,0,0,0,0,0,0,0,0,0,0,0,0,0,0,0,0,0],"id":57,"left_children":[1,3,5,7,9,-1,11,-1,-1,13,15,17,19,-1,-1,-1,-1,-1,-1,-1,-1],"loss_changes":[2.3537881E0,2.1255782E0,3.6735368E0,2.9960763E-1,2.3267705E0,0E0,2.4970868E0,0E0,0E0,9.7194386E-1,2.2694047E-1,1.433382E-1,4.3614974E0,0E0,0E0,0E0,0E0,0E0,0E0,0E0,0E0],"parents":[2147483647,0,0,1,1,2,2,3,3,4,4,6,6,9,9,10,10,11,11,12,12],"right_children":[2,4,6,8,10,-1,12,-1,-1,14,16,18,20,-1,-1,-1,-1,-1,-1,-1,-1],"split_conditions":[4.4756278E-1,5.225225E-2,2.2008863E-1,2.0301154E-2,2.652E-2,9.775475E-2,3.4841076E-1,3.6660913E-2,-7.3410704E-4,1.9676924E-2,3.5858653E-2,2.3517307E-2,4.6452478E-1,-2.2602987E-2,-9.428074E-2,2.015691E-2,-1.290748E-2,-2.111859E-2,-7.0263125E-2,7.7223234E-2,5.487952E-4],"split_indices":[1,3,3,0,0,0,3,0,0,0,0,0,3,0,0,0,0,0,0,0,0],"split_type":[0,0,0,0,0,0,0,0,0,0,0,0,0,0,0,0,0,0,0,0,0],"sum_hessian":[1.1828932E2,2.3286106E1,9.500322E1,6.4700246E0,1.681608E1,3.3264518E0,9.1676765E1,3.1145704E0,3.355454E0,1.0704593E1,6.111488E0,6.0952725E0,8.55815E1,4.1649337E0,6.5396595E0,3.0362391E0,3.075249E0,3.0271795E0,3.0680933E0,7.2292647E0,7.835223E1],"tree_param":{"num_deleted":"0","num_feature":"4","num_nodes":"21","size_leaf_vector":"1"}},{"base_weights":[1.3337433E-2,4.2984232E-2,-6.947695E-2,1.3411805E-3,6.1135566E-1,3.985282E-2,-7.312795E-2,9.149654E-2,9.616815E-3,-6.2555126E-3,2.4358902E-2],"categories":[],"categories_nodes":[],"categories_segments":[],"categories_sizes":[],"default_left":[0,0,0,0,0,0,0,0,0,0,0],"id":58,"left_children":[1,3,-1,5,7,9,-1,-1,-1,-1,-1],"loss_changes":[2.3939438E0,2.5922186E0,0E0,2.9409869E0,9.823687E-1,2.150142E0,0E0,0E0,0E0,0E0,0E0],"parents":[2147483647,0,0,1,1,3,3,4,4,5,5],"right_children":[2,4,-1,6,8,10,-1,-1,-1,-1,-1],"split_conditions":[4.9530577E-2,3.6626346E-2,-6.947695E-2,3.5995193E-2,3.8703654E-2,2.4999231E-2,-7.312795E-2,9.149654E-2,9.616815E-3,-6.2555126E-3,2.4358902E-2],"split_indices":[0,0,0,0,0,0,0,0,0,0,0],"split_type":[0,0,0,0,0,0,0,0,0,0,0],"sum_hessian":[1.1471697E2,1.1114414E2,3.5728297E0,1.0465468E2,6.4894667E0,1.0045611E2,4.198573E0,3.4727943E0,3.0166724E0,6.698716E1,3.346895E1],"tree_param":{"num_deleted":"0","num_feature":"4","num_nodes":"11","size_leaf_vector":"1"}},{"base_weights":[-8.750917E-2,-2.959028E-1,4.678234E-2,-3.8204604E-1,2.014966E-1,9.110736E-2,-2.7647933E-2,-1.7057419E-1,-1.1347307E-1,4.02783E-2,-4.445514E-3,-6.1861675E-2,4.4459153E-2,-2.630114E-2,5.1069327E-2,8.7040454E-2,-2.737902E-3],"categories":[],"categories_nodes":[],"categories_segments":[],"categories_sizes":[],"default_left":[0,0,0,0,0,0,0,0,0,0,0,0,0,0,0,0,0],"id":59,"left_children":[1,3,5,7,9,-1,11,13,-1,-1,-1,-1,15,-1,-1,-1,-1],"loss_changes":[3.368259E0,2.1110716E0,4.804512E0,6.1418133E0,4.2152914E-1,0E0,2.9827492E0,2.1872678E0,0E0,0E0,0E0,0E0,3.7506962E0,0E0,0E0,0E0,0E0],"parents":[2147483647,0,0,1,1,2,2,3,3,4,4,6,6,7,7,12,12],"right_children":[2,4,6,8,10,-1,12,14,-1,-1,-1,-1,16,-1,-1,-1,-1],"split_conditions":[1.2274678E0,3.0050378E0,5.158166E-1,4.397463E-1,4.968944E0,9.110736E-2,7.564876E-1,3.6734694E-1,-1.1347307E-1,4.02783E-2,-4.445514E-3,-6.1861675E-2,8.508854E-1,-2.630114E-2,5.1069327E-2,8.7040454E-2,-2.737902E-3],"split_indices":[1,2,3,3,2,0,3,3,0,0,0,0,3,0,0,0,0],"split_type":[0,0,0,0,0,0,0,0,0,0,0,0,0,0,0,0,0],"sum_hessian":[1.17972496E2,4.6051296E1,7.19212E1,3.9622192E1,6.4291024E0,4.917828E0,6.700337E1,3.1993015E1,7.629176E0,3.4085145E0,3.020588E0,6.612981E0,6.0390392E1,2.8840534E1,3.1524813E0,4.054172E0,5.633622E1],"tree_param":{"num_deleted":"0","num_feature":"4","num_nodes":"17","size_leaf_vector":"1"}},{"base_weights":[1.6514428E-2,1.3735741E-1,-2.857573E-1,1.8210904E-1,-5.6880213E-2,2.6479697E-2,-6.621618E-1,1.295753E-1,6.3991994E-1,-2.2275916E-1,6.3763075E-2,-9.616581E-1,-9.741348E-3,1.9227965E-2,-3.28193E-2,1.4955036E-2,9.1180675E-2,4.400399E-2,-4.8497796E-2,-1.3902329E-1,-3.4030586E-2],"categories":[],"categories_nodes":[],"categories_segments":[],"categories_sizes":[],"default_left":[0,0,0,0,0,0,0,0,0,0,0,0,0,0,0,0,0,0,0,0,0],"id":60,"left_children":[1,3,5,7,-1,9,11,13,15,17,-1,19,-1,-1,-1,-1,-1,-1,-1,-1,-1],"loss_changes":[4.3666577E0,2.777505E0,4.08171E0,1.8029366E0,0E0,3.1419551E0,2.4419832E0,2.192576E0,8.175814E-1,2.7242105E0,0E0,2.0106936E0,0E0,0E0,0E0,0E0,0E0,0E0,0E0,0E0,0E0],"parents":[2147483647,0,0,1,1,2,2,3,3,5,5,6,6,7,7,8,8,9,9,11,11],"right_children":[2,4,6,8,-1,10,12,14,16,18,-1,20,-1,-1,-1,-1,-1,-1,-1,-1,-1],"split_conditions":[3.212654E-2,2.342E1,2.7192984E0,9.284314E0,-5.6880213E-2,1.4736842E0,9.638298E0,5.586207E0,3.013245E0,2.7352297E-1,6.3763075E-2,3.087137E0,-9.741348E-3,1.9227965E-2,-3.28193E-2,1.4955036E-2,9.1180675E-2,4.400399E-2,-4.8497796E-2,-1.3902329E-1,-3.4030586E-2],"split_indices":[0,1,2,1,0,2,2,1,2,2,0,1,0,0,0,0,0,0,0,0,0],"split_type":[0,0,0,0,0,0,0,0,0,0,0,0,0,0,0,0,0,0,0,0,0],"sum_hessian":[1.1787637E2,8.4836586E1,3.3039783E1,8.061169E1,4.2249017E0,1.8422136E1,1.4617646E1,7.366061E1,6.951083E0,1.3420775E1,5.001361E0,8.977066E0,5.6405797E0,6.548851E1,8.172093E0,3.1634307E0,3.7876523E0,3.5041037E0,9.916672E0,4.485111E0,4.491955E0],"tree_param":{"num_deleted":"0","num_feature":"4","num_nodes":"21","size_leaf_vector":"1"}},{"base_weights":[-6.65572E-3,1.5234106E-2,-5.4525692E-2,-1.3585364E-2,7.776319E-2,-4.6865746E-2,2.8107318E-1,2.480028E-4,-5.917334E-2,-6.009834E-4,7.699338E-2],"categories":[],"categories_nodes":[],"categories_segments":[],"categories_sizes":[],"default_left":[0,0,0,0,0,0,0,0,0,0,0],"id":61,"left_children":[1,3,-1,5,-1,7,9,-1,-1,-1,-1],"loss_changes":[1.4756752E0,2.6373274E0,0E0,1.0949486E0,0E0,2.814333E0,1.6634474E0,0E0,0E0,0E0,0E0],"parents":[2147483647,0,0,1,1,3,3,5,5,6,6],"right_children":[2,4,-1,6,-1,8,10,-1,-1,-1,-1],"split_conditions":[6.110843E0,4.2357144E0,-5.4525692E-2,9.284314E0,7.776319E-2,5.586207E0,3.0289855E0,2.480028E-4,-5.917334E-2,-6.009834E-4,7.699338E-2],"split_indices":[3,3,0,1,0,1,2,0,0,0,0],"split_type":[0,0,0,0,0,0,0,0,0,0,0],"sum_hessian":[1.1896439E2,1.1507362E2,3.8907723E0,1.1170218E2,3.3714485E0,1.01426796E2,1.0275383E1,9.374841E1,7.678379E0,6.9671054E0,3.3082778E0],"tree_param":{"num_deleted":"0","num_feature":"4","num_nodes":"11","size_leaf_vector":"1"}},{"base_weights":[-8.809803E-2,-4.8615523E-2,-5.053379E-1,-9.496909E-2,4.6753812E-1,-7.429423E-2,-1.6818415E-4,-3.2478336E-2,-4.4684622E-1,2.1297393E-2,5.568651E-2,-9.226198E-3,6.232304E-2,-7.1211435E-2,-1.1057923E-2],"categories":[],"categories_nodes":[],"categories_segments":[],"categories_sizes":[],"default_left":[0,0,0,0,0,0,0,0,0,0,0,0,0,0,0],"id":62,"left_children":[1,3,5,7,9,-1,-1,11,13,-1,-1,-1,-1,-1,-1],"loss_changes":[1.8657689E0,2.6204507E0,1.1072414E0,2.1636095E0,8.889198E-3,0E0,0E0,3.4261172E0,1.1723127E0,0E0,0E0,0E0,0E0,0E0,0E0],"parents":[2147483647,0,0,1,1,2,2,3,3,4,4,7,7,8,8],"right_children":[2,4,6,8,10,-1,-1,12,14,-1,-1,-1,-1,-1,-1],"split_conditions":[1.5396E1,8.847826E0,3.8929274E0,2.1958456E0,3.4728813E0,-7.429423E-2,-1.6818415E-4,1.7542788E0,3.1392593E0,2.1297393E-2,5.568651E-2,-9.226198E-3,6.232304E-2,-7.1211435E-2,-1.1057923E-2],"split_indices":[2,2,3,3,1,0,0,3,3,0,0,0,0,0,0],"split_type":[0,0,0,0,0,0,0,0,0,0,0,0,0,0,0],"sum_hessian":[1.1711158E2,1.08226524E2,8.885054E0,1.0023463E2,7.991899E0,5.579314E0,3.3057396E0,8.6287155E1,1.3947466E1,3.245774E0,4.7461247E0,8.0004616E1,6.282546E0,7.0057836E0,6.941682E0],"tree_param":{"num_deleted":"0","num_feature":"4","num_nodes":"15","size_leaf_vector":"1"}},{"base_weights":[-6.290034E-3,6.007774E-1,-4.964883E-2,2.3762602E-2,8.117399E-2,-5.277783E-1,-1.341469E-2,-7.0833616E-2,-1.8339785E-2,8.002872E-2,-7.271508E-2,-5.0143998E-2,-7.641936E-4],"categories":[],"categories_nodes":[],"categories_segments":[],"categories_sizes":[],"default_left":[0,0,0,0,0,0,0,0,0,0,0,0,0],"id":63,"left_children":[1,3,5,-1,-1,7,9,-1,-1,-1,11,-1,-1],"loss_changes":[3.0078847E0,2.8475356E-1,1.8207756E0,0E0,0E0,2.4303985E-1,4.9167905E0,0E0,0E0,0E0,2.6315339E0,0E0,0E0],"parents":[2147483647,0,0,1,1,2,2,5,5,6,6,10,10],"right_children":[2,4,6,-1,-1,8,10,-1,-1,-1,12,-1,-1],"split_conditions":[1.0935819E-1,2.4999231E-2,1.3257143E-1,2.3762602E-2,8.117399E-2,2.0681818E-1,2.1142857E-1,-7.0833616E-2,-1.8339785E-2,8.002872E-2,6.9359756E-1,-5.0143998E-2,-7.641936E-4],"split_indices":[1,0,3,0,0,1,3,0,0,0,1,0,0],"split_type":[0,0,0,0,0,0,0,0,0,0,0,0,0],"sum_hessian":[1.1423451E2,6.604365E0,1.0763015E2,3.382364E0,3.222001E0,6.431912E0,1.01198235E2,3.3357618E0,3.09615E0,5.9107614E0,9.5287476E1,1.14708605E1,8.381661E1],"tree_param":{"num_deleted":"0","num_feature":"4","num_nodes":"13","size_leaf_vector":"1"}},{"base_weights":[-5.813558E-3,-2.9294694E-2,5.393539E-2,1.1278468E-2,-4.6785027E-1,-6.6345364E-2,2.4988994E-1,2.1793793E-3,-7.322072E-2,1.3896115E-2,-1.7891653E-2,-4.4324048E-2,4.007715E-2],"categories":[],"categories_nodes":[],"categories_segments":[],"categories_sizes":[],"default_left":[0,0,0,0,0,0,0,0,0,0,0,0,0],"id":64,"left_children":[1,3,-1,5,7,9,11,-1,-1,-1,-1,-1,-1],"loss_changes":[1.4538475E0,2.0552552E0,0E0,1.958843E0,1.3517623E0,1.8511903E0,2.8948565E0,0E0,0E0,0E0,0E0,0E0,0E0],"parents":[2147483647,0,0,1,1,3,3,4,4,5,5,6,6],"right_children":[2,4,-1,6,8,10,12,-1,-1,-1,-1,-1,-1],"split_conditions":[3.65E1,1.5304124E1,5.393539E-2,3.4845488E0,2.8793774E0,6.217228E-1,1.8089423E-2,2.1793793E-3,-7.322072E-2,1.3896115E-2,-1.7891653E-2,-4.4324048E-2,4.007715E-2],"split_indices":[2,1,0,1,2,1,0,0,0,0,0,0,0],"split_type":[0,0,0,0,0,0,0,0,0,0,0,0,0],"sum_hessian":[1.1532184E2,1.11642914E2,3.6789238E0,1.0287193E2,8.770981E0,7.784927E1,2.5022657E1,3.2642298E0,5.506751E0,2.7171436E1,5.067784E1,4.008354E0,2.1014303E1],"tree_param":{"num_deleted":"0","num_feature":"4","num_nodes":"13","size_leaf_vector":"1"}},{"base_weights":[-6.980984E-2,1.3363728E-1,-1.7063628E-1,-7.6897636E-2,4.5700404E-1,7.087453E-2,-2.819724E-1,1.5453108E-1,-6.6810864E-1,7.9572606E-1,1.4327005E-1,4.7309974E-1,-8.944744E-2,-3.6943758E-1,2.2566444E-1,-4.80745E-3,5.4225575E-2,-1.3287327E-2,-1.01285614E-1,3.9416585E-2,9.813789E-2,6.1488833E-2,-1.6516587E-2,4.7388556E-3,7.320727E-2,-5.4131836E-2,2.4754908E-2,-4.2011857E-2,1.7435804E-2,9.4584644E-2,-5.104695E-2],"categories":[],"categories_nodes":[],"categories_segments":[],"categories_sizes":[],"default_left":[0,0,0,0,0,0,0,0,0,0,0,0,0,0,0,0,0,0,0,0,0,0,0,0,0,0,0,0,0,0,0],"id":65,"left_children":[1,3,5,7,9,11,13,15,17,19,21,23,25,27,29,-1,-1,-1,-1,-1,-1,-1,-1,-1,-1,-1,-1,-1,-1,-1,-1],"loss_changes":[2.415833E0,2.7166824E0,2.1559024E0,3.4638863E0,1.4544752E0,1.7142724E0,2.5094614E0,1.4952062E0,1.0634701E0,8.595943E-3,1.527565E0,7.204367E-1,3.022608E0,1.3898783E0,4.998734E0,0E0,0E0,0E0,0E0,0E0,0E0,0E0,0E0,0E0,0E0,0E0,0E0,0E0,0E0,0E0,0E0],"parents":[2147483647,0,0,1,1,2,2,3,3,4,4,5,5,6,6,7,7,8,8,9,9,10,10,11,11,12,12,13,13,14,14],"right_children":[2,4,6,8,10,12,14,16,18,20,22,24,26,28,30,-1,-1,-1,-1,-1,-1,-1,-1,-1,-1,-1,-1,-1,-1,-1,-1],"split_conditions":[5.158166E-1,5.912863E-1,2.0641346E-2,4.1654778E-1,9.178744E-1,9.80846E-1,3.648904E-2,2.652E-2,2.3517307E-2,3.9583334E-1,2.391E-2,1.0345745E0,1.7795138E0,2.4826923E1,3.8781732E-2,-4.80745E-3,5.4225575E-2,-1.3287327E-2,-1.01285614E-1,3.9416585E-2,9.813789E-2,6.1488833E-2,-1.6516587E-2,4.7388556E-3,7.320727E-2,-5.4131836E-2,2.4754908E-2,-4.2011857E-2,1.7435804E-2,9.4584644E-2,-5.104695E-2],"split_indices":[3,2,0,2,2,3,0,0,0,3,0,2,3,2,0,0,0,0,0,0,0,0,0,0,0,0,0,0,0,0,0],"split_type":[0,0,0,0,0,0,0,0,0,0,0,0,0,0,0,0,0,0,0,0,0,0,0,0,0,0,0,0,0,0,0],"sum_hessian":[1.1547965E2,3.782975E1,7.76499E1,2.3186577E1,1.4643171E1,2.4332651E1,5.3317253E1,1.7072893E1,6.113684E0,6.1491785E0,8.493993E0,6.5563936E0,1.7776258E1,4.5881214E1,7.436041E0,1.1619313E1,5.4535794E0,3.0515342E0,3.0621502E0,3.1018229E0,3.0473557E0,3.0938876E0,5.400105E0,3.073373E0,3.4830203E0,7.4616027E0,1.0314655E1,4.2345955E1,3.5352583E0,3.6834104E0,3.7526305E0],"tree_param":{"num_deleted":"0","num_feature":"4","num_nodes":"31","size_leaf_vector":"1"}},{"base_weights":[-1.6496369E-3,-6.731519E-2,4.6250015E-1,-2.1347463E-2,-7.3429376E-2,9.781159E-2,2.166928E-1,-9.722647E-2,2.7674982E-1,-5.508718E-2,5.9952414E-1,-4.3491214E-3,-9.277987E-2,6.87853E-2,-6.3068043E-3,2.5279745E-2,8.394906E-2],"categories":[],"categories_nodes":[],"categories_segments":[],"categories_sizes":[],"default_left":[0,0,0,0,0,0,0,0,0,0,0,0,0,0,0,0,0],"id":66,"left_children":[1,3,5,7,-1,-1,9,11,13,-1,15,-1,-1,-1,-1,-1,-1],"loss_changes":[3.527756E0,3.0575619E0,1.4832513E0,2.2087014E0,0E0,0E0,3.6002557E0,3.367223E0,2.8613846E0,0E0,3.4248042E-1,0E0,0E0,0E0,0E0,0E0,0E0],"parents":[2147483647,0,0,1,1,2,2,3,3,6,6,7,7,8,8,10,10],"right_children":[2,4,6,8,-1,-1,10,12,14,-1,16,-1,-1,-1,-1,-1,-1],"split_conditions":[1.1423424E1,3.6518152E0,1.4772727E1,1.7191284E0,-7.3429376E-2,9.781159E-2,2.024359E1,1.4417177E0,2.1958456E0,-5.508718E-2,3.65E1,-4.3491214E-3,-9.277987E-2,6.87853E-2,-6.3068043E-3,2.5279745E-2,8.394906E-2],"split_indices":[2,3,2,3,0,0,2,3,3,0,2,0,0,0,0,0,0],"split_type":[0,0,0,0,0,0,0,0,0,0,0,0,0,0,0,0,0],"sum_hessian":[1.15020256E2,1.0170235E2,1.3317913E1,9.625074E1,5.451603E0,3.2062757E0,1.0111637E1,7.7526184E1,1.8724556E1,3.1319747E0,6.979663E0,7.391678E1,3.6094084E0,8.143205E0,1.0581351E1,3.8651364E0,3.1145263E0],"tree_param":{"num_deleted":"0","num_feature":"4","num_nodes":"17","size_leaf_vector":"1"}},{"base_weights":[4.740578E-3,-3.6394447E-2,3.395973E-1,4.735963E-2,-2.635772E-1,6.098154E-1,-1.4093946E-2,4.3408093E-1,-5.685978E-3,-6.1548907E-1,9.596618E-2,1.5303343E-2,8.0889836E-2,-0E0,6.747667E-2,-6.673428E-2,8.0002565E-3,-1.03473164E-1,-2.3107944E-2,8.229272E-2,-2.3877539E-2],"categories":[],"categories_nodes":[],"categories_segments":[],"categories_sizes":[],"default_left":[0,0,0,0,0,0,0,0,0,0,0,0,0,0,0,0,0,0,0,0,0],"id":67,"left_children":[1,3,5,7,9,11,-1,13,15,17,19,-1,-1,-1,-1,-1,-1,-1,-1,-1,-1],"loss_changes":[1.6386214E0,2.0096276E0,1.8259044E0,1.6122494E0,3.7094865E0,5.681391E-1,0E0,9.518162E-1,3.9635398E0,1.9950104E0,3.8544836E0,0E0,0E0,0E0,0E0,0E0,0E0,0E0,0E0,0E0,0E0],"parents":[2147483647,0,0,1,1,2,2,3,3,4,4,5,5,7,7,8,8,9,9,10,10],"right_children":[2,4,6,8,10,12,-1,14,16,18,20,-1,-1,-1,-1,-1,-1,-1,-1,-1,-1],"split_conditions":[3.6626346E-2,2.774904E-2,4.9530577E-2,2.6545453E-1,8.432836E-1,4.7963142E-1,-1.4093946E-2,1.879E-2,5.4157305E-1,3.2672692E-2,3.212654E-2,1.5303343E-2,8.0889836E-2,-0E0,6.747667E-2,-6.673428E-2,8.0002565E-3,-1.03473164E-1,-2.3107944E-2,8.229272E-2,-2.3877539E-2],"split_indices":[0,0,0,1,3,3,0,0,1,0,0,0,0,0,0,0,0,0,0,0,0],"split_type":[0,0,0,0,0,0,0,0,0,0,0,0,0,0,0,0,0,0,0,0,0],"sum_hessian":[1.1486338E2,1.028247E2,1.2038684E1,7.5384514E1,2.7440187E1,7.666619E0,4.3720646E0,8.453983E0,6.693053E1,1.3648071E1,1.3792115E1,3.0164888E0,4.6501303E0,3.4510524E0,5.0029306E0,7.029581E0,5.9900948E1,5.594619E0,8.0534525E0,3.9828563E0,9.809259E0],