{"learner":{"attributes":{"best_iteration":"0","best_score":"0.6975956305958866","scikit_learn":"{\"_estimator_type\": \"classifier\"}"},"feature_names":["warm_up_body_to_lower_wick_ratio","warm_up_body_to_upper_wick_ratio","warm_up_body_to_wick_ratio"],"feature_types":["float","float","float"],"gradient_booster":{"model":{"gbtree_model_param":{"num_parallel_tree":"1","num_trees":"51"},"iteration_indptr":[0,1,2,3,4,5,6,7,8,9,10,11,12,13,14,15,16,17,18,19,20,21,22,23,24,25,26,27,28,29,30,31,32,33,34,35,36,37,38,39,40,41,42,43,44,45,46,47,48,49,50,51],"tree_info":[0,0,0,0,0,0,0,0,0,0,0,0,0,0,0,0,0,0,0,0,0,0,0,0,0,0,0,0,0,0,0,0,0,0,0,0,0,0,0,0,0,0,0,0,0,0,0,0,0,0,0],"trees":[{"base_weights":[6.3147336E-2,1.4412947E-1,-2.2784825E-1,1.3691984E-2,6.9308835E-1,-7.245103E-1,1.1965948E-1,3.58624E-1,-1.1997794E-1,8.673912E-1,5.0527626E-1,-1.3886921E-1,1.844245E-2,6.4754474E-1,-4.3372753E-1,1.6507046E-2,1.3149993E-1,-4.9270457E-3,-6.599678E-2,3.6820497E-2,1.0456508E-1,1.1873444E-2,7.6542E-2,9.534153E-2,7.436248E-3,-9.709072E-2,1.7897493E-3],"categories":[],"categories_nodes":[],"categories_segments":[],"categories_sizes":[],"default_left":[0,0,0,0,0,0,0,0,0,0,0,0,0,0,0,0,0,0,0,0,0,0,0,0,0,0,0],"id":0,"left_children":[1,3,5,7,9,11,13,15,17,19,21,-1,-1,23,25,-1,-1,-1,-1,-1,-1,-1,-1,-1,-1,-1,-1],"loss_changes":[3.4281375E0,8.073593E0,5.5947766E0,4.3629966E0,1.3467026E-1,8.377555E0,5.943095E0,4.5372267E0,2.4811897E0,3.261304E-1,1.1394277E0,0E0,0E0,1.6454735E0,2.5225945E0,0E0,0E0,0E0,0E0,0E0,0E0,0E0,0E0,0E0,0E0,0E0,0E0],"parents":[2147483647,0,0,1,1,2,2,3,3,4,4,5,5,6,6,7,7,8,8,9,9,10,10,13,13,14,14],"right_children":[2,4,6,8,10,12,14,16,18,20,22,-1,-1,24,26,-1,-1,-1,-1,-1,-1,-1,-1,-1,-1,-1,-1],"split_conditions":[5.586207E0,2.7820513E0,9.460784E0,2.0737328E-1,1.4249166E0,3.3623693E0,1.6275E1,3.852941E-1,1.3850405E0,7.791798E-1,3.7680411E0,-1.3886921E-1,1.844245E-2,3.5161724E0,2.5392857E1,1.6507046E-2,1.3149993E-1,-4.9270457E-3,-6.599678E-2,3.6820497E-2,1.0456508E-1,1.1873444E-2,7.6542E-2,9.534153E-2,7.436248E-3,-9.709072E-2,1.7897493E-3],"split_indices":[0,0,0,2,2,2,0,0,2,2,0,0,0,2,0,0,0,0,0,0,0,0,0,0,0,0,0],"split_type":[0,0,0,0,0,0,0,0,0,0,0,0,0,0,0,0,0,0,0,0,0,0,0,0,0,0,0],"sum_hessian":[1.4343477E2,1.1287169E2,3.0563091E1,9.217677E1,2.0694912E1,1.2253349E1,1.830974E1,2.54832E1,6.669357E1,8.580635E0,1.2114277E1,6.8384876E0,5.414862E0,9.37619E0,8.93355E0,2.2256115E1,3.2270844E0,6.0100334E1,6.593241E0,3.2121303E0,5.3685045E0,5.613751E0,6.5005264E0,5.5673933E0,3.808797E0,3.6562655E0,5.2772846E0],"tree_param":{"num_deleted":"0","num_feature":"3","num_nodes":"27","size_leaf_vector":"1"}},{"base_weights":[4.281761E-2,1.1918305E-1,-2.2048073E-1,-5.1452783E-3,5.9087235E-1,-6.7617404E-1,5.9689425E-2,5.35995E-2,-9.998552E-2,8.6661674E-2,4.3556473E-1,-1.2238937E-1,6.8521313E-3,6.0060453E-2,-1.6224526E-1,-3.4827727E-3,2.9172903E-2,6.0407915E-3,6.0533077E-2,2.1775987E-2,-3.342157E-2],"categories":[],"categories_nodes":[],"categories_segments":[],"categories_sizes":[],"default_left":[0,0,0,0,0,0,0,0,0,0,0,0,0,0,0,0,0,0,0,0,0],"id":1,"left_children":[1,3,5,7,9,11,13,15,-1,-1,17,-1,-1,-1,19,-1,-1,-1,-1,-1,-1],"loss_changes":[2.8469253E0,6.517031E0,4.1503506E0,5.2868485E0,4.832201E-1,5.21221E0,2.5925636E0,1.802321E0,0E0,0E0,9.823799E-1,0E0,0E0,0E0,1.0734856E0,0E0,0E0,0E0,0E0,0E0,0E0],"parents":[2147483647,0,0,1,1,2,2,3,3,4,4,5,5,6,6,7,7,10,10,14,14],"right_children":[2,4,6,8,10,12,14,16,-1,-1,18,-1,-1,-1,20,-1,-1,-1,-1,-1,-1],"split_conditions":[5.5271316E0,2.6956522E0,9.460784E0,1.3850405E0,1.1383648E0,3.3623693E0,1.2846154E1,1.4220666E0,-9.998552E-2,8.6661674E-2,1.7542788E0,-1.2238937E-1,6.8521313E-3,6.0060453E-2,1.897283E0,-3.4827727E-3,2.9172903E-2,6.0407915E-3,6.0533077E-2,2.1775987E-2,-3.342157E-2],"split_indices":[0,0,0,2,2,2,0,0,0,0,2,0,0,0,2,0,0,0,0,0,0],"split_type":[0,0,0,0,0,0,0,0,0,0,0,0,0,0,0,0,0,0,0,0,0],"sum_hessian":[1.3978644E2,1.0907743E2,3.0709005E1,8.693904E1,2.213839E1,1.1289788E1,1.9419216E1,8.2889404E1,4.049632E0,6.09428E0,1.604411E1,6.2118244E0,5.077964E0,5.284301E0,1.4134915E1,6.0760395E1,2.2129011E1,5.6043143E0,1.04397955E1,4.1396723E0,9.995243E0],"tree_param":{"num_deleted":"0","num_feature":"3","num_nodes":"21","size_leaf_vector":"1"}},{"base_weights":[7.96237E-3,-3.3796694E-2,3.1604257E-1,9.341358E-2,-3.2920557E-1,9.859821E-2,1.7546656E-3,3.4353815E-2,7.735308E-2,-1.2841086E-1,-1.1740612E-1,-7.869067E-2,4.7645435E-1,7.3443255E-3,-6.322132E-2,4.486176E-2,-3.0667722E-2,1.0384371E-1,-3.2363787E-2],"categories":[],"categories_nodes":[],"categories_segments":[],"categories_sizes":[],"default_left":[0,0,0,0,0,0,0,0,0,0,0,0,0,0,0,0,0,0,0],"id":2,"left_children":[1,3,5,7,9,-1,11,13,-1,-1,15,-1,17,-1,-1,-1,-1,-1,-1],"loss_changes":[1.8827475E0,4.820505E0,3.5821137E0,3.4754388E0,7.522783E0,0E0,5.213966E0,2.1597311E0,0E0,0E0,3.6380694E0,0E0,4.374562E0,0E0,0E0,0E0,0E0,0E0,0E0],"parents":[2147483647,0,0,1,1,2,2,3,3,4,4,6,6,7,7,10,10,12,12],"right_children":[2,4,6,8,10,-1,12,14,-1,-1,16,-1,18,-1,-1,-1,-1,-1,-1],"split_conditions":[3.2044945E0,2.685864E0,3.6480262E0,2.285294E0,3.013245E0,9.859821E-2,9.439561E0,1.4249166E0,7.735308E-2,-1.2841086E-1,8.973173E-1,-7.869067E-2,1.9031916E1,7.3443255E-3,-6.322132E-2,4.486176E-2,-3.0667722E-2,1.0384371E-1,-3.2363787E-2],"split_indices":[2,1,2,1,1,0,1,2,0,0,2,0,1,0,0,0,0,0,0],"split_type":[0,0,0,0,0,0,0,0,0,0,0,0,0,0,0,0,0,0,0],"sum_hessian":[1.4232077E2,1.2583063E2,1.649014E1,8.819638E1,3.7634247E1,4.481644E0,1.2008496E1,8.225141E1,5.944972E0,5.8271956E0,3.180705E1,4.185836E0,7.8226604E0,7.867738E1,3.5740314E0,7.494833E0,2.4312218E1,4.493515E0,3.3291452E0],"tree_param":{"num_deleted":"0","num_feature":"3","num_nodes":"19","size_leaf_vector":"1"}},{"base_weights":[5.5618985E-3,-1.4238939E-1,1.5161361E-1,1.5659443E-1,-3.0857947E-1,4.7560972E-1,-5.6940667E-2,1.4504505E-2,8.748769E-2,-9.479623E-2,-2.12769E-1,9.080974E-1,2.9841682E-1,-9.6861094E-2,5.9810057E-2,3.874595E-2,-2.5235226E-2,3.464244E-2,-3.7366163E-2,4.694092E-2,1.13170795E-1,-4.2154573E-2,4.6732154E-2,2.4019923E-2,-5.7588197E-2],"categories":[],"categories_nodes":[],"categories_segments":[],"categories_sizes":[],"default_left":[0,0,0,0,0,0,0,0,0,0,0,0,0,0,0,0,0,0,0,0,0,0,0,0,0],"id":3,"left_children":[1,3,5,7,9,11,13,15,-1,-1,17,19,21,-1,23,-1,-1,-1,-1,-1,-1,-1,-1,-1,-1],"loss_changes":[3.203606E0,3.7060266E0,5.1304984E0,2.6171157E0,2.6024027E0,1.8789773E0,5.0745473E0,2.4374237E0,0E0,0E0,3.990272E0,8.927727E-2,2.9585667E0,0E0,4.9059396E0,0E0,0E0,0E0,0E0,0E0,0E0,0E0,0E0,0E0,0E0],"parents":[2147483647,0,0,1,1,2,2,3,3,4,4,5,5,6,6,7,7,10,10,11,11,12,12,14,14],"right_children":[2,4,6,8,10,12,14,16,-1,-1,18,20,22,-1,24,-1,-1,-1,-1,-1,-1,-1,-1,-1,-1],"split_conditions":[7.856094E-1,2.0737328E-1,1.3850405E0,4.4268292E-1,2.5447762E-1,8.8372093E-1,2.5995476E0,5.978261E-2,8.748769E-2,-9.479623E-2,5.9166664E-1,1.5630713E0,9.397993E-1,-9.6861094E-2,1.5552941E1,3.874595E-2,-2.5235226E-2,3.464244E-2,-3.7366163E-2,4.694092E-2,1.13170795E-1,-4.2154573E-2,4.6732154E-2,2.4019923E-2,-5.7588197E-2],"split_indices":[2,2,2,0,2,2,0,2,0,0,0,0,2,0,0,0,0,0,0,0,0,0,0,0,0],"split_type":[0,0,0,0,0,0,0,0,0,0,0,0,0,0,0,0,0,0,0,0,0,0,0,0,0],"sum_hessian":[1.4621474E2,7.230734E1,7.3907394E1,2.5638494E1,4.6668842E1,2.8629494E1,4.5277897E1,2.2372253E1,3.2662423E0,4.7867846E0,4.188206E1,6.9578047E0,2.1671688E1,4.409057E0,4.086884E1,9.29896E0,1.3073293E1,8.961406E0,3.2920654E1,3.546524E0,3.4112806E0,3.721376E0,1.7950314E1,3.2442223E1,8.426617E0],"tree_param":{"num_deleted":"0","num_feature":"3","num_nodes":"25","size_leaf_vector":"1"}},{"base_weights":[-6.405262E-2,-5.688071E-3,-2.6560777E-1,-8.622277E-2,3.2787958E-1,-7.772888E-1,2.4473567E-2,2.629923E-1,-1.3241945E-1,5.5501825E-1,4.5177918E-2,-1.0132502E0,-2.248107E-2,3.5845006E-1,-2.5191838E-1,-5.299766E-2,8.16847E-2,-1.09443665E-1,-4.2709294E-3,1.1020378E-2,7.693885E-2,-5.9779026E-2,4.0074047E-2,-1.3274178E-1,-4.8187453E-2,8.810715E-3,6.982613E-2,-4.434678E-2,2.0170312E-2],"categories":[],"categories_nodes":[],"categories_segments":[],"categories_sizes":[],"default_left":[0,0,0,0,0,0,0,0,0,0,0,0,0,0,0,0,0,0,0,0,0,0,0,0,0,0,0,0,0],"id":4,"left_children":[1,3,5,7,9,11,13,15,17,19,21,23,-1,25,27,-1,-1,-1,-1,-1,-1,-1,-1,-1,-1,-1,-1,-1,-1],"loss_changes":[1.640394E0,2.9974804E0,4.7627554E0,1.4864562E0,1.3042884E0,1.1521301E0,2.031816E0,5.156196E0,6.838821E0,9.441354E-1,2.7173297E0,4.5999098E-1,0E0,7.829622E-1,1.1449261E0,0E0,0E0,0E0,0E0,0E0,0E0,0E0,0E0,0E0,0E0,0E0,0E0,0E0,0E0],"parents":[2147483647,0,0,1,1,2,2,3,3,4,4,5,5,6,6,7,7,8,8,9,9,10,10,11,11,13,13,14,14],"right_children":[2,4,6,8,10,12,14,16,18,20,22,24,-1,26,28,-1,-1,-1,-1,-1,-1,-1,-1,-1,-1,-1,-1,-1,-1],"split_conditions":[5.586207E0,2.7820513E0,9.460784E0,5.978261E-2,1.6598778E0,3.2044945E0,1.6049383E1,4.3010753E-2,1.0973282E-1,9.397993E-1,2.1059246E0,6.8238096E0,-2.248107E-2,1.3125E1,5.8389425E0,-5.299766E-2,8.16847E-2,-1.09443665E-1,-4.2709294E-3,1.1020378E-2,7.693885E-2,-5.9779026E-2,4.0074047E-2,-1.3274178E-1,-4.8187453E-2,8.810715E-3,6.982613E-2,-4.434678E-2,2.0170312E-2],"split_indices":[0,0,0,2,2,2,0,0,2,2,2,0,0,0,2,0,0,0,0,0,0,0,0,0,0,0,0,0,0],"split_type":[0,0,0,0,0,0,0,0,0,0,0,0,0,0,0,0,0,0,0,0,0,0,0,0,0,0,0,0,0],"sum_hessian":[1.4088037E2,1.1042798E2,3.0452387E1,8.979072E1,2.0637264E1,1.0534869E1,1.9917517E1,9.689235E0,8.010148E1,1.0712908E1,9.9243555E0,6.6707883E0,3.8640814E0,9.048606E0,1.0868911E1,3.9279873E0,5.7612476E0,5.782097E0,7.431938E1,4.1279826E0,6.584925E0,3.1911902E0,6.7331653E0,3.132486E0,3.538302E0,5.9046335E0,3.1439722E0,7.812698E0,3.0562131E0],"tree_param":{"num_deleted":"0","num_feature":"3","num_nodes":"29","size_leaf_vector":"1"}},{"base_weights":[-1.9738285E-2,3.8594925E-1,-8.2525715E-2,1.3746732E-1,1.1141658E-1,-5.044831E-1,-3.594026E-2,5.4213303E-1,-3.9254254E-1,-1.1437354E-1,-9.121414E-2,3.7659717E-1,-1.1605018E-1,1.7789012E-2,7.7256285E-2,-1.5570368E-2,-5.0787836E-2,2.6632408E-2,-5.1027693E-2,8.924489E-2,1.067646E-2,-6.1407875E-2,-6.8025105E-3],"categories":[],"categories_nodes":[],"categories_segments":[],"categories_sizes":[],"default_left":[0,0,0,0,0,0,0,0,0,0,0,0,0,0,0,0,0,0,0,0,0,0,0],"id":5,"left_children":[1,3,5,7,-1,9,11,13,15,17,-1,19,21,-1,-1,-1,-1,-1,-1,-1,-1,-1,-1],"loss_changes":[3.7177331E0,3.2531004E0,2.431703E0,3.615257E0,0E0,1.7609694E0,3.8513665E0,5.63463E-1,5.4273248E-2,1.3045726E0,0E0,2.434999E0,2.2365336E0,0E0,0E0,0E0,0E0,0E0,0E0,0E0,0E0,0E0,0E0],"parents":[2147483647,0,0,1,1,2,2,3,3,5,5,6,6,7,7,8,8,9,9,11,11,12,12],"right_children":[2,4,6,8,-1,10,12,14,16,18,-1,20,22,-1,-1,-1,-1,-1,-1,-1,-1,-1,-1],"split_conditions":[2.9331228E-1,1.4590748E-1,5.2483803E-1,5.978261E-2,1.1141658E-1,4.2871386E-1,9.0346533E-1,2.1397104E-2,1.550173E-1,2.0737328E-1,-9.121414E-2,3.2947975E-1,3.9273706E-1,1.7789012E-2,7.7256285E-2,-1.5570368E-2,-5.0787836E-2,2.6632408E-2,-5.1027693E-2,8.924489E-2,1.067646E-2,-6.1407875E-2,-6.8025105E-3],"split_indices":[1,2,1,2,0,1,1,2,1,2,0,2,2,0,0,0,0,0,0,0,0,0,0],"split_type":[0,0,0,0,0,0,0,0,0,0,0,0,0,0,0,0,0,0,0,0,0,0,0],"sum_hessian":[1.4489406E2,1.8516172E1,1.26377884E2,1.4794194E1,3.721978E0,1.1374571E1,1.1500331E2,8.4831E0,6.3110948E0,6.592106E0,4.782465E0,1.7896004E1,9.710731E1,4.1419063E0,4.341193E0,3.1204255E0,3.190669E0,3.3986773E0,3.1934283E0,5.2264104E0,1.2669594E1,7.3207684E0,8.978654E1],"tree_param":{"num_deleted":"0","num_feature":"3","num_nodes":"23","size_leaf_vector":"1"}},{"base_weights":[9.374772E-3,-5.4921318E-2,4.445441E-1,-1.6222667E-2,-9.596664E-2,9.612462E-2,1.792232E-1,-5.8698654E-2,5.3747946E-1,-1.23879164E-1,5.5521425E-2,3.1145899E-2,-1.2905185E-2,-1.2116767E-2,9.513599E-2,-2.7679091E-2,7.8083402E-3],"categories":[],"categories_nodes":[],"categories_segments":[],"categories_sizes":[],"default_left":[0,0,0,0,0,0,0,0,0,0,0,0,0,0,0,0,0],"id":6,"left_children":[1,3,5,7,-1,-1,9,11,13,15,-1,-1,-1,-1,-1,-1,-1],"loss_changes":[4.072297E0,4.2817807E0,2.2847705E0,2.8412223E0,0E0,0E0,1.6787604E0,2.9884307E0,2.5391774E0,2.9726696E-1,0E0,0E0,0E0,0E0,0E0,0E0,0E0],"parents":[2147483647,0,0,1,1,2,2,3,3,6,6,7,7,8,8,9,9],"right_children":[2,4,6,8,-1,-1,10,12,14,16,-1,-1,-1,-1,-1,-1,-1],"split_conditions":[9.439561E0,3.6480262E0,1.3445455E1,5.872951E0,-9.596664E-2,9.612462E-2,3.65E1,3.101204E-1,1.9413754E0,3.964706E0,5.5521425E-2,3.1145899E-2,-1.2905185E-2,-1.2116767E-2,9.513599E-2,-2.7679091E-2,7.8083402E-3],"split_indices":[1,2,1,1,0,0,1,1,2,2,0,0,0,0,0,0,0],"split_type":[0,0,0,0,0,0,0,0,0,0,0,0,0,0,0,0,0],"sum_hessian":[1.4227966E2,1.2452512E2,1.775454E1,1.2049946E2,4.0256634E0,5.0058947E0,1.2748644E1,1.1291225E2,7.587213E0,7.2824855E0,5.4661584E0,1.725867E1,9.565358E1,3.10753E0,4.479683E0,4.2154675E0,3.067018E0],"tree_param":{"num_deleted":"0","num_feature":"3","num_nodes":"17","size_leaf_vector":"1"}},{"base_weights":[-3.4985404E-2,5.448755E-2,-1.7387721E-1,-2.1177784E-1,2.1315216E-1,-7.56593E-1,-5.1349245E-2,9.870644E-2,-7.1962005E-1,6.875734E-1,5.8107994E-2,-1.4969902E-1,-5.59635E-3,7.66179E-2,-1.2788989E-1,-3.996111E-2,2.2734812E-2,-1.0065334E-1,5.788593E-3,9.724089E-2,9.062593E-3,-2.5713906E-2,2.1768471E-2,-4.4545963E-2,8.589408E-3],"categories":[],"categories_nodes":[],"categories_segments":[],"categories_sizes":[],"default_left":[0,0,0,0,0,0,0,0,0,0,0,0,0,0,0,0,0,0,0,0,0,0,0,0,0],"id":7,"left_children":[1,3,5,7,9,11,13,15,17,19,21,-1,-1,-1,23,-1,-1,-1,-1,-1,-1,-1,-1,-1,-1],"loss_changes":[1.7927694E0,3.7214637E0,3.916078E0,5.29822E0,3.950142E0,4.743832E0,3.0325747E0,1.4253303E0,2.9798355E0,2.077158E0,2.210135E0,0E0,0E0,0E0,3.1146927E0,0E0,0E0,0E0,0E0,0E0,0E0,0E0,0E0,0E0,0E0],"parents":[2147483647,0,0,1,1,2,2,3,3,4,4,5,5,6,6,7,7,8,8,9,9,10,10,14,14],"right_children":[2,4,6,8,10,12,14,16,18,20,22,-1,-1,-1,24,-1,-1,-1,-1,-1,-1,-1,-1,-1,-1],"split_conditions":[2.3793104E0,6.555024E-1,3.013245E0,3.620283E-1,6.207792E-1,2.7159534E0,3.2297297E0,3.6319613E-2,1.1570743E0,1.2093596E0,1.5809768E0,-1.4969902E-1,-5.59635E-3,7.66179E-2,6.092233E0,-3.996111E-2,2.2734812E-2,-1.0065334E-1,5.788593E-3,9.724089E-2,9.062593E-3,-2.5713906E-2,2.1768471E-2,-4.4545963E-2,8.589408E-3],"split_indices":[1,1,1,1,0,0,1,0,0,1,0,0,0,0,1,0,0,0,0,0,0,0,0,0,0],"split_type":[0,0,0,0,0,0,0,0,0,0,0,0,0,0,0,0,0,0,0,0,0,0,0,0,0],"sum_hessian":[1.4154025E2,8.601671E1,5.552354E1,3.1757454E1,5.425926E1,8.605708E0,4.691783E1,2.0086006E1,1.1671447E1,1.23597765E1,4.189948E1,3.56208E0,5.0436277E0,3.133408E0,4.3784424E1,3.5296204E0,1.6556387E1,8.404199E0,3.2672477E0,7.8280897E0,4.5316873E0,1.366532E1,2.823416E1,1.7368341E1,2.6416084E1],"tree_param":{"num_deleted":"0","num_feature":"3","num_nodes":"25","size_leaf_vector":"1"}},{"base_weights":[4.0008515E-2,4.0903467E-1,1.4305558E-2,4.8376457E-3,7.058707E-2,-8.4734194E-2,6.0747124E-2,4.279809E-1,1.5409535E-2,1.4684393E-2,7.050649E-2,-2.3664521E-2,1.0219525E-2],"categories":[],"categories_nodes":[],"categories_segments":[],"categories_sizes":[],"default_left":[0,0,0,0,0,0,0,0,0,0,0,0,0],"id":8,"left_children":[1,3,5,-1,-1,-1,7,9,11,-1,-1,-1,-1],"loss_changes":[1.3166946E0,8.625412E-1,5.40772E0,0E0,0E0,0E0,2.1120796E0,9.015918E-1,2.568292E0,0E0,0E0,0E0,0E0],"parents":[2147483647,0,0,1,1,2,2,6,6,7,7,8,8],"right_children":[2,4,6,-1,-1,-1,8,10,12,-1,-1,-1,-1],"split_conditions":[5.978261E-2,2.8659161E-2,1.2080537E-1,4.8376457E-3,7.058707E-2,-8.4734194E-2,4.5232275E-1,2.3206967E-1,1.1897811E0,1.4684393E-2,7.050649E-2,-2.3664521E-2,1.0219525E-2],"split_indices":[2,2,2,0,0,0,0,2,0,0,0,0,0],"split_type":[0,0,0,0,0,0,0,0,0,0,0,0,0],"sum_hessian":[1.4289783E2,8.080389E0,1.3481744E2,4.325153E0,3.7552366E0,5.9027605E0,1.2891467E2,1.299663E1,1.15918045E2,7.389701E0,5.606929E0,2.895218E1,8.6965866E1],"tree_param":{"num_deleted":"0","num_feature":"3","num_nodes":"13","size_leaf_vector":"1"}},{"base_weights":[2.2929074E-2,6.3439894E-1,-1.2326641E-2,1.2947166E-2,9.998562E-2,-7.278364E-2,3.2005273E-2,7.0285934E-1,-3.3297617E-2,9.708853E-2,3.3091698E-2,-4.3459766E-2,3.753375E-3],"categories":[],"categories_nodes":[],"categories_segments":[],"categories_sizes":[],"default_left":[0,0,0,0,0,0,0,0,0,0,0,0,0],"id":9,"left_children":[1,3,5,-1,-1,-1,7,9,11,-1,-1,-1,-1],"loss_changes":[3.148407E0,1.2261207E0,4.401661E0,0E0,0E0,0E0,5.7302647E0,7.0507E-1,3.4140506E0,0E0,0E0,0E0,0E0],"parents":[2147483647,0,0,1,1,2,2,6,6,7,7,8,8],"right_children":[2,4,6,-1,-1,-1,8,10,12,-1,-1,-1,-1],"split_conditions":[1.0204082E-1,2.1397104E-2,1.0973282E-1,1.2947166E-2,9.998562E-2,-7.278364E-2,2.033557E-1,3.3582088E-1,3.9273706E-1,9.708853E-2,3.3091698E-2,-4.3459766E-2,3.753375E-3],"split_indices":[1,2,2,0,0,0,2,1,2,0,0,0,0],"split_type":[0,0,0,0,0,0,0,0,0,0,0,0,0],"sum_hessian":[1.4179652E2,6.9581203E0,1.348384E2,3.6051018E0,3.3530185E0,7.099031E0,1.27739365E2,1.0601264E1,1.171381E2,5.0691824E0,5.532081E0,1.7014936E1,1.0012317E2],"tree_param":{"num_deleted":"0","num_feature":"3","num_nodes":"13","size_leaf_vector":"1"}},{"base_weights":[1.263798E-2,4.322889E-2,-4.1948262E-1,8.752015E-3,5.85613E-1,-7.352796E-2,-1.5099794E-2,8.3424E-2,-2.450353E-1,9.552508E-2,-0E0,-3.0639942E-3,3.984196E-2,-1.1063973E-1,-8.745636E-3],"categories":[],"categories_nodes":[],"categories_segments":[],"categories_sizes":[],"default_left":[0,0,0,0,0,0,0,0,0,0,0,0,0,0,0],"id":10,"left_children":[1,3,5,7,9,-1,-1,11,13,-1,-1,-1,-1,-1,-1],"loss_changes":[1.9358835E0,2.539657E0,6.1911154E-1,2.5082572E0,1.6891956E0,0E0,0E0,3.7548509E0,3.8542097E0,0E0,0E0,0E0,0E0,0E0,0E0],"parents":[2147483647,0,0,1,1,2,2,3,3,4,4,7,7,8,8],"right_children":[2,4,6,8,10,-1,-1,12,14,-1,-1,-1,-1,-1,-1],"split_conditions":[4.7203164E0,3.2044945E0,1.1601851E1,1.4547908E0,3.6480262E0,-7.352796E-2,-1.5099794E-2,7.93842E-1,1.6261101E0,9.552508E-2,-0E0,-3.0639942E-3,3.984196E-2,-1.1063973E-1,-8.745636E-3],"split_indices":[2,2,1,2,2,0,0,2,2,0,0,0,0,0,0],"split_type":[0,0,0,0,0,0,0,0,0,0,0,0,0,0,0],"sum_hessian":[1.4692197E2,1.3826521E2,8.656765E0,1.3113036E2,7.1348486E0,3.0078197E0,5.648946E0,1.0214229E2,2.898807E1,3.9084525E0,3.2263963E0,7.54178E1,2.6724487E1,3.4536755E0,2.5534393E1],"tree_param":{"num_deleted":"0","num_feature":"3","num_nodes":"15","size_leaf_vector":"1"}},{"base_weights":[-6.0290013E-2,-2.5120267E-1,-1.3206201E-3,6.861533E-3,-7.770678E-2,3.4595782E-1,-6.359109E-2,-2.5443876E-1,7.929925E-2,6.436419E-1,-0E0,-1.3566233E-1,1.6880538E-1,2.1354433E-3,-7.591262E-2,8.91237E-3,9.099605E-2,-5.1849227E-2,5.701328E-2,1.9761014E-3,-3.001984E-2,4.9481235E-2,-3.747533E-2],"categories":[],"categories_nodes":[],"categories_segments":[],"categories_sizes":[],"default_left":[0,0,0,0,0,0,0,0,0,0,0,0,0,0,0,0,0,0,0,0,0,0,0],"id":11,"left_children":[1,3,5,7,-1,9,11,13,-1,15,17,19,21,-1,-1,-1,-1,-1,-1,-1,-1,-1,-1],"loss_changes":[1.5101109E0,4.3958764E0,2.2778933E0,4.8129187E0,0E0,1.7068033E0,1.537939E0,2.4997268E0,0E0,1.1088235E0,2.7254925E0,1.8260384E0,4.0207477E0,0E0,0E0,0E0,0E0,0E0,0E0,0E0,0E0,0E0,0E0],"parents":[2147483647,0,0,1,1,2,2,3,3,5,5,6,6,7,7,9,9,10,10,11,11,12,12],"right_children":[2,4,6,8,-1,10,12,14,-1,16,18,20,22,-1,-1,-1,-1,-1,-1,-1,-1,-1,-1],"split_conditions":[6.374675E-1,2.0737328E-1,9.777778E-1,1.5639496E-1,-7.770678E-2,5.188953E-1,8.319549E0,1.6515152E-1,7.929925E-2,7.543147E-1,6.334587E-1,2.526738E0,2.1607143E1,2.1354433E-3,-7.591262E-2,8.91237E-3,9.099605E-2,-5.1849227E-2,5.701328E-2,1.9761014E-3,-3.001984E-2,4.9481235E-2,-3.747533E-2],"split_indices":[1,2,1,2,0,2,1,1,0,1,2,1,1,0,0,0,0,0,0,0,0,0,0],"split_type":[0,0,0,0,0,0,0,0,0,0,0,0,0,0,0,0,0,0,0,0,0,0,0],"sum_hessian":[1.3540916E2,3.0785574E1,1.0462359E2,2.1185663E1,9.599911E0,1.4970794E1,8.9652794E1,1.6312668E1,4.8729954E0,7.734048E0,7.236746E0,6.9077034E1,2.057576E1,1.1039519E1,5.2731476E0,3.064145E0,4.6699033E0,3.9259841E0,3.310762E0,3.566214E1,3.341489E1,1.30328045E1,7.5429554E0],"tree_param":{"num_deleted":"0","num_feature":"3","num_nodes":"23","size_leaf_vector":"1"}},{"base_weights":[4.2022996E-2,1.0835397E-1,-2.1432936E-1,1.089655E-2,4.5642796E-1,-5.9573776E-1,6.1616175E-2,7.362615E-2,-3.8889453E-1,8.781033E-2,3.2745314E-1,-9.046036E-1,-5.41297E-4,6.84528E-2,-1.6783684E-1,-6.3900426E-2,1.1450657E-2,-8.0215804E-2,3.7077963E-3,1.0326888E-2,4.9209084E-2,-1.1206682E-1,-4.448722E-2,1.9363163E-2,-4.5561176E-2],"categories":[],"categories_nodes":[],"categories_segments":[],"categories_sizes":[],"default_left":[0,0,0,0,0,0,0,0,0,0,0,0,0,0,0,0,0,0,0,0,0,0,0,0,0],"id":12,"left_children":[1,3,5,7,9,11,13,15,17,-1,19,21,-1,-1,23,-1,-1,-1,-1,-1,-1,-1,-1,-1,-1],"loss_changes":[2.4790688E0,3.8903294E0,3.2309728E0,2.305269E0,9.608331E-1,2.2330508E0,2.749177E0,2.3691347E0,2.2936215E0,0E0,6.6664004E-1,1.6621113E-1,0E0,0E0,1.559367E0,0E0,0E0,0E0,0E0,0E0,0E0,0E0,0E0,0E0,0E0],"parents":[2147483647,0,0,1,1,2,2,3,3,4,4,5,5,6,6,7,7,8,8,10,10,11,11,14,14],"right_children":[2,4,6,8,10,12,14,16,18,-1,20,22,-1,-1,24,-1,-1,-1,-1,-1,-1,-1,-1,-1,-1],"split_conditions":[5.586207E0,2.7820513E0,1.0851352E1,2.0507936E0,3.0645933E0,6.2777777E0,2.034005E0,3.6319613E-2,2.3953488E0,8.781033E-2,3.8835227E0,2.5833333E0,-5.41297E-4,6.84528E-2,1.6049383E1,-6.3900426E-2,1.1450657E-2,-8.0215804E-2,3.7077963E-3,1.0326888E-2,4.9209084E-2,-1.1206682E-1,-4.448722E-2,1.9363163E-2,-4.5561176E-2],"split_indices":[0,0,0,0,0,1,1,0,0,0,0,1,0,0,0,0,0,0,0,0,0,0,0,0,0],"split_type":[0,0,0,0,0,0,0,0,0,0,0,0,0,0,0,0,0,0,0,0,0,0,0,0,0],"sum_hessian":[1.4404988E2,1.1520745E2,2.8842426E1,9.103665E1,2.41708E1,1.1773182E1,1.7069246E1,7.961116E1,1.1425496E1,4.119306E0,2.0051495E1,7.26845E0,4.504732E0,4.178393E0,1.2890853E1,3.3926692E0,7.621849E1,5.470167E0,5.955329E0,9.436552E0,1.0614942E1,3.818605E0,3.4498446E0,5.704806E0,7.186047E0],"tree_param":{"num_deleted":"0","num_feature":"3","num_nodes":"25","size_leaf_vector":"1"}},{"base_weights":[6.2648985E-3,4.974778E-2,-1.7700851E-2,-3.0399048E-1,6.379407E-2,-0E0,-6.305498E-1,5.296712E-1,1.6396768E-2,-5.1445015E-2,4.186288E-2,-1.0796734E-1,-2.5511522E-2,1.1691578E-1,-5.2716848E-2,-2.0638503E-2,1.011053E-2],"categories":[],"categories_nodes":[],"categories_segments":[],"categories_sizes":[],"default_left":[0,0,0,0,0,0,0,0,0,0,0,0,0,0,0,0,0],"id":13,"left_children":[1,-1,3,5,7,9,11,13,15,-1,-1,-1,-1,-1,-1,-1,-1],"loss_changes":[1.6980271E0,0E0,3.1628315E0,2.9398172E0,2.2470863E0,3.8162723E0,2.0163536E0,7.0571213E0,1.8256905E0,0E0,0E0,0E0,0E0,0E0,0E0,0E0,0E0],"parents":[2147483647,0,0,2,2,3,3,4,4,5,5,6,6,7,7,8,8],"right_children":[2,-1,4,6,8,10,12,14,16,-1,-1,-1,-1,-1,-1,-1,-1],"split_conditions":[8.352145E-2,4.974778E-2,7.659575E-1,4.2871386E-1,3.4571427E-1,1.3047285E-1,3.1811145E-1,1.2093596E0,7.93842E-1,-5.1445015E-2,4.186288E-2,-1.0796734E-1,-2.5511522E-2,1.1691578E-1,-5.2716848E-2,-2.0638503E-2,1.011053E-2],"split_indices":[1,0,1,1,2,2,2,1,2,0,0,0,0,0,0,0,0],"split_type":[0,0,0,0,0,0,0,0,0,0,0,0,0,0,0,0,0],"sum_hessian":[1.384159E2,5.7139955E0,1.3270189E2,2.9071465E1,1.0363043E2,1.5688094E1,1.3383369E1,8.435116E0,9.519531E1,7.0129914E0,8.675102E0,5.118305E0,8.265065E0,5.2479563E0,3.187159E0,2.5503824E1,6.969149E1],"tree_param":{"num_deleted":"0","num_feature":"3","num_nodes":"17","size_leaf_vector":"1"}},{"base_weights":[-2.3621053E-2,-2.1362753E-1,1.1559847E-1,-5.8490276E-2,-4.8611617E-1,3.1564853E-1,-1.9510433E-1,-2.2125363E-1,6.3659716E-1,-9.696794E-2,-3.022208E-1,1.6066793E-1,7.4399424E-1,-4.845633E-1,5.1157642E-2,2.952874E-3,-4.5951635E-2,1.0962027E-1,4.804502E-3,-1.3618657E-2,-7.680832E-2,7.871313E-2,6.0195825E-3,4.4192962E-2,9.54439E-2,-9.474807E-2,2.4047632E-2,5.4933783E-2,-2.8134137E-2],"categories":[],"categories_nodes":[],"categories_segments":[],"categories_sizes":[],"default_left":[0,0,0,0,0,0,0,0,0,0,0,0,0,0,0,0,0,0,0,0,0,0,0,0,0,0,0,0,0],"id":14,"left_children":[1,3,5,7,9,11,13,15,17,-1,19,21,23,25,27,-1,-1,-1,-1,-1,-1,-1,-1,-1,-1,-1,-1,-1,-1],"loss_changes":[3.6759682E0,2.4056034E0,5.033265E0,4.498163E0,1.445899E0,3.0506926E0,2.3260322E0,1.9903247E0,1.8666716E0,0E0,1.104927E0,2.229145E0,2.3971128E-1,5.2802753E0,3.1352117E0,0E0,0E0,0E0,0E0,0E0,0E0,0E0,0E0,0E0,0E0,0E0,0E0,0E0,0E0],"parents":[2147483647,0,0,1,1,2,2,3,3,4,4,5,5,6,6,7,7,8,8,10,10,11,11,12,12,13,13,14,14],"right_children":[2,4,6,8,10,12,14,16,18,-1,20,22,24,26,28,-1,-1,-1,-1,-1,-1,-1,-1,-1,-1,-1,-1,-1,-1],"split_conditions":[1.4220666E0,7.5059384E-1,5.586207E0,3.9273706E-1,9.202454E-1,3.5910654E0,1.0851352E1,2.645474E-1,4.6224067E-1,-9.696794E-2,1.2459016E0,5.188953E-1,2.0960453E0,3.3623693E0,1.5552941E1,2.952874E-3,-4.5951635E-2,1.0962027E-1,4.804502E-3,-1.3618657E-2,-7.680832E-2,7.871313E-2,6.0195825E-3,4.4192962E-2,9.54439E-2,-9.474807E-2,2.4047632E-2,5.4933783E-2,-2.8134137E-2],"split_indices":[0,0,0,2,0,0,0,0,2,0,0,2,2,2,0,0,0,0,0,0,0,0,0,0,0,0,0,0,0],"split_type":[0,0,0,0,0,0,0,0,0,0,0,0,0,0,0,0,0,0,0,0,0,0,0,0,0,0,0,0,0],"sum_hessian":[1.3666014E2,5.7867096E1,7.879305E1,3.788149E1,1.9985607E1,4.8117744E1,3.0675306E1,3.1363007E1,6.5184817E0,4.1792502E0,1.5806356E1,3.6514797E1,1.1602945E1,1.3842768E1,1.683254E1,1.5502394E1,1.5860614E1,3.0804675E0,3.4380143E0,1.2764171E1,3.0421863E0,3.9646707E0,3.255013E1,6.2323794E0,5.370566E0,8.345516E0,5.4972515E0,6.5969687E0,1.0235571E1],"tree_param":{"num_deleted":"0","num_feature":"3","num_nodes":"29","size_leaf_vector":"1"}},{"base_weights":[-2.0294169E-2,5.6148704E-2,-5.133885E-2,-5.1827085E-1,-1.8717557E-2,-3.1583954E-3,-9.8699294E-2,5.4114145E-1,-7.899956E-2,1.4096873E-2,7.116227E-2,-1.0139251E-1,-4.089376E-3],"categories":[],"categories_nodes":[],"categories_segments":[],"categories_sizes":[],"default_left":[0,0,0,0,0,0,0,0,0,0,0,0,0],"id":15,"left_children":[1,-1,3,5,7,-1,-1,9,11,-1,-1,-1,-1],"loss_changes":[2.522509E0,0E0,1.990397E0,1.821327E0,4.2917504E0,0E0,0E0,6.561091E-1,3.9831996E0,0E0,0E0,0E0,0E0],"parents":[2147483647,0,0,2,2,3,3,4,4,7,7,8,8],"right_children":[2,-1,4,6,8,-1,-1,10,12,-1,-1,-1,-1],"split_conditions":[8.352145E-2,5.6148704E-2,1.0973282E-1,1.550173E-1,2.0737328E-1,-3.1583954E-3,-9.8699294E-2,1.4590748E-1,2.4351747E-1,1.4096873E-2,7.116227E-2,-1.0139251E-1,-4.089376E-3],"split_indices":[1,0,2,1,2,0,0,2,2,0,0,0,0],"split_type":[0,0,0,0,0,0,0,0,0,0,0,0,0],"sum_hessian":[1.3989297E2,6.0579863E0,1.3383499E2,7.5672026E0,1.2626779E2,4.3407803E0,3.226422E0,1.1337446E1,1.1493034E2,4.1080437E0,7.2294025E0,3.3952591E0,1.1153509E2],"tree_param":{"num_deleted":"0","num_feature":"3","num_nodes":"13","size_leaf_vector":"1"}},{"base_weights":[3.277067E-2,-6.871226E-2,1.2049579E-1,1.307155E-1,-3.3612972E-1,5.448183E-1,3.217857E-2,-3.942881E-2,4.3094712E-1,-5.5763644E-1,1.8125165E-1,8.076968E-2,1.08151985E-2,-6.311981E-2,4.2883408E-1,1.2869567E-2,-7.638674E-2,6.605665E-2,-1.9981613E-2,-7.995375E-2,-3.3859517E-2,4.3452732E-2,-1.9474601E-2,-6.8218306E-2,1.976993E-3,1.1020341E-1,1.4517287E-3],"categories":[],"categories_nodes":[],"categories_segments":[],"categories_sizes":[],"default_left":[0,0,0,0,0,0,0,0,0,0,0,0,0,0,0,0,0,0,0,0,0,0,0,0,0,0,0],"id":16,"left_children":[1,3,5,7,9,11,13,15,17,19,21,-1,-1,23,25,-1,-1,-1,-1,-1,-1,-1,-1,-1,-1,-1,-1],"loss_changes":[1.2355626E0,3.4645634E0,2.7174044E0,1.9475234E0,3.3165708E0,1.2651691E0,2.4427948E0,3.1259007E0,2.160777E0,6.644411E-1,9.5921564E-1,0E0,0E0,2.718074E0,3.365476E0,0E0,0E0,0E0,0E0,0E0,0E0,0E0,0E0,0E0,0E0,0E0,0E0],"parents":[2147483647,0,0,1,1,2,2,3,3,4,4,5,5,6,6,7,7,8,8,9,9,10,10,13,13,14,14],"right_children":[2,4,6,8,10,12,14,16,18,20,22,-1,-1,24,26,-1,-1,-1,-1,-1,-1,-1,-1,-1,-1,-1,-1],"split_conditions":[1.5809768E0,6.5217394E-1,2.012295E0,6.555024E-1,3.013245E0,2.22375E0,9.439561E0,4.1654778E-1,1.6E0,9.9370277E-1,1.1126517E0,8.076968E-2,1.08151985E-2,2.3442624E0,4.5618377E0,1.2869567E-2,-7.638674E-2,6.605665E-2,-1.9981613E-2,-7.995375E-2,-3.3859517E-2,4.3452732E-2,-1.9474601E-2,-6.8218306E-2,1.976993E-3,1.1020341E-1,1.4517287E-3],"split_indices":[0,0,0,1,1,1,1,1,1,0,0,0,0,0,0,0,0,0,0,0,0,0,0,0,0,0,0],"split_type":[0,0,0,0,0,0,0,0,0,0,0,0,0,0,0,0,0,0,0,0,0,0,0,0,0,0,0],"sum_hessian":[1.3627501E2,6.2755016E1,7.352E1,3.6025837E1,2.6729181E1,1.1580415E1,6.193958E1,2.3336435E1,1.26894E1,1.8797062E1,7.9321194E0,6.5553293E0,5.025086E0,5.0415726E1,1.1523856E1,1.9496166E1,3.8402696E0,9.384435E0,3.304965E0,7.4561086E0,1.1340953E1,4.80543E0,3.12669E0,5.242022E0,4.5173702E1,3.6659756E0,7.85788E0],"tree_param":{"num_deleted":"0","num_feature":"3","num_nodes":"27","size_leaf_vector":"1"}},{"base_weights":[-4.0476404E-2,-6.016003E-2,3.8147174E-2,1.8906085E-2,-2.5711218E-1,-1.6420437E-1,1.6741511E-1,-4.0868175E-1,4.4406965E-2,-6.7083943E-3,-1.0110682E-1,1.0821032E-1,7.1330094E-3,-1.3979753E-2,-5.8798876E-2,7.684712E-2,-2.4262281E-2],"categories":[],"categories_nodes":[],"categories_segments":[],"categories_sizes":[],"default_left":[0,0,0,0,0,0,0,0,0,0,0,0,0,0,0,0,0],"id":17,"left_children":[1,3,-1,5,7,9,11,13,15,-1,-1,-1,-1,-1,-1,-1,-1],"loss_changes":[1.1383384E0,2.1012945E0,0E0,2.6258829E0,1.8166578E0,3.3601017E0,4.513955E0,1.0974555E0,3.0612233E0,0E0,0E0,0E0,0E0,0E0,0E0,0E0,0E0],"parents":[2147483647,0,0,1,1,3,3,4,4,5,5,6,6,7,7,8,8],"right_children":[2,4,-1,6,8,10,12,14,16,-1,-1,-1,-1,-1,-1,-1,-1],"split_conditions":[3.65E1,1.4249166E0,3.8147174E-2,3.9273706E-1,3.2044945E0,3.5591397E-1,4.3225807E-1,3.4224422E0,3.7240567E0,-6.7083943E-3,-1.0110682E-1,1.0821032E-1,7.1330094E-3,-1.3979753E-2,-5.8798876E-2,7.684712E-2,-2.4262281E-2],"split_indices":[1,2,0,2,2,2,2,1,2,0,0,0,0,0,0,0,0],"split_type":[0,0,0,0,0,0,0,0,0,0,0,0,0,0,0,0,0],"sum_hessian":[1.3716443E2,1.3209662E2,5.067808E0,9.453997E1,3.7556644E1,4.198892E1,5.2551052E1,2.4977196E1,1.2579451E1,3.874307E1,3.2458527E0,3.9211082E0,4.8629944E1,1.092768E1,1.4049515E1,3.1938033E0,9.385647E0],"tree_param":{"num_deleted":"0","num_feature":"3","num_nodes":"17","size_leaf_vector":"1"}},{"base_weights":[-1.8519636E-2,-4.283906E-2,3.52265E-1,9.829091E-3,-2.9212952E-1,5.7197254E-2,5.4504685E-3,-7.0234664E-2,3.148793E-1,-5.009341E-1,-1.0171801E-1,1.0983375E-3,-6.1484393E-2,-1.7785769E-2,4.12199E-2,-7.017697E-2,-0E0,2.8353622E-2,-4.221723E-2],"categories":[],"categories_nodes":[],"categories_segments":[],"categories_sizes":[],"default_left":[0,0,0,0,0,0,0,0,0,0,0,0,0,0,0,0,0,0,0],"id":18,"left_children":[1,3,5,7,9,-1,-1,11,13,15,17,-1,-1,-1,-1,-1,-1,-1,-1],"loss_changes":[1.2628562E0,1.793402E0,4.6773076E-1,2.7685187E0,8.3404994E-1,0E0,0E0,3.996546E0,1.2289941E0,1.0424511E0,1.8546115E0,0E0,0E0,0E0,0E0,0E0,0E0,0E0,0E0],"parents":[2147483647,0,0,1,1,2,2,3,3,4,4,7,7,8,8,9,9,10,10],"right_children":[2,4,6,8,10,-1,-1,12,14,16,18,-1,-1,-1,-1,-1,-1,-1,-1],"split_conditions":[5.8389425E0,5.586207E0,1.3221312E1,2.7820513E0,1.0851352E1,5.7197254E-2,5.4504685E-3,2.0507936E0,9.397993E-1,3.1009035E0,1.6049383E1,1.0983375E-3,-6.1484393E-2,-1.7785769E-2,4.12199E-2,-7.017697E-2,-0E0,2.8353622E-2,-4.221723E-2],"split_indices":[2,0,0,0,0,0,0,0,2,2,0,0,0,0,0,0,0,0,0],"split_type":[0,0,0,0,0,0,0,0,0,0,0,0,0,0,0,0,0,0,0],"sum_hessian":[1.4080658E2,1.3322278E2,7.583798E0,1.10447685E2,2.2775095E1,3.6406934E0,3.9431043E0,8.783609E1,2.2611595E1,9.834567E0,1.2940528E1,7.712987E1,1.0706227E1,3.423426E0,1.918817E1,6.6373024E0,3.197265E0,5.78676E0,7.153768E0],"tree_param":{"num_deleted":"0","num_feature":"3","num_nodes":"19","size_leaf_vector":"1"}},{"base_weights":[-6.360735E-2,-8.82037E-2,4.109543E-2,-5.956353E-2,-9.473005E-2,-2.5746102E-2,-6.3108005E-2,-1.1605111E-2,1.2799859E-2],"categories":[],"categories_nodes":[],"categories_segments":[],"categories_sizes":[],"default_left":[0,0,0,0,0,0,0,0,0],"id":19,"left_children":[1,3,-1,5,-1,7,-1,-1,-1],"loss_changes":[1.5850518E0,3.0366397E0,0E0,2.368657E0,0E0,1.6924874E0,0E0,0E0,0E0],"parents":[2147483647,0,0,1,1,3,3,5,5],"right_children":[2,4,-1,6,-1,8,-1,-1,-1],"split_conditions":[2.5392857E1,1.6275E1,4.109543E-2,2.1607143E1,-9.473005E-2,2.3181818E0,-6.3108005E-2,-1.1605111E-2,1.2799859E-2],"split_indices":[0,0,0,1,0,0,0,0,0],"split_type":[0,0,0,0,0,0,0,0,0],"sum_hessian":[1.3445352E2,1.2880258E2,5.6509323E0,1.2579463E2,3.007949E0,1.19918884E2,5.8757453E0,7.610985E1,4.3809036E1],"tree_param":{"num_deleted":"0","num_feature":"3","num_nodes":"9","size_leaf_vector":"1"}},{"base_weights":[6.757812E-2,-1.6405924E-1,9.400045E-2,1.0081338E-1,-5.6202292E-2,6.548201E-1,4.254785E-2,-1.2206129E-2,4.556564E-2,4.116751E-1,8.739747E-2,-7.3096946E-2,7.390017E-2,6.7811765E-2,1.4230562E-3,5.6560274E-2,2.4344453E-3],"categories":[],"categories_nodes":[],"categories_segments":[],"categories_sizes":[],"default_left":[0,0,0,0,0,0,0,0,0,0,0,0,0,0,0,0,0],"id":20,"left_children":[1,3,5,7,-1,9,11,-1,-1,13,-1,-1,15,-1,-1,-1,-1],"loss_changes":[8.7989175E-1,1.6370941E0,3.619961E0,8.3524585E-1,0E0,7.614231E-2,2.8800514E0,0E0,0E0,6.760272E-1,0E0,0E0,2.7446811E0,0E0,0E0,0E0,0E0],"parents":[2147483647,0,0,1,1,2,2,3,3,5,5,6,6,9,9,12,12],"right_children":[2,4,6,8,-1,10,12,-1,-1,14,-1,-1,16,-1,-1,-1,-1],"split_conditions":[1.22834645E-1,5.978261E-2,2.033557E-1,8.812616E-2,-5.6202292E-2,3.8581732E-1,2.4351747E-1,-1.2206129E-2,4.556564E-2,2.4375E-1,8.739747E-2,-7.3096946E-2,6.0760665E-1,6.7811765E-2,1.4230562E-3,5.6560274E-2,2.4344453E-3],"split_indices":[2,2,2,0,0,0,2,0,0,0,0,0,0,0,0,0,0],"split_type":[0,0,0,0,0,0,0,0,0,0,0,0,0,0,0,0,0],"sum_hessian":[1.4138878E2,1.35557165E1,1.2783306E2,8.436221E0,5.1194954E0,9.593732E0,1.18239334E2,5.411494E0,3.0247269E0,6.128797E0,3.464935E0,3.6123369E0,1.1462699E2,3.095683E0,3.0331142E0,9.356671E0,1.05270325E2],"tree_param":{"num_deleted":"0","num_feature":"3","num_nodes":"17","size_leaf_vector":"1"}},{"base_weights":[7.136589E-2,1.8747398E-1,-2.3044808E-2,1.622632E-2,4.3102556E-1,-7.428317E-2,1.3709322E-2,1.7395976E-1,-3.749195E-1,8.5480887E-1,2.3087439E-1,-2.1336205E-2,4.5784634E-2,-4.8228056E-4,6.409513E-2,-8.1581965E-2,-8.309594E-3,1.0891651E-1,3.606649E-2,5.214606E-3,6.9872014E-2,3.6229403E-3,-8.910592E-2],"categories":[],"categories_nodes":[],"categories_segments":[],"categories_sizes":[],"default_left":[0,0,0,0,0,0,0,0,0,0,0,0,0,0,0,0,0,0,0,0,0,0,0],"id":21,"left_children":[1,3,5,7,9,-1,11,13,15,17,19,21,-1,-1,-1,-1,-1,-1,-1,-1,-1,-1,-1],"loss_changes":[1.5971208E0,2.6624405E0,2.1923163E0,2.4815192E0,1.9491224E0,0E0,1.2473273E0,2.4884746E0,1.3197882E0,3.8842916E-1,1.5263579E0,3.7145898E0,0E0,0E0,0E0,0E0,0E0,0E0,0E0,0E0,0E0,0E0,0E0],"parents":[2147483647,0,0,1,1,2,2,3,3,4,4,6,6,7,7,8,8,9,9,10,10,11,11],"right_children":[2,4,6,8,10,-1,12,14,16,18,20,22,-1,-1,-1,-1,-1,-1,-1,-1,-1,-1,-1],"split_conditions":[1.4432548E0,1.1897811E0,4.3377483E-1,6.0760665E-1,1.9550669E0,-7.428317E-2,3.65E1,7.222222E-1,7.7946126E-1,7.750459E-1,1.2093596E0,2.1607143E1,4.5784634E-2,-4.8228056E-4,6.409513E-2,-8.1581965E-2,-8.309594E-3,1.0891651E-1,3.606649E-2,5.214606E-3,6.9872014E-2,3.6229403E-3,-8.910592E-2],"split_indices":[1,0,0,0,0,0,1,1,0,1,1,1,0,0,0,0,0,0,0,0,0,0,0],"split_type":[0,0,0,0,0,0,0,0,0,0,0,0,0,0,0,0,0,0,0,0,0,0,0],"sum_hessian":[1.4280402E2,6.407582E1,7.8728195E1,3.8489815E1,2.5586006E1,3.0236418E0,7.570455E1,2.8006735E1,1.048308E1,6.9981894E0,1.8587818E1,7.084147E1,4.863085E0,2.0813898E1,7.1928368E0,3.3235087E0,7.1595707E0,3.7928505E0,3.205339E0,1.4408594E1,4.179224E0,6.723467E1,3.6067936E0],"tree_param":{"num_deleted":"0","num_feature":"3","num_nodes":"23","size_leaf_vector":"1"}},{"base_weights":[1.1137784E-2,3.875739E-1,-1.8897139E-2,2.9745551E-3,6.1602265E-2,-6.983599E-2,1.706985E-2,8.017144E-2,-2.1074967E-2,-3.4838896E-2,1.1621733E-3],"categories":[],"categories_nodes":[],"categories_segments":[],"categories_sizes":[],"default_left":[0,0,0,0,0,0,0,0,0,0,0],"id":22,"left_children":[1,3,5,-1,-1,-1,7,-1,9,-1,-1],"loss_changes":[1.6072996E0,7.760974E-1,3.2263181E0,0E0,0E0,0E0,3.779589E0,0E0,1.303282E0,0E0,0E0],"parents":[2147483647,0,0,1,1,2,2,6,6,8,8],"right_children":[2,4,6,-1,-1,-1,8,-1,10,-1,-1],"split_conditions":[1.2280702E-1,2.1397104E-2,1.2080537E-1,2.9745551E-3,6.1602265E-2,-6.983599E-2,1.68124E-1,8.017144E-2,5.5702096E-1,-3.4838896E-2,1.1621733E-3],"split_indices":[1,2,2,0,0,0,2,0,1,0,0],"split_type":[0,0,0,0,0,0,0,0,0,0,0],"sum_hessian":[1.3725192E2,9.50821E0,1.27743706E2,4.315933E0,5.1922765E0,5.636002E0,1.22107704E2,4.85447E0,1.17253235E2,1.0049985E1,1.0720325E2],"tree_param":{"num_deleted":"0","num_feature":"3","num_nodes":"11","size_leaf_vector":"1"}},{"base_weights":[5.2735664E-2,2.1838244E-2,5.7463568E-2,5.2517213E-2,-5.547098E-2,1.6206913E-2,8.766613E-2,5.5760243E-3,-4.1924194E-2],"categories":[],"categories_nodes":[],"categories_segments":[],"categories_sizes":[],"default_left":[0,0,0,0,0,0,0,0,0],"id":23,"left_children":[1,3,-1,5,-1,7,-1,-1,-1],"loss_changes":[2.2303991E0,2.3850448E0,0E0,3.7938688E0,0E0,2.1550689E0,0E0,0E0,0E0],"parents":[2147483647,0,0,1,1,3,3,5,5],"right_children":[2,4,-1,6,-1,8,-1,-1,-1],"split_conditions":[5.8389425E0,3.6480262E0,5.7463568E-2,3.2044945E0,-5.547098E-2,2.1607144E0,8.766613E-2,5.5760243E-3,-4.1924194E-2],"split_indices":[2,2,0,2,0,2,0,0,0],"split_type":[0,0,0,0,0,0,0,0,0],"sum_hessian":[1.4179338E2,1.3503265E2,6.760725E0,1.2923807E2,5.7945905E0,1.24877205E2,4.3608613E0,1.1548857E2,9.388633E0],"tree_param":{"num_deleted":"0","num_feature":"3","num_nodes":"9","size_leaf_vector":"1"}},{"base_weights":[4.556867E-2,1.0111652E-1,-1.7565651E-1,-9.472549E-2,2.1668133E-1,-6.498343E-1,8.0752745E-2,2.362742E-1,-2.0439687E-1,1.2549736E-1,3.672953E-1,-2.0721903E-2,-9.042727E-2,5.4178245E-2,-5.3461708E-2,-1.7134968E-2,5.552454E-2,-9.901462E-2,-7.604976E-3,2.4297869E-2,-2.9100034E-2,5.578363E-2,4.623226E-3,-4.7724597E-2,8.798267E-3],"categories":[],"categories_nodes":[],"categories_segments":[],"categories_sizes":[],"default_left":[0,0,0,0,0,0,0,0,0,0,0,0,0,0,0,0,0,0,0,0,0,0,0,0,0],"id":24,"left_children":[1,3,5,7,9,11,13,15,17,19,21,-1,-1,-1,23,-1,-1,-1,-1,-1,-1,-1,-1,-1,-1],"loss_changes":[1.7472938E0,2.612297E0,3.5590312E0,1.5941565E0,8.9762926E-1,8.5075665E-1,1.2638198E0,1.545145E0,3.1274571E0,2.364211E0,1.5248115E0,0E0,0E0,0E0,1.0152792E0,0E0,0E0,0E0,0E0,0E0,0E0,0E0,0E0,0E0,0E0],"parents":[2147483647,0,0,1,1,2,2,3,3,4,4,5,5,6,6,7,7,8,8,9,9,10,10,14,14],"right_children":[2,4,6,8,10,12,14,16,18,20,22,-1,-1,-1,24,-1,-1,-1,-1,-1,-1,-1,-1,-1,-1],"split_conditions":[5.586207E0,7.6029056E-1,9.460784E0,5.978261E-2,2.5995476E0,2.0637393E0,1.194362E1,4.3010753E-2,1.7293233E-1,2.0507936E0,1.9594203E0,-2.0721903E-2,-9.042727E-2,5.4178245E-2,1.3653061E1,-1.7134968E-2,5.552454E-2,-9.901462E-2,-7.604976E-3,2.4297869E-2,-2.9100034E-2,5.578363E-2,4.623226E-3,-4.7724597E-2,8.798267E-3],"split_indices":[0,0,0,2,0,2,0,0,0,0,2,0,0,0,0,0,0,0,0,0,0,0,0,0,0],"split_type":[0,0,0,0,0,0,0,0,0,0,0,0,0,0,0,0,0,0,0,0,0,0,0,0,0],"sum_hessian":[1.4034956E2,1.1297693E2,2.737264E1,4.1672165E1,7.130476E1,9.205164E0,1.8167477E1,9.856878E0,3.1815285E1,4.597064E1,2.5334127E1,4.165827E0,5.039337E0,3.5796573E0,1.4587819E1,4.3926554E0,5.4642224E0,3.414958E0,2.8400328E1,3.6368813E1,9.601824E0,1.5240457E1,1.0093672E1,3.2333171E0,1.1354502E1],"tree_param":{"num_deleted":"0","num_feature":"3","num_nodes":"25","size_leaf_vector":"1"}},{"base_weights":[2.2829289E-2,1.7124408E-1,-8.9868374E-2,2.2441855E-2,3.3385354E-1,-1.7820483E-1,2.6337442E-1,3.738966E-1,-9.1764174E-2,8.4287226E-2,1.3540624E-1,-1.2142721E-1,-8.634596E-2,-1.0985986E-1,7.317111E-1,2.5309755E-3,7.2442956E-2,-6.1989635E-2,6.729347E-4,-1.0688265E-2,3.8398482E-2,-1.7924365E-2,4.0198516E-2,-4.1063275E-2,2.9203916E-2,1.1456227E-1,1.4509805E-2],"categories":[],"categories_nodes":[],"categories_segments":[],"categories_sizes":[],"default_left":[0,0,0,0,0,0,0,0,0,0,0,0,0,0,0,0,0,0,0,0,0,0,0,0,0,0,0],"id":25,"left_children":[1,3,5,7,9,11,13,15,17,-1,19,21,-1,23,25,-1,-1,-1,-1,-1,-1,-1,-1,-1,-1,-1,-1],"loss_changes":[2.3922486E0,1.4534605E0,2.5587301E0,1.4147706E0,2.733699E0,2.342506E0,2.997837E0,9.666281E-1,1.4187428E0,0E0,1.4126751E0,1.9177043E0,0E0,1.3213457E0,1.5242124E0,0E0,0E0,0E0,0E0,0E0,0E0,0E0,0E0,0E0,0E0,0E0,0E0],"parents":[2147483647,0,0,1,1,2,2,3,3,4,4,5,5,6,6,7,7,8,8,10,10,11,11,13,13,14,14],"right_children":[2,4,6,8,10,12,14,16,18,-1,20,22,-1,24,26,-1,-1,-1,-1,-1,-1,-1,-1,-1,-1,-1,-1],"split_conditions":[1.3003229E0,6.418495E-1,1.1423424E1,5.978261E-2,3.2947975E-1,4.4975E0,3.964706E0,6.113537E-2,8.816121E-2,8.4287226E-2,6.2868524E-1,3.2044945E0,-8.634596E-2,2.8928572E1,1.9031916E1,2.5309755E-3,7.2442956E-2,-6.1989635E-2,6.729347E-4,-1.0688265E-2,3.8398482E-2,-1.7924365E-2,4.0198516E-2,-4.1063275E-2,2.9203916E-2,1.1456227E-1,1.4509805E-2],"split_indices":[1,1,1,2,2,2,2,1,2,0,2,2,0,1,1,0,0,0,0,0,0,0,0,0,0,0,0],"split_type":[0,0,0,0,0,0,0,0,0,0,0,0,0,0,0,0,0,0,0,0,0,0,0,0,0,0,0],"sum_hessian":[1.4061914E2,6.0850796E1,7.976834E1,3.268974E1,2.8161058E1,6.44338E1,1.533454E1,7.674416E0,2.5015322E1,6.847059E0,2.1314E1,6.0725445E1,3.7083507E0,8.840853E0,6.493688E0,4.5285206E0,3.1458957E0,3.2594328E0,2.175589E1,1.0878495E1,1.0435504E1,5.544911E1,5.276338E0,5.1864834E0,3.6543686E0,3.1486206E0,3.3450677E0],"tree_param":{"num_deleted":"0","num_feature":"3","num_nodes":"27","size_leaf_vector":"1"}},{"base_weights":[-2.96718E-2,5.455332E-2,-2.1112885E-1,-3.0188227E-2,6.418778E-1,-8.0591846E-1,-2.3777036E-2,-0E0,-6.224648E-2,3.184296E-2,7.493888E-2,-1.3427185E-1,-2.4457622E-2,5.185479E-2,-1.4306301E-1,-5.880402E-3,5.21707E-2,-4.341623E-2,1.3680458E-2],"categories":[],"categories_nodes":[],"categories_segments":[],"categories_sizes":[],"default_left":[0,0,0,0,0,0,0,0,0,0,0,0,0,0,0,0,0,0,0],"id":26,"left_children":[1,3,5,7,9,11,13,15,-1,-1,-1,-1,-1,-1,17,-1,-1,-1,-1],"loss_changes":[2.099156E0,4.709828E0,4.751978E0,1.5257707E0,6.915903E-2,2.609321E0,2.2545326E0,2.496174E0,0E0,0E0,0E0,0E0,0E0,0E0,2.4548094E0,0E0,0E0,0E0,0E0],"parents":[2147483647,0,0,1,1,2,2,3,3,4,4,5,5,6,6,7,7,14,14],"right_children":[2,4,6,8,10,12,14,16,-1,-1,-1,-1,-1,-1,18,-1,-1,-1,-1],"split_conditions":[1.35625E0,1.0362777E0,1.7955556E0,9.640449E-1,1.1073254E0,3.036055E0,3.288889E0,8.4346133E-1,-6.224648E-2,3.184296E-2,7.493888E-2,-1.3427185E-1,-2.4457622E-2,5.185479E-2,3.3623693E0,-5.880402E-3,5.21707E-2,-4.341623E-2,1.3680458E-2],"split_indices":[2,2,2,2,2,0,0,2,0,0,0,0,0,0,2,0,0,0,0],"split_type":[0,0,0,0,0,0,0,0,0,0,0,0,0,0,0,0,0,0,0],"sum_hessian":[1.3457208E2,9.201203E1,4.2560047E1,8.1090324E1,1.0921702E1,9.275989E0,3.3284058E1,7.795939E1,3.1309345E0,3.9450219E0,6.9766808E0,3.9390423E0,5.336947E0,5.2463756E0,2.8037683E1,7.0699196E1,7.260194E0,1.3647979E1,1.4389704E1],"tree_param":{"num_deleted":"0","num_feature":"3","num_nodes":"19","size_leaf_vector":"1"}},{"base_weights":[-9.749807E-3,4.7736567E-2,-3.606507E-2,-3.019021E-1,1.3985162E-2,-4.7875232E-1,2.352305E-2,3.6540237E-1,-4.604188E-2,-2.8598482E-2,-8.205082E-2,1.0278806E-4,5.7530273E-2,-5.3222716E-2,-1.3812912E-3],"categories":[],"categories_nodes":[],"categories_segments":[],"categories_sizes":[],"default_left":[0,0,0,0,0,0,0,0,0,0,0,0,0,0,0],"id":27,"left_children":[1,-1,3,5,7,9,-1,11,13,-1,-1,-1,-1,-1,-1],"loss_changes":[1.7958689E0,0E0,1.8429857E0,2.2186878E0,2.4771674E0,7.717514E-1,0E0,1.2534661E0,1.4888299E0,0E0,0E0,0E0,0E0,0E0,0E0],"parents":[2147483647,0,0,2,2,3,3,4,4,5,5,7,7,8,8],"right_children":[2,-1,4,6,8,10,-1,12,14,-1,-1,-1,-1,-1,-1],"split_conditions":[8.352145E-2,4.7736567E-2,5.2483803E-1,1.0609137E0,9.0346533E-1,3.4812835E-1,2.352305E-2,6.555024E-1,3.852941E-1,-2.8598482E-2,-8.205082E-2,1.0278806E-4,5.7530273E-2,-5.3222716E-2,-1.3812912E-3],"split_indices":[1,0,1,0,1,1,0,1,0,0,0,0,0,0,0],"split_type":[0,0,0,0,0,0,0,0,0,0,0,0,0,0,0],"sum_hessian":[1.4119858E2,6.163689E0,1.3503488E2,2.0914665E1,1.14120224E2,1.5956025E1,4.958639E0,1.6150242E1,9.796998E1,1.15632105E1,4.3928146E0,6.4444222E0,9.705819E0,4.933262E0,9.303672E1],"tree_param":{"num_deleted":"0","num_feature":"3","num_nodes":"15","size_leaf_vector":"1"}},{"base_weights":[-6.9154814E-2,-4.8321047E-1,-6.883713E-3,-6.9007784E-2,-7.625801E-1,5.6125056E-2,-4.505195E-2,-6.594114E-2,4.517686E-2,-9.889545E-2,-2.3946745E-2,-3.994743E-1,1.814979E-2,-1.274836E-2,-1.0667938E-1,8.891055E-2,-2.0660034E-3],"categories":[],"categories_nodes":[],"categories_segments":[],"categories_sizes":[],"default_left":[0,0,0,0,0,0,0,0,0,0,0,0,0,0,0,0,0],"id":28,"left_children":[1,3,5,7,9,-1,11,-1,-1,-1,-1,13,15,-1,-1,-1,-1],"loss_changes":[3.4480267E0,1.8919725E0,2.5592415E0,2.8713136E0,8.5075283E-1,0E0,2.5725546E0,0E0,0E0,0E0,0E0,2.8948834E0,3.36582E0,0E0,0E0,0E0,0E0],"parents":[2147483647,0,0,1,1,2,2,3,3,4,4,6,6,11,11,12,12],"right_children":[2,4,6,8,10,-1,12,-1,-1,-1,-1,14,16,-1,-1,-1,-1],"split_conditions":[1.4590748E-1,8.812616E-2,2.0737328E-1,3.6319613E-2,1.0973282E-1,5.6125056E-2,3.9273706E-1,-6.594114E-2,4.517686E-2,-9.889545E-2,-2.3946745E-2,3.500482E-1,4.391408E-1,-1.274836E-2,-1.0667938E-1,8.891055E-2,-2.0660034E-3],"split_indices":[2,0,2,0,2,0,2,0,0,0,0,2,2,0,0,0,0],"split_type":[0,0,0,0,0,0,0,0,0,0,0,0,0,0,0,0,0],"sum_hessian":[1.3475873E2,1.6523603E1,1.1823512E2,7.3021517E0,9.221452E0,6.4155173E0,1.1181961E2,3.3875277E0,3.914624E0,5.6812406E0,3.540211E0,1.6356627E1,9.546298E1,1.2572949E1,3.7836783E0,3.2476563E0,9.2215324E1],"tree_param":{"num_deleted":"0","num_feature":"3","num_nodes":"17","size_leaf_vector":"1"}},{"base_weights":[6.054585E-3,3.603901E-1,-3.220164E-2,-2.7695209E-2,6.0002404E-1,-3.3356035E-1,5.5802516E-3,7.967945E-2,3.269845E-2,8.816901E-3,-1.2242907E-1,3.1966347E-1,-5.0860625E-2,-3.2511376E-2,2.6987074E-2,7.342744E-2,8.756177E-3,-1.3271771E-2,1.4824401E-2],"categories":[],"categories_nodes":[],"categories_segments":[],"categories_sizes":[],"default_left":[0,0,0,0,0,0,0,0,0,0,0,0,0,0,0,0,0,0,0],"id":29,"left_children":[1,3,5,-1,7,9,11,-1,-1,13,-1,15,17,-1,-1,-1,-1,-1,-1],"loss_changes":[1.911891E0,2.3002179E0,1.4579302E0,0E0,1.8748856E-1,4.474214E0,2.0244231E0,0E0,0E0,1.0582103E0,0E0,1.531046E0,1.5718803E0,0E0,0E0,0E0,0E0,0E0,0E0],"parents":[2147483647,0,0,1,1,2,2,4,4,5,5,6,6,9,9,11,11,12,12],"right_children":[2,4,6,-1,8,10,12,-1,-1,14,-1,16,18,-1,-1,-1,-1,-1,-1],"split_conditions":[2.0842105E-1,3.6319613E-2,5.2483803E-1,-2.7695209E-2,1.3141426E-1,4.2871386E-1,9.0346533E-1,7.967945E-2,3.269845E-2,2.955975E-1,-1.2242907E-1,6.207792E-1,6.092233E0,-3.2511376E-2,2.6987074E-2,7.342744E-2,8.756177E-3,-1.3271771E-2,1.4824401E-2],"split_indices":[1,0,1,0,0,1,1,0,0,1,0,0,1,0,0,0,0,0,0],"split_type":[0,0,0,0,0,0,0,0,0,0,0,0,0,0,0,0,0,0,0],"sum_hessian":[1.3676411E2,1.2761209E1,1.2400291E2,3.3304217E0,9.430786E0,1.3237243E1,1.1076567E2,4.1532164E0,5.27757E0,1.019597E1,3.041273E0,1.64321E1,9.433357E1,4.1978188E0,5.998151E0,4.966264E0,1.1465836E1,6.744206E1,2.6891508E1],"tree_param":{"num_deleted":"0","num_feature":"3","num_nodes":"19","size_leaf_vector":"1"}},{"base_weights":[2.7256692E-2,3.5483095E-1,-1.8964764E-2,5.0864613E-1,2.0876318E-1,-4.4470018E-1,2.0154433E-2,1.0208317E-2,7.369154E-2,-4.97489E-3,4.8745286E-2,-1.4800209E-1,-8.607393E-2,7.5454526E-2,-1.2858398E-1,2.2234255E-4,-3.0687181E-2,-2.9290204E-3,3.7886124E-2,-4.2828288E-2,5.490141E-3],"categories":[],"categories_nodes":[],"categories_segments":[],"categories_sizes":[],"default_left":[0,0,0,0,0,0,0,0,0,0,0,0,0,0,0,0,0,0,0,0,0],"id":30,"left_children":[1,3,5,7,9,11,13,-1,-1,-1,-1,15,-1,17,19,-1,-1,-1,-1,-1,-1],"loss_changes":[2.1817155E0,2.2214556E-1,2.12696E0,5.502604E-1,8.7225723E-1,1.0982053E0,9.4928974E-1,0E0,0E0,0E0,0E0,2.1302354E-1,0E0,2.7430284E0,1.7663689E0,0E0,0E0,0E0,0E0,0E0,0E0],"parents":[2147483647,0,0,1,1,2,2,3,3,4,4,5,5,6,6,11,11,13,13,14,14],"right_children":[2,4,6,8,10,12,14,-1,-1,-1,-1,16,-1,18,20,-1,-1,-1,-1,-1,-1],"split_conditions":[3.101204E-1,1.0204082E-1,5.2483803E-1,3.6319613E-2,3.2488114E-1,4.401596E-1,5.586207E0,1.0208317E-2,7.369154E-2,-4.97489E-3,4.8745286E-2,6.0760665E-1,-8.607393E-2,2.7820513E0,9.460784E0,2.2234255E-4,-3.0687181E-2,-2.9290204E-3,3.7886124E-2,-4.2828288E-2,5.490141E-3],"split_indices":[1,1,1,0,0,1,0,0,0,0,0,0,0,0,0,0,0,0,0,0,0],"split_type":[0,0,0,0,0,0,0,0,0,0,0,0,0,0,0,0,0,0,0,0,0],"sum_hessian":[1.4043091E2,1.6806803E1,1.236241E2,6.643772E0,1.0163031E1,9.746046E0,1.1387805E2,3.0668287E0,3.5769436E0,5.5124025E0,4.650628E0,6.6206417E0,3.1254046E0,8.386321E1,3.001484E1,3.5861626E0,3.034479E0,6.2767826E1,2.1095388E1,1.1098223E1,1.8916616E1],"tree_param":{"num_deleted":"0","num_feature":"3","num_nodes":"21","size_leaf_vector":"1"}},{"base_weights":[2.1395307E-2,4.7151785E-2,-3.3600035E-1,1.1827266E-2,5.688263E-1,-1.1069002E-1,2.7373344E-2,-9.267242E-2,1.08634286E-1,7.2831586E-2,2.6192082E-2,2.4807196E-2,-1.7577773E-2,1.7728612E-2,-4.4554714E-2],"categories":[],"categories_nodes":[],"categories_segments":[],"categories_sizes":[],"default_left":[0,0,0,0,0,0,0,0,0,0,0,0,0,0,0],"id":31,"left_children":[1,3,5,7,9,-1,-1,11,13,-1,-1,-1,-1,-1,-1],"loss_changes":[1.2929333E0,2.394847E0,4.8043118E0,1.2884384E0,1.1472511E-1,0E0,0E0,1.7562845E0,2.581181E0,0E0,0E0,0E0,0E0,0E0,0E0],"parents":[2147483647,0,0,1,1,2,2,3,3,4,4,7,7,8,8],"right_children":[2,4,6,8,10,-1,-1,12,14,-1,-1,-1,-1,-1,-1],"split_conditions":[2.1607143E1,1.1423424E1,3.84E1,1.5809768E0,1.4772727E1,-1.1069002E-1,2.7373344E-2,1.3131313E-1,7.8469386E0,7.2831586E-2,2.6192082E-2,2.4807196E-2,-1.7577773E-2,1.7728612E-2,-4.4554714E-2],"split_indices":[1,1,1,0,1,0,0,1,1,0,0,0,0,0,0],"split_type":[0,0,0,0,0,0,0,0,0,0,0,0,0,0,0],"sum_hessian":[1.408728E2,1.3247368E2,8.399126E0,1.2520963E2,7.2640467E0,3.421664E0,4.977462E0,5.973624E1,6.547339E1,3.6620579E0,3.6019888E0,1.1087495E1,4.8648746E1,5.902227E1,6.451121E0],"tree_param":{"num_deleted":"0","num_feature":"3","num_nodes":"15","size_leaf_vector":"1"}},{"base_weights":[-4.1929197E-2,-1.1336006E-1,2.4019767E-1,-7.792119E-2,-7.682178E-2,4.56669E-1,-1.1376679E-1,-1.23963684E-1,4.0817466E-1,-1.1893488E-2,6.290597E-1,-4.7503117E-2,3.1655036E-2,-7.4441927E-3,-4.0088594E-2,1.0086733E-1,-8.274658E-3,8.97278E-2,1.5944819E-3],"categories":[],"categories_nodes":[],"categories_segments":[],"categories_sizes":[],"default_left":[0,0,0,0,0,0,0,0,0,0,0,0,0,0,0,0,0,0,0],"id":32,"left_children":[1,3,5,7,-1,9,11,13,15,-1,17,-1,-1,-1,-1,-1,-1,-1,-1],"loss_changes":[2.7466311E0,2.388442E0,2.1878357E0,2.3676467E0,0E0,1.8518171E0,1.8814849E0,1.2485256E0,2.8623824E0,0E0,2.143684E0,0E0,0E0,0E0,0E0,0E0,0E0,0E0,0E0],"parents":[2147483647,0,0,1,1,2,2,3,3,5,5,6,6,7,7,8,8,10,10],"right_children":[2,4,6,8,-1,10,12,14,16,-1,18,-1,-1,-1,-1,-1,-1,-1,-1],"split_conditions":[6.092233E0,5.058304E0,1.5159341E1,3.5876212E0,-7.682178E-2,1.9557439E0,3.65E1,2.5685072E0,1.2610217E0,-1.1893488E-2,5.551867E0,-4.7503117E-2,3.1655036E-2,-7.4441927E-3,-4.0088594E-2,1.0086733E-1,-8.274658E-3,8.97278E-2,1.5944819E-3],"split_indices":[1,1,1,1,0,2,1,1,2,0,2,0,0,0,0,0,0,0,0],"split_type":[0,0,0,0,0,0,0,0,0,0,0,0,0,0,0,0,0,0,0],"sum_hessian":[1.3457013E2,1.08142494E2,2.6427631E1,1.0379701E2,4.345479E0,1.6394024E1,1.00336075E1,9.568457E1,8.112442E0,3.7161143E0,1.267791E1,5.5242815E0,4.509326E0,8.2551834E1,1.3132739E1,3.2662208E0,4.8462214E0,8.383722E0,4.294188E0],"tree_param":{"num_deleted":"0","num_feature":"3","num_nodes":"19","size_leaf_vector":"1"}},{"base_weights":[-8.70157E-3,-3.095825E-2,6.797031E-2,-7.918258E-2,1.5414597E-1,-4.5163736E-2,-8.182135E-2,3.5735762E-1,-2.357707E-1,-4.8152867E-4,-2.8493498E-2,-2.7607113E-2,6.1155755E-2,1.9729868E-2,-5.3145297E-2],"categories":[],"categories_nodes":[],"categories_segments":[],"categories_sizes":[],"default_left":[0,0,0,0,0,0,0,0,0,0,0,0,0,0,0],"id":33,"left_children":[1,3,-1,5,7,9,-1,11,13,-1,-1,-1,-1,-1,-1],"loss_changes":[2.088813E0,1.2180916E0,0E0,2.6151936E0,2.3153882E0,9.885563E-1,0E0,3.257876E0,1.4224434E0,0E0,0E0,0E0,0E0,0E0,0E0],"parents":[2147483647,0,0,1,1,3,3,4,4,5,5,7,7,8,8],"right_children":[2,4,-1,6,8,10,-1,12,14,-1,-1,-1,-1,-1,-1],"split_conditions":[3.14E1,6.092233E0,6.797031E-2,5.106383E0,2.1607143E1,5.5271316E0,-8.182135E-2,2.3181818E0,2.0507936E0,-4.8152867E-4,-2.8493498E-2,-2.7607113E-2,6.1155755E-2,1.9729868E-2,-5.3145297E-2],"split_indices":[0,1,0,1,1,0,0,0,0,0,0,0,0,0,0],"split_type":[0,0,0,0,0,0,0,0,0,0,0,0,0,0,0],"sum_hessian":[1.3819203E2,1.3492993E2,3.2621012E0,1.07925156E2,2.7004768E1,1.0431957E2,3.605582E0,1.7976158E1,9.02861E0,9.052352E1,1.3796056E1,5.0107284E0,1.296543E1,3.6610327E0,5.367578E0],"tree_param":{"num_deleted":"0","num_feature":"3","num_nodes":"15","size_leaf_vector":"1"}},{"base_weights":[-2.1972423E-2,7.899213E-2,-1.00943655E-1,-1.1696682E-2,6.91103E-1,-9.389958E-2,-2.7441647E-2,6.729624E-2,-4.7928464E-1,2.6928011E-2,8.8208094E-2,2.8579432E-1,-1.1275358E-1,-3.980967E-3,2.9094417E-2,-0E0,-8.008944E-2,8.140351E-3,6.854116E-2,-7.120191E-2,3.192502E-4],"categories":[],"categories_nodes":[],"categories_segments":[],"categories_sizes":[],"default_left":[0,0,0,0,0,0,0,0,0,0,0,0,0,0,0,0,0,0,0,0,0],"id":34,"left_children":[1,3,5,7,9,-1,11,13,15,-1,-1,17,19,-1,-1,-1,-1,-1,-1,-1,-1],"loss_changes":[1.0855877E0,3.3623717E0,4.600748E0,2.0090134E0,2.7555084E-1,0E0,1.9291681E0,1.1271651E0,1.1938311E0,0E0,0E0,1.1225619E0,4.0522747E0,0E0,0E0,0E0,0E0,0E0,0E0,0E0,0E0],"parents":[2147483647,0,0,1,1,2,2,3,3,4,4,6,6,7,7,8,8,11,11,12,12],"right_children":[2,4,6,8,10,-1,12,14,16,-1,-1,18,20,-1,-1,-1,-1,-1,-1,-1,-1],"split_conditions":[1.4908457E0,1.2217898E0,1.7239264E0,1.010453E0,6.617647E-1,-9.389958E-2,2.3793104E0,6.374675E-1,5.7972974E-1,2.6928011E-2,8.8208094E-2,2.243094E0,3.013245E0,-3.980967E-3,2.9094417E-2,-0E0,-8.008944E-2,8.140351E-3,6.854116E-2,-7.120191E-2,3.192502E-4],"split_indices":[1,1,1,1,2,0,1,1,2,0,0,1,1,0,0,0,0,0,0,0,0],"split_type":[0,0,0,0,0,0,0,0,0,0,0,0,0,0,0,0,0,0,0,0,0],"sum_hessian":[1.338776E2,5.8201088E1,7.567651E1,5.140289E1,6.7982006E0,5.0429063E0,7.0633606E1,4.4523445E1,6.8794436E0,3.0329008E0,3.7652998E0,1.4365668E1,5.6267937E1,3.0359179E1,1.4164267E1,3.1964092E0,3.6830347E0,1.04664E1,3.8992686E0,8.428238E0,4.78397E1],"tree_param":{"num_deleted":"0","num_feature":"3","num_nodes":"21","size_leaf_vector":"1"}},{"base_weights":[-8.688166E-3,2.3947233E-1,-4.6397537E-2,-1.3058155E-2,3.4538078E-1,-1.0724489E-1,-8.018247E-3,5.049156E-1,7.328216E-3,2.8597078E-1,-4.952895E-2,2.5410447E-2,6.312958E-2,-1.5443205E-3,5.400916E-2,-1.0270714E-2,1.5262999E-2],"categories":[],"categories_nodes":[],"categories_segments":[],"categories_sizes":[],"default_left":[0,0,0,0,0,0,0,0,0,0,0,0,0,0,0,0,0],"id":35,"left_children":[1,3,5,-1,7,-1,9,11,-1,13,15,-1,-1,-1,-1,-1,-1],"loss_changes":[1.3261348E0,7.9638577E-1,4.804415E0,0E0,5.546802E-1,0E0,1.4740237E0,3.7295103E-2,0E0,1.2013268E0,1.1682034E0,0E0,0E0,0E0,0E0,0E0,0E0],"parents":[2147483647,0,0,1,1,2,2,4,4,6,6,7,7,9,9,10,10],"right_children":[2,4,6,-1,8,-1,10,12,-1,14,16,-1,-1,-1,-1,-1,-1],"split_conditions":[2.645474E-1,3.6319613E-2,3.2488114E-1,-1.3058155E-2,3.101204E-1,-1.0724489E-1,6.0760665E-1,1.09103076E-1,7.328216E-3,7.543147E-1,8.319549E0,2.5410447E-2,6.312958E-2,-1.5443205E-3,5.400916E-2,-1.0270714E-2,1.5262999E-2],"split_indices":[0,0,0,0,1,0,0,1,0,1,1,0,0,0,0,0,0],"split_type":[0,0,0,0,0,0,0,0,0,0,0,0,0,0,0,0,0],"sum_hessian":[1.415876E2,1.7621363E1,1.2396624E2,3.6590679E0,1.3962295E1,3.4043243E0,1.2056192E2,8.030666E0,5.931628E0,1.3890174E1,1.06671745E2,3.9645712E0,4.0660954E0,6.6034746E0,7.2866993E0,8.523672E1,2.143503E1],"tree_param":{"num_deleted":"0","num_feature":"3","num_nodes":"17","size_leaf_vector":"1"}},{"base_weights":[-1.970956E-2,-7.175558E-2,1.0176281E-3,4.2209545E-1,-5.0605893E-2,1.5254427E-1,6.210057E-2,-8.12386E-2,-2.1089602E-2,6.738802E-2,-4.0252224E-2,3.8098805E-3,-1.5811658E-2],"categories":[],"categories_nodes":[],"categories_segments":[],"categories_sizes":[],"default_left":[0,0,0,0,0,0,0,0,0,0,0,0,0],"id":36,"left_children":[1,-1,3,5,7,9,-1,-1,11,-1,-1,-1,-1],"loss_changes":[2.0408232E0,0E0,2.950091E0,6.239021E-1,2.579197E0,2.567887E0,0E0,0E0,9.578944E-1,0E0,0E0,0E0,0E0],"parents":[2147483647,0,0,2,2,3,3,4,4,5,5,8,8],"right_children":[2,-1,4,6,8,10,-1,-1,12,-1,-1,-1,-1],"split_conditions":[2.8659161E-2,-7.175558E-2,1.68124E-1,1.7293233E-1,3.309481E-1,5.978261E-2,6.210057E-2,-8.12386E-2,4.424893E0,6.738802E-2,-4.0252224E-2,3.8098805E-3,-1.5811658E-2],"split_indices":[2,0,2,0,0,2,0,0,0,0,0,0,0],"split_type":[0,0,0,0,0,0,0,0,0,0,0,0,0],"sum_hessian":[1.3508865E2,3.0660465E0,1.320226E2,1.3845951E1,1.1817665E2,6.842733E0,7.003218E0,3.292403E0,1.1488425E2,3.5111017E0,3.3316312E0,8.022393E1,3.4660316E1],"tree_param":{"num_deleted":"0","num_feature":"3","num_nodes":"13","size_leaf_vector":"1"}},{"base_weights":[2.3288302E-2,1.0515883E-1,-1.1098349E-1,3.9516915E-2,3.2518047E-1,-7.628634E-2,-1.6811999E-2,9.830896E-2,-3.3275458E-1,8.055881E-2,1.6756116E-1,5.1827985E-1,-1.1213836E-1,4.1094413E-3,4.2657726E-2,1.1903047E-2,-6.0368855E-2,3.098508E-3,5.333979E-2,7.938236E-2,8.127056E-3,-2.9452113E-2,1.0389774E-2],"categories":[],"categories_nodes":[],"categories_segments":[],"categories_sizes":[],"default_left":[0,0,0,0,0,0,0,0,0,0,0,0,0,0,0,0,0,0,0,0,0,0,0],"id":37,"left_children":[1,3,5,7,9,-1,11,13,15,-1,17,19,21,-1,-1,-1,-1,-1,-1,-1,-1,-1,-1],"loss_changes":[1.5330043E0,1.2069162E0,3.1299105E0,1.5081129E0,1.2441754E0,0E0,2.4148197E0,1.0653486E0,1.2631179E0,0E0,7.315189E-1,7.0604885E-1,1.6600909E0,0E0,0E0,0E0,0E0,0E0,0E0,0E0,0E0,0E0,0E0],"parents":[2147483647,0,0,1,1,2,2,3,3,4,4,6,6,7,7,8,8,10,10,11,11,12,12],"right_children":[2,4,6,8,10,-1,12,14,16,-1,18,20,22,-1,-1,-1,-1,-1,-1,-1,-1,-1,-1],"split_conditions":[2.685864E0,1.6666666E0,3.013245E0,1.3120301E0,1.7936507E0,-7.628634E-2,1.122257E0,1.1628722E0,1.1102662E0,8.055881E-2,9.051429E0,4.97541E0,8.319549E0,4.1094413E-3,4.2657726E-2,1.1903047E-2,-6.0368855E-2,3.098508E-3,5.333979E-2,7.938236E-2,8.127056E-3,-2.9452113E-2,1.0389774E-2],"split_indices":[1,1,1,1,1,0,0,1,0,0,0,1,1,0,0,0,0,0,0,0,0,0,0],"split_type":[0,0,0,0,0,0,0,0,0,0,0,0,0,0,0,0,0,0,0,0,0,0,0],"sum_hessian":[1.3744533E2,8.598105E1,5.1464275E1,6.7482285E1,1.8498762E1,5.465811E0,4.5998463E1,5.9146023E1,8.336263E0,3.3976517E0,1.510111E1,6.1259537E0,3.987251E1,5.1584984E1,7.5610375E0,3.1969273E0,5.1393356E0,1.1984891E1,3.1162195E0,3.1159565E0,3.0099971E0,2.1674217E1,1.8198294E1],"tree_param":{"num_deleted":"0","num_feature":"3","num_nodes":"23","size_leaf_vector":"1"}},{"base_weights":[-2.2442514E-2,-1.1909417E-1,6.77841E-2,5.8693912E-2,-2.8547314E-1,6.1859895E-2,1.0226722E-2,-1.995341E-1,2.3529321E-1,-4.0159747E-1,6.0941935E-2,1.416495E-1,-1.4748631E-1,4.441641E-2,-4.9856532E-2,2.915571E-3,4.8971906E-2,-2.9584989E-2,-9.653911E-2,-1.6179265E-2,2.4902407E-2,-1.0263174E-1,5.670423E-3],"categories":[],"categories_nodes":[],"categories_segments":[],"categories_sizes":[],"default_left":[0,0,0,0,0,0,0,0,0,0,0,0,0,0,0,0,0,0,0,0,0,0,0],"id":38,"left_children":[1,3,5,7,9,-1,11,13,15,17,-1,19,21,-1,-1,-1,-1,-1,-1,-1,-1,-1,-1],"loss_changes":[1.1992868E0,2.008433E0,2.1641507E0,1.5425601E0,3.8451977E0,0E0,1.366775E0,2.8445227E0,9.8900306E-1,1.4690328E0,0E0,1.2314198E0,5.479683E0,0E0,0E0,0E0,0E0,0E0,0E0,0E0,0E0,0E0,0E0],"parents":[2147483647,0,0,1,1,2,2,3,3,4,4,6,6,7,7,8,8,9,9,11,11,12,12],"right_children":[2,4,6,8,10,-1,12,14,16,18,-1,20,22,-1,-1,-1,-1,-1,-1,-1,-1,-1,-1],"split_conditions":[7.856094E-1,2.8463477E-1,8.8372093E-1,1.1111111E-1,2.972789E0,6.1859895E-2,5.058304E0,3.4587994E-2,5.2483803E-1,7.0687026E-1,6.0941935E-2,1.8683083E0,1.7955556E0,4.441641E-2,-4.9856532E-2,2.915571E-3,4.8971906E-2,-2.9584989E-2,-9.653911E-2,-1.6179265E-2,2.4902407E-2,-1.0263174E-1,5.670423E-3],"split_indices":[2,2,2,2,1,0,1,1,1,2,0,1,2,0,0,0,0,0,0,0,0,0,0],"split_type":[0,0,0,0,0,0,0,0,0,0,0,0,0,0,0,0,0,0,0,0,0,0,0],"sum_hessian":[1.3501009E2,6.55648E1,6.94453E1,3.1717993E1,3.3846806E1,5.483564E0,6.396173E1,1.2599118E1,1.9118876E1,3.0546026E1,3.3007793E0,3.5290207E1,2.8671526E1,3.7363815E0,8.862737E0,1.1394562E1,7.7243133E0,2.7154861E1,3.3911653E0,8.847869E0,2.6442337E1,4.738897E0,2.3932629E1],"tree_param":{"num_deleted":"0","num_feature":"3","num_nodes":"23","size_leaf_vector":"1"}},{"base_weights":[3.120148E-2,-2.155972E-1,7.468683E-2,1.18559405E-1,-4.8612714E-1,1.615115E-1,-1.05490424E-1,-8.610211E-3,2.8944451E-2,-7.134808E-2,-1.4348107E-2,2.5495496E-1,-0E0,-2.4432622E-1,1.3115782E-1,-5.8671176E-3,3.5827477E-2,-6.540381E-2,1.7667592E-2,-1.7270179E-3,-8.506843E-2,7.2647065E-2,-2.0392992E-2],"categories":[],"categories_nodes":[],"categories_segments":[],"categories_sizes":[],"default_left":[0,0,0,0,0,0,0,0,0,0,0,0,0,0,0,0,0,0,0,0,0,0,0],"id":39,"left_children":[1,3,5,7,9,11,13,-1,-1,-1,-1,15,17,19,21,-1,-1,-1,-1,-1,-1,-1,-1],"loss_changes":[1.3708508E0,1.8137457E0,1.7360525E0,3.6518347E-1,6.588702E-1,1.1236564E0,1.2211103E0,0E0,0E0,0E0,0E0,1.5822623E0,3.3935633E0,3.0937104E0,2.9210794E0,0E0,0E0,0E0,0E0,0E0,0E0,0E0,0E0],"parents":[2147483647,0,0,1,1,2,2,3,3,4,4,5,5,6,6,11,11,12,12,13,13,14,14],"right_children":[2,4,6,8,10,12,14,-1,-1,-1,-1,16,18,20,22,-1,-1,-1,-1,-1,-1,-1,-1],"split_conditions":[3.309481E-1,1.2483221E-1,4.155263E0,3.6319613E-2,6.555024E-1,2.3294117E0,5.4006515E0,-8.610211E-3,2.8944451E-2,-7.134808E-2,-1.4348107E-2,5.6217617E-1,3.013245E0,3.4224422E0,7.686709E0,-5.8671176E-3,3.5827477E-2,-6.540381E-2,1.7667592E-2,-1.7270179E-3,-8.506843E-2,7.2647065E-2,-2.0392992E-2],"split_indices":[0,1,0,0,1,1,1,0,0,0,0,1,1,1,0,0,0,0,0,0,0,0,0],"split_type":[0,0,0,0,0,0,0,0,0,0,0,0,0,0,0,0,0,0,0,0,0,0,0],"sum_hessian":[1.2654596E2,1.8019537E1,1.0852642E2,8.147683E0,9.871853E0,7.367984E1,3.484658E1,3.6669233E0,4.48076E0,5.108278E0,4.763575E0,4.625624E1,2.74236E1,2.220788E1,1.2638702E1,1.1329609E1,3.4926632E1,5.241621E0,2.2181978E1,1.7025816E1,5.1820636E0,4.2387023E0,8.4E0],"tree_param":{"num_deleted":"0","num_feature":"3","num_nodes":"23","size_leaf_vector":"1"}},{"base_weights":[1.6094517E-2,4.4055495E-2,-4.087126E-1,6.3623446E-3,5.844899E-1,-6.513115E-2,-1.1590144E-2,6.333665E-2,-2.8916112E-1,2.7046872E-2,8.0214776E-2,1.8776996E-3,4.6555832E-2,-4.759589E-3,-6.661227E-2],"categories":[],"categories_nodes":[],"categories_segments":[],"categories_sizes":[],"default_left":[0,0,0,0,0,0,0,0,0,0,0,0,0,0,0],"id":40,"left_children":[1,3,5,7,9,-1,-1,11,13,-1,-1,-1,-1,-1,-1],"loss_changes":[1.595425E0,2.5569506E0,4.3506157E-1,2.0398302E0,2.3630428E-1,0E0,0E0,1.7868166E0,1.6742891E0,0E0,0E0,0E0,0E0,0E0,0E0],"parents":[2147483647,0,0,1,1,2,2,3,3,4,4,7,7,8,8],"right_children":[2,4,6,8,10,-1,-1,12,14,-1,-1,-1,-1,-1,-1],"split_conditions":[2.1607143E1,1.1423424E1,3.84E1,4.461378E0,4.59434E0,-6.513115E-2,-1.1590144E-2,1.1805555E1,6.8238096E0,2.7046872E-2,8.0214776E-2,1.8776996E-3,4.6555832E-2,-4.759589E-3,-6.661227E-2],"split_indices":[1,1,1,1,0,0,0,0,0,0,0,0,0,0,0],"split_type":[0,0,0,0,0,0,0,0,0,0,0,0,0,0,0],"sum_hessian":[1.3487149E2,1.2760422E2,7.267268E0,1.20403366E2,7.2008486E0,3.1180534E0,4.149215E0,1.0188492E2,1.8518448E1,4.05404E0,3.1468081E0,9.2889565E1,8.995358E0,1.2134157E1,6.384291E0],"tree_param":{"num_deleted":"0","num_feature":"3","num_nodes":"15","size_leaf_vector":"1"}},{"base_weights":[1.965573E-2,2.5644144E-1,-1.6211042E-2,7.216329E-2,5.9533276E-2,-5.9192676E-2,1.5412813E-2,3.2202963E-2,-1.7611504E-2,3.798032E-1,-2.548256E-2,5.855501E-3,5.636365E-2,-5.7736516E-2,4.8559676E-3],"categories":[],"categories_nodes":[],"categories_segments":[],"categories_sizes":[],"default_left":[0,0,0,0,0,0,0,0,0,0,0,0,0,0,0],"id":41,"left_children":[1,3,5,7,-1,-1,9,-1,-1,11,13,-1,-1,-1,-1],"loss_changes":[1.1795927E0,1.0306891E0,2.2208622E0,8.875735E-1,0E0,0E0,1.7284943E0,0E0,0E0,5.962237E-1,4.259375E0,0E0,0E0,0E0,0E0],"parents":[2147483647,0,0,1,1,2,2,3,3,6,6,9,9,10,10],"right_children":[2,4,6,8,-1,-1,10,-1,-1,12,14,-1,-1,-1,-1],"split_conditions":[2.645474E-1,1.7293233E-1,3.852941E-1,9.9208765E-2,5.9533276E-2,-5.9192676E-2,6.5217394E-1,3.2202963E-2,-1.7611504E-2,7.659575E-1,1.0297749E0,5.855501E-3,5.636365E-2,-5.7736516E-2,4.8559676E-3],"split_indices":[0,0,0,1,0,0,0,0,0,1,0,0,0,0,0],"split_type":[0,0,0,0,0,0,0,0,0,0,0,0,0,0,0],"sum_hessian":[1.345761E2,1.7260931E1,1.1731517E2,1.2157886E1,5.1030464E0,5.3506393E0,1.1196453E2,6.112257E0,6.045628E0,1.0708304E1,1.01256226E2,4.5753627E0,6.1329417E0,1.1333492E1,8.992274E1],"tree_param":{"num_deleted":"0","num_feature":"3","num_nodes":"15","size_leaf_vector":"1"}},{"base_weights":[2.9353716E-3,4.8046626E-2,-2.4515258E-1,2.049734E-2,5.0923523E-2,-9.7419254E-2,-5.1298626E-2,4.8666034E-2,-6.807379E-2,1.8802872E-1,-3.6914158E-1,-1.2177705E-3,2.8175533E-2,-4.8228125E-3,5.348E-2,-7.961497E-2,2.1477712E-2],"categories":[],"categories_nodes":[],"categories_segments":[],"categories_sizes":[],"default_left":[0,0,0,0,0,0,0,0,0,0,0,0,0,0,0,0,0],"id":42,"left_children":[1,3,5,7,-1,-1,9,11,-1,13,15,-1,-1,-1,-1,-1,-1],"loss_changes":[1.5042228E0,1.4041164E0,2.760447E0,2.147477E0,0E0,0E0,1.4146127E0,1.5486164E0,0E0,9.2938244E-1,2.2265096E0,0E0,0E0,0E0,0E0,0E0,0E0],"parents":[2147483647,0,0,1,1,2,2,3,3,6,6,7,7,9,9,10,10],"right_children":[2,4,6,8,-1,-1,10,12,-1,14,16,-1,-1,-1,-1,-1,-1],"split_conditions":[7.686709E0,6.3333335E0,1.0201389E1,5.5271316E0,5.0923523E-2,-9.7419254E-2,4.822957E0,2.7820513E0,-6.807379E-2,2.4066668E1,1.1423424E1,-1.2177705E-3,2.8175533E-2,-4.8228125E-3,5.348E-2,-7.961497E-2,2.1477712E-2],"split_indices":[0,0,0,0,0,0,1,0,0,0,1,0,0,0,0,0,0],"split_type":[0,0,0,0,0,0,0,0,0,0,0,0,0,0,0,0,0],"sum_hessian":[1.3411563E2,1.1450411E2,1.9611525E1,1.092399E2,5.264214E0,3.165513E0,1.6446012E1,1.0605295E2,3.1869533E0,9.435289E0,7.010722E0,8.451149E1,2.1541458E1,5.952424E0,3.4828656E0,3.9384265E0,3.0722957E0],"tree_param":{"num_deleted":"0","num_feature":"3","num_nodes":"17","size_leaf_vector":"1"}},{"base_weights":[2.284444E-2,-1.5344984E-2,2.5355107E-1,2.4031276E-2,-6.59206E-2,4.2993543E-1,-7.74863E-2,-1.298048E-1,8.4367126E-2,-0E0,6.045492E-1,-2.9652897E-2,1.278453E-2,1.8012067E-2,-3.4281816E-2,1.6350115E-2,-6.264257E-3,2.61103E-2,7.1957715E-2],"categories":[],"categories_nodes":[],"categories_segments":[],"categories_sizes":[],"default_left":[0,0,0,0,0,0,0,0,0,0,0,0,0,0,0,0,0,0,0],"id":43,"left_children":[1,3,5,7,-1,9,11,13,15,-1,17,-1,-1,-1,-1,-1,-1,-1,-1],"loss_changes":[1.215192E0,3.0255778E0,1.2112899E0,1.0304697E0,0E0,1.0324187E0,3.8999525E-1,2.1251636E0,9.5473987E-1,0E0,8.774018E-2,0E0,0E0,0E0,0E0,0E0,0E0,0E0,0E0],"parents":[2147483647,0,0,1,1,2,2,3,3,5,5,6,6,7,7,8,8,10,10],"right_children":[2,4,6,8,-1,10,12,14,16,-1,18,-1,-1,-1,-1,-1,-1,-1,-1],"split_conditions":[9.460784E0,6.4416666E0,5.5304346E0,6.418495E-1,-6.59206E-2,1.6E0,1.1423424E1,2.0942408E-1,3.17E0,-0E0,1.3125E1,-2.9652897E-2,1.278453E-2,1.8012067E-2,-3.4281816E-2,1.6350115E-2,-6.264257E-3,2.61103E-2,7.1957715E-2],"split_indices":[0,0,1,1,0,1,1,0,1,0,0,0,0,0,0,0,0,0,0],"split_type":[0,0,0,0,0,0,0,0,0,0,0,0,0,0,0,0,0,0,0],"sum_hessian":[1.3377936E2,1.1520863E2,1.8570724E1,1.0932977E2,5.8788586E0,1.2117546E1,6.4531794E0,3.0008768E1,7.932101E1,3.658405E0,8.459141E0,3.1430848E0,3.3100946E0,1.2095412E1,1.7913355E1,5.1933636E1,2.738737E1,3.16085E0,5.2982907E0],"tree_param":{"num_deleted":"0","num_feature":"3","num_nodes":"19","size_leaf_vector":"1"}},{"base_weights":[-4.3035287E-2,-1.2281948E-2,-4.1341415E-1,-1.0214971E-1,1.5473507E-1,-1.2219633E-2,-5.199608E-2,-4.355571E-2,-5.6469923E-1,3.656405E-1,-4.220691E-3,-1.0821006E-2,6.1541468E-2,-7.9522E-2,-1.4628041E-2,7.6810606E-2,2.2086358E-2,-4.2641964E-2,7.890244E-3],"categories":[],"categories_nodes":[],"categories_segments":[],"categories_sizes":[],"default_left":[0,0,0,0,0,0,0,0,0,0,0,0,0,0,0,0,0,0,0],"id":44,"left_children":[1,3,5,7,9,-1,-1,11,13,15,17,-1,-1,-1,-1,-1,-1,-1,-1],"loss_changes":[1.397897E0,1.7885575E0,1.6545641E-1,2.028843E0,1.4272754E0,0E0,0E0,3.0201502E0,6.0894465E-1,7.858536E-1,9.230919E-1,0E0,0E0,0E0,0E0,0E0,0E0,0E0,0E0],"parents":[2147483647,0,0,1,1,2,2,3,3,4,4,7,7,8,8,9,9,10,10],"right_children":[2,4,6,8,10,-1,-1,12,14,16,18,-1,-1,-1,-1,-1,-1,-1,-1],"split_conditions":[1.6049383E1,2.5995476E0,2.243094E0,2.0507936E0,4.155263E0,-1.2219633E-2,-5.199608E-2,1.902439E0,1.7725E0,8.7185353E-1,1.230337E0,-1.0821006E-2,6.1541468E-2,-7.9522E-2,-1.4628041E-2,7.6810606E-2,2.2086358E-2,-4.2641964E-2,7.890244E-3],"split_indices":[0,0,1,0,0,0,0,0,1,1,1,0,0,0,0,0,0,0,0],"split_type":[0,0,0,0,0,0,0,0,0,0,0,0,0,0,0,0,0,0,0],"sum_hessian":[1.2590914E2,1.174594E2,8.449748E0,7.700957E1,4.044983E1,3.0898566E0,5.3598914E0,6.9514145E1,7.495427E0,1.7095736E1,2.3354092E1,6.420251E1,5.311637E0,4.098111E0,3.3973157E0,3.2010283E0,1.3894708E1,3.3601713E0,1.9993921E1],"tree_param":{"num_deleted":"0","num_feature":"3","num_nodes":"19","size_leaf_vector":"1"}},{"base_weights":[-7.706024E-2,1.8732546E-1,-1.1773751E-1,-2.3584379E-2,6.382855E-2,-8.3669804E-2,-8.860692E-2,1.3958392E-1,-3.436179E-2,4.6113785E-2,-1.1567043E-1,-1.0842708E-2,4.4542532E-2,-1.4837685E-2,5.4197996E-3],"categories":[],"categories_nodes":[],"categories_segments":[],"categories_sizes":[],"default_left":[0,0,0,0,0,0,0,0,0,0,0,0,0,0,0],"id":45,"left_children":[1,3,5,7,-1,-1,9,11,-1,-1,13,-1,-1,-1,-1],"loss_changes":[1.4402434E0,1.7626642E0,2.2583776E0,7.415833E-1,0E0,0E0,1.6930442E0,7.679143E-1,0E0,0E0,6.187335E-1,0E0,0E0,0E0,0E0],"parents":[2147483647,0,0,1,1,2,2,3,3,6,6,7,7,10,10],"right_children":[2,4,6,8,-1,-1,10,12,-1,-1,14,-1,-1,-1,-1],"split_conditions":[2.645474E-1,1.0973282E-1,1.5639496E-1,6.5375306E-2,6.382855E-2,-8.3669804E-2,2.0737328E-1,2.8659161E-2,-3.436179E-2,4.6113785E-2,1.0851352E1,-1.0842708E-2,4.4542532E-2,-1.4837685E-2,5.4197996E-3],"split_indices":[0,2,2,2,0,0,2,2,0,0,0,0,0,0,0],"split_type":[0,0,0,0,0,0,0,0,0,0,0,0,0,0,0],"sum_hessian":[1.3151646E2,1.6727964E1,1.147885E2,1.1892095E1,4.8358703E0,3.256675E0,1.1153182E2,8.042847E0,3.8492472E0,4.3070955E0,1.07224724E2,4.617205E0,3.425642E0,9.051265E1,1.6712074E1],"tree_param":{"num_deleted":"0","num_feature":"3","num_nodes":"15","size_leaf_vector":"1"}},{"base_weights":[4.6165656E-2,-1.2365127E-1,1.8408443E-1,-7.24971E-2,-3.834888E-1,3.335601E-1,6.6410504E-2,-1.9181687E-1,2.4452548E-1,-7.401225E-2,-4.2093717E-3,6.5296465E-1,2.0104967E-1,-6.667322E-2,1.492954E-1,-7.221099E-3,-7.020076E-2,6.992405E-2,3.9049014E-4,7.880361E-2,2.826727E-2,-4.8844967E-2,3.8371198E-2,6.181255E-4,2.4526775E-2],"categories":[],"categories_nodes":[],"categories_segments":[],"categories_sizes":[],"default_left":[0,0,0,0,0,0,0,0,0,0,0,0,0,0,0,0,0,0,0,0,0,0,0,0,0],"id":46,"left_children":[1,3,5,7,9,11,13,15,17,-1,-1,19,21,-1,23,-1,-1,-1,-1,-1,-1,-1,-1,-1,-1],"loss_changes":[3.2483232E0,7.491012E-1,1.2848938E0,2.0561743E0,1.062361E0,1.1846907E0,2.7502325E0,2.2812052E0,1.5433996E0,0E0,0E0,1.2243676E-1,3.3341262E0,0E0,5.3503126E-1,0E0,0E0,0E0,0E0,0E0,0E0,0E0,0E0,0E0,0E0],"parents":[2147483647,0,0,1,1,2,2,3,3,4,4,5,5,6,6,7,7,8,8,11,11,12,12,14,14],"right_children":[2,4,6,8,10,12,14,16,18,-1,-1,20,22,-1,24,-1,-1,-1,-1,-1,-1,-1,-1,-1,-1],"split_conditions":[1.6527259E0,1.2459016E0,1.4547908E0,4.9585798E-1,1.4675926E0,2.03386E0,2.5995476E0,6.5217394E-1,5.7081544E-1,-7.401225E-2,-4.2093717E-3,9.640449E-1,2.3719263E0,-6.667322E-2,6.3333335E0,-7.221099E-3,-7.020076E-2,6.992405E-2,3.9049014E-4,7.880361E-2,2.826727E-2,-4.8844967E-2,3.8371198E-2,6.181255E-4,2.4526775E-2],"split_indices":[0,0,2,2,0,0,0,0,2,0,0,2,0,0,0,0,0,0,0,0,0,0,0,0,0],"split_type":[0,0,0,0,0,0,0,0,0,0,0,0,0,0,0,0,0,0,0,0,0,0,0,0,0],"sum_hessian":[1.3646318E2,6.0880497E1,7.558269E1,5.225661E1,8.623887E0,3.2110195E1,4.3472492E1,3.848293E1,1.3773683E1,3.5033298E0,5.1205573E0,8.042402E0,2.4067791E1,3.5775335E0,3.989496E1,3.2258087E1,6.2248397E0,3.962995E0,9.810688E0,4.8683634E0,3.1740386E0,4.5754023E0,1.949239E1,1.6859865E1,2.3035093E1],"tree_param":{"num_deleted":"0","num_feature":"3","num_nodes":"25","size_leaf_vector":"1"}},{"base_weights":[8.3575934E-2,2.4192606E-1,2.4276398E-2,1.1499708E-1,1.04400694E-1,-1.8188673E-1,1.435537E-1,2.3276645E-1,-3.8933937E-2,-1.0608157E-1,-7.450488E-2,4.4273123E-1,3.1224445E-2,6.5635317E-3,8.138415E-2,-4.0862124E-2,3.9148284E-3,5.441919E-2,1.4981746E-2,-6.381378E-2,9.786975E-3],"categories":[],"categories_nodes":[],"categories_segments":[],"categories_sizes":[],"default_left":[0,0,0,0,0,0,0,0,0,0,0,0,0,0,0,0,0,0,0,0,0],"id":47,"left_children":[1,3,5,7,-1,9,11,13,-1,15,-1,17,19,-1,-1,-1,-1,-1,-1,-1,-1],"loss_changes":[1.2666582E0,3.5435333E0,2.53616E0,2.0518372E0,0E0,1.4411025E0,2.1442833E0,2.5554461E0,0E0,1.5671954E0,0E0,3.7199402E-1,2.1957376E0,0E0,0E0,0E0,0E0,0E0,0E0,0E0,0E0],"parents":[2147483647,0,0,1,1,2,2,3,3,5,5,6,6,7,7,9,9,11,11,12,12],"right_children":[2,4,6,8,-1,10,12,14,-1,16,-1,18,20,-1,-1,-1,-1,-1,-1,-1,-1],"split_conditions":[6.5217394E-1,5.7366073E-1,1.6666666E0,1.2093596E0,1.04400694E-1,1.4908457E0,2.685864E0,7.543147E-1,-3.8933937E-2,1.2274678E0,-7.450488E-2,5.5271316E0,3.013245E0,6.5635317E-3,8.138415E-2,-4.0862124E-2,3.9148284E-3,5.441919E-2,1.4981746E-2,-6.381378E-2,9.786975E-3],"split_indices":[0,0,1,1,0,1,1,1,0,0,0,0,1,0,0,0,0,0,0,0,0],"split_type":[0,0,0,0,0,0,0,0,0,0,0,0,0,0,0,0,0,0,0,0,0],"sum_hessian":[1.3735345E2,3.612397E1,1.01229485E2,3.2283215E1,3.8407564E0,3.6601997E1,6.462749E1,2.6769033E1,5.51418E0,3.346353E1,3.1384664E0,1.6595488E1,4.8031998E1,2.1787481E1,4.981552E0,1.0488683E1,2.297485E1,1.14352455E1,5.160242E0,3.4369407E0,4.459506E1],"tree_param":{"num_deleted":"0","num_feature":"3","num_nodes":"21","size_leaf_vector":"1"}},{"base_weights":[5.079934E-2,8.00473E-2,-2.1894516E-1,2.6673943E-2,3.0099666E-1,-7.5799994E-2,7.0595205E-2,6.8249516E-2,-6.020084E-2,6.378676E-1,7.301298E-2,3.5492636E-2,-2.0538613E-2,2.58141E-3,5.2225497E-2,2.3889814E-2,8.412408E-2,-1.745945E-2,3.8743872E-2],"categories":[],"categories_nodes":[],"categories_segments":[],"categories_sizes":[],"default_left":[0,0,0,0,0,0,0,0,0,0,0,0,0,0,0,0,0,0,0],"id":48,"left_children":[1,3,5,7,9,-1,11,13,-1,15,17,-1,-1,-1,-1,-1,-1,-1,-1],"loss_changes":[1.0634564E0,1.4009862E0,2.162816E0,2.5997655E0,1.673765E0,0E0,8.175909E-1,1.7577811E0,0E0,4.300542E-1,1.2736586E0,0E0,0E0,0E0,0E0,0E0,0E0,0E0,0E0],"parents":[2147483647,0,0,1,1,2,2,3,3,4,4,6,6,7,7,9,9,10,10],"right_children":[2,4,6,8,10,-1,12,14,-1,16,18,-1,-1,-1,-1,-1,-1,-1,-1],"split_conditions":[3.5161724E0,1.7305764E0,9.439561E0,1.4547908E0,2.0852458E0,-7.5799994E-2,1.9031916E1,1.1816666E0,-6.020084E-2,1.9413754E0,6.2777777E0,3.5492636E-2,-2.0538613E-2,2.58141E-3,5.2225497E-2,2.3889814E-2,8.412408E-2,-1.745945E-2,3.8743872E-2],"split_indices":[2,2,1,2,2,0,1,2,0,2,1,0,0,0,0,0,0,0,0],"split_type":[0,0,0,0,0,0,0,0,0,0,0,0,0,0,0,0,0,0,0],"sum_hessian":[1.333334E2,1.2125941E2,1.2073995E1,9.893388E1,2.2325523E1,3.7743998E0,8.299594E0,9.378243E1,5.15145E0,8.10823E0,1.4217294E1,4.125534E0,4.1740603E0,8.693393E1,6.8485036E0,3.6379082E0,4.4703217E0,8.02464E0,6.1926537E0],"tree_param":{"num_deleted":"0","num_feature":"3","num_nodes":"19","size_leaf_vector":"1"}},{"base_weights":[1.9610744E-2,6.6928655E-2,-2.3445962E-1,1.2649972E-2,3.6318034E-1,-7.087371E-2,-4.9060427E-2,4.615589E-2,-7.508812E-2,1.5770069E-1,9.8572224E-2,3.517259E-1,-3.6785883E-1,8.913779E-3,-6.589416E-2,3.573485E-2,-7.368294E-3,9.168323E-2,-2.5225846E-2,-7.1939886E-2,1.977854E-2],"categories":[],"categories_nodes":[],"categories_segments":[],"categories_sizes":[],"default_left":[0,0,0,0,0,0,0,0,0,0,0,0,0,0,0,0,0,0,0,0,0],"id":49,"left_children":[1,3,5,7,9,-1,11,13,-1,15,-1,17,19,-1,-1,-1,-1,-1,-1,-1,-1],"loss_changes":[1.6348329E0,1.8202299E0,1.7583177E0,2.5021827E0,1.9832687E0,0E0,2.2400393E0,2.9143317E0,0E0,7.269989E-1,0E0,2.9207954E0,2.1473973E0,0E0,0E0,0E0,0E0,0E0,0E0,0E0,0E0],"parents":[2147483647,0,0,1,1,2,2,3,3,4,4,6,6,7,7,9,9,11,11,12,12],"right_children":[2,4,6,8,10,-1,12,14,-1,16,-1,18,20,-1,-1,-1,-1,-1,-1,-1,-1],"split_conditions":[7.6164384E0,1.897283E0,1.0851352E1,5.3E0,6.215E0,-7.087371E-2,1.5552941E1,1.4547908E0,-7.508812E-2,2.4207077E0,9.8572224E-2,3.4700854E0,3.14E1,8.913779E-3,-6.589416E-2,3.573485E-2,-7.368294E-3,9.168323E-2,-2.5225846E-2,-7.1939886E-2,1.977854E-2],"split_indices":[0,2,0,0,0,0,0,2,0,2,0,2,0,0,0,0,0,0,0,0,0],"split_type":[0,0,0,0,0,0,0,0,0,0,0,0,0,0,0,0,0,0,0,0,0],"sum_hessian":[1.3507413E2,1.1482024E2,2.0253885E1,9.820715E1,1.6613083E1,4.7473507E0,1.5506535E1,9.5104225E1,3.1029239E0,1.3553492E1,3.0595915E0,6.6851482E0,8.821386E0,9.0596954E1,4.5072765E0,7.215462E0,6.338029E0,3.2716684E0,3.41348E0,5.381701E0,3.4396853E0],"tree_param":{"num_deleted":"0","num_feature":"3","num_nodes":"21","size_leaf_vector":"1"}},{"base_weights":[7.955742E-2,1.8561383E-1,-2.5104841E-2,1.289759E-1,6.762881E-2,-2.9741517E-1,9.066604E-2,5.1145684E-2,8.1442714E-2,-1.3334304E-1,-6.473463E-2,3.0554283E-1,-3.135195E-3,-4.7615733E-2,1.2810215E-2,-4.7408435E-2,2.4747727E-2,6.445252E-2,1.0592332E-2,-8.808818E-2,1.1575296E-2],"categories":[],"categories_nodes":[],"categories_segments":[],"categories_sizes":[],"default_left":[0,0,0,0,0,0,0,0,0,0,0,0,0,0,0,0,0,0,0,0,0],"id":50,"left_children":[1,3,5,7,-1,9,11,-1,13,15,-1,17,19,-1,-1,-1,-1,-1,-1,-1,-1],"loss_changes":[1.5132301E0,1.7047601E0,2.193938E0,1.0230606E0,0E0,1.0298787E0,1.0043181E0,0E0,1.4938939E0,2.166232E0,0E0,8.7206936E-1,3.755157E0,0E0,0E0,0E0,0E0,0E0,0E0,0E0,0E0],"parents":[2147483647,0,0,1,1,2,2,3,3,5,5,6,6,8,8,9,9,11,11,12,12],"right_children":[2,4,6,8,-1,10,12,-1,14,16,-1,18,20,-1,-1,-1,-1,-1,-1,-1,-1],"split_conditions":[1.7936507E0,1.5524862E0,3.013245E0,1.0204082E-1,6.762881E-2,2.685864E0,1.3850405E0,5.1145684E-2,8.816121E-2,2.243094E0,-6.473463E-2,3.9481792E0,1.804009E0,-4.7615733E-2,1.2810215E-2,-4.7408435E-2,2.4747727E-2,6.445252E-2,1.0592332E-2,-8.808818E-2,1.1575296E-2],"split_indices":[1,1,1,1,0,1,2,0,2,1,0,1,2,0,0,0,0,0,0,0,0],"split_type":[0,0,0,0,0,0,0,0,0,0,0,0,0,0,0,0,0,0,0,0,0],"sum_hessian":[1.3345996E2,6.637888E1,6.708108E1,6.0824627E1,5.5542564E0,1.9800987E1,4.7280094E1,5.412066E0,5.541256E1,1.4615191E1,5.1857963E0,1.4005498E1,3.3274593E1,3.402546E0,5.2010014E1,7.7228303E0,6.892361E0,4.1790886E0,9.826409E0,3.3050838E0,2.9969511E1],"tree_param":{"num_deleted":"0","num_feature":"3","num_nodes":"21","size_leaf_vector":"1"}}]},"name":"gbtree"},"learner_model_param":{"base_score":"5E-1","boost_from_average":"1","num_class":"0","num_feature":"3","num_target":"1"},"objective":{"name":"binary:logistic","reg_loss_param":{"scale_pos_weight":"1"}}},"version":[3,0,5]}